{"lstm.weight_ih_l0": [[-0.000824946619104594], [0.002227716613560915], [0.016597772017121315], [0.0015171673148870468], [0.09448306262493134], [0.00474329199641943], [-0.0017423357348889112], [0.0010089963907375932], [0.00041493040043860674], [0.006017962470650673], [0.0020997640676796436], [-0.000235999163123779], [0.008187261410057545], [-0.0010080320062115788], [0.02883419208228588], [0.01971621625125408], [0.009335747919976711], [0.0067992317490279675], [0.002323269611224532], [0.005632509011775255], [0.0064534349367022514], [0.000601761566940695], [-0.14611251652240753], [0.0019354833057150245], [0.0030977237038314342], [0.005856071133166552], [0.00398775702342391], [0.004032920580357313], [-0.0013741177972406149], [0.005092622712254524], [0.002830247860401869], [0.015471339225769043], [0.041909050196409225], [-6.991953341639601e-06], [-0.0010229455074295402], [-0.0010500116040930152], [-0.00021616433514282107], [0.008072012104094028], [0.00927616935223341], [0.012445514090359211], [0.015177618712186813], [0.003088142490014434], [0.033336881548166275], [-0.002882565138861537], [0.0012967446818947792], [0.0019026383524760604], [-0.005239374004304409], [0.0001646041200729087], [-0.0015727514401078224], [0.003071904182434082], [-0.0034249862655997276], [0.002865730319172144], [0.01245028991252184], [-0.00213371473364532], [-0.0030417998787015676], [0.01085934229195118], [0.010636582039296627], [-0.002875611651688814], [0.006692072842270136], [0.0009987474186345935], [0.014245091937482357], [-0.003090259386226535], [0.008070598356425762], [0.004498456139117479], [0.002069196430966258], [0.009418572299182415], [0.0006387904868461192], [0.0038314491976052523], [0.003668077290058136], [-0.0006237904890440404], [-0.0028526345267891884], [0.0016761422157287598], [0.0003253082977607846], [0.010788257233798504], [0.006054093595594168], [-0.00016589180449955165], [-0.004724474623799324], [0.0032180356793105602], [0.005417005158960819], [0.0002150034561054781], [-0.00012775014329236], [0.0025491632986813784], [-0.002022277796640992], [-0.1366155445575714], [0.0004571483004838228], [-0.0028795963153243065], [0.002031968906521797], [0.013592839241027832], [-4.788744263350964e-06], [-0.003525687148794532], [0.00031644065165892243], [0.015021669678390026], [0.0011210853699594736], [0.024932632222771645], [-0.0038641246501356363], [-0.002558697946369648], [-0.0008993820520117879], [0.002362324157729745], [0.016796689480543137], [0.0013154452899470925], [0.10847073793411255], [0.004830051679164171], [-0.001789300818927586], [0.0010384856723248959], [6.410283094737679e-05], [0.006137426011264324], [0.0021763055119663477], [-0.00024021969875320792], [0.008524497039616108], [-0.000947489810641855], [0.028470655903220177], [0.01968780718743801], [0.009723968803882599], [0.007015717215836048], [0.004053035750985146], [0.0056463079527020454], [0.006535171065479517], [0.0005731774144805968], [-0.3806067109107971], [0.0019186132121831179], [0.0032958267256617546], [0.005952166859060526], [0.005093652755022049], [0.0042148372158408165], [-0.0013800410088151693], [0.005153620149940252], [0.002892912132665515], [0.015779921784996986], [0.0422949343919754], [-8.97863574209623e-05], [-0.0011322898790240288], [-0.001102570560760796], [-0.00018815792282111943], [0.008279883302748203], [0.009202291257679462], [0.012934837490320206], [0.014918929897248745], [0.0031188654247671366], [0.03348790481686592], [-0.0033836551010608673], [0.001371496939100325], [0.0020295341964811087], [-0.005373057443648577], [0.0001642577990423888], [-0.001616094377823174], [0.0038753726985305548], [-0.003599871415644884], [0.0030124252662062645], [0.012767157517373562], [-0.0023036273196339607], [-0.0031090369448065758], [0.01094630267471075], [0.010928084142506123], [-0.0029032204765826464], [0.007082859054207802], [0.0010891121346503496], [0.014399856328964233], [-0.0006012864178046584], [0.008148488588631153], [0.005070566199719906], [0.002048769034445286], [0.009877493605017662], [0.00044168299064040184], [0.003988033626228571], [0.0037734853103756905], [-0.0006193830631673336], [-0.0030531862284988165], [0.0016887921374291182], [0.0003397149557713419], [0.011194173246622086], [0.006051978562027216], [-0.0003067803045269102], [-0.004821766167879105], [0.0029619697015732527], [0.005623889621347189], [0.0002381420199526474], [-0.00015909338253550231], [0.0027569143567234278], [-0.002079386031255126], [-0.14599747955799103], [0.000447379017714411], [-0.002960802288725972], [0.0020996180828660727], [0.013767171651124954], [-3.4259704989381135e-05], [-0.003649482037872076], [0.00035232698428444564], [0.015214200131595135], [0.0010896532330662012], [0.022822389379143715], [-0.004071104805916548], [-0.0026687656063586473], [-0.007734816521406174], [0.023793889209628105], [0.03564266860485077], [-0.02107645571231842], [1.3064522743225098], [0.026994986459612846], [-0.005223843734711409], [-0.023868583142757416], [-0.004635844845324755], [0.026758776977658272], [-0.01887873373925686], [0.0026759919710457325], [-0.04915240779519081], [0.015695692971348763], [-0.04893074557185173], [-0.037733081728219986], [-0.037054724991321564], [-0.023165810853242874], [-0.02815224975347519], [0.052540555596351624], [0.01894085854291916], [0.020641827955842018], [-2.3174707889556885], [0.011304840445518494], [-0.023493938148021698], [-0.03476075083017349], [-0.06217893585562706], [0.02526084892451763], [0.00759638287127018], [-0.025837283581495285], [0.032997407019138336], [0.04314811900258064], [0.0770110934972763], [-0.006869909353554249], [0.013332315720617771], [-0.007986493408679962], [-0.0032057776115834713], [-0.02421841397881508], [0.01643161103129387], [-0.03275980427861214], [-0.0253346785902977], [0.01391439139842987], [-0.048354070633649826], [0.0011415508342906833], [0.009416856802999973], [0.012624037452042103], [-0.013629992492496967], [0.008153029717504978], [0.015881717205047607], [0.0423148050904274], [0.01011115312576294], [-0.005870952270925045], [0.03374908119440079], [-0.01335502415895462], [0.00543063972145319], [-0.022839684039354324], [-0.05446728318929672], [-0.01659703068435192], [0.034161750227212906], [-0.03680538013577461], [-0.0351211279630661], [-0.044840648770332336], [-0.03412307798862457], [0.028078623116016388], [-0.029484687373042107], [-0.02232239581644535], [0.017170384526252747], [0.02248520776629448], [-0.008191770873963833], [0.0026260390877723694], [0.005918117240071297], [0.007161302492022514], [0.01629922166466713], [-0.041675835847854614], [0.015727488324046135], [-0.018661605194211006], [0.005042959935963154], [0.007975481450557709], [-0.02672319859266281], [0.06861289590597153], [0.006407327950000763], [0.018808534368872643], [-0.012402220629155636], [-0.7017589211463928], [-0.022605305537581444], [0.012404086999595165], [0.021286653354763985], [-0.045495372265577316], [-0.01048219483345747], [-0.030141500756144524], [-0.001648677047342062], [0.0571209192276001], [0.002631323179230094], [0.022440560162067413], [0.008109749294817448], [0.010295913554728031], [-0.0008248072117567062], [0.002278453204780817], [0.016861511394381523], [0.0014607934281229973], [0.3730967342853546], [0.004884201567620039], [-0.001747714588418603], [0.0010669624898582697], [0.00033035228261724114], [0.006189100444316864], [0.002180141396820545], [-0.00026500466628931463], [0.008464589715003967], [-0.000981091521680355], [0.029109131544828415], [0.0199053343385458], [0.009507828392088413], [0.00687396852299571], [0.0028076316229999065], [0.005915503483265638], [0.006481201853603125], [0.0008035942446440458], [0.6595456004142761], [0.001969692762941122], [0.00316717685200274], [0.005978003144264221], [0.004700765013694763], [0.004017296247184277], [-0.0014098903629928827], [0.005393529776483774], [0.002938532968983054], [0.015784375369548798], [0.04258367791771889], [-2.6502684704610147e-05], [-0.0010698335245251656], [-0.0010566349374130368], [-0.00022615210036747158], [0.008250642567873001], [0.009543407708406448], [0.012517519295215607], [0.015267233364284039], [0.0030385120771825314], [0.03374860808253288], [-0.0029399546328932047], [0.0012426087632775307], [0.0019104473758488894], [-0.005221829749643803], [0.00016805680934339762], [-0.0015602989587932825], [0.0034607709385454655], [-0.0034846242051571608], [0.002912933938205242], [0.012912164442241192], [-0.0021434093359857798], [-0.003063300857320428], [0.011167352087795734], [0.010955394245684147], [-0.002901359461247921], [0.006676902994513512], [0.0011129131307825446], [0.0144136231392622], [-0.0025491658598184586], [0.00826586689800024], [0.004569222219288349], [0.002128203632310033], [0.009411926381289959], [0.0005864492850378156], [0.003952570725232363], [0.003697450738400221], [-0.0006293834885582328], [-0.002949698129668832], [0.001715182326734066], [0.00037920690374448895], [0.010910572484135628], [0.006203511264175177], [-0.00023482993128709495], [-0.004822318907827139], [0.003248825203627348], [0.005512476898729801], [0.0002364352549193427], [-0.00013527266855817288], [0.002590847434476018], [-0.0020379838533699512], [-0.14693748950958252], [0.0005044844001531601], [-0.0029118405655026436], [0.0020370841957628727], [0.014074654318392277], [8.543550939066336e-05], [-0.00347162876278162], [0.0003296061186119914], [0.015442351810634136], [0.0011270464165136218], [0.024766121059656143], [-0.003986208699643612], [-0.0025902967900037766]], "lstm.weight_hh_l0": [[-0.0002480819821357727, 4.7288151108659804e-05, 9.050098014995456e-06, 0.0005883874837309122, 0.0017135734669864178, 0.0002595008700154722, -0.0003783107385970652, -0.00037925445940345526, 0.0008726892410777509, 6.397581455530599e-05, -0.0001450064592063427, -0.000310076167806983, -0.00031814313842915, 0.0003487626672722399, 0.00030803182744421065, 0.0006738945376127958, 0.00028885836945846677, 0.00012583825446199626, 0.00010147105058422312, 0.0004780257004313171, -0.0003342175332363695, 0.000221463487832807, -0.0008268501842394471, -6.120617035776377e-05, -0.000128884770674631, 0.00031655587372370064, 0.0002812707389239222, -0.0006587987882085145, 0.0003149411641061306, 8.961444837041199e-05, 0.00014584025484509766, 0.00021731316519435495, -0.0008765996899455786, 0.000249886536039412, -0.0005153120728209615, -0.00027145183412358165, 0.00021359563106670976, -6.0827725974377245e-05, -9.281282109441236e-05, 0.0008457618532702327, 0.0006124218925833702, -0.0007366687641479075, 0.0005390466540120542, 0.0007072566077113152, -0.0004628426395356655, -0.00019552205048967153, -0.00036160554736852646, -3.145387381664477e-05, 0.0003689838631544262, 0.00025867787189781666, 0.00044826726661995053, 7.945505058160052e-05, -0.0002239636523881927, -0.00032117622322402894, 0.0006746118306182325, 6.783331627957523e-05, -0.000247999036218971, -0.0005397419445216656, -0.0007893811562098563, -0.0005017414223402739, 0.00026936395443044603, 0.00013997001224197447, -0.00014238999574445188, -0.00032075459603220224, 0.00012399978004395962, 0.0003641524235717952, -0.0005352749722078443, 0.0001960211229743436, 0.0003933677216991782, 0.00021606110385619104, -0.00043068008380942047, 4.977058051736094e-05, 0.0002465397701598704, 0.0002661717007867992, 6.706522253807634e-05, 0.0008724097860977054, 0.0004798167501576245, -0.0002463056880515069, 0.00017302148626185954, -0.0005398262292146683, -0.00027116102864965796, -0.00027233074069954455, 0.0006515009445138276, 0.0038391314446926117, -0.0001069208956323564, 0.0002970003115478903, -0.00017801992362365127, 7.263130828505382e-05, -0.0003465224872343242, -0.00040537718450650573, 7.722588634351268e-05, 0.0003549826506059617, 6.858346750959754e-05, -0.00032413771259598434, 0.00044334071571938694, 0.0004556553903967142], [-1.8620099581312388e-05, -5.907480954192579e-05, -0.0005319249466992915, 0.000365968095138669, 0.0022018568124622107, -0.0002817729255184531, -5.294189031701535e-05, 0.00010430086695123464, 0.00045187785872258246, -0.00033652683487161994, 0.00013561111700255424, -0.00013393533299677074, 0.0004151781613472849, 3.5601646231953055e-05, 0.0009761592955328524, 0.0008780919015407562, 0.0007201291737146676, 0.00045009111636318266, 0.0004602187837008387, -0.0003238862846046686, -0.000385848106816411, -0.0001420353219145909, -0.0022586937993764877, -0.0001818038581404835, 8.806939149508253e-05, 0.0004128085565753281, 0.000453697721241042, -0.0004134710761718452, 8.273908315459266e-05, 0.00027142756152898073, -0.00018438379629515111, -0.0007108270656317472, -0.0011390699073672295, 0.00014618867135141045, -0.0002148710482288152, 1.8150931282434613e-06, 3.285201819380745e-05, 0.00036703006480820477, -0.0003348103491589427, 0.0008173771784640849, 0.0006641976069658995, -0.0005228215013630688, 0.0014204744948074222, 0.00014133173681329936, -0.00022792498930357397, -0.00026599603006616235, 3.3931042707990855e-05, -4.236341192154214e-05, -6.74995535518974e-05, -0.00023125950247049332, 0.00010568161815172061, 0.00025246560107916594, -0.0007719316054135561, 9.279942605644464e-05, -1.9154176698066294e-06, 0.0005596090340986848, 0.0003430507204029709, 9.404375305166468e-05, -0.0004095052136108279, 8.683206397108734e-05, 0.0006869783392176032, 0.0005425112321972847, 0.00025786604965105653, -0.0004311795346438885, 0.0002629613736644387, 0.0003542996128089726, -0.00034088638494722545, -0.00023413170129060745, 0.0004904358647763729, -8.813454769551754e-06, -0.0002756807371042669, -0.00021454095258377492, -0.00011455601634224877, 0.0005845455452799797, -0.00030045394669286907, 0.0002567937190178782, 0.00018170573457609862, -0.00036228360841050744, 0.00025480915792286396, -4.736434493679553e-05, -4.147689833189361e-05, -0.0004381875041872263, 3.863098390866071e-05, -7.745785114821047e-05, 3.1112802389543504e-05, -2.5109111447818577e-06, -0.0001987309369724244, 0.0004332176176831126, 0.0002027286245720461, 0.00012642817455343902, 0.00011306724627502263, -0.00046689281589351594, 9.147623495664448e-05, -0.0006848400225862861, 0.00011593438102863729, -1.1442134564276785e-05], [0.0002383772807661444, -0.001289276871830225, -0.0030453354120254517, 0.0023014438338577747, 0.0134385721758008, -0.00193824025336653, 9.669439168646932e-05, 0.0011542141437530518, 0.0026365388184785843, -0.002601346932351589, 0.001672889688052237, -0.0010098787024617195, 0.003458905266597867, -0.0004364569904282689, 0.006232905201613903, 0.005702463444322348, 0.004201164934784174, 0.0028781555593013763, 0.004386463202536106, -0.0027126395143568516, -0.003085163189098239, -0.00228879414498806, -0.01766788586974144, -0.0011099089169874787, 0.0016717193648219109, 0.0030163212213665247, 0.0039468496106565, -0.002889002673327923, 0.00039873557398095727, 0.0032790740951895714, -0.002205902710556984, -0.0037944791838526726, -0.0075688911601901054, 0.0007378422887995839, -0.001099808607250452, 0.0002808887220453471, 6.713294715154916e-05, 0.0026421272195875645, -0.0032437099143862724, 0.004376469179987907, 0.0049302359111607075, -0.003498764242976904, 0.006989419460296631, 0.0003799576370511204, -0.0019191412720829248, -0.001954082865267992, 0.0004476157482713461, -0.0003604535886552185, -0.0010544564574956894, -0.0031385100446641445, 0.00023377667821478099, 0.0019223543349653482, -0.004578976891934872, 0.0007124677649699152, -0.0008412720053456724, 0.004219783470034599, 0.0032476517371833324, 0.0006900887819938362, -0.00282304547727108, 0.0014540193369612098, 0.003996346145868301, 0.0030821110121905804, 0.002769895363599062, -0.003292112611234188, 0.0015348705928772688, 0.0035972287878394127, -0.001857454190030694, -0.0021836247760802507, 0.0024952951353043318, -0.0004074903263244778, -0.0012868951307609677, -0.0014593990053981543, -0.0010847172234207392, 0.0034980829805135727, -0.002182704396545887, 0.001568933599628508, 0.0007282544975169003, -0.0030213510617613792, 0.0027354806661605835, -0.0002028524613706395, -0.00011102703865617514, -0.0023858477361500263, -4.7783967602299526e-05, -0.0038518309593200684, 0.0007153265178203583, -0.00014450671733357012, -0.0013139538932591677, 0.0037841657176613808, 0.0015029542846605182, 0.0007807172369211912, 0.0009145567892119288, -0.004184967838227749, 0.0008968778420239687, -0.005557684227824211, 0.00039001929690130055, -0.0003782580606639385], [-0.0002935359952971339, 4.566974894260056e-05, -5.2198272896930575e-05, 0.0001661094429437071, 0.004697037395089865, 0.00017548073083162308, -0.00023228515055961907, -0.0004766346828546375, 0.0004954164032824337, 0.00019626219000201672, -0.0001688738848315552, -0.00042501662392169237, -0.000171273757587187, 0.00018732526223175228, 0.0006402163417078555, 0.0009891890222206712, 0.0006363541469909251, 3.5335502616362646e-05, 0.00019027225789614022, 0.0006392532959580421, -0.00021160297910682857, 0.0003022517776116729, -0.0050394050776958466, -0.0006693540490232408, -0.00021086058404762298, 0.00045543943997472525, 0.00038928654976189137, -0.0007410225225612521, 0.0004789453814737499, 9.665114339441061e-05, -3.540379839250818e-05, 8.474514470435679e-05, -0.0004930112045258284, 5.9934718592558056e-05, -0.0009001540020108223, -0.00012007791519863531, -0.00012696294288616627, 5.162890374776907e-05, 4.3828520574606955e-05, 0.0008424577536061406, 0.00025529315462335944, -0.0008910247124731541, 0.0009706721175462008, 0.0009049817454069853, -0.0005355214816518128, -0.0003994334547314793, -0.00021482518059201539, -2.1317893697414547e-05, 0.00034497605520300567, -7.4685631261672825e-06, 0.000650886504445225, -3.782747808145359e-05, -0.00019480068294797093, -0.0006162489880807698, 0.0003256492782384157, 0.00011271513358224183, -0.00031636536004953086, -0.0006050192168913782, -0.0006012517842464149, -0.0005571751389652491, 0.000517631066031754, -0.0001968975702766329, -0.0003908273356501013, -0.00025150837609544396, 0.00022600925876758993, 0.00022045774676371366, -7.054026355035603e-05, 0.00011064805585192516, 0.0003073349071200937, 0.0004130758170504123, -0.0008674187702126801, 6.37739576632157e-05, 0.00015945588529575616, 0.0001523378596175462, -6.700908852508292e-05, 0.0006325017893686891, 0.00037400345900096, -0.0004586981958709657, 0.00015273077588062733, -0.00041829992551356554, -7.202185224741697e-05, -0.0003729142190422863, 0.00029606715543195605, 0.0025882620830088854, -0.00014298946189228445, 0.0006690722657367587, -0.00018106299103237689, 0.00018352722690906376, -0.0004972147289663553, -0.0007976738852448761, 8.524005534127355e-05, 0.00035229380591772497, -5.240947211859748e-05, -0.0007557431817986071, 0.0007154922932386398, 0.0005159109132364392], [0.00018866441678255796, 0.009426071308553219, 0.0262734517455101, -0.015879472717642784, -0.16648253798484802, 0.01267688162624836, 0.000763921532779932, -0.012875286862254143, -0.016180194914340973, 0.015236875973641872, -0.009604787454009056, 0.006236170418560505, -0.018581388518214226, 0.0005918324459344149, -0.0403437577188015, -0.03551341965794563, -0.027843018993735313, -0.014946277253329754, -0.0400257371366024, 0.020643312484025955, 0.022023063153028488, 0.012078051455318928, -0.06922736018896103, 0.014068654738366604, -0.00834979023784399, -0.022496309131383896, -0.04318536818027496, 0.019475026056170464, -0.004109324887394905, -0.0195166002959013, 0.010102765634655952, 0.027242422103881836, 0.05809405818581581, -0.006254830863326788, 0.008129407651722431, 0.0014552422799170017, -0.002319705206900835, -0.017634347081184387, 0.020594269037246704, -0.02868569642305374, -0.03544007986783981, 0.018128106370568275, -0.05648093670606613, -0.006951486691832542, 0.014522641897201538, 0.010654585435986519, 0.0048174322582781315, 0.0038652673829346895, 0.0028831581585109234, 0.02185407467186451, -0.00433050561696291, -0.012564768083393574, 0.0411580428481102, -0.0019999255891889334, 0.000953267328441143, -0.027580736204981804, -0.025986868888139725, -0.003644057782366872, 0.019557025283575058, -0.015697497874498367, -0.028994442895054817, -0.03627978265285492, -0.013985468074679375, 0.022877851501107216, -0.008829123340547085, -0.02514200285077095, 0.01429168414324522, 0.015565912239253521, -0.013489654287695885, 0.0011507896706461906, 0.010742266662418842, 0.007746931631118059, 0.00610068254172802, -0.024822505190968513, 0.01527908630669117, -0.011182758957147598, -0.006894760765135288, 0.017261989414691925, -0.014897770248353481, 0.008509579114615917, -0.0006890843505971134, 0.011351276189088821, -0.0017533368663862348, -0.00529475137591362, -0.008817939087748528, -0.0014312351122498512, 0.009819885715842247, -0.03634938970208168, -0.01042200531810522, 0.0012172843562439084, -0.0046117412857711315, 0.025403914973139763, -0.013213536702096462, 0.051179952919483185, -0.010586723685264587, 0.0019541194196790457], [-0.0002345857792533934, -0.00039692941936664283, -0.0014426506822928786, 0.0010041987989097834, 0.0058886706829071045, 8.98768485058099e-05, -0.00031264053541235626, 3.432802623137832e-05, 0.0009790875483304262, -0.0007359195733442903, 0.00022095679014455527, -0.0006601198692806065, 0.0005124061717651784, 0.00034209873410873115, 0.0008419393561780453, 0.0009001930593512952, 0.0011282996274530888, 0.0009236471960321069, 0.000610778050031513, -0.0004338329890742898, -0.0010191266192123294, -0.0006140160840004683, -0.0057068136520683765, -0.0003813391085714102, 0.00011076300870627165, 0.0007221858249977231, 0.001048947568051517, -0.001002210658043623, 0.00040855095721781254, 0.0008891321485862136, -0.0006572080892510712, -0.0006792256026528776, -0.0031397314742207527, 0.0002660875325091183, -0.0007594821508973837, -0.00010945401299977675, 0.00015754102787468582, 0.0009419341222383082, -0.0006553176208399236, 0.001342153176665306, 0.0007274326635524631, -0.0010385896312072873, 0.0023355307057499886, 0.0006137935561127961, -0.0006335576181299984, -0.0007860450423322618, -0.00033712651929818094, -8.19444830995053e-05, 0.00023926286667119712, -0.0009145622607320547, 0.0004719169810414314, 0.0007388661615550518, -0.0017983076395466924, -0.00022749826894141734, 0.00034833652898669243, 0.0006318697123788297, 0.0007025387021712959, -0.0003420142165850848, -0.0011125876335427165, -9.828925249166787e-05, 0.00045804076944477856, 0.0009997331071645021, 0.00017966548330150545, -0.0010819839080795646, 0.0008752724970690906, 0.0011763668153434992, -0.001035112887620926, -0.00020653032697737217, 0.0009428077028132975, 0.000142045333632268, -0.001030145911499858, -0.00036049800110049546, -1.7266618669964373e-05, 0.00206180801615119, -0.00043765391455963254, 0.0004954622709192336, 0.0006024676840752363, -0.0010709118796512485, 0.0005720897461287677, -0.0002647439541760832, -0.00020621440489776433, -0.0004662766878027469, 0.0003553478163667023, 0.001060132053680718, 5.515078373719007e-05, 0.00023165231687016785, -0.0004912219010293484, 0.0011167661286890507, 2.762002986855805e-05, -0.00014627948985435069, 0.0003216364129912108, -0.00024241756182163954, 0.00036808106233365834, -0.0007161686662584543, 0.0005348717677406967, 0.00043081751209683716], [-0.00042343055247329175, 9.511724056210369e-05, 0.00016232750203926116, 0.0005029567983001471, 0.0013561500236392021, 0.0003027354832738638, -0.0001016880851238966, -0.0003899969451595098, 0.0003890506050083786, 0.00017646639025770128, -0.00015457016706932336, -0.00020915435743518174, -0.0005175709957256913, 0.00048035953659564257, 4.72083775093779e-05, 0.00038844600203447044, 0.00020233135728631169, 7.4210802267771214e-06, 3.847198240691796e-05, 0.0007347748032771051, -4.835928120883182e-05, 0.00030538300052285194, -0.0005279602482914925, -2.804737232509069e-05, -0.00014933843340259045, 0.0001220581034431234, 0.00012666892143897712, -0.0003398503758944571, 0.00025445918436162174, -0.00010638726234901696, 0.00011140363494632766, 0.0002850200980901718, -0.00011939513206016272, 0.00022681128757540137, -0.0004447006213013083, -0.0002596850390546024, 6.782688433304429e-05, -0.0001594147179275751, 7.92625651229173e-05, 0.0003574033617042005, 0.0003931819519493729, -0.0003901677264366299, 0.00021086426568217576, 0.000541128043550998, -0.00033173494739457965, -0.00018414549413137138, -0.0003567973617464304, 6.0865158957312815e-06, 0.000628118752501905, 0.00022802973398938775, 0.00030082621378824115, -0.00012998029706068337, -7.468357216566801e-05, -0.00036370952147990465, 0.0006056606071069837, -6.438526725105476e-06, -0.0005076040979474783, -0.00041697948472574353, -0.00036722951335832477, -0.000630141468718648, 6.693328032270074e-05, -2.0165558453300036e-05, -0.0001259585696971044, -6.030382792232558e-05, 0.00010480321361683309, 0.0002470174222253263, -0.00037070660619065166, 0.00018416877719573677, 0.0002045349683612585, 0.00017616161494515836, -0.00044337910367175937, 6.438285345211625e-05, 0.0002543596492614597, 0.00014282265328802168, 4.596470535034314e-05, 0.0004606007714755833, 0.0005980755668133497, -8.693672134540975e-05, 5.4478114179801196e-05, -0.00018922731396742165, -0.0002113952359650284, -0.00016443530330434442, 0.0003865567850880325, 0.0020657461136579514, -0.000203224117285572, 0.00044690154027193785, -0.00010625006689224392, -0.00014485829160548747, -0.00047672851360403, -0.0003799510595854372, 1.3874501746613532e-05, 0.0005251746624708176, 0.00010102928354172036, -8.770883141551167e-05, 0.00037880364106968045, 0.00041512539610266685], [-0.0006509967497549951, -4.891522985417396e-05, -0.0005051447660662234, 0.001176455058157444, 0.005692143924534321, 0.00020079512614756823, -0.000668624066747725, -0.0005408311844803393, 0.0018265846883878112, 5.06927608512342e-06, -0.00018315971828997135, -0.0006358459359034896, -0.0004247038741596043, 0.0007557314820587635, 0.0012853224761784077, 0.0015867460751906037, 0.0018157504964619875, 0.0003749807656276971, 0.00035106088034808636, 0.0008025179267860949, -0.0005228136433288455, 0.00021336371719371527, -0.00310252676717937, -0.0004800618044100702, 7.290218491107225e-06, 0.0012827174505218863, 0.000656481075566262, -0.0012840466806665063, 0.0007329721702262759, 0.00039930970524437726, 6.982986815273762e-05, 8.136578253470361e-05, -0.0014018893707543612, 0.0006361394189298153, -0.0010443800128996372, -0.00040475412970408797, 0.00033179711317643523, 0.00034221354871988297, -0.0004081189981661737, 0.0016689796466380358, 0.0013351410161703825, -0.001723601366393268, 0.002636377001181245, 0.0012044308241456747, -0.0009031638037413359, -0.0007626198348589242, -0.0009886689949780703, -0.00019411939138080925, 0.0007029942935332656, 9.958507143892348e-05, 0.0009758363012224436, 0.0004196499357931316, -0.0008045051945373416, -0.000826508563477546, 0.0009316705400124192, 0.0007837364682927728, -0.0003231203299947083, -0.0008316779276356101, -0.0015480960719287395, -0.0009078251896426082, 0.0006602819194085896, 0.0004269958008080721, -0.0001640944683458656, -0.0008870032615959644, 0.00042860201210714877, 0.0011888400185853243, -0.0009628012194298208, 0.00018538480799179524, 0.0007663476280868053, 0.0004612080520018935, -0.0012593141291290522, -0.00025851657846942544, 0.0003804670996032655, 0.0007162568508647382, -0.00010915787424892187, 0.0015436055837199092, 0.0012343605048954487, -0.0007001542253419757, 0.0006785941659472883, -0.0007159353699535131, -0.0003476616111584008, -0.0013426132500171661, 0.0007609958411194384, 0.00465938588604331, -0.00025033808196894825, 0.0007350278901867568, -0.0007011877605691552, 0.00018573025590740144, -0.00029896514024585485, -0.0008759403135627508, 0.000340315600624308, 0.00026352572604082525, 0.0003330487525090575, -0.0019752499647438526, 0.001173695782199502, 0.0010143046965822577], [-0.0011122814612463117, 0.00018903960881289095, -3.8137710362207144e-05, 0.0014175144024193287, 0.005655147135257721, 0.0007000622572377324, -0.0005875696078874171, -0.000960945209953934, 0.0005277153104543686, 0.00040847156196832657, -0.000477965222671628, -0.00043843413004651666, -0.0008440534584224224, 0.001054042368195951, 0.0009543572668917477, 0.000371100875781849, 0.0011972187785431743, -0.00011890627501998097, 0.0005205554189160466, 0.0016986022237688303, -4.5325985411182046e-05, 0.00042303543887101114, -0.006261805072426796, -5.272990892990492e-05, -0.0004056277684867382, 0.0007531301234848797, 0.0008304660441353917, -0.0006556749576702714, 0.0009037214331328869, 0.00014610063226427883, 0.0004963362007401884, 0.0008093439973890781, -0.0009464918985031545, 0.0002798645291477442, -0.0013181472895666957, -0.0005664617638103664, 0.00025388726498931646, -0.0003333144122734666, 0.0003243209794163704, 0.0006277139764279127, 0.001194783952087164, -0.00042899546679109335, 0.000354702613549307, 0.0015146683435887098, -0.0007156250067055225, -0.00020527260494418442, -0.0013808883959427476, -1.8406641174806282e-05, 0.0012799901887774467, 0.0003365183074492961, 0.000893379794433713, -7.30847823433578e-05, 3.315131471026689e-05, -0.0014206281630322337, 0.0008895851206034422, 7.219205144792795e-05, -0.0008981742430478334, -0.0008352719596587121, -0.0005692903650924563, -0.0013917835894972086, 6.774741632398218e-05, -0.00027995705022476614, -0.0004860499466303736, -5.958079418633133e-05, 0.0002696290030144155, 0.0008497143862769008, -0.0008427361608482897, 0.0005252610426396132, 0.00026859508943744004, 0.0005259973113425076, -0.0015992948319762945, -4.476785034057684e-05, 0.0007867837557569146, 0.00021943474712315947, 0.00043730379547923803, 0.0010733415838330984, 0.0016868156380951405, -0.00037599593633785844, 0.0001833197893574834, -0.0007805511122569442, -0.0007340017473325133, -0.0007146982243284583, 0.000766775687225163, 0.006792877800762653, -0.0005195634439587593, 0.000936053809709847, -0.00042580621084198356, -0.00041288486681878567, -0.0007556152995675802, -0.0014497593510895967, 6.050528463674709e-05, 0.0009617640753276646, 9.607472748029977e-05, -0.0011474443599581718, 0.0013708504848182201, 0.0011795003665611148], [2.0701176254078746e-05, -0.0005198452854529023, -0.0018999037565663457, 0.0011727253440767527, 0.005992672871798277, -0.0009066375205293298, -0.00029866109252907336, 6.029329961165786e-05, 0.001154646510258317, -0.0001315722183790058, -5.6390417739748955e-05, -0.00044562440598383546, 0.001140684587880969, -5.6873890571296215e-05, 0.0009229208226315677, 0.0022015776485204697, 0.0011156797409057617, 0.000726893893443048, 0.0007339958101511002, -0.0007101732771843672, -0.0006507185753434896, -0.0008349589770659804, -0.006433428730815649, -0.00018951263336930424, 0.00042887471499852836, 0.0005575702525675297, 0.0017845381516963243, -0.0009912012610584497, 0.0002856425126083195, 0.00136476568877697, -0.000624421110842377, -0.0013802037574350834, -0.00450925063341856, 0.00044083641842007637, -0.0006964999483898282, 4.3351625208742917e-05, 8.215584239223972e-05, 0.0012225199025124311, -0.00016771760419942439, 0.001325445482507348, 0.0019957744516432285, -0.0015509186778217554, 0.002505399752408266, 0.0004236401873640716, -0.0010231094202026725, -0.0009313379414379597, -7.200901745818555e-05, -0.00019915566372219473, -5.179841537028551e-05, -0.0006531202816404402, 0.0003691223100759089, 0.0007592043257318437, -0.0018861012067645788, -2.436729846522212e-05, 9.189039701595902e-05, 0.0016776220872998238, 0.0011450923047959805, -0.00019875379803124815, -0.001500617479905486, 0.0002170075022149831, 0.002017698949202895, 0.0012072664685547352, -5.79854822717607e-05, -0.0018188368994742632, 0.0006691975286230445, 0.002121655736118555, -0.0010210577165707946, 2.8524926165118814e-05, 0.0008544657612219453, 9.208628762280568e-05, -0.0007805663044564426, -0.0005885756108909845, -7.597511284984648e-05, 0.0017043605912476778, -0.00019082424114458263, 0.00121675047557801, 0.0005878444644622505, -0.0005335244932211936, 0.00038553093327209353, 9.18673031264916e-05, -6.646914698649198e-05, -0.0012817841488867998, 0.00016305915778502822, -0.00015498163702432066, 0.00022376945707947016, 4.37593407696113e-05, -0.00029927853029221296, 0.0009803571738302708, 0.0006645816029049456, -0.0001022819196805358, 0.0004009704280178994, -0.0010183592094108462, 0.00040168254054151475, -0.0005284819635562599, 0.0004808796802535653, 0.00029496196657419205], [-0.00016311540093738586, -2.208288060501218e-05, -0.0003780414699576795, 0.0007695270469412208, 0.002849145559594035, -0.00020444912661332637, -0.00019377312855795026, -0.00010747455235105008, 0.0007447716780006886, -2.7494432288222015e-05, -0.00010029842815129086, -0.0002754952874965966, 0.00016490271082147956, 0.00020465637499000877, 0.00025491457199677825, 0.0014410576550289989, 0.00022072809224482626, 0.00019883584172930568, 0.00034434450208209455, 0.0001536211057100445, -0.00032839219784364104, -0.00033631426049396396, -0.002855929546058178, -2.5168454158119857e-05, 6.94136688252911e-05, 0.0001686438627075404, 0.00045820188825018704, -0.0007359503069892526, 0.00019329292990732938, 0.0002839283843059093, 5.231396062299609e-05, -4.366159555502236e-05, -0.0017631958471611142, 0.00026446112315170467, -0.0004617914091795683, -7.479879423044622e-05, 0.00010743392340373248, 0.00021404647850431502, -3.033954999409616e-05, 0.0011306684464216232, 0.0010204454883933067, -0.0008763772784732282, 0.0007272475631907582, 0.0003669746802188456, -0.0004811869002878666, -0.000344974483596161, -0.0002887851442210376, -8.392741438001394e-05, 0.00020237093849573284, 0.00024386867880821228, 0.00030472571961581707, 0.0002927532768808305, -0.000989929074421525, -0.00019838953448925167, 0.00024784079869277775, 0.00039807037683203816, 6.992480484768748e-05, -0.00015453719242941588, -0.0007058705668896437, -0.00023117424279917032, 0.0007876896997913718, 3.973941784352064e-05, -0.00011372544395271689, -0.0006721499375998974, 0.0001573737827129662, 0.0007775221019983292, -0.0005136833060532808, 0.00011516802624100819, 0.0007178373634815216, 0.00010484141967026517, -0.0004033067380078137, -0.00029100148822180927, 0.00011219502630410716, 0.0009489732328802347, 7.12444307282567e-05, 0.0006965323118492961, 0.00042768800631165504, -0.0001479379425290972, 0.0001201322374981828, 9.422205039300025e-06, -0.00014877825742587447, -0.00029783835634589195, 0.00021125137573108077, 0.0005628977669402957, -6.773915083613247e-05, 0.00020102265989407897, -0.00011428802827140316, 0.0002508656762074679, 0.00010266508616041392, -0.0002458324597682804, 0.0001398670137859881, -0.0003071145329158753, 0.00013289028720464557, -0.00021396727242972702, 0.00028853327967226505, 0.0002634659467730671], [-0.00031941226916387677, 3.16985315294005e-05, -2.170906554965768e-05, 0.0004112412570975721, 0.0011687465012073517, 0.000183881216798909, -0.00020740744366776198, -0.0002522854192648083, 0.00046309776371344924, 6.429981294786558e-05, -0.0001318470312980935, -0.00013971817679703236, -0.00024374248459935188, 0.0003530136891640723, 0.0002932804636657238, 0.0003965900104958564, 0.00038833956932649016, 4.7248697228496894e-05, 8.474881178699434e-05, 0.00039296236354857683, -0.00017678807489573956, 0.00011079876276198775, -0.0011471961624920368, -7.886374078225344e-05, -0.00010958345956169069, 0.0002904507564380765, 0.00017372285947203636, -0.0002637889119796455, 0.0001940907386597246, 3.2654534152243286e-05, 0.00010096369805978611, 0.00017173439846374094, -0.0002592239761725068, 0.00018749221635516733, -0.00038963064434938133, -0.0001782960898708552, 0.00011409298895159736, -5.7594959798734635e-05, -9.704499098006636e-05, 0.0003657072957139462, 0.0002478020323906094, -0.0003702386165969074, 0.0004892562283203006, 0.00042043474968522787, -0.0002626787463668734, -0.00012560357572510839, -0.00038945392589084804, -1.7670123270363547e-05, 0.0003926077042706311, 3.880511940224096e-05, 0.00033481023274362087, -2.7359290470485575e-05, -0.00017771520651876926, -0.00032007184927351773, 0.0003941965405829251, 8.748141408432275e-05, -0.00021353026386350393, -0.00025498433387838304, -0.00033391136093996465, -0.0004175071371719241, 0.00013947240950074047, 0.00012822123244404793, -0.00011031187750631943, -0.00010478422336746007, 7.301520963665098e-05, 0.00029883324168622494, -0.0003666665870696306, 0.00015300996892619878, 0.0001656857057241723, 0.0001492140581831336, -0.00045872206101194024, -2.7916064937016927e-05, 0.00024102373572532088, 0.00015732276369817555, 2.4169876269297674e-05, 0.000418286508647725, 0.00042133795795962214, -0.00016034918371587992, 0.00010304903844371438, -0.0002589182695373893, -0.0001771665265550837, -0.0002819058718159795, 0.0003164828522130847, 0.0018865636084228754, -0.00011930926120840013, 0.00032062947866506875, -0.00019290817726869136, 7.431106041622115e-06, -0.00016072562721092254, -0.00029812572756782174, 4.295918552088551e-05, 0.00020441217930056155, 8.409334986936301e-05, -0.0004784249176736921, 0.0004277945263311267, 0.00047246349276974797], [-0.00046721030957996845, -0.0012074240949004889, -0.0036045692395418882, 0.00222536432556808, 0.011868413537740707, -0.0010301272850483656, -0.000576930062379688, -0.0002163388708140701, 0.003020472824573517, -0.001861667144112289, 0.0007016741437837481, -0.0014533376088365912, -0.00032495439518243074, 2.3228436475619674e-05, 0.0065381694585084915, 0.004533595405519009, 0.0050993007607758045, 0.0014406645204871893, 0.002054018434137106, -0.0014479627134278417, -0.0024375636130571365, -0.0013468328397721052, -0.010821539908647537, -0.001457537873648107, 0.0013396055437624454, 0.0040651061572134495, 0.002013538498431444, -0.002679348923265934, 0.0010082956869155169, 0.0017760144546627998, -0.0006332508055493236, -0.0031657943036407232, -0.006291422992944717, 0.0013020711485296488, -0.0016043271170929074, -0.00019743331358768046, 0.0003723613917827606, 0.0022090086713433266, -0.0030058117117732763, 0.004507411736994982, 0.0031656192149966955, -0.002827127231284976, 0.00621831975877285, 0.0012782320845872164, -0.0020232500974088907, -0.001890435814857483, -0.0007261827122420073, -0.0003223740204703063, 0.000533290090970695, -0.0007821841863915324, 0.0011263878550380468, 0.0010143718682229519, -0.0035572205670177937, -0.0002519359113648534, 0.0005477292579598725, 0.0030086562037467957, 0.0008790563442744315, -0.0003153031866531819, -0.003085595788434148, -0.00027593690901994705, 0.002908477559685707, 0.0018904207972809672, 0.0015973738627508283, -0.0031919798348098993, 0.0013545528054237366, 0.003695405786857009, -0.0021544659975916147, -0.001298263669013977, 0.0017601553117856383, 0.0002063203282887116, -0.0019771696534007788, -0.0011890847235918045, -0.0005302741192281246, 0.001671837642788887, -0.0019073684234172106, 0.001865964732132852, 0.001683186274021864, -0.0021195197477936745, 0.002367137698456645, -0.0011789242271333933, -0.0006998179014772177, -0.0023432031739503145, 0.0006509135710075498, 0.003952407743781805, 0.00014577427646145225, 0.00048431247705593705, -0.0014947743620723486, 0.001777375116944313, 0.0004605584545060992, 9.79209435172379e-05, 0.0008298307657241821, -0.002212363760918379, 0.000997916329652071, -0.006202158518135548, 0.0012641700450330973, 0.0007279801648110151], [-0.0002834835322573781, 3.143991489196196e-05, 2.1699612261727452e-05, 0.0010349171934649348, 0.003362728748470545, 0.0003104295756202191, -0.00048482234706170857, -0.00026605764287523925, 0.0008591935620643198, 7.475677557522431e-05, -0.00013367788051255047, -0.0002197854919359088, -0.0002522048307582736, 0.00017857321654446423, 0.0007244065636768937, 0.0007324340986087918, 0.0007652041967958212, 2.854751073755324e-06, -3.0668918043375015e-05, 0.00039362284587696195, -0.00010552875755820423, 0.00033203628845512867, -0.0014299588510766625, -8.306749805342406e-06, -0.00013863375352229923, 0.0006968370289541781, 4.718060517916456e-05, -0.0011756941676139832, 0.00020683222101069987, 0.00016528133710380644, 0.00012069479998899624, 0.00017443338583689183, -0.001078257104381919, 0.0003859025309793651, -0.0006817382527515292, -0.0003277381183579564, 0.00020358889014460146, -7.893752626841888e-05, 7.047399412840605e-05, 0.0010837300214916468, 0.0006985150976106524, -0.0012369919568300247, 0.001478742342442274, 0.0010725943138822913, -0.0004351447569206357, -0.0001449714181944728, -0.0003450991353020072, -6.678083445876837e-05, 0.00028953509172424674, 0.00013886029773857445, 0.00057417550124228, -0.0001345946657238528, -0.000507705844938755, -0.000582741922698915, 0.0007049500709399581, 0.00032768966048024595, -0.00021695828763768077, -0.0005814508767798543, -0.0006910719675943255, -0.0003893304383382201, 0.0005527804605662823, -0.00023119394609238952, -0.00041656356188468635, -0.00032311270479112864, 0.0001229509070981294, 0.0002235457650385797, -0.0004796942521352321, 0.00026820023776963353, 0.0004931676667183638, 0.0003497400030028075, -0.0007616376387886703, 1.427170354872942e-05, 0.00020217805285938084, 0.0004350238014012575, 0.00016982770466711372, 0.000804284936748445, 0.0003787828318309039, -0.0004938665078952909, 0.0001167270602309145, -0.0008493863278999925, -0.0002900268882513046, -0.000487160257762298, 0.000636726850643754, 0.004729221574962139, -6.380437116604298e-05, 0.00021168864623177797, -0.00034070623223669827, -8.790138963377103e-05, -0.00038297451101243496, -0.0003014133544638753, 0.00011737307795556262, 0.000267011666437611, 6.044733163435012e-05, -0.0009947281796485186, 0.0007224332075566053, 0.0007585162529721856], [-0.0007088079582899809, -0.001991142285987735, -0.004995070397853851, 0.0025655822828412056, 0.018706969916820526, -3.836909309029579e-05, -0.0008932288037613034, 0.0011870141606777906, 0.002263793256133795, -0.0008656083373352885, -0.0006272319005802274, -0.001447645016014576, 0.003010721178725362, 0.0010423836065456271, 0.0007610740722157061, 0.0020123119466006756, 0.000381359423045069, 0.0004823300405405462, 0.0006547621451318264, 1.6703736037015915e-05, -0.0019263820722699165, -0.0027604405768215656, -0.028633583337068558, -0.000244320573983714, 0.00034916645381599665, 0.00028370629297569394, 0.0037260851822793484, -0.00194602704141289, 0.0006401907303370535, 0.0012712045572698116, 0.000534141669049859, 0.0007026331732049584, -0.007314938120543957, 0.0006502012838609517, -0.0013962641824036837, 0.00027760531520470977, 0.00021364953136071563, 0.0028759604319930077, -0.0003915779525414109, 0.003109636949375272, 0.0017248025396838784, -0.002179863164201379, 0.0010072338627651334, 0.0007438767934218049, -0.0016099687200039625, -0.0021046737674623728, -0.0015551081160083413, -0.0002506800810806453, -0.0001346674980595708, 0.0018816188676282763, 0.0011680811876431108, 0.002273078076541424, -0.006611444056034088, -0.0008040224784053862, 3.6330020520836115e-05, -7.33453780412674e-05, 0.001606292324140668, -0.0008532616775482893, -0.0033372603356838226, -0.0007974737090989947, 0.0007458699983544648, -0.0018182250205427408, -0.0008671549148857594, -0.003972398117184639, 0.000390821835026145, 0.002395585412159562, -0.0021146051585674286, 0.000663212442304939, 0.002850109012797475, 0.000493448693305254, -0.0014983783476054668, -0.0016721922438591719, -0.0003347191959619522, 0.006452290341258049, 0.00024925259640440345, 0.0010691956849768758, 0.0015633044531568885, -0.0008131066570058465, 0.0007015085429884493, 0.0005717274616472423, -0.0005062796990387142, -0.000557431485503912, -0.00034902707557193935, -0.0034341616556048393, -0.000553721038158983, -0.000711962056811899, -0.0005397578934207559, 0.003073296742513776, 0.00081263342872262, -0.0014288638485595584, 0.0011424989206716418, -2.3425789549946785e-05, 0.0016117149498313665, -0.0016018754104152322, 0.0016949123237282038, 0.0013965206453576684], [-0.0005024274578318, -0.001179243321530521, -0.004339459352195263, 0.0021051501389592886, 0.015933644026517868, 0.00016450043767690659, -0.0003354103537276387, 0.0013561486266553402, 0.0017624092288315296, -0.002543446607887745, 0.0008619580185040832, -0.001132410834543407, 0.0022666077129542828, 0.0007620201213285327, 0.0013064665254205465, 0.001220556441694498, 0.0014281165786087513, 0.002046028384938836, -0.00025749276392161846, -0.0024420111440122128, -0.002063991967588663, -0.0017935014329850674, -0.026141926646232605, -0.0006886248011142015, 0.0004931286093778908, 0.0013249930925667286, 0.0022655364591628313, -0.0014856794150546193, 0.0005612977547571063, 0.0018208622932434082, -0.0016505328239873052, -0.002476490568369627, -0.00738357100635767, 0.0005003103287890553, -0.0012148285750299692, 4.2847910663113e-05, 0.00027523410972207785, 0.001847161096520722, -0.003118203952908516, 0.002096629934385419, 0.0012046615593135357, -0.0015452923253178596, 0.003549132961779833, 0.0009441683650948107, -0.0011331543792039156, -0.000998669071123004, -1.2311676982790232e-05, -0.0001378669257974252, -0.00010738393757492304, -0.0035326024517416954, 0.0010068198898807168, 0.0018908411730080843, -0.0044217645190656185, 0.00010193581692874432, 0.0003186598187312484, 0.0005529135232791305, 0.0035508298315107822, -0.0008179828291758895, -0.0020862091332674026, 0.0007478256011381745, 0.0006541484617628157, 0.0051536113023757935, 0.0001255176030099392, -0.0023885397240519524, 0.0016284843441098928, 0.0019481931813061237, -0.0022664295975118876, -0.0007600823882967234, 0.0016977668274194002, 0.00011738715693354607, -0.0012193364091217518, -0.0010291357757523656, -0.0008473362540826201, 0.0038450320716947317, -0.001243393518961966, 0.0008040810935199261, 0.0012359835673123598, -0.0034027392975986004, 0.0012386139715090394, -0.00021915027173236012, -0.00012590031838044524, -0.0008808747516013682, 0.00010298776032868773, -0.0018363124690949917, 4.870991688221693e-05, 0.00027959313592873514, -0.0018576204311102629, 0.0027519850991666317, 0.0003068410442210734, 0.000979676959104836, 0.0008310572593472898, -0.00047319079749286175, 0.001166385831311345, -0.00155233487021178, 0.000880919978953898, 0.00010470289271324873], [-0.0003948371740989387, -0.0006771768094040453, -0.001429981435649097, 0.0014985839370638132, 0.004143319558352232, -0.0005211037350818515, -0.0004510585276875645, 0.0005687421071343124, 0.001371161313727498, -5.0344737246632576e-05, -0.00020178568956907839, -0.0005883140256628394, 0.001111087971366942, 0.0005629296647384763, 0.00045074246008880436, 0.0018301478121429682, 0.00027391372714191675, 0.00010430201655253768, 0.001015567104332149, 0.0005560529534704983, -0.0008768794941715896, -0.0006302415276877582, -0.006632370874285698, -0.00013345928164198995, 0.00028024899074807763, 0.00017032776668202132, 0.002319168299436569, -0.0009961058385670185, 0.0003621733048930764, -0.00012818328104913235, 0.0003227099950890988, 0.0002637632132973522, -0.004212815314531326, 0.0003208183916285634, -0.0007651480846107006, -5.4821299272589386e-05, 0.0001850983389886096, 0.000950686342548579, -1.0283023584634066e-05, 0.002082678023725748, 0.001147567410953343, -0.0011973223881796002, 0.0005665643839165568, 0.000453675544122234, -0.0010016191517934203, -0.0009487617062404752, -0.0008330416749231517, -0.00016244922881014645, 0.00028903092606924474, 0.0006653312593698502, 0.0005963983130641282, 0.0005734657752327621, -0.00319347670301795, -0.0005396375199779868, 0.00025624004774726927, -0.00014413893222808838, 0.00031199416844174266, -0.00022494496079161763, -0.0015312928007915616, -0.0006850861245766282, 0.00041282217716798186, -0.0005153343663550913, -0.0002777705667540431, -0.001521608792245388, 0.0001055512111634016, 0.0012724930420517921, -0.0008443643455393612, 0.0002068373141810298, 0.0015913377283141017, 0.00028380556614138186, -0.0007034878362901509, -0.000952890666667372, 0.00017747387755662203, 0.002966964151710272, 0.0001296593836741522, 0.0006575917941518128, 0.0007490377756766975, -0.00041737352148629725, 0.000180617265868932, 0.00026376236928626895, -0.00019073174917139113, -0.00027927098562940955, 6.283778930082917e-06, -0.0013447464443743229, -0.00030204406357370317, -6.504644989036024e-05, -0.00024132529506459832, 0.002721010707318783, 0.0007144711562432349, -0.0007826632936485112, 0.00028780201682820916, -0.00042127957567572594, 0.0005581270670518279, -0.0009063259931281209, 0.0008231663377955556, 0.0005612223758362234], [9.41823236644268e-05, -0.0007166159339249134, -0.0016462786588817835, 0.0007419665344059467, 0.005584364756941795, -0.0009157602908089757, -7.126894342945889e-05, 0.00043845255277119577, 0.000903892214410007, -0.0005487168673425913, 0.00017461339302826673, -0.000336120487190783, 0.0007206485606729984, -7.314760296139866e-05, 0.0015861246502026916, 0.0017636115662753582, 0.0007527795387431979, 0.00032755592837929726, 0.0011218596482649446, -0.0010204978752881289, -0.0009542813058942556, -0.0008075317600741982, -0.007855908013880253, -0.000276123930234462, 0.0005685279029421508, 0.0008068812894634902, 0.0008031779434531927, -0.0008659056620672345, 0.00012526543287094682, 0.0009684464894235134, -0.0003663640527520329, -0.000743357406463474, -0.002463602926582098, 0.000276499951723963, -0.00036955944960936904, 0.00010543459211476147, -6.001883593853563e-05, 0.001047972240485251, -0.0009068915387615561, 0.0011714696884155273, 0.001574396388605237, -0.0009070599917322397, 0.0014514618087559938, 0.0002166171179851517, -0.0006661053048446774, -0.0005737267201766372, -5.929968028794974e-05, -0.00019961586804129183, -0.0003044841578230262, -0.0004842923954129219, 0.0002976497926283628, 0.0003960530739277601, -0.0012814041692763567, 0.00010358981671743095, -0.0002227982331532985, 0.0011000675149261951, 0.0012345744762569666, -1.8818784155882895e-05, -0.0010303372982889414, 0.000386866187909618, 0.0014265028294175863, 0.0005799886421300471, 1.2446456821635365e-05, -0.0014134084340184927, 0.0003778992686420679, 0.0012515336275100708, -0.0006178173935040832, -0.00026737875305116177, 0.0006987785454839468, -4.229760816087946e-05, -0.00048012565821409225, -0.000611061230301857, -0.0004872215795330703, 0.0010923946974799037, -4.646263550966978e-05, 0.0005763035733252764, 0.00023476319620385766, -0.0004300127038732171, 0.0007083792006596923, -0.00015021958097349852, 5.191375021240674e-05, -0.0006300542154349387, 1.24605303426506e-05, -0.0012529127998277545, 0.0001047485857270658, -0.00014840274525340647, -0.0003477049176581204, 0.0008881813264451921, 0.0005243389750830829, 9.853948722593486e-05, 0.00033502158476039767, -0.0010192979825660586, 0.00039526246837340295, -0.001340931630693376, 0.00025457504671067, 4.8726535169407725e-05], [0.00046350364573299885, -0.0009104707278311253, -0.0020509022288024426, 0.0014950430486351252, -0.005763452500104904, -0.0013417154550552368, 0.00027451786445453763, 0.0007432425627484918, 0.0006693413015455008, -0.001176272751763463, 0.0007859945180825889, -0.00016151093586813658, 0.0017433498287573457, -0.0006964628701098263, 0.0026256446726620197, 0.0019477054011076689, 0.002886887639760971, 0.001018621027469635, -0.0009160793269984424, -0.002309640869498253, 0.0003750050673261285, -0.0005171168013475835, 0.007865252904593945, -0.00046304744319058955, 0.0008780645439401269, 0.002635193755850196, -0.005165846552699804, -0.000737871800083667, -0.0004562928806990385, 0.0003946257056668401, -0.0017091562040150166, -0.002140155527740717, -0.002765017794445157, 0.0004735925467684865, -0.0005429208977147937, 0.0003857100964523852, -9.188904186885338e-06, 0.0027304396498948336, -0.0006220183568075299, 0.0008135390235111117, 0.0008322527864947915, -0.0014317326713353395, 0.0009050786029547453, 0.0002497364184819162, -0.0006121513433754444, -0.0005394121399149299, 0.0007929019047878683, -0.00011294308205833659, -0.0001361417816951871, 0.002189209684729576, -0.00025737768737599254, 0.00039224111242219806, 0.0006259274668991566, 0.0002103086153510958, -0.0005322557408362627, 0.0001218494726344943, 0.001990871736779809, 0.0005106725730001926, -0.002617867663502693, 0.001626524142920971, 0.0015828455798327923, -0.004891518969088793, 0.0006559786852449179, -0.0028941002674400806, -5.624344339594245e-05, 0.002192410174757242, -0.0007776315906085074, -0.0020828552078455687, 0.0006474695401266217, -0.00042415628558956087, -0.0011893684277310967, -0.00044204609002918005, -0.0006181406788527966, 0.002548833377659321, -0.002693783724680543, 0.00044849509140476584, -0.00013111051521264017, 0.000801112677436322, 0.001016495400108397, -5.15623833052814e-06, -4.9514092097524554e-05, -0.0018722796812653542, -0.0005816997727379203, -0.005829893052577972, 0.0007713012746535242, -0.0002343541127629578, -0.0013575179036706686, -0.0028129122219979763, 0.00040741340490058064, 0.0011692226398736238, 0.000993662397377193, -0.0016921370988711715, 0.00018924391770269722, -0.0006647873669862747, -0.0006692282622680068, -0.0010328155476599932], [-0.0014592306688427925, -0.0009332401677966118, -0.002606319496408105, 0.0033672042191028595, 0.014965333975851536, -0.00018863927107304335, -0.0015106960199773312, -0.0010435213334858418, 0.005419411696493626, -0.0018018907867372036, 0.000482895877212286, -0.001710836193524301, 0.0002961516147479415, 0.001360134338028729, 0.004140933975577354, 0.005741355940699577, 0.004967867862433195, 0.0023966380394995213, 0.00273676635697484, 0.0015877881087362766, -0.0029818902257829905, -0.0010847640223801136, -0.01153598539531231, -0.0017028896836563945, 0.0004618451348505914, 0.003920458257198334, 0.0027932028751820326, -0.004239276051521301, 0.0017455504275858402, 0.0026230430230498314, -0.0008826673729345202, -0.0009537847945466638, -0.004349022172391415, 0.0013374134432524443, -0.003140227636322379, -0.0007896358147263527, 0.0006728246808052063, 0.0012900498695671558, -0.002067437395453453, 0.006880040746182203, 0.00399677362293005, -0.005703816656023264, 0.009982661344110966, 0.002541815396398306, -0.003264182712882757, -0.003804998006671667, -0.0018996252911165357, -0.0003274630580563098, 0.0016189230373129249, -0.0007115318439900875, 0.002670728135854006, 0.0005609462969005108, -0.0031129177659749985, -0.0015084502520039678, 0.002033335855230689, 0.003152302000671625, 0.0002262237248942256, -0.0015222409274429083, -0.003523916471749544, -0.0015178145840764046, 0.0032146028243005276, 0.001941224210895598, 0.00044655974488705397, -0.0026097416412085295, 0.0016945820534601808, 0.003228397574275732, -0.0029673967510461807, -0.0002339188358746469, 0.002764131873846054, 0.0009113100823014975, -0.004258688539266586, -0.0007899609045125544, 0.0003362269781064242, 0.0029450447764247656, -0.000551435281522572, 0.004242530092597008, 0.00392162287607789, -0.0032085138373076916, 0.003463068976998329, -0.0021206759847700596, -0.001114910701289773, -0.0034252479672431946, 0.0016095088794827461, 0.01139296218752861, -0.0002590930671431124, 0.0015538919251412153, -0.00215824693441391, 0.0024276499170809984, -0.00040841358713805676, -0.0013240835396572948, 0.0006817564135417342, -0.0005066535668447614, 0.000961917219683528, -0.006007800344377756, 0.0026220225263386965, 0.002153527457267046], [3.1908450182527304e-05, -0.0004182586562819779, -0.0016927802935242653, 0.0003525352803990245, 0.006638635415583849, -0.0007827522931620479, -0.0001526567793916911, -0.0001305502955801785, 0.0011887699365615845, -0.0005820717778988183, 0.000218758184928447, -0.0004743437748402357, 0.0006857630214653909, -8.041795808821917e-05, 0.0009149721590802073, 0.0017832599114626646, 0.0012413470540195704, 0.0007817542646080256, 0.0011257519945502281, -0.0011297024320811033, -0.00017993112851399928, -0.00023975330987013876, -0.007803461980074644, -7.042923243716359e-05, 0.0005287851672619581, 0.0007622214034199715, 0.0011847884161397815, -0.0008798222406767309, 0.00022223249834496528, 0.001056952984072268, -0.00020793202565982938, -0.0011290673865005374, -0.0025635575875639915, 0.00029388017719611526, -0.00017105633742175996, 5.8502511819824576e-05, -0.00019139793585054576, 0.0012822584249079227, -5.7484256103634834e-05, 0.0015965658240020275, 0.001725431066006422, -0.0013599770609289408, 0.0020624673925340176, 0.00011128178448416293, -0.0008063134155236185, -0.0007190388860180974, -0.00010767302592284977, -0.00011102401185780764, -0.0001821415062295273, -0.0012778962263837457, 0.00044741027522832155, 0.0010254447115585208, -0.0020520815160125494, 9.454356040805578e-05, 8.460874960292131e-05, 0.0013298855628818274, 0.000768260913901031, -3.91284265788272e-05, -0.0011606360785663128, 0.0006939709419384599, 0.001592731336131692, -0.0005560218705795705, 0.00026611395878717303, -0.0014435205375775695, 0.0005784331588074565, 0.0014849414583295584, -0.001033552922308445, -9.908148786053061e-05, 0.0008496342925354838, -2.167915226891637e-05, -0.0007716283435001969, -0.0002996356342919171, -0.0002608289069030434, 0.0011061333352699876, -0.0006976161967031658, 0.0007111383019946516, 0.0005200785235501826, -0.0005082531715743244, 0.00029272795654833317, 0.00010101986845256761, -0.0001939958456205204, -0.0009416947141289711, -8.863772382028401e-05, -0.000990267377346754, -3.6028854083269835e-05, 0.00011351831199135631, -0.0003018304123543203, 0.0013975163456052542, 0.0007828190573491156, 0.00018629542319104075, 0.0003392849175725132, -0.00047690997598692775, 0.000649536494165659, -0.0004071786243002862, 0.0001402936759404838, 1.2125237844884396e-06], [-0.00024533658870495856, -3.2549010938964784e-05, -0.0008381378138437867, 0.0007277971599251032, 0.0019049746915698051, -0.0002632949617691338, -0.0003083000483456999, -0.00022581772645935416, 0.0013097545597702265, -0.0005311176646500826, 0.00019750866340473294, -0.00025004649069160223, 0.0001520809601061046, 0.0002307448594365269, 0.0014869249425828457, 0.0018128693336620927, 0.0012737915385514498, 0.00041962970863096416, 0.00019760074792429805, 3.6466517485678196e-06, -0.0004589161544572562, 0.0001622130221221596, -7.78372268541716e-05, -0.0003813185903709382, 0.0002596442645881325, 0.0009900897275656462, 0.001075267675332725, -0.001170365372672677, 0.0002878997183870524, -8.391099981963634e-05, -0.0002486917655915022, -0.0005199577426537871, -0.001468877773731947, 0.0003754663048312068, -0.0004913265001960099, -0.00012909300858154893, 8.961877028923482e-05, 0.0006453175446949899, -0.0004723824677057564, 0.001474421820603311, 0.0015263373497873545, -0.00131180917378515, 0.002302411710843444, 0.0005509804468601942, -0.0004706789623014629, -0.00025746767641976476, -0.0003885535697918385, -0.00010720571299316362, 0.00029226942569948733, 0.00016465556109324098, 0.0005161545122973621, 7.430789992213249e-05, -0.0006881842273287475, -0.00042878801468759775, 0.00043176295002922416, 0.000803041853941977, 0.00016718136612325907, -0.00037823026650585234, -0.0010416866280138493, -0.0002396612981101498, 0.0010656857630237937, 0.0005041753174737096, 0.00029858489870093763, -0.0010742081794887781, 0.0005268611712381244, 0.0009222133667208254, -0.0007584257982671261, -0.00012601842172443867, 0.0004117369244340807, 0.000140294898301363, -0.000740804011002183, -0.0002695730945561081, 1.7481695977039635e-05, 0.0009881044970825315, -0.00016734373639337718, 0.0006263729883357882, 0.0006887708441354334, -0.0007381631294265389, 0.00041318233706988394, -0.0001299073192058131, -0.00028431660030037165, -0.0007652111817151308, 0.0004009990952908993, 0.000365819432772696, -4.045802779728547e-05, 0.0003300683747511357, -0.0005462102708406746, 0.0005667163641192019, -0.00022045384685043246, -0.0001609819009900093, 0.00024721608497202396, -0.00030798662919551134, 0.0001369585224892944, -0.0019718087278306484, 0.00048695693840272725, 0.0005723383510485291], [-0.005769291426986456, 0.0005058268434368074, -0.00035831512650474906, 0.008250441402196884, -0.36817091703414917, 0.001961137168109417, -0.0055673327296972275, -0.002395144198089838, 0.009230503812432289, 0.002519708825275302, -0.003173277946189046, -0.004889372736215591, -0.002886686474084854, 0.006725770886987448, 0.005333879962563515, 0.007743523456156254, 0.0013095883186906576, 0.002325700828805566, -0.0018878041300922632, 0.004974388051778078, -0.005690567195415497, 0.004947203677147627, 0.1855260133743286, -0.0038365579675883055, -0.0007337794522754848, 0.0005620311130769551, -0.001735133584588766, -0.00788494199514389, 0.006536077242344618, -0.0024316678754985332, 0.0031032441183924675, 0.0013285729801282287, -0.0004732636734843254, 0.003912809304893017, -0.007071159780025482, -0.004824429750442505, 0.0023841066285967827, 0.0002965856692753732, 0.00031774051603861153, 0.007962489500641823, 0.010243761353194714, -0.006812966428697109, 0.004100090824067593, 0.008843136951327324, -0.006714463233947754, -0.002368025481700897, -0.009844997897744179, -0.0006754004280082881, 0.005610006861388683, 0.0037975020240992308, 0.007319049909710884, 0.0011842931853607297, 0.0012244111858308315, -0.006401770282536745, 0.007345607504248619, -0.0005429747398011386, -0.0005738729378208518, -0.007475017569959164, -0.007657346781343222, -0.0027710204012691975, 0.004443467129021883, -0.004021039232611656, -0.0024314108304679394, 0.0006419236888177693, 0.0029464836698025465, 0.00601929472759366, -0.007539646700024605, 0.0008256364963017404, 0.003821450052782893, 0.004018678795546293, -0.009847970679402351, 0.0005299433832988143, 0.004607213195413351, 0.004696220625191927, -0.0006384217413142323, 0.007799464277923107, 0.010008133016526699, -0.0057248761877417564, 0.0010993670439347625, -0.0016310643404722214, -0.001710393000394106, -0.0025205016136169434, 0.0072814482264220715, 0.03044382482767105, 0.0004174019559286535, 0.007232330273836851, -0.0043724398128688335, -0.0039940690621733665, -0.0033827652223408222, -0.00938078761100769, -9.668269194662571e-05, 0.0037184017710387707, 0.004846916068345308, -0.007291756570339203, 0.011472905054688454, 0.0064130378887057304], [-8.644681656733155e-05, -4.934875323669985e-05, -0.00018417331739328802, -6.821766874054447e-05, 0.0028824859764426947, -0.0003043879405595362, -8.381027146242559e-05, -1.3154596672393382e-05, 0.0005300534539856017, -2.001387474592775e-05, -3.5548280720831826e-05, -5.560453428188339e-05, 0.00025628419825807214, 0.00010182585538132116, 6.532944098580629e-05, 0.00035131871118210256, 3.457015918684192e-05, 2.2992706362856552e-05, 0.0005621258169412613, 0.00013202680565882474, 5.102356954012066e-05, -0.00024315579503308982, -0.0028057079762220383, -8.792690641712397e-05, 0.00016647696611471474, 1.7059304809663445e-05, 0.00012024230090901256, -0.00019552663434296846, 3.1079540349310264e-05, 0.00019180343952029943, -4.193710628896952e-05, -2.882175613194704e-05, -0.0006419598357751966, 0.00010505154932616279, 6.399896665243432e-05, -1.8134902347810566e-05, 6.83524995110929e-05, 0.00011511362390592694, 2.4382716219406575e-05, 0.0005110042402520776, 0.0006785803707316518, -0.0005053254426456988, 5.90657364227809e-05, -4.715016984846443e-05, -0.0001588816667208448, -0.0001855919836089015, -2.143306119251065e-05, 1.2850658094976097e-05, -0.00010213544737780467, -4.542188617051579e-05, 0.00011913663183804601, 0.00012540658644866198, -0.00047905807150527835, -0.00014379822823684663, 0.00012217603216413409, -0.00017143081640824676, 0.00013773611863143742, 0.00011031248141080141, -0.0002617069403640926, -0.00012637212057597935, 0.0002396561612840742, 5.645114288199693e-05, -0.00011308992543490604, -0.0004735479305963963, 3.1150513677857816e-05, 0.00046377736725844443, 2.194663102272898e-05, 1.9539325876394287e-05, 0.00023618643172085285, 2.539862362027634e-05, -4.5080123527441174e-05, -0.00032718497095629573, 2.7152964321430773e-05, 0.0003232572926208377, 2.212543404311873e-05, -2.687725645955652e-05, 0.0001566897553857416, -0.00010379243758507073, 3.3641372283454984e-05, 4.322474524087738e-06, -8.865379641065374e-06, -2.934345684479922e-05, -0.0001675249368418008, -0.0005103855510242283, -4.539107612799853e-05, -3.4982313081854954e-05, -3.7370533391367644e-05, 0.0003187563270330429, 7.997946522664279e-05, 1.2686075933743268e-05, 0.0001062941228155978, -0.0003371383063495159, -8.830887963995337e-06, -0.000129147112602368, 1.0396466677775607e-05, 4.274272941984236e-05], [-8.933802018873394e-05, -0.0002368426794419065, -0.0007502551889047027, 0.0003976257285103202, 0.002976377494633198, -0.00023820967180654407, -0.00013132933236192912, 0.00011877744691446424, 0.0008076076628640294, -0.0006386227905750275, 0.00026410986902192235, -0.00032340906909666955, 0.0003263255057390779, 0.000168407685123384, 0.0012484948383644223, 0.001499571488238871, 0.0009855888783931732, 0.00044342284672893584, 0.00035378080792725086, -0.00015275311307050288, -0.0006549042300321162, -0.00030224991496652365, -0.00382492458447814, -0.00041080472874455154, -5.665788194164634e-07, 0.0006992216221988201, 0.0007176528451964259, -0.0009378422982990742, 0.00019621428509708494, 0.00024870960623957217, -0.00030044649611227214, -0.0008061708649620414, -0.0008024781127460301, 0.00016195839270949364, -0.0003923583426512778, -8.055852958932519e-05, 7.566139538539574e-05, 0.0006223989184945822, -0.0005668905796483159, 0.0011930991895496845, 0.001171991927549243, -0.0010858799796551466, 0.0027685065288096666, 0.0003088844823651016, -0.0003595271846279502, -0.0005743590882048011, -0.00016792405222076923, -9.146948286797851e-05, 7.126611308194697e-06, -0.00048512424109503627, 0.00026630633510649204, -1.1462587281130254e-05, -0.0007793297409079969, 7.407749217236415e-05, 0.0001324334880337119, 0.001050750259310007, 0.0004835205909330398, 9.110298560699448e-05, -0.0007253745570778847, 6.671335722785443e-05, 0.0009028780041262507, 0.0005507578607648611, 0.00042869398021139205, -0.0005061458796262741, 0.00044971134047955275, 0.00030811416218057275, -0.0005605499027296901, -0.0006630676216445863, 0.00043688536970876157, 2.6939185772789642e-05, -0.0004839024622924626, -0.00019746461475733668, -4.764585173688829e-05, 0.0008075953228399158, -0.0007059629424475133, 0.0005263587227091193, 0.00034066406078636646, -0.0007806285284459591, 0.0005684659699909389, -0.00020785172819159925, -8.711458212928846e-05, -0.000295930978609249, 9.193972800858319e-05, 0.00016517167387064546, 5.877506191609427e-05, 0.000107820269477088, -0.0003309562453068793, 0.0006886248011142015, 0.0001730976946419105, -0.00013245193986222148, 0.00016613079060334712, -5.6302727898582816e-05, 0.0001773971744114533, -0.0010545554105192423, 0.00024456577375531197, 0.0001526518608443439], [-0.0001772348041413352, -0.0003448466013651341, -0.0013002039631828666, 0.0008002814138308167, 0.003134786617010832, -0.0004018335894215852, -0.00027635961305350065, 0.00033366194111295044, 0.0007719217101112008, -0.00014511917834170163, -0.00017137991380877793, -0.0003624006640166044, 0.0010067413095384836, 0.00023260692250914872, 0.00023318309104070067, 0.0015630809357389808, 0.00012088904622942209, 0.00013984304678160697, 0.0008370818104594946, -0.0002466090372763574, -0.000700506498105824, -0.0008368834387511015, -0.004463148303329945, -5.708802200388163e-05, 6.178909097798169e-05, 6.677309283986688e-05, 0.0014736892189830542, -0.0009095768327824771, 0.00021812532213516533, 0.0003402288712095469, 0.0001914209860842675, 0.0002224125200882554, -0.0028615486808121204, 0.00023938514641486108, -0.00042774935718625784, 5.7589306379668415e-05, 8.537461690139025e-05, 0.0009170671692118049, 2.4914625100791454e-06, 0.0013091745786368847, 0.0013110258150845766, -0.0010170709574595094, 0.0002826587005984038, 0.00017771263082977384, -0.0006565674557350576, -0.0006918139988556504, -0.0004995305789634585, -0.00013828385272063315, -8.104485459625721e-05, 0.0006072050891816616, 0.00035028005368076265, 0.0005862342659384012, -0.0022377180866897106, -0.0002112244110321626, 5.4430507589131594e-05, 4.763598553836346e-05, 0.0009292005561292171, 6.938280421309173e-05, -0.0011249167146161199, -7.784704212099314e-05, 0.0006740927929058671, -0.0005750073469243944, -0.00020020788360852748, -0.0012961368774995208, 0.00010969003778882325, 0.001131248427554965, -0.0006923815817572176, 0.0001896804169518873, 0.0011353099253028631, 0.00016396936553064734, -0.0004516940680332482, -0.0004983815597370267, 0.00014283566270023584, 0.0018855741946026683, 4.968506982550025e-05, 0.0004679305129684508, 0.00042258790927007794, -0.00021752383327111602, 0.00010128141730092466, 0.0002456657530274242, -0.0001251236826647073, -0.00018085871124640107, -8.832151797832921e-05, -0.0006299740634858608, -0.00014285009820014238, -0.0001584116107551381, -0.0001547495339764282, 0.0021039433777332306, 0.000725869438610971, -0.00046400181599892676, 0.00026664722827263176, -0.0006026081391610205, 0.0002795723848976195, -0.0005380165530368686, 0.0005119862616993487, 0.0004043995577376336], [0.0007808857480995357, -0.0013603600673377514, -0.003072899766266346, 0.0004007481620647013, -0.011763685382902622, -0.001839778502471745, 0.0009089384693652391, 0.0018819926772266626, 0.0012249842984601855, -0.00277581624686718, 0.0020708004012703896, -0.00017502973787486553, 0.0021365785505622625, -0.0013913152506574988, 0.0035470444709062576, 0.0020654709078371525, 0.002933512907475233, 0.0009059103322215378, -0.004834363237023354, -0.003329245839267969, -0.0013546135742217302, -0.00211556488648057, 0.011484437622129917, -0.000862934160977602, 0.0016936598112806678, 0.0011003912659361959, -0.005570544861257076, -0.0006307603325694799, -0.0011843706015497446, 0.0020969221368432045, -0.0021496680565178394, -0.003165513277053833, -0.0021910027135163546, 4.793721018359065e-05, -0.00029430579161271453, 0.0010256468085572124, -0.00012656892067752779, 0.0029446808621287346, -0.0015590116381645203, 0.0017002032836899161, 0.001567453145980835, -0.0016874169232323766, 0.0001924857497215271, -0.00044248427730053663, -4.990748129785061e-05, -0.0004748617939185351, 0.002202204894274473, -7.709366036579013e-05, -0.0005551793146878481, 0.0007199540268629789, -0.0005439805681817234, 3.630353603512049e-05, 0.0004896605387330055, 0.001080678659491241, -0.0015315413475036621, 0.000910637085326016, 0.002403703983873129, 0.0015930755762383342, -0.0015177489258348942, 0.0024262461811304092, 0.0019838022999465466, -0.0062301671132445335, 0.002196137560531497, -0.0026635034009814262, 0.0008992135990411043, 0.0016311686486005783, -0.00041993072954937816, -0.0020450414158403873, 0.001812786445952952, -0.0009694092441350222, -0.0002265064395032823, -0.0010374238481745124, -0.0016941819339990616, 0.0010190143948420882, -0.002449972089380026, 2.470481558702886e-05, -0.0008120735292322934, -0.0009281561942771077, 0.002703207079321146, 0.0011339376214891672, 0.0008617035346105695, -0.0010962462984025478, -0.0008403345127590001, -0.008294250816106796, 0.001217460259795189, -0.000929545029066503, -0.0007069658604450524, 0.0003217689227312803, 0.002040162682533264, 0.0027582296170294285, 0.0005464571295306087, -0.0015878769336268306, 3.076589200645685e-05, -0.0003130834084004164, -0.0016357486601918936, -0.0014667350333184004], [-0.00047312286915257573, -0.0001345901982858777, -0.000582123058848083, 0.0009984849020838737, 0.005271989852190018, 4.922781954519451e-06, -0.00040906138019636273, -0.0003129125980194658, 0.0010252039646729827, -6.704838597215712e-05, -0.00014985364396125078, -0.0003734857018571347, -0.00019376639102119952, 0.0004642237036023289, 0.0010342292953282595, 0.001412539160810411, 0.0007889445987530053, 0.00036082929000258446, 0.0007518969941884279, 0.0003667218261398375, -0.000684793689288199, -0.00015760592941660434, -0.006591782905161381, -0.00024432208738289773, 0.00010924709204118699, 0.0007414417341351509, 0.0006792116328142583, -0.0005380422808229923, 0.0004743957833852619, 0.00019828943186439574, -2.707612293306738e-05, -0.00010674816439859569, -0.0015946554485708475, 0.000396092189475894, -0.0006134629948064685, -0.000289987277938053, 0.00012821488780900836, 0.0001099385553970933, -0.00026427704142406583, 0.0009169986005872488, 0.0009745978750288486, -0.0008606698829680681, 0.001016795402392745, 0.0007261413265950978, -0.0007414770661853254, -0.0006176438182592392, -0.000601155508775264, -9.256800694856793e-05, 0.0005055004148744047, 5.091557977721095e-05, 0.0006572013953700662, 0.0003095173160545528, -0.0005630507366731763, -0.0005335690220817924, 0.0005733479047194123, 0.0006982600316405296, 5.4506235755980015e-05, -0.0005705793155357242, -0.0008402923122048378, -0.0005917369853705168, 0.0007556458585895598, 0.0007010889239609241, -0.00022357144916895777, -0.0007024655351415277, 0.00029656628612428904, 0.0011154066305607557, -0.0008950738701969385, 0.00011813936725957319, 0.0006441770819947124, 0.0002881583641283214, -0.0007270639762282372, -0.00014268586528487504, 0.00021350663155317307, 0.0004918453050777316, 4.086189437657595e-05, 0.0008605173788964748, 0.0009076923015527427, -0.00037008541403338313, 0.0003565941588021815, -0.0003334203502163291, -0.000199112604605034, -0.0006852027727290988, 0.00039701713831163943, 0.0020147596951574087, -0.00017804007802624255, 0.0005233849515207112, -0.0003575987066142261, 0.0005494559882208705, -7.513059972552583e-05, -0.0005778840859420598, 0.0001763835025485605, -0.00016820576274767518, 0.000357170298229903, -0.0009820203995332122, 0.0006969961104914546, 0.0006575433071702719], [-0.0005470294272527099, 8.664480992592871e-05, 6.747822044417262e-05, 0.0006122797494754195, 0.001809205044992268, 0.0003414643579162657, -0.00023696155403740704, -0.0005522650899365544, 0.0006290593883022666, 0.00010456499876454473, -0.0001763206673786044, -0.00038199705886654556, -0.0005632248357869685, 0.0005665436619892716, 0.0001287659688387066, 0.0005383476964198053, 0.0005005112616345286, 5.3827785450266674e-05, 0.00013667177699971944, 0.0007188257295638323, -0.00015590933617204428, 0.00026189081836491823, -0.0010910892160609365, -3.924337215721607e-05, -0.00017276388825848699, 0.00024057429982349277, 0.00028086776728741825, -0.0005318082985468209, 0.0002272653509862721, -2.2073749278206378e-05, 0.00019141848315484822, 0.0004825487267225981, -0.0002898323000408709, 0.00026284545310772955, -0.0005123475566506386, -0.00027880072593688965, 0.0002033255877904594, -0.00013348014908842742, 9.266890629078262e-06, 0.0005590429063886404, 0.0005014698836021125, -0.0006779987597838044, 0.000745496479794383, 0.0006041843444108963, -0.00043138358159922063, -0.0002962325233966112, -0.0006198579212650657, -2.411218338238541e-05, 0.0007103782845661044, 0.00018285360420122743, 0.0006111291004344821, -1.8882896256400272e-05, -0.00018955007544718683, -0.0006344877183437347, 0.0005427645519375801, -7.509774150094017e-05, -0.0004255869425833225, -0.0006114172865636647, -0.00041804337524808943, -0.0006158115575090051, 0.00013915561430621892, 8.181767771020532e-05, -0.00018671201542019844, -0.00011702468327712268, 0.00012010260252282023, 0.00035232549998909235, -0.0005435890052467585, 0.0001992535835597664, 0.00033198349410668015, 0.0002744504308793694, -0.0007548563880845904, 4.608890230883844e-05, 0.0003225431137252599, 0.0001982207177206874, 0.00010012699203798547, 0.0006962243933230639, 0.0006553885177709162, -0.000394402100937441, 8.100204286165535e-05, -0.00023404454987030476, -0.0003615289169829339, -0.0003023688041139394, 0.0004406536463648081, 0.0033924239687621593, -0.00023663014871999621, 0.0005088122561573982, -0.00016607067664153874, -3.852038935292512e-05, -0.0004565915442071855, -0.0004422200727276504, 3.865776670863852e-05, 0.0003178694751113653, 6.978174496907741e-05, -0.00014116603415459394, 0.00027759678778238595, 0.00046139059122651815], [0.00020529096946120262, -0.0004940296639688313, -0.0018835854716598988, 0.0011084787547588348, 0.0026658535934984684, -0.0008683686028234661, 5.6808341469150037e-05, 0.0004943620297126472, 0.0014117234386503696, -0.0012440363643690944, 0.00016368043725378811, -0.0003016385016962886, 0.001087043434381485, -0.0002850338933058083, 0.003285369835793972, 0.0028116642497479916, 0.001917561050504446, 0.0012189671397209167, 0.00053978938376531, -0.0012265618424862623, -0.001310702646151185, -0.00010651513002812862, -0.0019896933808922768, -0.0007113914471119642, 0.00047459235065616667, 0.0016229863977059722, 0.0013436261797323823, -0.001540461671538651, 0.00010772297537187114, -0.00025987758999690413, -0.0008037499501369894, -0.0018418555846437812, -0.0037979157641530037, 0.00036349514266476035, -0.0005950721097178757, 7.999893568921834e-06, 8.888305455911905e-05, 0.0015206806128844619, -0.0014027515426278114, 0.002373538911342621, 0.001950402045622468, -0.0017258166335523129, 0.003876261878758669, 0.0002936163800768554, -0.0006524886703118682, -0.0006043182802386582, -4.2616360587999225e-05, -0.00016810360830277205, -0.00014108893810771406, -1.6226782463490963e-05, 0.00024192930140998214, 0.00030746235279366374, -0.002685988787561655, 0.00012067343050148338, -7.926850230433047e-06, 0.0017974284710362554, 0.0014977996470406651, 0.0002820653608068824, -0.001211465452797711, 8.018966764211655e-05, 0.0020891975145787, 0.001541847363114357, 0.0007976278429850936, -0.0011801723157986999, 0.0006403288571164012, 0.001392525271512568, -0.0009570686961524189, -0.0010942955268546939, 0.0010528768179938197, -0.000246224895818159, -0.0005835632910020649, -0.0008296134183183312, -0.0005022999248467386, 0.0019826528150588274, -0.000979612348601222, 0.0007408181554637849, 0.0003879452124238014, -0.000331792572978884, 0.0007665426819585264, 1.1893755072378553e-05, 8.694476127857342e-05, -0.0012574575375765562, -3.871449735015631e-06, -0.0027954927645623684, 0.0003942355397157371, -7.216932135634124e-05, -0.0007681607967242599, 0.0024088937789201736, 0.00035316229332238436, 0.0003505476051941514, 0.0004943221574649215, -0.0013646363513544202, 0.00025499219191260636, -0.003236825577914715, 0.00014214600378181785, -0.00017631375521887094], [-8.20236891740933e-05, -0.00034349923953413963, -0.0015225009992718697, 0.0004729078209493309, 0.0036442005075514317, -0.0006851271027699113, -0.00012233626330271363, 0.00016998725186567754, 0.0014914425555616617, -0.0007793887052685022, 6.80199300404638e-05, -0.0004525227122940123, 0.0002520547423046082, -3.8951082387939095e-05, 0.0014006940182298422, 0.001908347592689097, 0.0006226032273843884, 0.00042809973820112646, 0.0013656585942953825, -0.0006141974008642137, -0.0005765592213720083, -0.0004028458206448704, -0.0024269369896501303, -0.0001411789417034015, 0.0005571790970861912, 0.0007256391691043973, 0.0009544561034999788, -0.0007786073256283998, 0.00027303583920001984, 0.0006857063854113221, 8.289633842650801e-05, -0.0005693546263501048, -0.0022835941053926945, 0.00048000444076023996, -0.00035044585820287466, -2.5398923753527924e-05, 6.987548113102093e-05, 0.0009663059026934206, -0.0008754966547712684, 0.0017810143763199449, 0.0016069433186203241, -0.00111505261156708, 0.00170894933398813, 0.0003203905071131885, -0.0007447509560734034, -0.0008786859689280391, -0.00010972409654641524, -5.5066226195776835e-05, 9.813084034249187e-07, 0.00022849906235933304, 0.0003512928378768265, 0.0003300865937490016, -0.001621560426428914, -0.0001246826141141355, 0.00014657239080406725, 0.0009525010827928782, 0.0005446337163448334, 0.00011344926315359771, -0.0009623750811442733, 0.00014900261885486543, 0.001285843551158905, 0.0006764713325537741, -8.310662815347314e-05, -0.0007290946086868644, 0.00037324405275285244, 0.001443493994884193, -0.0007942748488858342, -5.9385987697169185e-05, 0.0009424746967852116, 2.5179942895192653e-05, -0.00048676272854208946, -0.0005865279235877097, -0.0002613011165522039, 0.000541452958714217, 6.523601769004017e-05, 0.0006269894074648619, 0.00045099423732608557, -0.00038729896186850965, 0.0006819108384661376, -0.0002113936934620142, -5.683208291884512e-05, -0.0005205693887546659, 0.00016379576118197292, 0.0002848475705832243, -5.763824447058141e-05, 0.00010924856906058267, -0.00022038863971829414, 0.0013432675041258335, 0.00039337811176665127, 2.4918292183429003e-05, 0.0001503652601968497, -0.0009461722220294178, 0.0003561339690349996, -0.0011469167657196522, 0.00027232864522375166, 0.00018403553985990584], [-0.0005403765244409442, -0.0014888620935380459, -0.002239924157038331, 0.002622501226142049, 0.01064937375485897, -0.001017782255075872, -0.0006137114833109081, 0.00010092149022966623, 0.003039301373064518, -0.0003256534691900015, -0.0003592318098526448, -0.001162112457677722, 0.0016327807679772377, 0.000710619380697608, 0.00036831683246418834, 0.004541259258985519, 0.0002462165430188179, 7.715960964560509e-05, 0.0026795840822160244, 0.0006077430443838239, -0.0016182183753699064, -0.0010098860366269946, -0.010476334020495415, -0.0001389899553032592, 0.001104842172935605, 0.00014522174024023116, 0.0034827138297259808, -0.002147578401491046, 0.0006713367765769362, 0.000327184796333313, 0.0004914343589916825, 0.0005559824639931321, -0.005486884154379368, 0.0006577535532414913, -0.0013587621506303549, -0.00010076384933199733, 0.00024877567193470895, 0.002218579640612006, -0.00014463893603533506, 0.0044789668172597885, 0.0025908388197422028, -0.0026268367655575275, 0.00038679095450788736, 0.000948541157413274, -0.0017198524437844753, -0.00211633974686265, -0.0010823197662830353, -0.0003306698927190155, 0.00039282196667045355, 0.0011939541436731815, 0.0008492815541103482, 0.0012361875269562006, -0.004399300552904606, -0.0007637203088961542, 0.00029762371559627354, -0.00014461670070886612, 0.0006040085572749376, -8.590077050030231e-05, -0.0030826986767351627, -0.0008861978421919048, 0.0009791913907974958, -0.0010308471973985434, -0.00040204758988693357, -0.0030777680221945047, 0.00015552759577985853, 0.002607723232358694, -0.0013372980756685138, 0.0004061857471242547, 0.002561382483690977, 0.0003990496334154159, -0.0009114183485507965, -0.0016353409737348557, 0.0001993077457882464, 0.0048412419855594635, 0.00014794782327953726, 0.0016685535665601492, 0.0013151116436347365, -0.0004369984962977469, 0.00036595307756215334, -0.000465623801574111, -0.00032652998925186694, -0.00031018484150990844, 0.0002856039209291339, -0.0001781220780685544, -0.0003866022452712059, 0.00011441099923104048, -0.00027688697446137667, 0.0032594134099781513, 0.001407215604558587, -0.0010146484710276127, 0.0007489223498851061, -0.0013770031509920955, 0.0010512658627703786, -0.0008464713464491069, 0.001031421939842403, 0.0008083428256213665], [0.0025354414246976376, -0.0033303170930594206, -0.008005138486623764, 0.002943050814792514, 0.017845427617430687, -0.003819564590230584, -0.00020544277504086494, 0.004189484752714634, 0.0030270337592810392, -0.00539671815931797, 0.0038311125244945288, -0.0012635111343115568, 0.005498038604855537, -0.0014622444286942482, 0.0069850292056798935, 0.007915183901786804, 0.007392307743430138, 0.003014403162524104, 0.0024746740236878395, -0.0017780617345124483, -0.0054600960575044155, -0.0021657487377524376, -0.038881588727235794, -0.0019824374467134476, 0.0005361369112506509, 0.004749912768602371, 0.0017867856658995152, -0.005051749292761087, 8.957472164183855e-05, 0.005319082178175449, -0.0046048397198319435, -0.009727461263537407, -0.0004567122086882591, 0.0004911393043585122, -0.0010923623340204358, -0.0006740017561241984, -0.00020567106548696756, 0.002080583479255438, 0.000618987949565053, 0.0044330209493637085, 0.009825963526964188, -0.004055391065776348, 0.013716297224164009, 0.0013158587971702218, -0.00205876468680799, -0.0037172059528529644, 0.0007921070791780949, 0.0001502085942775011, -0.0022182126995176077, 0.0013397140428423882, 1.1188676580786705e-06, -0.0005669149104505777, 0.0012129629030823708, 0.003258120734244585, -0.0013437538873404264, 0.005265636369585991, 0.00398621428757906, 0.001280333730392158, -0.0006697563221678138, 0.0019250395707786083, 0.008842263370752335, -0.0028834491968154907, 0.00553988479077816, 0.0005836829077452421, 0.0028273644857108593, 0.0028716984670609236, -0.0024019619449973106, -0.006369571201503277, 0.004701053723692894, -0.0010914719896391034, -0.0013470997801050544, -0.00036374630872160196, -0.0016540251672267914, 0.006745720747858286, -0.0032502536196261644, 0.0014664839254692197, 0.0003883680619765073, -0.005969295743852854, 0.0034538444597274065, 0.00037269812310114503, 0.00025094387819990516, -0.004897991195321083, 0.0001636891975067556, -0.011030295863747597, 0.0007457266328856349, -7.291417568922043e-05, -0.0024942990858107805, 0.0054289367981255054, 0.0009656960610300303, 0.003816790645942092, -0.00013191503239795566, -0.00486185634508729, 0.00133324577473104, -0.005844648461788893, -0.0005418009823188186, -0.0012435306562110782], [-4.0754581277724355e-05, 3.180595740559511e-05, 1.1234056728426367e-05, 0.00013492186553776264, 0.0002267963282065466, 2.9357443054323085e-05, -5.486504960572347e-05, -0.00013305952597875148, 9.600660996511579e-05, 5.949031037744135e-05, -6.312793266260996e-05, -7.862146594561636e-05, -0.00011645851918729022, 7.944727258291095e-05, 4.79550362797454e-05, 6.745211430825293e-05, 6.206931720953435e-05, -1.1275478755123913e-06, -0.00010719874990172684, 7.313642709050328e-05, -1.4132750948192552e-05, 9.703544492367655e-05, -0.0008296587038785219, -8.689479727763683e-06, -2.3759499526931904e-05, 5.053482163930312e-05, 2.054318247246556e-05, -8.409746806137264e-05, 5.7471472246106714e-05, -3.7293575587682426e-05, 7.357587310252711e-05, 8.949202310759574e-05, -5.212011092226021e-05, -2.9569764592451975e-07, -3.262403333792463e-05, -2.2171698219608516e-05, 5.336678441381082e-05, -2.0081744878552854e-05, -4.287273441150319e-06, 8.41305882204324e-05, 5.044958379585296e-05, -5.7690391258802265e-05, 8.113691001199186e-05, 7.792905671522021e-05, -4.100716614630073e-05, -3.141412162221968e-05, -5.7883356930688024e-05, 5.973197858111234e-06, 0.00012159332982264459, 0.00012390762276481837, 8.088655158644542e-05, -1.7148484403151087e-05, 1.0366835340391845e-05, -0.00019096516189165413, 9.626349492464215e-05, 4.275086394045502e-05, -0.00011666542559396476, -7.238466787384823e-05, -2.673347626114264e-05, -0.0001698229170870036, 1.1744294170057401e-05, 3.912528427463258e-06, -1.9848694137181155e-05, 3.832248694379814e-06, 2.4283068341901526e-05, 5.5496297136414796e-05, -0.00012485796469263732, 7.22386030247435e-05, 3.0883849831297994e-05, 5.983869414194487e-05, -0.00010467760876053944, 2.4872409994713962e-05, 2.905378642026335e-05, 5.748975308961235e-05, 4.769421138917096e-06, 7.938833005027846e-05, 7.765897316858172e-05, -8.420048834523186e-05, 3.468032446107827e-05, -0.00010359675070503727, -8.237441215896979e-05, -3.871269291266799e-05, 2.9752733098575845e-05, 0.00045340287033468485, -3.552006455720402e-05, 6.48152781650424e-05, -8.180385339073837e-05, -0.00011630872904788703, -8.210960004362278e-06, -0.00012254218745511025, 3.1172094168141484e-06, 7.261797145474702e-05, 1.1635605915216729e-05, -7.040370110189542e-05, 0.00015720153169240803, 0.00012552026601042598], [-0.0007226032321341336, 0.00013041400234214962, 0.00014988733164500445, 0.0008095880039036274, 0.0028503527864813805, 0.0003617886104620993, -0.00020285334903746843, -0.00045617512660101056, 0.0005502295098267496, 0.00037371355574578047, -0.0002089245681418106, -0.0003626345715019852, -0.0005812133895233274, 0.0008045632857829332, 0.00017264063353650272, 0.0005662241019308567, 0.0004980306839570403, 6.463507452281192e-05, -0.00014454725896939635, 0.000612433475907892, -9.384940494783223e-05, 0.00046496331924572587, -0.0021156363654881716, 9.147595119429752e-05, -0.00029634684324264526, 0.000365996005712077, 0.00014156720135360956, -0.000347128720022738, 0.0003532947739586234, -8.89119110070169e-06, 3.3521297154948115e-05, 0.0006292142206802964, -0.00021900839055888355, 0.00022486833040602505, -0.0004619721439667046, -0.00014685079804621637, 0.000264774018432945, -0.0001318685826845467, 0.00013956856855656952, 0.0004234023508615792, 0.00016940553905442357, -0.00024901822325773537, 0.0007844186038710177, 0.00030737053020857275, -0.0004695456591434777, -0.00022349890787154436, -0.0008768400293774903, -5.55917140445672e-05, 0.0004540877998806536, 5.3687006584368646e-05, 0.0006760634132660925, 0.00010568673314992338, 0.00024850640329532325, -0.0009737479849718511, 0.00027451998903416097, 8.06878597359173e-05, -0.0006053297547623515, -0.0006139446049928665, -0.00025123669183813035, -0.0005400426452979445, 1.0407238733023405e-06, -0.000338491314323619, -0.0006519214948639274, 3.763344466278795e-06, 9.004220191854984e-05, 0.00033348784199915826, -0.0007339321891777217, 0.00046543526696041226, 0.0003115017316304147, 0.000306936155539006, -0.0008253256673924625, 0.0001965895644389093, 0.0005695644649676979, 0.00014168230700306594, 0.00020899609080515802, 0.0007329616928473115, 0.0005345285753719509, -0.00040188152343034744, 0.00010485001257620752, -0.0005122529109939933, 3.490253584459424e-05, -0.0003023677854798734, 0.0003413725062273443, 0.0037101798225194216, -0.0002303884830325842, 0.0006078749429434538, -0.0002379721699981019, 7.273496885318309e-05, -0.0006194338202476501, -0.0007777641294524074, 3.907565769623034e-06, 0.0005298243486322463, 0.0001964764524018392, -0.00043085444485768676, 0.00040943329804576933, 0.0005019872332923114], [-0.00024175243743229657, 2.636341559991706e-05, -2.4803302949294448e-05, 0.0003398018889129162, 0.0006448379717767239, 0.00013927760301157832, -0.0001514875330030918, -0.00031225470593199134, 0.00035170232877135277, 7.810696115484461e-05, -0.00013770771329291165, -0.00022953117149882019, -0.000261969689745456, 0.00020982141722925007, 0.0002184977929573506, 0.0003423795569688082, 0.000344128959113732, 4.48434439022094e-05, -2.1829600882483646e-07, 0.0002657689619809389, -0.00011700846516760066, 0.00015671846631448716, -7.426502997986972e-05, -8.278802852146327e-05, -5.760651038144715e-05, 0.00021236239990685135, 0.0002066361194010824, -0.0003719347296282649, 0.00016776635311543941, 4.21378827013541e-05, 7.984824333107099e-05, 0.00016842657350935042, -0.00013982862583361566, 3.359626134624705e-05, -0.00023954769130796194, -4.239319241605699e-05, 9.734264313010499e-05, -5.955550295766443e-05, 3.468209251877852e-05, 0.0003835863317362964, 0.0002737915492616594, -0.0003634525928646326, 0.0005023767589591444, 0.00019048628746531904, -0.00019422138575464487, -0.00015349272871389985, -0.00023996700474526733, -3.604783159971703e-06, 0.0003560170589480549, 5.8633821026887745e-05, 0.00032589136390015483, -6.576150190085173e-05, -1.0363946785219014e-05, -0.0002926951856352389, 0.00033329808502458036, 6.573720020242035e-05, -0.00022417158470489085, -0.00021218988695181906, -7.104012911440805e-05, -0.000399435666622594, 7.670292688999325e-05, 0.00012773522757925093, -0.00016304977179970592, -1.907474324980285e-05, 0.00012921279994770885, 0.00012994633289054036, -0.00029442564118653536, 0.0001758540456648916, 0.0001897727488540113, 0.00017508678138256073, -0.0003680638619698584, 2.8715112421195954e-06, 0.0001368718221783638, 0.00015400449046865106, 4.109486690140329e-05, 0.00027374408091418445, 0.0003740487736649811, -0.00025041663320735097, 0.0001336643035756424, -0.00025444437051191926, -9.686421981314197e-05, -0.00020535613293759525, 0.00015773807535879314, 0.001921648159623146, -0.00011014562915079296, 0.00015240980428643525, -0.00020646925258915871, -6.42333907308057e-05, -0.0001593520282767713, -0.00033674429869279265, 5.947876161371823e-06, 0.00021769199520349503, 5.034568312112242e-05, -0.00037307856837287545, 0.0003799310652539134, 0.0003706489806063473], [4.1957111534429714e-05, 3.30717048200313e-05, 2.4623637727927417e-05, -0.0001048841659212485, 0.0010402145562693477, 5.702527050743811e-05, -8.187581261154264e-05, -9.703545219963416e-05, 5.815672921016812e-06, -9.677516572992317e-06, -5.526979293790646e-06, -3.0494362363242544e-05, 7.559004006907344e-05, -7.064385863486677e-05, 1.7532547644805163e-05, -0.00013833434786647558, 5.644666998705361e-06, -6.0028036386938766e-05, -0.00021419818222057074, 3.81415338779334e-05, 0.0001656321546761319, 2.574635436758399e-05, -0.00045483902795240283, 0.00014058947272133082, -5.1744245865847915e-05, 2.019427665800322e-05, -7.107046258170158e-07, -7.066452235449106e-05, 5.26230396644678e-05, -1.354900814476423e-05, 9.802231943467632e-06, 5.4040749091655016e-05, 9.618311014492065e-05, 0.000103231672255788, 4.5771834265906364e-05, -8.748145774006844e-06, 1.9295061065349728e-05, -0.00010123007814399898, 6.363408465404063e-05, 2.4307051717187278e-05, -5.670386599376798e-05, -4.714671376859769e-05, 4.457475370145403e-06, -7.147407450247556e-05, 5.215740384301171e-05, -3.082383773289621e-05, -5.0793336413335055e-05, -3.226913759135641e-05, -2.2813532268628478e-05, 0.00012583697389345616, -0.00014730212569702417, -8.293274004245177e-05, 8.67622802616097e-05, 7.82618299126625e-05, -1.4102140994509682e-05, 0.00015480157162528485, 2.2926571546122432e-05, 2.4106728233164176e-05, -1.175315264845267e-05, -9.700396185507998e-05, -8.061223343247548e-05, -0.0001419444161001593, 0.00011804597306763753, -2.9158643883420154e-05, 5.042214979766868e-05, 9.478608262725174e-05, 0.00014566459867637604, 2.9525945137720555e-05, 4.2631632823031396e-05, 5.3748779464513063e-05, -5.2026112825842574e-05, 8.88713839231059e-05, 5.053316272096708e-07, -1.0337971616536379e-05, 1.2126364708819892e-05, -7.669029582757503e-05, 0.0001241915742866695, -5.531897477339953e-05, -3.8750353269279e-05, -4.54650835308712e-05, -5.612867244053632e-05, -1.6086843970697373e-05, -8.119683479890227e-05, 0.0003483447653707117, 7.010203262325376e-05, 0.00011739353067241609, 1.0031271813204512e-07, -0.00022586353588849306, -6.638357444899157e-05, -0.00015549617819488049, -6.924339231773047e-06, 5.458010855363682e-05, 9.039444557856768e-05, -6.795210083510028e-06, 0.0001559088414069265, 6.149735418148339e-05], [1.880901982076466e-05, -0.0008426333079114556, -0.001676165615208447, 0.0014458601363003254, 0.006432822905480862, -0.00125432712957263, -0.00024789123563095927, 0.0005373004823923111, 0.0011703211348503828, -0.000869345385581255, 0.0006469517829827964, -0.0005807845154777169, 0.001488562673330307, -8.75902478583157e-05, 0.003687917720526457, 0.0027237720787525177, 0.0023173680528998375, 0.0013072325382381678, 0.0023031411692500114, -0.0006163844373077154, -0.001857319730333984, -0.0012895520776510239, -0.008981316350400448, -0.00048703353968448937, 0.0008893381454981863, 0.001771726063452661, 0.0022905622608959675, -0.0012051949743181467, 0.00029541790718212724, 0.0018387162126600742, -0.0010515660978853703, -0.00267553748562932, -0.0034672580659389496, 0.0003538259770721197, -0.0006087945075705647, -4.870342672802508e-05, 0.00013337693235371262, 0.0005138104897923768, -0.0007457740139216185, 0.0014751009875908494, 0.0032557968515902758, -0.0014946177834644914, 0.004122196231037378, 0.00048169202636927366, -0.0010424775537103415, -0.0012232926674187183, -6.404821760952473e-06, -0.00010489035048522055, -0.0003515318385325372, -0.002144151832908392, 0.0002598419669084251, 0.0004218171234242618, -0.0010438996832817793, 0.0002705594233702868, 0.0002326533867744729, 0.0020762612111866474, 0.0015570672694593668, 0.00021891415235586464, -0.0009470266522839665, 0.0002402320969849825, 0.0024606790393590927, 0.0018143885536119342, 0.0012634422164410353, -0.0006962567567825317, 0.0008646589703857899, 0.0017540648113936186, -0.0010835012653842568, -0.0012826059246435761, 0.0014389322604984045, -0.00014381500659510493, -0.000848826952278614, -0.00039612362161278725, -0.0006194598390720785, 0.0011853051837533712, -0.0012773741036653519, 0.0011208481155335903, 0.0006134596187621355, -0.001867538783699274, 0.001657275715842843, -0.0001715623657219112, -9.751459583640099e-05, -0.0019233295461162925, 0.000284833979094401, -0.0010307320626452565, 0.00037733049248345196, 0.0002180372248403728, -0.0007151875761337578, 0.0025624441914260387, 0.0006894701509736478, 0.0002848867152351886, 0.00018698204075917602, -0.0023804758675396442, 0.0005033474299125373, -0.0035713627003133297, 0.0004633697390090674, 0.0003294307680334896], [0.00037409659125842154, -0.0011088581522926688, -0.0028204447589814663, 0.001444751862436533, 0.006638715043663979, -0.0014981201384216547, -0.00017621721781324595, 0.000746825011447072, 0.0010453630238771439, -0.0006403662846423686, 0.0004303584573790431, -0.000722589495126158, 0.002189446007832885, -0.0005139540880918503, 0.0031769704073667526, 0.003717036684975028, 0.0023466763086616993, 0.0014524515718221664, 0.000634131021797657, -0.0010062590008601546, -0.002045504981651902, -0.0016050138510763645, -0.01037436444312334, -0.0004819732566829771, 0.0008831522427499294, 0.001956706866621971, 0.0023219590075314045, -0.0010742986341938376, 0.0003308541781734675, 0.0024405738804489374, -0.0013114253524690866, -0.0027832204941660166, -0.002168738516047597, 0.0002558912383392453, -0.00045515730744227767, -9.567067900206894e-05, 8.612625970272347e-05, 0.0007229956099763513, -0.0002569046919234097, 0.0013235348742455244, 0.003386211581528187, -0.0013786321505904198, 0.0042070141062140465, 0.0005265173385851085, -0.0010397362057119608, -0.0014796636532992125, 7.161503890529275e-05, -6.630798452533782e-05, -0.0005645331111736596, -0.002105982508510351, 0.0002334244200028479, 0.0003565968363545835, -0.0006116559379734099, 0.0005761792417615652, 0.00014242429460864514, 0.0027858344838023186, 0.002036968944594264, 0.0003605278907343745, -0.0007448030519299209, 0.00036353833274915814, 0.0026894444599747658, 0.0007975371554493904, 0.001084743533283472, -0.0002947057946585119, 0.0007767737843096256, 0.0025563137605786324, -0.0012314730556681752, -0.0014401990920305252, 0.0014769367408007383, -0.0003469694929663092, -0.0008900113753043115, -0.00037382374284788966, -0.0006591355195268989, 0.0017046307912096381, -0.0015900135040283203, 0.0009668772108852863, 0.0005719531909562647, -0.002126186853274703, 0.001178334467113018, -0.00014623018796555698, -0.00010384740744484589, -0.001605637022294104, 0.00028558506164699793, -0.0031186032574623823, 0.0004497261543292552, -5.057951784692705e-05, -0.000699157768394798, 0.003787080757319927, 0.0011371198343113065, 0.0005691968835890293, 0.0001116420462494716, -0.0028474354185163975, 0.0007558065699413419, -0.0017359750345349312, 0.00048061629058793187, 0.0003552484849933535], [-0.0005210370291024446, -0.0007110012229532003, -0.0019843047484755516, 0.0019570423755794764, 0.01104734092950821, -0.0004532089806161821, -0.0006715457420796156, -0.0002816590713337064, 0.0016792700625956059, -0.00023863062961027026, 8.18059197627008e-05, -0.0008494065841659904, 0.0005701163900084794, 0.0005179307190701365, 0.00325105176307261, 0.0025029387325048447, 0.002613627817481756, 0.000864390458445996, 0.0007376304129138589, -0.00032033241586759686, -0.0014783237129449844, -0.0009015838732011616, -0.017379093915224075, -0.0005942653515376151, 0.00035723132896237075, 0.001893351087346673, 0.0023081121034920216, -0.0013759948778897524, 0.0007809657836332917, 0.0016656166408210993, -0.0008773900917731225, -0.0016625612042844296, -0.003801721381023526, 0.0005666231154464185, -0.0011471100151538849, -0.00037357330438680947, 0.000297241349471733, 0.0008413559407927096, -0.000668188207782805, 0.0015067937783896923, 0.0025852781254798174, -0.0017108041793107986, 0.00327789643779397, 0.0011706280056387186, -0.001476626144722104, -0.0010739588178694248, -0.0008246554061770439, -0.00013157527428120375, 0.0005790767027065158, -0.0015702092787250876, 0.001106725656427443, 0.0005811516894027591, -0.0011141940485686064, -0.0006004614988341928, 0.0008341743377968669, 0.002157787326723337, 0.0008481608820147812, -0.0007865124498493969, -0.0015316338976845145, -0.000575692334678024, 0.001974716316908598, 0.0015940243611112237, 0.0004029086558148265, -0.0010742966551333666, 0.0010146943386644125, 0.0025769390631467104, -0.001768083544448018, -0.0005239612073637545, 0.0013105561956763268, 0.0003876717819366604, -0.00162085413467139, -0.00036506057949736714, 9.998705354519188e-05, 0.0016250675544142723, -0.0006025147158652544, 0.001535553950816393, 0.0014528371393680573, -0.0011403922690078616, 0.0010103879030793905, -0.0005250191316008568, -0.00031624658731743693, -0.0017776947934180498, 0.0006077659199945629, 0.0013387282378971577, 0.00010089762508869171, 0.0007010960835032165, -0.0009356710943393409, 0.00103352265432477, 0.0003077318542636931, -0.0005250958492979407, 0.0003164784284308553, -0.001263126963749528, 0.0008290965342894197, -0.0029913000762462616, 0.001197747653350234, 0.0010191937908530235], [-0.0005716606974601746, -0.0007627391023561358, -0.0026881410740315914, 0.0011086554732173681, 0.0142433550208807, 0.0003487614740151912, -0.00034355337265878916, 0.00040096574230119586, 0.0011489676544442773, -0.0010703573934733868, 