{"lstm.weight_ih_l0": [[0.003397800959646702], [0.07234411686658859], [-0.01130603812634945], [0.041279274970293045], [0.002174185588955879], [0.08301594853401184], [0.01729223132133484], [-0.01460616197437048], [-0.010409806855022907], [-0.2168123573064804], [0.0014916533837094903], [-0.05090795084834099], [-0.006101522594690323], [0.002824246883392334], [0.0032160580158233643], [0.05494576692581177], [0.024192694574594498], [-0.017394257709383965], [-0.006342724896967411], [-0.03283581882715225], [-0.00986489374190569], [-0.019745279103517532], [-0.1323908567428589], [-0.000247124582529068], [0.007182100787758827], [0.06499087065458298], [0.03537662327289581], [-0.011106494814157486], [-0.012346706353127956], [-0.009927106089890003], [-0.003513029543682933], [1.0707828998565674], [0.0028374928515404463], [0.05700308084487915], [-0.007746179588139057], [0.034796204417943954], [0.0019924018997699022], [0.06466884166002274], [0.013101745396852493], [-0.005767028778791428], [-0.0028437369037419558], [-0.3417610228061676], [0.0008603426394984126], [-0.04750121757388115], [-0.0044745588675141335], [0.0025527295656502247], [0.0023780593182891607], [0.04349032789468765], [0.018342407420277596], [-0.010004159063100815], [-0.002415100345388055], [-0.02037965878844261], [-0.004553340375423431], [-0.013086402788758278], [-0.08930382132530212], [-0.005999870598316193], [0.006765641272068024], [0.04988466575741768], [0.02981836162507534], [-0.026622071862220764], [-0.010968666523694992], [-0.003005825448781252], [-0.00014973594807088375], [1.091096043586731], [0.09031768888235092], [0.23221011459827423], [0.034210946410894394], [0.16613082587718964], [0.13727204501628876], [0.3153669834136963], [-0.05229169502854347], [0.23019349575042725], [-0.14707720279693604], [-1.1430796384811401], [-0.09142718464136124], [-0.10623189806938171], [-0.0030476939864456654], [-0.09688212722539902], [-0.017820697277784348], [0.1637125015258789], [0.1734522432088852], [-0.1734306812286377], [-0.028032977133989334], [-0.06352775543928146], [-0.12604960799217224], [0.1000528633594513], [-0.439579576253891], [-0.12283379584550858], [0.15279528498649597], [0.26066312193870544], [0.23653291165828705], [-0.24014151096343994], [0.030803240835666656], [-0.27078771591186523], [0.15785256028175354], [1.7976505756378174], [0.004116684664040804], [0.07404733449220657], [-0.010124888271093369], [0.04146503657102585], [0.002146476646885276], [0.0855746641755104], [0.017643406987190247], [-0.015892747789621353], [-0.011588472872972488], [-0.43799304962158203], [0.0018306330312043428], [-0.05098620057106018], [-0.007895929738879204], [0.0029198420234024525], [0.0037924577482044697], [0.05571078509092331], [0.02486516907811165], [-0.0170915350317955], [-0.00640634261071682], [-0.031086858361959457], [-0.010512826032936573], [-0.019811447709798813], [-0.13812854886054993], [0.0008983474690467119], [0.006906784139573574], [0.06713177263736725], [0.036349017173051834], [-0.008377360180020332], [-0.012382701970636845], [-0.010752365924417973], [-0.0024565947242081165], [1.6246737241744995]], "lstm.weight_hh_l0": [[0.0009238937636837363, 0.0017053750343620777, -0.001689345226623118, 0.00030267323018051684, 3.2144303986569867e-05, -0.00020871558808721602, -0.0015679897041991353, 0.0003992842976003885, -0.00059697829419747, 0.035231441259384155, -0.0011778319021686912, 0.00027346136630512774, 0.0005851725582033396, -0.0007837104494683444, -0.0013334203977137804, 0.0005698201712220907, 0.0013324115425348282, 0.0008336814353242517, 0.0011152045335620642, -0.0008249675738625228, -0.001112519414164126, 0.0018561170436441898, 0.002870624652132392, -0.0003110758843831718, 0.000497997272759676, 0.00028189801378175616, 0.002026165369898081, -0.0016629915917292237, -0.0001815803989302367, -0.000375881209038198, 0.0005908194580115378, -0.0007290715584531426], [0.002883149543777108, 0.0033505710307508707, -0.0007812384283170104, 0.0024005172308534384, 0.0007132947794161737, 0.0026238206773996353, -0.001851365901529789, 0.002007452305406332, -0.001662803115323186, -0.015535799786448479, -0.005278734490275383, -0.0070185973308980465, 0.004560478962957859, -0.0007295007235370576, -0.0005270814290270209, 0.003227886976674199, 0.0021970190573483706, -0.006860832218080759, 0.0012600356712937355, -0.0005374069442041218, -0.0016947570256888866, 0.0013768062926828861, -0.007338729687035084, -0.0044388603419065475, 0.0013033505529165268, 0.002072928473353386, 0.003046623896807432, -0.012032842263579369, -0.0009470097138546407, -0.0019461108604446054, 0.0018644824158400297, 0.049423255026340485], [0.0019398590084165335, 0.0005243250052444637, -0.005489103961735964, -0.001084397779777646, -0.004386624321341515, -0.004162483382970095, -0.006270074285566807, 0.007251694332808256, -0.008744347840547562, -0.02353719249367714, 0.0015025975881144404, 0.009668175131082535, -0.00372230913490057, 0.0014141460414975882, -0.0042922645807266235, -0.0001324696931988001, 0.0026825405657291412, 0.004372918047010899, 0.009839489124715328, -0.003779631806537509, -0.001611584797501564, 0.0023525916039943695, 0.011211161501705647, 0.007357826456427574, 0.009015978313982487, -0.0027513711247593164, -0.004119674675166607, 0.017047833651304245, 0.005071159917861223, -0.0050425902009010315, 0.010340850800275803, -0.010712788440287113], [0.0017435946501791477, 0.004626536276191473, 0.004368581809103489, 0.002482966287061572, 0.0023799045011401176, 0.005180881358683109, 0.0027360592503100634, -0.0027159687597304583, 0.0027482546865940094, -0.01003318838775158, -0.00827435590326786, -0.009913072921335697, 0.009625515900552273, -0.0018489612266421318, 0.0013225612929090858, 0.0035649489145725965, 0.0026082571130245924, -0.0033533910755068064, -0.0013853281270712614, 0.00298523367382586, -0.0011601579608395696, 0.00026028029969893396, -0.011715426109731197, -0.006743611302226782, -0.003369756741449237, 0.005484308116137981, 0.00665374007076025, -0.012598909437656403, -0.002787190955132246, 0.0017802631482481956, -0.0024331253953278065, 0.03435952588915825], [3.677207132568583e-05, 3.490337257971987e-05, -0.000764022464863956, 6.885191396577284e-05, 0.00021544478659052402, 3.6258858017390594e-05, -0.00012622597569134086, 0.00045352382585406303, -0.0002979616110678762, 0.0043812524527311325, 0.00014130889030639082, 0.0008884090348146856, -0.00030805295682512224, -0.00012588969548232853, -5.3994979680282995e-05, 3.618097980506718e-05, 0.00011531462223501876, 0.00021297713101375848, 0.00010479823686182499, -0.00023615581449121237, -8.026171417441219e-05, -0.00011587521294131875, -9.704759577289224e-05, 0.0008497305097989738, 0.0003454505931586027, 3.636759356595576e-05, 4.72996907774359e-05, 0.0008146805921569467, 0.0004922093939967453, -0.00047045969404280186, 0.00024299888173118234, -0.0019392367685213685], [0.004215645138174295, 0.002387435408309102, 0.0036319983191788197, 0.003271571360528469, 0.001537097035907209, -0.003580129472538829, 0.00032721058232709765, -0.00031413932447321713, -0.000430666928878054, -0.0004289337666705251, -0.008031785488128662, -0.020167794078588486, 0.007916824892163277, 0.0006122085615061224, -0.0006410678033716977, 0.0030312309972941875, 0.002584917936474085, -0.007811202667653561, 0.0017964399885386229, 0.0021179858595132828, -0.0038994173519313335, 0.0028165550902485847, -0.006169979460537434, -0.013452121056616306, 0.00014370487770065665, -0.0005335409659892321, 0.0038397263269871473, -0.03640245273709297, -0.003409801283851266, 0.00017334653239231557, 0.0010756461415439844, 0.056176815181970596], [0.00147371762432158, 0.003532418981194496, -0.001384578412398696, 0.0019221880938857794, 0.002106843749061227, 0.004193686414510012, -0.0018915345426648855, -0.0023922622203826904, 0.0026736401487141848, 0.0005136337131261826, -0.003909852355718613, -0.005279755685478449, 0.003133750520646572, -0.002729471307247877, -0.0008549618069082499, 0.0020279493182897568, 0.0025624996051192284, -0.0013155090855434537, -0.004286868032068014, 0.0005833630566485226, -0.0012674577301368117, 0.002560908440500498, -0.002505768556147814, -0.006702085491269827, -0.003243444487452507, 0.004298826213926077, 0.007606986910104752, -0.014454575255513191, -0.0031298676040023565, 0.0003084986819885671, -0.0032480426598340273, -0.01106565073132515], [-0.000880418810993433, -0.0023152290377765894, 0.012887291610240936, -0.00040738083771429956, 0.00329998298548162, -0.0011530970223248005, 0.006645923014730215, -0.003445176873356104, 0.004708575550466776, 0.044681720435619354, -0.004152781330049038, -0.011488942429423332, 0.005658156704157591, 0.000654306379146874, 0.00220973021350801, -0.0019507198594510555, -0.0015367604792118073, -0.009447631426155567, -0.007102797273546457, 0.005669401027262211, 0.0005198309663683176, 0.0020827080588787794, -0.006648706272244453, -0.009029907174408436, -0.0029596867971122265, -0.001178740756586194, 0.00014645815826952457, -0.01262618787586689, -0.004491272382438183, 0.0007426704396493733, -0.003620663657784462, -0.07387743890285492], [-0.0003363074501976371, -0.0016418562736362219, 0.012640891596674919, -0.0003261140373069793, 0.002710218308493495, -0.0008630810189060867, 0.008367802016437054, -0.003202029038220644, 0.00392819894477725, 0.04435531422495842, -0.00684482604265213, -0.011943569406867027, 0.007613101042807102, 0.0006416752585209906, 0.002154826419427991, -0.0014268269296735525, -0.0011243443004786968, -0.008539261296391487, -0.0056039514020085335, 0.0060044098645448685, 0.0003711895551532507, 0.001841675373725593, -0.007336519658565521, -0.008520986884832382, -0.002508742269128561, -0.0008944086730480194, 0.00019804126350209117, -0.01595231704413891, -0.004379285499453545, 0.0013794165570288897, -0.0030230435077100992, -0.04939395934343338], [0.058483269065618515, 0.03884506598114967, -0.16615496575832367, 0.047338638454675674, -0.002915870863944292, 0.03621193766593933, -0.09579887986183167, -0.03692471981048584, 0.024935780093073845, -0.0013217064552009106, -0.05516216531395912, -0.0339716300368309, 0.04615671932697296, -0.003604407887905836, -0.02816801890730858, 0.055681657046079636, 0.015053954906761646, 0.12824541330337524, 0.047868724912405014, -0.03576583042740822, -0.01885949820280075, 0.01894177496433258, -0.058003902435302734, -0.0401310995221138, -0.006839384790509939, 0.020825641229748726, 0.015846669673919678, -0.012668254785239697, 0.012019730173051357, 0.03557851165533066, -0.0008772797882556915, 0.16690033674240112], [0.003127068281173706, 0.004365252330899239, -0.01274406723678112, 0.00151193724013865, -0.0015164888463914394, -5.797389894723892e-05, -0.007701183669269085, 0.007622998673468828, -0.006801131647080183, -0.03603658080101013, -0.0007390726241283119, 0.01960061490535736, -0.0008843521354719996, -0.00012590218102559447, -0.0031077724415808916, 0.0030144830234348774, 0.005151483230292797, 0.006699304096400738, 0.009290657006204128, -0.0028163399547338486, -0.003770669689401984, 0.00205411110073328, 0.009047568775713444, 0.010746324434876442, 0.007707374170422554, -0.0011229186784476042, -0.002795799169689417, 0.014967875555157661, 0.0042420546524226665, -0.0021801169496029615, 0.005680357571691275, 0.0272902213037014], [-0.0008495609508827329, -0.006903387140482664, -0.018160399049520493, -0.004932236857712269, -0.01346885971724987, -0.01746683567762375, -0.01817096397280693, 0.02048862911760807, -0.024708349257707596, -0.02468656748533249, 0.024028964340686798, 0.018953312188386917, -0.03342419117689133, 0.005465955939143896, -0.007897079922258854, -0.003819739446043968, -0.0009342020493932068, 0.008092180825769901, 0.03203313425183296, -0.0252092145383358, 0.0012769980821758509, -0.005120723973959684, 0.0315563827753067, 0.014405796304345131, 0.020799944177269936, -0.016160059720277786, -0.017249245196580887, 0.02346356026828289, 0.00801169779151678, -0.00939094927161932, 0.023211238905787468, -0.0037493500858545303], [0.002214818960055709, 0.003236539429053664, -0.008594540879130363, 0.001573718967847526, -0.0007933220476843417, 0.0003329684550408274, -0.0047408342361450195, 0.003974375315010548, -0.0035863297525793314, -0.01107608899474144, -0.0004560289962682873, 0.012821393087506294, -0.0007347024511545897, -0.0004665626911446452, -0.0021814184729009867, 0.002777869813144207, 0.003608197206631303, 0.003698708489537239, 0.0063076987862586975, -0.0020758523605763912, -0.00313646555878222, 0.0015618050238117576, 0.0074454862624406815, 0.008320491760969162, 0.004434667993336916, 0.00042296492028981447, -0.00019071961287409067, 0.008190939202904701, 0.0032349962275475264, -0.0011778065236285329, 0.003921366296708584, 0.0029692198149859905], [0.00013989371655043215, -0.00016298734408337623, 0.0004431739216670394, -3.324080535094254e-05, 0.00012633575533982366, -0.0007682669092901051, -1.4534809452015907e-05, -1.2849195627495646e-06, -7.636400550836697e-05, 0.001872466062195599, -0.00044137329678051174, -0.0006673386669717729, 0.0006150776753202081, 0.00025007990188896656, -0.00010711081267800182, -5.44086069567129e-05, 1.0598534572636709e-05, -0.0010371276875957847, 0.0001365884527331218, 0.00026102326228283346, -0.00020149615011177957, 0.0003410498902667314, -0.0006999464239925146, -0.00024564197519794106, 7.751774683129042e-05, -0.0003479815786704421, -0.0002714266302064061, -0.0014633602695539594, -0.00021561580069828779, 3.927249053958803e-06, 4.798813824891113e-05, 0.00011693872511386871], [0.00061202043434605, 0.001401753630489111, 0.003651863429695368, 0.0007580137462355196, 0.0010707733454182744, 0.0011233153054490685, 0.00238657440058887, -0.0031053724233061075, 0.002922720741480589, 0.04299716278910637, -0.0026509989984333515, -0.010042828507721424, 0.0027779489755630493, -0.001435117912478745, -0.00042102893348783255, 0.00033244697260670364, 0.0007376790163107216, -0.0005892448243685067, -0.002991776680573821, 0.00036657365853898227, -0.00032815977465361357, 0.0014403200475499034, -0.0030998671427369118, -0.005458015017211437, -0.003939818125218153, 0.002104185288771987, 0.005185667425394058, -0.012548903934657574, -0.002932187169790268, 0.0015378267271444201, -0.0035300208255648613, -0.005713216494768858], [0.0023668871726840734, 0.00479479692876339, 0.0017275443533435464, 0.0032294904813170433, 0.0006501134485006332, 0.004094444680958986, -8.786204853095114e-05, 0.00012276394409127533, -0.0004150013264734298, -0.024552492424845695, -0.004189139232039452, -0.011156722903251648, 0.004261251538991928, -0.001612612628377974, 0.00025943800574168563, 0.0037818679120391607, 0.0030827161390334368, -0.0037850881926715374, 0.00123701267875731, -0.0004085447289980948, -0.001447479473426938, 7.887298124842346e-06, -0.00967648345977068, -0.007858820259571075, -0.0006424937164410949, 0.004713647533208132, 0.006102476269006729, -0.016388753429055214, -0.001872386783361435, -0.0002889591851271689, 0.0006000669673085213, 0.053564511239528656], [0.0011369632557034492, 0.0011498588137328625, -0.0008830729639157653, 0.0008421554230153561, 0.00020354788284748793, 0.0010958770290017128, -0.0012440563878044486, 0.0008536431705579162, -0.0007091070874594152, -2.3712906113360077e-05, -0.0022403914481401443, -0.001971826422959566, 0.0014351187273859978, -0.0003344114520587027, -0.0004251487844157964, 0.001143092755228281, 0.0008167140767909586, -0.0012311373138800263, 0.0004826260847039521, -0.0005619141738861799, -0.0006348956376314163, 0.0006339510437101126, -0.0019819485023617744, -0.0013539385981857777, 0.0005831308080814779, 0.0009375382796861231, 0.0012526961509138346, -0.003712514415383339, -0.00019703163707163185, -0.0008464183774776757, 0.0007689486956223845, 0.013546188361942768], [0.0007855335134081542, 0.0006468796054832637, -0.0016539307544007897, -0.0008382986998185515, -0.00023076869547367096, -0.0013865050859749317, -0.0010350465308874846, 0.000515415333211422, -0.0008616595878265798, 0.0324941948056221, 0.00015648637781850994, 0.00037319102557376027, -0.0004887369577772915, -0.0002977469703182578, -0.0016760624712333083, -0.00044798626913689077, 0.0007924748933874071, 0.0013688333565369248, 0.0018483902094885707, 0.0010172922629863024, 2.9947637813165784e-05, 0.000730707251932472, 0.002166394144296646, 0.0006737213698215783, 0.00035587759339250624, -0.0007605029386468232, 0.0003295094065833837, 0.0007493995944969356, 0.00021194646251387894, -0.0002582629967946559, 0.0004554521874524653, -0.021596921607851982], [0.000481149647384882, -0.0004947066190652549, 0.0038711833767592907, 8.66349000716582e-05, 0.0008897139923647046, -0.0003806750464718789, 0.003356394823640585, -0.0011991276405751705, 0.0020198633428663015, 0.04199666157364845, -0.0035823234356939793, -0.004921571351587772, 0.003433101112022996, 0.0004962810780853033, -0.0001403382048010826, -0.0006239123758859932, -0.0005633824621327221, -0.0007436986779794097, -0.00855217594653368, 0.002200646325945854, -0.0009312182082794607, 0.001248675980605185, -0.0012244468089193106, -0.0025227812584489584, -0.0005325464881025255, -0.0006014598766341805, -0.0003913885448127985, -0.005897097289562225, -0.0016414844430983067, 0.0004410119145177305, -0.0009902098681777716, -0.020025109872221947], [-0.00038352131377905607, -0.0027900561690330505, 0.005816946271806955, -0.0012983636697754264, 0.0005705564399249852, -0.002603311790153384, 0.001284414087422192, -0.0026124140713363886, 0.002853956539183855, 0.06891438364982605, -0.005508017726242542, -0.007323690690100193, 0.0034958627074956894, 0.0005047117592766881, 0.0009198040934279561, -0.002135608810931444, -0.0012884981697425246, 1.3055716408416629e-05, -0.004159866366535425, 0.011366189457476139, 0.0008077890379354358, 0.0010956698097288609, 0.006297901272773743, -0.005058578215539455, -0.004240136593580246, -0.0013021796476095915, 0.00101596605964005, -0.0068594664335250854, -0.0025169479195028543, 0.000712847919203341, -0.002493780804798007, -0.07052160054445267], [0.0006449669017456472, 0.0011551616480574012, 0.00010304758325219154, 5.506168236024678e-05, -0.00018816033843904734, 0.0009550111135467887, -0.00019769175560213625, 0.000978540745563805, -0.001144631183706224, -0.030653193593025208, -0.000816606858279556, -0.0025824904441833496, 0.001052203238941729, -0.0005971654318273067, 9.133483399637043e-05, 0.0006295578787103295, 0.0008637540740892291, -0.0008158720447681844, 0.0007654991932213306, -0.0015415266389027238, 0.0007793445838615298, -0.0009469692595303059, -0.003969687968492508, -0.002753238193690777, 6.552698323503137e-06, 0.0010360085871070623, 0.0017609092174097896, -0.004350550938397646, 0.0001877628528745845, 0.0002754860033746809, 0.0005884987767785788, -0.01920112781226635], [0.0015223604859784245, 0.001735603203997016, -0.006926300935447216, 0.0011985666351392865, -0.0021289936266839504, 0.0017048101872205734, -0.00543149933218956, -0.0009508528746664524, -0.00017969908367376775, 0.041850216686725616, -0.001903971889987588, 0.009595254436135292, 0.0011627876665443182, -0.0005409771692939103, -0.0020327805541455746, 0.0015575512079522014, 0.0013354631373658776, 0.0028583563398569822, 0.001467130845412612, 0.00018772184557747096, -0.002803181065246463, 0.00348881003446877, 0.010823731310665607, 0.001301668002270162, 0.0006966298096813262, 0.001483574858866632, 0.0010468390537425876, 0.009767170064151287, -0.00030251615680754185, 0.0018467600457370281, 0.0006942721665836871, -0.018750378862023354], [-0.00452169356867671, -0.016395844519138336, -0.011555464006960392, -0.008294394239783287, -0.0017204522155225277, -0.018476929515600204, -0.007482612505555153, 0.005671935621649027, -0.0035920869559049606, -0.08918912708759308, -0.003729164833202958, 0.028948595747351646, -0.0018880909774452448, 0.006568612530827522, -0.002689921762794256, -0.008081602863967419, -0.00682153319939971, 0.013259610161185265, 0.004693092778325081, 0.01441213209182024, -0.0008758765179663897, 0.0003611964057199657, 0.04771121218800545, 0.025518251582980156, 0.010128049179911613, -0.024031762033700943, -0.019841013476252556, 0.03999579697847366, 0.005637181922793388, -0.0015469110803678632, 0.003452042816206813, -0.1696861982345581], [0.0015747647266834974, 0.0022786937188357115, -0.015018966980278492, -0.0013263645814731717, -0.007469948381185532, -0.006306100636720657, -0.01715753600001335, 0.011426357552409172, -0.013598795980215073, -0.014043040573596954, 0.006338358391076326, 0.007451218087226152, -0.01039283350110054, 0.0006090409005992115, -0.004531188402324915, 0.0003696818894241005, 0.003265464911237359, 0.0034618843346834183, 0.013448595069348812, -0.009183170273900032, -0.0018315049819648266, -0.0014133169315755367, 0.013959422707557678, 0.0073179262690246105, 0.0090706218034029, -0.0018578870221972466, -0.001640927279368043, 0.00971193052828312, 0.0025602937676012516, -0.004628921393305063, 0.01243162527680397, 0.008366886526346207], [-4.504472599364817e-07, -6.386372842825949e-05, 0.007398427464067936, 0.0001291921071242541, 0.00128381687682122, 0.0004060348146595061, 0.004589910618960857, -0.0009739574743434787, 0.0011164696188643575, 0.019325044006109238, -0.0036623515188694, -0.006647372152656317, 0.0038153736386448145, 0.00013503561785910279, 0.0008683075429871678, -0.0001960872468771413, -1.5775931387906894e-05, -0.006016286555677652, -0.0016735343961045146, 0.0028988472186028957, 0.00018901281873695552, 0.0008425345877185464, -0.005004986189305782, -0.004626322537660599, -0.0009146108059212565, 0.0002685108920559287, 0.00064258580096066, -0.010291613638401031, -0.001998758176341653, 0.0004100325459148735, -0.0009123696945607662, -0.011485910043120384], [0.0033237007446587086, 0.0013025145744904876, 0.0022046782542020082, 0.0019218085799366236, 0.001567590283229947, -0.00373279582709074, 0.0008258545421995223, 0.0003045455669052899, -0.0008743326761759818, 0.0005162348970770836, -0.012277777306735516, -0.01586303301155567, 0.010406671091914177, 0.0005438900552690029, -2.6094989152625203e-05, 0.002360106911510229, 0.0018033516826108098, -0.007010242901742458, 0.0017071643378585577, 0.0029408386908471584, -0.003056309651583433, 0.0011450503952801228, -0.005621199496090412, -0.013334467075765133, 0.0007356884889304638, -0.0031058238819241524, 0.0024572978727519512, -0.034964315593242645, -0.002722702221944928, 0.00011716659355442971, 0.0012637735344469547, 0.04102496802806854], [0.00154250452760607, 0.0008956178207881749, 0.0016425098292529583, 0.0012948275543749332, 0.0006994539871811867, -0.0014262659242376685, -0.0005229739472270012, 0.0002201414608862251, -0.0003090435639023781, 0.0029061564709991217, -0.003919122740626335, -0.005574051756411791, 0.004185659345239401, 0.00041815111762844026, -0.0001769421942299232, 0.0015931616071611643, 0.0010665529407560825, -0.005704232957214117, 0.0005700481124222279, 0.0008999326964840293, -0.001627754420042038, 0.0012427500914782286, -0.006275316700339317, -0.004388818982988596, 0.00033999502193182707, 8.083204738795757e-05, 0.001095423474907875, -0.011495486833155155, -0.0010673664510250092, -0.0004571136087179184, 0.0005273669958114624, 0.015278425998985767], [0.002219009678810835, -0.005632577929645777, -0.03604557365179062, -0.00683331536129117, -0.007772241719067097, -0.027178796008229256, -0.0185907743871212, 0.022565914317965508, -0.020573696121573448, 0.057334836572408676, 0.01003118883818388, 0.021955270320177078, -0.02023628167808056, 0.005425904877483845, -0.011524303816258907, -0.004080839920789003, 0.006307401228696108, 0.012779329903423786, 0.0370623804628849, -0.014713715761899948, -0.001058122725225985, -0.013586078770458698, 0.03671322017908096, 0.022494401782751083, 0.025835717096924782, -0.015375261195003986, -0.011868387460708618, 0.030398622155189514, 0.011204194277524948, -0.014432928524911404, 0.03118927590548992, -0.029138803482055664], [4.3397660192567855e-05, -0.00044798923772759736, -0.009075479581952095, -0.001128531526774168, -0.0021975196432322264, -0.0027950811199843884, -0.00770185049623251, 0.002897329395636916, -0.0038075605407357216, 0.0009810669580474496, 0.0035594278015196323, 0.00601141806691885, -0.004634407348930836, 0.0005618026480078697, -0.0020891977474093437, -0.0005289269029162824, 0.00019887002417817712, 0.002824836876243353, 0.003515183459967375, -0.0034191934391856194, -0.00013597664656117558, 3.532303526299074e-05, 0.006131886970251799, 0.003772767959162593, 0.0028343526646494865, -0.0029836357571184635, -0.002055059652775526, 0.007755201309919357, 0.0011097604874521494, -0.0010262317955493927, 0.003284730715677142, -0.017766520380973816], [-0.00162040744908154, -0.0017537729581817985, 0.008977138437330723, 0.00021567210205830634, 0.0025141520891338587, -0.0010870348196476698, 0.004341509193181992, -0.0011959860567003489, 0.0017255553975701332, 0.05863073840737343, -0.0006949653616175056, -0.005884978454560041, 0.00045595402480103076, -0.0004323882167227566, 0.001209281850606203, -0.0010832175612449646, -0.0009156207670457661, -0.00480981869623065, -0.00428381934762001, 0.0018129136878997087, 9.025559120345861e-05, 0.000621030165348202, -0.0033358896616846323, -0.004053037613630295, -0.0018538268050178885, 0.0001276730909012258, 0.0010670305928215384, -0.008378012105822563, -0.0013314608950167894, -0.001103903166949749, -0.0016971267759799957, -0.0678112655878067], [-2.368762216065079e-05, -0.0007184608257375658, 0.006688338704407215, -0.00013328764180187136, 0.0008531453786417842, -0.0005403942195698619, 0.002519199624657631, -0.001188330934382975, 0.0015437633264809847, 0.02190312184393406, -0.0022269918117672205, -0.006315991282463074, 0.002108396030962467, 0.0003283873084001243, 0.0001164936984423548, -0.0006209942512214184, -0.00037974529550410807, -0.004880617372691631, -0.002671127673238516, 0.0021045079920440912, 5.156081897439435e-06, 0.0010475657181814313, -0.0012846156023442745, -0.00429067388176918, -0.0008917648810893297, -0.00041983326082117856, 0.00020747483358718455, -0.008920974098145962, -0.002075349912047386, 0.00012670413707382977, -0.0010310349753126502, -0.024923507124185562], [0.033664509654045105, 0.03960450738668442, -0.0002281726337969303, 0.06945224106311798, 0.040347784757614136, 0.07205914705991745, -0.010654658079147339, 0.005553943105041981, 0.01439797692000866, -0.2890603244304657, -0.10069723427295685, -0.05988730117678642, 0.07642126083374023, -0.009758219122886658, -0.0012723098043352365, 0.05556681379675865, 0.02494088187813759, -0.05320621281862259, -0.07151786983013153, 0.05318920314311981, -0.07601089030504227, 0.06602697819471359, -0.05732393264770508, -0.07016295194625854, 0.008403669111430645, 0.0482480488717556, 0.03835491091012955, -0.06888297945261002, -0.032280128449201584, -0.038375187665224075, 0.0013987733982503414, -0.07514385133981705], [0.0005848489818163216, 0.0012859923299401999, -0.0010655828518792987, 0.00028997333720326424, 3.45168991771061e-05, 7.874119910411537e-05, -0.000978390104137361, 0.00016684796719346195, -0.00029298567096702754, 0.025141596794128418, -0.0008174931863322854, 7.53970816731453e-05, 0.0004366434586700052, -0.0006551484693773091, -0.0008838314679451287, 0.0005027299048379064, 0.0008309530676342547, 0.0005342305521480739, 0.0006027262425050139, -0.0004910967545583844, -0.0008163412567228079, 0.0013065319508314133, 0.0019425631035119295, -0.00036479218397289515, 0.00021340970124583691, 0.00039438437670469284, 0.001581192365847528, -0.0012289689620956779, -0.00010398100130259991, -0.00016617677465546876, 0.00029447232373058796, -0.001873660832643509], [0.0022739851847290993, 0.0023759028408676386, -0.0006605992093682289, 0.0017373751616105437, 0.0005779985804110765, 0.0015458270208910108, -0.0014492606278508902, 0.0014913505874574184, -0.0012476801639422774, -0.007519246079027653, -0.00409445445984602, -0.0053307069465518, 0.0035487785935401917, -0.00043176679173484445, -0.0004767256905324757, 0.0023364871740341187, 0.0016170399030670524, -0.005348040722310543, 0.000924689753446728, -0.0003049122460652143, -0.001417844439856708, 0.0012430566130205989, -0.0051805912517011166, -0.003191788215190172, 0.00104202248621732, 0.001236087060533464, 0.0021110873203724623, -0.009173835627734661, -0.0007952399901114404, -0.0014790347777307034, 0.0014353980077430606, 0.03583623096346855], [0.0011630106018856168, 0.00023068588052410632, -0.002853065961971879, -0.0008030543685890734, -0.002609405666589737, -0.002822085050866008, -0.0038429226260632277, 0.004859467502683401, -0.005895895417779684, -0.016229383647441864, 0.0011849182192236185, 0.005547105800360441, -0.0027346841525286436, 0.0009261038503609598, -0.0027214891742914915, -0.00013930730347055942, 0.0016752092633396387, 0.002763418946415186, 0.006679970305413008, -0.0026982813142240047, -0.0009754240163601935, 0.0012318042572587729, 0.007445758208632469, 0.0050273314118385315, 0.006114766001701355, -0.0018863226287066936, -0.0030063395388424397, 0.011090898886322975, 0.003556710435077548, -0.0033441318664699793, 0.007089587859809399, -0.004438572097569704], [0.0012962690088897943, 0.0032580718398094177, 0.004487176425755024, 0.0020068681333214045, 0.0016779029974713922, 0.003686560783535242, 0.0023947705049067736, -0.002107422100380063, 0.0020427987910807133, -0.0013350194785743952, -0.006245714146643877, -0.007679399102926254, 0.007729444652795792, -0.0013501166831701994, 0.0011698445305228233, 0.0028044458013027906, 0.0018436681712046266, -0.00263871974311769, -0.0010845562210306525, 0.002911701798439026, -0.0010899687185883522, 0.0001478272897657007, -0.009275599382817745, -0.005356034729629755, -0.002480645664036274, 0.004198831040412188, 0.005001332610845566, -0.009900995530188084, -0.002184733748435974, 0.0015980051830410957, -0.0018154210411012173, 0.02887866087257862], [7.42388583603315e-05, 4.597544830176048e-05, -0.0009168600663542747, 4.8805843107402325e-05, 0.00018929780344478786, 4.249247649568133e-05, -0.0001567170984344557, 0.0005094405496492982, -0.0003314900677651167, 0.0024861437268555164, 0.0001727720518829301, 0.0010276853572577238, -0.00033133415854535997, -0.00010743381426436827, -5.5796288506826386e-05, 4.6150642447173595e-05, 0.00012535761925391853, 0.0003053422551602125, 0.00015253599849529564, -0.0002658982411958277, -6.260121881496161e-05, -0.00010910306446021423, -8.46873881528154e-05, 0.0009476480772718787, 0.00038851253339089453, -4.49219805886969e-06, 5.126639734953642e-06, 0.0009677448542788625, 0.0005133505910634995, -0.0004911829018965364, 0.00027365732239559293, -0.0013135398039594293], [0.003684333059936762, 0.0006343222339637578, 0.003699709428474307, 0.0022208774462342262, 0.0012556317960843444, -0.005607964936643839, 6.716785719618201e-05, -0.0004221132548991591, -0.0003516533470246941, 0.008202679455280304, -0.005559661891311407, -0.017133237794041634, 0.006049410440027714, 0.0011639595031738281, -0.0007998815272003412, 0.0016008552629500628, 0.00162547267973423, -0.008241555653512478, 0.001332925516180694, 0.0018379810499027371, -0.0033946933690458536, 0.002791824983432889, -0.002830310259014368, -0.011417271569371223, 0.000267556170001626, -0.0016895480221137404, 0.002076869597658515, -0.032367389649152756, -0.0029528590384870768, 0.00017422233941033483, 0.0009225524263456464, 0.033248111605644226], [0.000926763575989753, 0.0024558177683502436, -0.0009033097885549068, 0.0014480937970802188, 0.001438668230548501, 0.0030798243824392557, -0.00120421196334064, -0.0018149192910641432, 0.0019694806542247534, -0.001646846067160368, -0.0025241742841899395, -0.0033721281215548515, 0.002086472464725375, -0.001834841095842421, -0.00036663602804765105, 0.0015160501934587955, 0.0016781354788690805, -0.0011584606254473329, -0.0032370153348892927, 0.0005603231256827712, -0.0008270407561212778, 0.001859026262536645, -0.0024427545722573996, -0.00482819601893425, -0.002419152995571494, 0.003148398594930768, 0.00522876251488924, -0.009859809651970863, -0.0022407625801861286, 0.00039285304956138134, -0.0024059012066572905, -0.007200654596090317], [-0.0008196414564736187, -0.0016597418580204248, 0.011041589081287384, -0.00030025947489775717, 0.0026168411131948233, -0.0005843130638822913, 0.0051172049716115, -0.002625583903864026, 0.003601273987442255, 0.04212202504277229, -0.0029800639022141695, -0.009224730543792248, 0.004262260627001524, 0.0004116342170163989, 0.001929145073518157, -0.0014401436783373356, -0.0011395129840821028, -0.009383734315633774, -0.0056270998902618885, 0.0043039340525865555, 0.0007282320293597877, 0.0014874303014948964, -0.0065475585870444775, -0.008001923561096191, -0.0025544394738972187, -0.0006069261580705643, 0.0003507216752041131, -0.010184302926063538, -0.0035428463015705347, 0.0006295075872913003, -0.0029489146545529366, -0.054479457437992096], [-0.00039180618477985263, -0.0011341351782903075, 0.011308817192912102, -0.00016827511717565358, 0.002235092455521226, -0.0003122325288131833, 0.00730356527492404, -0.0025493598077446222, 0.0030477410182356834, 0.03951556980609894, -0.005876956973224878, -0.009899647906422615, 0.0065461816266179085, 0.0003773606731556356, 0.0021545402705669403, -0.0009661542717367411, -0.0008016036590561271, -0.008945881389081478, -0.004215841181576252, 0.005670445039868355, 0.0005306788953021169, 0.0012946294154971838, -0.0071126967668533325, -0.0073166899383068085, -0.0021622288040816784, -0.00035330397076904774, 0.00043270300375297666, -0.013668758794665337, -0.003402134170755744, 0.0012345151044428349, -0.002470922190696001, -0.034619640558958054], [0.08640863746404648, 0.0986720621585846, -0.2159026563167572, 0.03168095275759697, 0.03310259059071541, 0.06571506708860397, -0.11037860810756683, 0.08449609577655792, -0.09181956201791763, 0.25706514716148376, 0.029864374548196793, -0.03255285322666168, -0.02041110023856163, -0.05404028668999672, -0.031819313764572144, 0.035193782299757004, 0.08608835190534592, 0.21348172426223755, 0.20085696876049042, -0.12516319751739502, 0.02977348119020462, -0.09864012897014618, -0.2816365361213684, -0.024346867576241493, 0.053606659173965454, 0.05936890095472336, 0.057347554713487625, -0.0017385277897119522, 0.0519256591796875, -0.055394940078258514, 0.07972349971532822, -0.2699581980705261], [0.002292509190738201, 0.0029041569214314222, -0.00972856767475605, 0.0009289337322115898, -0.0010752734960988164, -0.000442389864474535, -0.005645798519253731, 0.005518912337720394, -0.004834730178117752, -0.03017982468008995, -0.0006006662733852863, 0.015395906753838062, -0.0006170424749143422, -4.396354779601097e-05, -0.0022659264504909515, 0.0019625285640358925, 0.0036945336032658815, 0.005372493527829647, 0.0065724668093025684, -0.0018330777529627085, -0.002891607815399766, 0.0016819704324007034, 0.007240091450512409, 0.008402721956372261, 0.005821794271469116, -0.0010851030237972736, -0.0025919389445334673, 0.01277979090809822, 0.0028876925352960825, -0.0013769607758149505, 0.004036406986415386, 0.020412838086485863], [-0.0006747084553353488, -0.006145030725747347, -0.018263669684529305, -0.0044103506952524185, -0.011361244134604931, -0.015196332708001137, -0.01721770502626896, 0.018680524080991745, -0.022548116743564606, -0.026464713737368584, 0.02109789289534092, 0.017193986102938652, -0.030232243239879608, 0.004852382466197014, -0.007149797398597002, -0.0034248242154717445, -0.0008090841583907604, 0.007102550007402897, 0.029593830928206444, -0.022152911871671677, 0.0013184226118028164, -0.004187718499451876, 0.030332647264003754, 0.012870842590928078, 0.018714094534516335, -0.015087164007127285, -0.01510997861623764, 0.020932652056217194, 0.007195368874818087, -0.008423035964369774, 0.021411985158920288, 0.0014223274774849415], [0.0017135727684944868, 0.0022084752563387156, -0.006922194734215736, 0.0010399052407592535, -0.0005790223367512226, -9.958419832400978e-05, -0.003602752462029457, 0.003062221687287092, -0.0026730832178145647, -0.009566977620124817, -0.0003168928378727287, 0.010548995807766914, -0.0005654576816596091, -0.00023033222532831132, -0.0016685107257217169, 0.0018933829851448536, 0.002705436199903488, 0.003096912521868944, 0.004770015832036734, -0.001433615805581212, -0.0024484957102686167, 0.001409288146533072, 0.006244366988539696, 0.0068828025832772255, 0.0034865355119109154, -2.7921923901885748e-05, -0.00029603077564388514, 0.006855069659650326, 0.0025022367481142282, -0.0008459811215288937, 0.0029419315978884697, 0.0027053854428231716], [0.00013336037227418274, -0.0001675692037679255, 0.0004013962170574814, -3.831670983345248e-05, 0.00011248912051087245, -0.0007172562181949615, -1.7626935004955158e-05, -8.382368832826614e-06, -5.767412585555576e-05, 0.0019316832767799497, -0.000382363039534539, -0.0005527666653506458, 0.0005227237124927342, 0.00023127566964831203, -0.00010382867185398936, -5.973422958049923e-05, -3.3788919608923607e-06, -0.0009034780086949468, 0.00010902468784479424, 0.0002200700982939452, -0.00018014764646068215, 0.00031608951394446194, -0.0007924828678369522, -0.00013529685384128243, 6.913792458362877e-05, -0.0002796956105157733, -0.0002759406343102455, -0.0010531797306612134, -0.00019609055016189814, 1.6915146261453629e-06, 3.1731022318126634e-05, -0.00024915928952395916], [0.0003928184160031378, 0.0009036817355081439, 0.0031721710693091154, 0.000657632015645504, 0.0006238390342332423, 0.0006837190594524145, 0.0017583559965714812, -0.0024352679029107094, 0.0021337661892175674, 0.034600336104631424, -0.001735283643938601, -0.007549917791038752, 0.0019038427853956819, -0.0010279560228809714, -0.0002620570012368262, 0.000232613630942069, 0.0005367674166336656, -0.0005846567219123244, -0.002224378753453493, 0.0002720743359532207, -0.00026436755433678627, 0.0010557189816609025, -0.002200034912675619, -0.004260483663529158, -0.003067449666559696, 0.001808039378374815, 0.00388546590693295, -0.009528587572276592, -0.0021775998175144196, 0.0011214589467272162, -0.002273328136652708, -0.005395445041358471], [0.0018409757176414132, 0.0033915024250745773, 0.0018683411180973053, 0.0025458517484366894, 0.0003990058321505785, 0.002524270210415125, -9.940413292497396e-05, 7.126381387934089e-05, -0.00035462863161228597, -0.012276820838451385, -0.002598661230877042, -0.008909547701478004, 0.002765210811048746, -0.0011534359073266387, 9.212415898218751e-05, 0.002632325515151024, 0.0022412121761590242, -0.0030917441472411156, 0.0009404717129655182, -0.0005131404614076018, -0.0013097852934151888, -1.8767619621939957e-05, -0.006594811100512743, -0.006087330169975758, -0.00037605606485158205, 0.003475121222436428, 0.004587114788591862, -0.013290907256305218, -0.0014238593867048621, -0.0002456443035043776, 0.0005616305861622095, 0.043216411024332047], [0.0008820223156362772, 0.0008188489591702819, -0.0007077227928675711, 0.0006169890402816236, 0.0001562094985274598, 0.000707763887476176, -0.0009830135386437178, 0.0006168225663714111, -0.0005249918322078884, 0.0028381659649312496, -0.0017551005585119128, -0.001466023619286716, 0.0011079435935243964, -0.00021584935893770307, -0.0003481440944597125, 0.0008250694372691214, 0.0006044084439054132, -0.0008801252115517855, 0.0003619164344854653, -0.00045336075709201396, -0.000527787662576884, 0.0005430261371657252, -0.0013061669887974858, -0.0009629701380617917, 0.0004475116147659719, 0.000629582442343235, 0.0008896883227862418, -0.002769285114482045, -0.0001718531857477501, -0.0006164771621115506, 0.0005793854361400008, 0.009468182921409607], [0.0004055093741044402, 0.0004430904518812895, -0.0009405524469912052, -0.0005225154454819858, -0.00012532324763014913, -0.0007451958954334259, -0.0004759350558742881, 0.00024296723131556064, -0.0003596297465264797, 0.022594481706619263, 0.00012029483332298696, -5.956616223556921e-05, -0.00026954716304317117, -0.00017376926552969962, -0.0010859840549528599, -0.00030985428020358086, 0.00062428048113361, 0.0005590775399468839, 0.0008848626166582108, -0.0007073725573718548, -6.79817094351165e-06, 0.00041395926382392645, 0.0011198674328625202, 0.0004365264903753996, 0.0003621462674345821, -0.0002586733899079263, 0.00018422731955070049, 0.0004541662347037345, 0.00010289011697750539, -0.0002678389719221741, 0.0004999754601158202, -0.008338004350662231], [0.00023396352480631322, -0.0003629425191320479, 0.003319399431347847, 2.24745599552989e-06, 0.0006553074344992638, -0.00011536113743204623, 0.0027820037212222815, -0.0007414232240989804, 0.0013119149953126907, 0.04176881164312363, -0.0028819951694458723, -0.003457993036136031, 0.002717535709962249, 0.0002686304214876145, -2.7113172109238803e-05, -0.0004065820830874145, -0.00039805995766073465, -0.001312923850491643, -0.006890425458550453, 0.0012308419682085514, -0.0003027782659046352, 0.0006897822604514658, -0.0017582961590960622, -0.001787083689123392, -0.0003970721154473722, -0.00035787399974651635, -0.00018409611948300153, -0.004148851148784161, -0.0010267585748806596, 0.00028120438219048083, -0.0006685107946395874, -0.01121943723410368], [-0.00028216681675985456, -0.0022023499477654696, 0.004727579653263092, -0.0009345094440504909, 0.0003463451284915209, -0.0009456195402890444, 0.0009808463510125875, -0.0019572372548282146, 0.0023592461366206408, 0.06519564986228943, -0.006355166435241699, -0.005914564244449139, 0.0038777911104261875, 0.00046930689131841063, 0.0018053533276543021, -0.001361715141683817, -0.0011745172087103128, -7.677101530134678e-05, -0.0034467587247490883, 0.012374605052173138, 0.000568586983717978, 0.0008216082351282239, 0.005679756868630648, -0.003974503837525845, -0.003152482910081744, -0.0011062646517530084, 0.0006690962472930551, -0.0052192676812410355, -0.001973820850253105, 0.0005018948577344418, -0.0018382640555500984, -0.05574245750904083], [0.00038564862916246057, 0.0007027146057225764, 7.809867383912206e-06, 6.81282181176357e-05, -0.00014140222629066557, 0.0005737659521400928, -0.00016525147657375783, 0.0004685918102040887, -0.0007004134822636843, -0.010076168924570084, -0.0006567060481756926, -0.001722522545605898, 0.0008431875030510128, -0.00038060464430600405, 0.00013135463814251125, 0.0004817811422981322, 0.0005284091457724571, -0.0007450977573171258, 0.000434329267591238, -0.0009082034812308848, 0.0007412605336867273, -0.0008192836539819837, -0.002758012618869543, -0.0019472844433039427, -6.474899419117719e-05, 0.0007173186168074608, 0.0011246143840253353, -0.00287077110260725, 2.6798254111781716e-05, 0.0003711820172611624, 0.0003247238346375525, -0.006834100931882858], [0.0009393509244546294, 0.0009613094734959304, -0.004949850495904684, 0.0007003673817962408, -0.00148145598359406, 0.0008890739409253001, -0.00392238749191165, -0.0007440134068019688, -6.288139411481097e-05, 0.01892353780567646, -0.0010085419053211808, 0.00625972356647253, 0.0006122798658907413, -0.0002992643276229501, -0.0013301478466019034, 0.0009317030780948699, 0.0007867706008255482, 0.0019450761610642076, 0.0008457422372885048, 0.00019061870989389718, -0.001999000320211053, 0.00236254814080894, 0.008283833973109722, 0.0010054396698251367, 0.0004326273628976196, 0.0007093210588209331, 0.0006365339504554868, 0.006568929646164179, -0.00020077594672329724, 0.0014328070683404803, 0.00041625587618909776, -0.006977481301873922], [-0.0029286365024745464, -0.010238433256745338, -0.008495226502418518, -0.005093983840197325, -0.0012916659470647573, -0.01069662719964981, -0.004968640394508839, 0.004751431755721569, -0.0030768876895308495, -0.06061268970370293, -0.004785923287272453, 0.022900482639670372, -0.00042035436490550637, 0.004229350946843624, -0.0016200713580474257, -0.0046012382954359055, -0.004292001016438007, 0.008757303468883038, 0.0033095497637987137, 0.011725655756890774, 9.303831029683352e-05, -0.0003811680944636464, 0.03550314903259277, 0.01824352890253067, 0.007706822361797094, -0.016062665730714798, -0.012804970145225525, 0.030796213075518608, 0.004302952904254198, -0.0019307781476527452, 0.0024611041881144047, -0.13129617273807526], [0.0012398899998515844, 0.0014841160736978054, -0.013387849554419518, -0.0013063369551673532, -0.006197773385792971, -0.005520468577742577, -0.015433554537594318, 0.009555854834616184, -0.011406050994992256, -0.012098181992769241, 0.005796990357339382, 0.006321309134364128, -0.010001733899116516, 0.0006430937210097909, -0.003712012432515621, 4.540697409538552e-05, 0.0024642478674650192, 0.002926797140389681, 0.010705605149269104, -0.00854421779513359, -0.0013353769900277257, -0.0013135980116203427, 0.011964166536927223, 0.006162457633763552, 0.007348424289375544, -0.0013037124881520867, -0.001628131023608148, 0.008255168795585632, 0.002142573008313775, -0.003730223048478365, 0.010092093609273434, 0.005962742958217859], [-4.88907826365903e-05, -3.696080966619775e-05, 0.006437730975449085, 0.00016068645345512778, 0.0010380905587226152, 0.0004175093490630388, 0.003824092447757721, -0.0009072297252714634, 0.0009745640563778579, 0.017779186367988586, -0.0028604690451174974, -0.005520122591406107, 0.003024082165211439, 7.615103095304221e-05, 0.0008523388532921672, -0.0001135934580815956, -2.210013371950481e-05, -0.005524042993783951, -0.0012990685645490885, 0.0026039178483188152, 0.00018550992535892874, 0.0006121390615589917, -0.004406728781759739, -0.0037981574423611164, -0.0008449140004813671, 0.0003416324616409838, 0.0005762510118074715, -0.008545273914933205, -0.0015610111877322197, 0.00043014108086936176, -0.0008339861524291337, -0.008300453424453735], [0.002947441767901182, 0.00018093211110681295, 0.002671493450179696, 0.0014241223689168692, 0.0013065276434645057, -0.004219694994390011, 0.0012934019323438406, -0.0001071808219421655, -0.0003897198475897312, 0.007298409007489681, -0.011277264915406704, -0.01400067564100027, 0.00981021299958229, 0.0005454354686662555, 0.0003913289401680231, 0.0016906121745705605, 0.0011443516705185175, -0.008551102131605148, 0.0011283440981060266, 0.0030870302580296993, -0.002652014372870326, -0.0001151564356405288, -0.00532611645758152, -0.013205437920987606, 0.00046523180208168924, -0.0033665387891232967, 0.0018767237197607756, -0.03298357501626015, -0.0018886519828811288, 0.00038673781091347337, 0.0008146956097334623, 0.02234921045601368], [0.0013450811384245753, 0.00044555956264957786, 0.00160799000877887, 0.001004682620987296, 0.0005965371383354068, -0.0017072821501642466, -0.0003624999080784619, 5.7217574067180976e-05, -0.00011610486399149522, 0.006109982263296843, -0.003271386492997408, -0.0046040890738368034, 0.0034832076635211706, 0.0005140927969478071, -0.0002129308122675866, 0.001187227200716734, 0.0007480140775442123, -0.0049885776825249195, 0.00034437779686413705, 0.0008445726125501096, -0.0013984180986881256, 0.0013252984499558806, -0.005574320442974567, -0.003327268408611417, 0.00026222894666716456, -3.6976736737415195e-05, 0.0005921234842389822, -0.00969292689114809, -0.0009843684965744615, -0.00033244199585169554, 0.0003588156832847744, 0.008707602508366108], [0.0018945534247905016, -0.006412360351532698, -0.030220452696084976, -0.0064881048165261745, -0.00593149196356535, -0.024819165468215942, -0.013896416872739792, 0.017911560833454132, -0.0159393772482872, 0.06542199105024338, 0.008413491770625114, 0.018850915133953094, -0.01748492568731308, 0.005081110633909702, -0.009308823384344578, -0.004475526511669159, 0.004965189378708601, 0.01084695104509592, 0.03142065182328224, -0.01139591820538044, -0.0004829823737964034, -0.012767642736434937, 0.032256852835416794, 0.019506018608808517, 0.021802686154842377, -0.01373333390802145, -0.010879628360271454, 0.027079999446868896, 0.009291475638747215, -0.011841557919979095, 0.02635648101568222, -0.043594010174274445], [2.945627784356475e-05, -0.0003424047608859837, -0.007707415148615837, -0.0009209263371303678, -0.0016687761526554823, -0.0021657051984220743, -0.006303940434008837, 0.002376674208790064, -0.0030585923232138157, -0.004824716132134199, 0.002570778364315629, 0.004790030419826508, -0.0037281778641045094, 0.0004197743837721646, -0.0016109116841107607, -0.0004004611982963979, 0.00014734485012013465, 0.002338491380214691, 0.0026448217686265707, -0.0028956676833331585, -0.0003291907487437129, 2.0432737073861063e-05, 0.005525331012904644, 0.0030311376322060823, 0.002203472889959812, -0.0024662993382662535, -0.0015397480456158519, 0.006277036853134632, 0.0008803023956716061, -0.0008446426363661885, 0.002590955002233386, -0.0033799035008996725], [-0.0013151174644008279, -0.0013408337254077196, 0.008293609134852886, 0.00039968459168449044, 0.002223734511062503, -0.0006419512210413814, 0.0037759868428111076, -0.0009842704748734832, 0.001338664791546762, 0.0511866956949234, -0.0005089936894364655, -0.005517201963812113, 0.0002639565209392458, -0.0004689062770921737, 0.0010888689430430532, -0.0008027940057218075, -0.0007589716115035117, -0.004475831054151058, -0.003632928244769573, 0.0013183560222387314, -3.4013690310530365e-05, 0.00043231871677562594, -0.003434284357354045, -0.003685766365379095, -0.0016299155540764332, 0.0004875417216680944, 0.0011257895966991782, -0.007897967472672462, -0.0011658912990242243, -0.001110156299546361, -0.001455757999792695, -0.052298545837402344], [-7.435645966324955e-05, -0.0005107944598421454, 0.005792924202978611, -8.298791362904012e-05, 0.0007493364391848445, -0.0003058680740650743, 0.002385115949437022, -0.0009613502188585699, 0.0012111538089811802, 0.01946864277124405, -0.0016518833581358194, -0.005245686043053865, 0.0016619752859696746, 0.00020459326333366334, 0.00023000879446044564, -0.00047493449528701603, -0.00028037038282491267, -0.0043855770491063595, -0.0020355337765067816, 0.0015236381441354752, 0.00010653836943674833, 0.0007556835189461708, -0.0017058422090485692, -0.0036448300816118717, -0.0007953990716487169, -0.0002071554190479219, 0.0002678637392818928, -0.007538308389484882, -0.0016784733161330223, 0.00013089319691061974, -0.0008487881859764457, -0.01789950206875801], [0.032193392515182495, 0.0408121719956398, 0.014776852913200855, 0.1024528369307518, 0.04648551717400551, 0.09793438762426376, 0.0057484726421535015, -0.012689605355262756, 0.04026021063327789, 0.24182185530662537, -0.12319467961788177, -0.057076334953308105, 0.1003643125295639, -0.0071604931727051735, 0.011313961818814278, 0.08408112823963165, 0.024873971939086914, -0.07292252033948898, -0.12069996446371078, 0.09156236052513123, -0.11206429451704025, 0.07101396471261978, 0.023259758949279785, -0.08571133017539978, 0.0011447558645159006, 0.06740337610244751, 0.050405219197273254, -0.10180146992206573, -0.048129692673683167, -0.02456664852797985, -0.015528876334428787, -0.49253973364830017], [-0.11742135137319565, 0.03482900932431221, 0.06604617089033127, 0.09897167235612869, 0.020753491669893265, 0.07819315046072006, 0.06637260317802429, -0.03228188306093216, 0.02622244507074356, -0.09084147959947586, -0.02474776655435562, 0.06931328773498535, 0.039156388491392136, -0.04456213116645813, 0.1398586630821228, 0.07706399261951447, -0.0011670221574604511, -0.07476729154586792, -0.010762481018900871, 0.13735410571098328, -0.10650011897087097, -0.0928872674703598, 0.09741285443305969, 0.009600896388292313, -0.009273804724216461, 0.07251031696796417, 0.030969981104135513, 0.059834156185388565, -0.0038377498276531696, 0.03133042901754379, -0.005242345854640007, 0.013238692656159401], [-0.029690153896808624, -0.08940120786428452, 0.05529917776584625, -0.05658876895904541, -0.0066387043334543705, -0.06119725480675697, 0.047886114567518234, -0.03767738491296768, 0.05787127837538719, 0.05452606827020645, 0.014036809094250202, -0.011962204240262508, 0.0013541721273213625, 0.046895552426576614, 0.027791520580649376, -0.05332385003566742, -0.07164962589740753, -0.05564068630337715, -0.12603263556957245, 0.020984338596463203, 0.05226784572005272, -0.04688260704278946, -0.1096944808959961, -0.01193920150399208, -0.04654137045145035, -0.04107380658388138, -0.04944203794002533, 0.024562686681747437, -0.021711820736527443, 0.005949894431978464, -0.049451470375061035, 0.19855986535549164], [0.15153518319129944, -0.025581885129213333, -0.19816279411315918, -0.08756212145090103, -0.04558026045560837, -0.1202392503619194, -0.17859715223312378, 0.08703093975782394, -0.08189255744218826, 0.018205774948000908, -0.019588954746723175, -0.02812300994992256, -0.01500866562128067, 0.05037033557891846, -0.18179893493652344, -0.08057842403650284, 0.020641442388296127, 0.26816514134407043, 0.07190818339586258, -0.21381716430187225, 0.10260123759508133, 0.11875750124454498, -0.036316998302936554, 0.05051357299089432, 0.060302868485450745, -0.12174787372350693, -0.040994856506586075, -0.0017246364150196314, 0.004564647562801838, -0.060690879821777344, 0.0544113926589489, -0.1908273696899414], [0.004827062599360943, -0.059168752282857895, 0.0630185604095459, -0.08924107253551483, 0.005422691814601421, -0.059317637234926224, 0.04606182500720024, -0.0028063300997018814, 0.02840828150510788, 0.15472646057605743, 0.013869553804397583, -0.04889720678329468, -0.009027691558003426, 0.03257504850625992, -0.013750570826232433, -0.07039735466241837, -0.03677888214588165, -0.05558966472744942, -0.09070403128862381, -0.04190909489989281, 0.08906438946723938, -0.02501732110977173, -0.17722487449645996, -0.029533997178077698, -0.024058979004621506, -0.04119620844721794, -0.026195375248789787, -0.028350617736577988, -0.023189451545476913, -0.03136734664440155, -0.02631467767059803, 0.21361346542835236], [0.04625581577420235, -0.05220717191696167, -0.07035158574581146, -0.048316825181245804, -0.04613417759537697, -0.0701589286327362, -0.056715358048677444, -0.010880026035010815, 0.026967763900756836, -0.0532693937420845, -0.0156943891197443, 0.000906651490367949, 0.006191045045852661, 0.04276937618851662, -0.08367029577493668, -0.04255039617419243, -0.03225696459412575, 0.05643333122134209, -0.049565259367227554, -0.07995885610580444, 0.04057665169239044, 0.05885455012321472, -0.016634687781333923, 0.013599700294435024, -0.0072982655838131905, -0.06369286775588989, -0.0384606271982193, 0.005699404049664736, 0.007792806718498468, 0.006107364781200886, -0.022534320130944252, -0.10964802652597427], [0.0026524653658270836, -0.06068498268723488, 0.035559624433517456, -0.06637004762887955, -0.005828243680298328, -0.07409123331308365, 0.026700053364038467, 0.005101946648210287, 0.015659108757972717, 0.1050720363855362, 0.028098205104470253, 0.004980797879397869, -0.026267508044838905, 0.038404401391744614, -0.0242124292999506, -0.05781069025397301, -0.03865429013967514, -0.026728471741080284, -0.0780058205127716, -0.056145671755075455, 0.06694567948579788, -0.006515281740576029, -0.12488143891096115, 0.024628788232803345, -0.01120374258607626, -0.059773337095975876, -0.04458320885896683, 0.058822229504585266, -0.005772748030722141, -0.02778656780719757, -0.01658993773162365, 0.19051270186901093], [0.13195061683654785, -0.008144515566527843, -0.12195327132940292, -0.07014060020446777, -0.027347639203071594, -0.08118587732315063, -0.1704348772764206, 0.05985245108604431, -0.06300486624240875, 0.09101683646440506, -0.0513797327876091, -0.05939361825585365, 0.01913367584347725, 0.026082659140229225, -0.17679907381534576, -0.0581023283302784, 0.021068431437015533, 0.1713850498199463, 0.0682283565402031, -0.18760530650615692, 0.0753711462020874, 0.1039532944560051, -0.03424988314509392, -0.008475841954350471, 0.038209423422813416, -0.07542052865028381, -0.009022834710776806, -0.04796663671731949, -0.01936112530529499, -0.03984622284770012, 0.035685084760189056, -0.10871102660894394], [0.0012686901027336717, -0.12145978957414627, -0.06855210661888123, -0.06486091762781143, -0.08197944611310959, -0.08403285592794418, -0.024666571989655495, -0.1072794571518898, 0.11179022490978241, -0.2859393060207367, -0.05226454883813858, 0.012845883145928383, 0.06260249018669128, 0.07914842665195465, -0.0269878339022398, -0.061466820538043976, -0.13809910416603088, 0.04483232647180557, -0.144464373588562, 0.011249901726841927, 0.02952815406024456, 0.0395716093480587, 0.10559035837650299, -0.022022724151611328, -0.09167470037937164, -0.09247777611017227, -0.09732590615749359, 0.026137063279747963, -0.04860920459032059, 0.09744999557733536, -0.10805819928646088, -0.23209936916828156], [0.02156721241772175, 0.116819828748703, 0.029415255412459373, 0.05024547874927521, 0.05645616725087166, 0.081191785633564, 0.008662654086947441, 0.09735813736915588, -0.11780031025409698, 0.2576501965522766, 0.017067471519112587, -0.019134247675538063, -0.03437685966491699, -0.06641221046447754, -0.003947037272155285, 0.0498293861746788, 0.11785369366407394, -0.01590634696185589, 0.15494780242443085, -0.0445040687918663, -0.020887678489089012, -0.001020567724481225, -0.07969455420970917, 0.01402063388377428, 0.07931198924779892, 0.07043930888175964, 0.07717273384332657, -0.04028177261352539, 0.02926226332783699, -0.08000439405441284, 0.09596489369869232, 0.15579436719417572], [-0.040153540670871735, -6.647815462201834e-05, 0.10994283854961395, 0.02946743369102478, 0.04535301774740219, 0.023795120418071747, 0.11647782474756241, -0.08379099518060684, 0.07876526564359665, 0.8436388373374939, 0.0346098318696022, -0.05826292932033539, -0.01750355213880539, -0.018421340733766556, 0.049765247851610184, 0.02399827539920807, -0.002215733053162694, -0.04606185853481293, -0.10371565073728561, 0.018281105905771255, -0.03869535028934479, -0.00029719516169279814, 0.01569872908294201, 0.0003017522394657135, -0.0636245533823967, 0.015672966837882996, 0.045277614146471024, -0.024997934699058533, -0.007335527800023556, 0.011463997885584831, -0.06971494853496552, -0.666597306728363], [0.1291496753692627, -0.0055495272390544415, -0.18608762323856354, -0.046850014477968216, -0.061321135610342026, -0.06850684434175491, -0.15783722698688507, 0.022631127387285233, -0.02487179823219776, -0.06522436439990997, -0.11758027225732803, -0.10011181235313416, 0.09157764911651611, 0.03334243223071098, -0.15983226895332336, -0.04824558272957802, 0.01997215300798416, 0.16083820164203644, 0.040072254836559296, -0.11871021240949631, 0.04736065864562988, 0.1735621988773346, 0.025012724101543427, -0.04885299503803253, 0.02007683552801609, -0.053190603852272034, 0.002390093170106411, -0.09350712597370148, -0.06440563499927521, -0.008774939924478531, 0.012694200500845909, -0.24468868970870972], [0.03244616091251373, -0.011430708691477776, -0.045706506818532944, -0.04631790518760681, 0.0048876260407269, -0.041933827102184296, -0.04975346103310585, 0.0033492802176624537, -0.0015663993544876575, 0.03515502065420151, -0.05792202800512314, -0.10205703228712082, 0.0471414215862751, 0.016523785889148712, -0.056657545268535614, -0.04011812433600426, 0.005733788013458252, 0.023960795253515244, -0.00953001994639635, -0.05430162698030472, 0.04544200748205185, 0.03127182647585869, -0.04731051251292229, -0.04233352094888687, -0.01132961641997099, -0.02549557015299797, 0.012559155002236366, -0.06849341839551926, -0.05169210210442543, -0.009516892023384571, -0.012229565531015396, -0.039774902164936066], [-0.11331464350223541, 0.01762336678802967, 0.19496361911296844, 0.042709313333034515, 0.06458026170730591, 0.07204761356115341, 0.15054333209991455, -0.018566228449344635, 0.012889205478131771, 0.11369442194700241, 0.12472467124462128, 0.08833902329206467, -0.10032977908849716, -0.04580696299672127, 0.1499740034341812, 0.04594958573579788, -0.011581511236727238, -0.16937318444252014, -0.017930947244167328, 0.11229484528303146, -0.04069991409778595, -0.16054615378379822, -0.03537661209702492, 0.04203268885612488, -0.02148604579269886, 0.06097874045372009, 0.013810326345264912, 0.08158406615257263, 0.0671999379992485, 0.004508150275796652, -0.007829627953469753, 0.25729140639305115], [-0.008132693357765675, 0.04790010675787926, 0.00358600658364594, 0.03817645087838173, 0.01050395704805851, 0.05277075991034508, 0.007596766110509634, 0.0010167394066229463, -0.011596979573369026, -0.034074533730745316, -0.003676480380818248, 1.634674845263362e-05, 0.00249521154910326, -0.040821172297000885, 0.030061079189181328, 0.03184513747692108, 0.028566917404532433, 0.005276382900774479, 0.05471810698509216, 0.034400295466184616, -0.0304756797850132, -0.02231459505856037, 0.04070138558745384, -0.007203883957117796, 0.005807556211948395, 0.03794213756918907, 0.03469208627939224, -0.015566349029541016, 0.001513583934865892, 0.006538353860378265, 0.009527038782835007, -0.040480971336364746], [0.08296941220760345, -0.025996681302785873, -0.030712347477674484, -0.08055512607097626, -0.014172226190567017, -0.07109907269477844, -0.03881833329796791, 0.024181634187698364, -0.01869560405611992, 0.12208134680986404, 0.03455345705151558, -0.04073430970311165, -0.045515015721321106, 0.02898397482931614, -0.1214245930314064, -0.0638350173830986, 0.0031674394849687815, 0.05811510235071182, -0.004317860119044781, -0.1343437284231186, 0.08508966863155365, 0.0711626186966896, -0.1085776686668396, 0.0002345973625779152, 0.004749968182295561, -0.05993270128965378, -0.014435557648539543, -0.04094038903713226, 0.00643418962135911, -0.027730604633688927, 0.0025655743665993214, 0.045956648886203766], [0.005221072118729353, -0.08449340611696243, 0.05901399999856949, -0.10018200427293777, -0.012882325798273087, -0.07934372872114182, 0.03996458649635315, -0.014504910446703434, 0.04237417131662369, 0.13557690382003784, 0.012611999176442623, -0.05493816360831261, -0.006511855870485306, 0.05305546894669533, -0.027062518522143364, -0.09382230043411255, -0.05573621019721031, -0.05583830177783966, -0.12041398882865906, -0.03998956084251404, 0.10282035171985626, -0.023191126063466072, -0.17140907049179077, -0.0326588973402977, -0.03566383570432663, -0.05946731939911842, -0.04629148542881012, -0.023162897676229477, -0.036033883690834045, -0.023466430604457855, -0.042188502848148346, 0.23738032579421997], [-0.03168950602412224, -0.10656248033046722, 0.03485383838415146, -0.055888835340738297, -0.017343761399388313, -0.0688447579741478, 0.034035079181194305, -0.05612815171480179, 0.07822001725435257, -0.008220748044550419, -0.001502452534623444, -0.01088819932192564, 0.016367455944418907, 0.06162242218852043, 0.027799852192401886, -0.05398452654480934, -0.09699808061122894, -0.03841661661863327, -0.15244586765766144, 0.04135831445455551, 0.039526909589767456, -0.03712566941976547, -0.05798541381955147, -0.024062246084213257, -0.05806072801351547, -0.046021170914173126, -0.06430570036172867, 0.02634619176387787, -0.03104805201292038, 0.02726917155086994, -0.06300509721040726, 0.08978299051523209], [-0.027034027501940727, 0.011201506480574608, 0.047795895487070084, -0.00024000614939723164, -0.0029667553026229143, 0.024952340871095657, -0.014516737312078476, -0.036890726536512375, 0.02568010799586773, -0.011399634182453156, -0.08598697930574417, -0.07756922394037247, 0.08722880482673645, 0.0013008380774408579, 0.014298878610134125, 0.011821957305073738, -0.001030690036714077, -0.1829940229654312, -0.038143616169691086, 0.10116362571716309, -0.05680913105607033, -0.03220006078481674, 0.08731704950332642, -0.10760767012834549, -0.015626145526766777, 0.04763496667146683, 0.00780445197597146, -0.06543630361557007, -0.06874128431081772, 0.04061564430594444, -0.01578417792916298, 0.021273594349622726], [-0.057639557868242264, -0.10037368535995483, 0.03122781589627266, -0.020171862095594406, -0.02285574935376644, -0.042949456721544266, 0.041284624487161636, -0.08738736063241959, 0.09732498973608017, -0.17905619740486145, 0.0006099609890952706, 0.016153281554579735, 0.024414055049419403, 0.05180450528860092, 0.04686819389462471, -0.024975556880235672, -0.09631937742233276, -0.03975914418697357, -0.15941166877746582, 0.0811740905046463, -0.004454461857676506, -0.044497255235910416, 0.03718866407871246, -0.02777884341776371, -0.07385843992233276, -0.0178589578717947, -0.052597541362047195, 0.026808196678757668, -0.02520441822707653, 0.0714065432548523, -0.07830411195755005, 0.06504525244235992], [0.03995288163423538, -0.020509818568825722, 0.04689628630876541, -0.07054375857114792, 0.021159786731004715, -0.026863817125558853, 0.0241922065615654, 0.02271045558154583, -0.011511951684951782, 0.22678615152835846, 0.07463932782411575, -0.009558212012052536, -0.09331759810447693, 0.014489897526800632, -0.05557847023010254, -0.049564179033041, 0.0074646552093327045, -0.0051053971983492374, -0.022315045818686485, -0.08368391543626785, 0.0859014168381691, 0.008652172982692719, -0.13007716834545135, 0.030901310965418816, -0.004102430772036314, -0.04533889517188072, -0.00830936897546053, -0.019667059183120728, 0.05656575411558151, -0.04161461442708969, -0.0007744895992800593, 0.1779823899269104], [-0.017304515466094017, 0.07716823369264603, -0.06023826822638512, 0.11513141542673111, 0.013382486999034882, 0.07332446426153183, -0.038338251411914825, 0.023226574063301086, -0.045260097831487656, -0.1956702470779419, -0.023852553218603134, 0.07527409493923187, 0.01727042719721794, -0.05262347310781479, 0.026145974174141884, 0.10103880614042282, 0.055107101798057556, 0.07169314473867416, 0.09224630892276764, 0.045522112399339676, -0.14242146909236908, 0.028992293402552605, 0.19778548181056976, 0.04772445932030678, 0.046307116746902466, 0.05898059532046318, 0.04760441556572914, 0.052408479154109955, 0.033095940947532654, 0.021922104060649872, 0.0514337494969368, -0.23290158808231354], [-0.06719690561294556, 0.04141319915652275, -0.01364852674305439, 0.06648251414299011, 0.013890699483454227, 0.07549124211072922, -0.01364879496395588, 0.00890208501368761, -0.007576624862849712, 0.014671677723526955, -0.07178245484828949, 0.02502967230975628, 0.07397659122943878, -0.040731098502874374, 0.11623924970626831, 0.055015914142131805, 0.013359829783439636, -0.06805579364299774, 0.022559484466910362, 0.13114021718502045, -0.0667107030749321, -0.12109170854091644, 0.07392598688602448, -0.02380167320370674, 0.010686003603041172, 0.061233267188072205, 0.028315523639321327, 0.03769931197166443, -0.044931840151548386, -0.009696000255644321, 0.018249180167913437, 0.0281374491751194], [-0.08485506474971771, 0.011918248608708382, 0.1271539330482483, 0.005511585623025894, 0.05181652680039406, 0.07076974958181381, 0.06385999917984009, -0.021601902320981026, 0.028612304478883743, 0.2340622991323471, 0.06584271043539047, -0.031891483813524246, -0.0421944297850132, -0.028811035677790642, 0.07158444076776505, 0.012517547234892845, -0.012700675055384636, -0.16180340945720673, -0.07831020653247833, 0.03190554678440094, 0.001168933929875493, -0.12461768835783005, -0.14633773267269135, -0.036079682409763336, -0.04483495652675629, 0.04688192903995514, 0.0317918136715889, -0.024519681930541992, 0.020991502329707146, -0.026105914264917374, -0.026563260704278946, 0.1592014878988266], [0.05171354115009308, -0.021321464329957962, -0.0886174887418747, -0.06080300360918045, -0.02755357325077057, -0.04617633670568466, -0.09328407049179077, 0.012895282357931137, -0.008387763984501362, -0.0029861778020858765, -0.11118537932634354, -0.1325484663248062, 0.09607132524251938, 0.03137088194489479, -0.08716920018196106, -0.05740462616086006, 0.0031532978173345327, 0.02304757945239544, -0.013693742454051971, -0.047615163028240204, 0.05263693258166313, 0.05343291535973549, -0.023879490792751312, -0.10061653703451157, 0.004428094252943993, -0.015114683657884598, 0.0024479820858687162, -0.12166191637516022, -0.0937897264957428, -0.014373980462551117, 0.0017665103077888489, -0.09950181841850281], [-0.0290292389690876, -0.13504008948802948, -0.003655168693512678, -0.0754692479968071, -0.0706862136721611, -0.09369668364524841, 0.01957482099533081, -0.1168273389339447, 0.14011238515377045, -0.17025408148765564, -0.03341824188828468, 0.003384360810741782, 0.04965144023299217, 0.08924609422683716, 0.01118251122534275, -0.06884103268384933, -0.1490672528743744, -0.01464514434337616, -0.16726116836071014, 0.039443664252758026, 0.04037139192223549, -0.0005418435321189463, 0.037179891020059586, -0.031622543931007385, -0.10581909865140915, -0.08512939512729645, -0.09990032017230988, 0.03078429400920868, -0.04999801516532898, 0.08974852412939072, -0.11622712761163712, -0.10471659898757935], [0.006949726492166519, -0.06567306071519852, 0.033207155764102936, -0.06808816641569138, -0.005677972920238972, -0.07379776239395142, 0.029670894145965576, -0.01144635770469904, 0.0341741144657135, 0.10617077350616455, 0.02843294106423855, 0.0075136348605155945, -0.027796709910035133, 0.040645044296979904, -0.021757975220680237, -0.05604583024978638, -0.04703561216592789, -0.026801545172929764, -0.0923030748963356, -0.05573485046625137, 0.06777458637952805, -0.0007777672144584358, -0.11895620822906494, 0.027690662071108818, -0.020693479105830193, -0.07099684327840805, -0.04850779473781586, 0.06138753890991211, 0.003461889922618866, -0.016363633796572685, -0.027442220598459244, 0.17838573455810547], [0.010378444567322731, -0.07493259757757187, -0.0006338590756058693, -0.06639543175697327, -0.017506171017885208, -0.07478435337543488, -0.006060940213501453, -0.010030381381511688, 0.029117785394191742, 0.07486823946237564, -0.0027432311326265335, -0.01086693350225687, 0.006744756363332272, 0.05693294480443001, -0.03213263303041458, -0.057042691856622696, -0.053493451327085495, -0.017234161496162415, -0.08793815970420837, -0.0358760766685009, 0.05380156263709068, 0.011085878126323223, -0.08562669157981873, -0.005744439549744129, -0.01693553663790226, -0.05654314532876015, -0.06041450798511505, 0.03052687644958496, -0.015825854614377022, -0.009666434489190578, -0.022217271849513054, 0.12578211724758148], [0.09338754415512085, -0.042457036674022675, -0.06297685950994492, -0.09277971088886261, -0.03294717147946358, -0.07354968041181564, -0.06136724352836609, 0.006426854059100151, -0.001833076123148203, 0.0029438138008117676, -0.03490786999464035, -0.13007810711860657, 0.020213671028614044, 0.054272107779979706, -0.12214765697717667, -0.07689999788999557, 0.0026882055681198835, 0.027811529114842415, -0.03517969325184822, -0.08464979380369186, 0.07789207249879837, 0.10524528473615646, -0.048025235533714294, -0.06519340723752975, -0.007864732295274734, -0.05570905655622482, -0.008901992812752724, -0.15108710527420044, -0.05181987211108208, -0.009273959323763847, -0.01406849455088377, -0.11423952877521515], [0.05254979059100151, -0.00927269458770752, -0.060098789632320404, -0.04499824345111847, -0.035654403269290924, -0.0520903579890728, -0.057532068341970444, 0.021123869344592094, -0.0177901703864336, -0.008560076355934143, -0.08738435804843903, -0.06348427385091782, 0.06745842844247818, 0.045686040073633194, -0.10421930998563766, -0.0413937084376812, 0.012470299378037453, 0.04336882010102272, -0.004688064567744732, -0.08502352982759476, 0.041329771280288696, 0.11740715056657791, -0.04122907295823097, -0.03151709586381912, 0.011065259575843811, -0.03623109310865402, -0.015945743769407272, -0.045464616268873215, -0.08377766609191895, -0.019242169335484505, 0.008441921323537827, -0.0743093341588974], [-0.025727514177560806, 0.10131508857011795, 0.08522524684667587, 0.052632324397563934, 0.0667792484164238, 0.07653703540563583, 0.026623543351888657, 0.07758353650569916, -0.08644094318151474, 0.2502685785293579, 0.039332758635282516, -0.015141520649194717, -0.05853957682847977, -0.06923529505729675, 0.03982911258935928, 0.0496719554066658, 0.10870755463838577, -0.07648305594921112, 0.108030766248703, -0.010516040958464146, -0.02302923984825611, -0.06536900997161865, -0.09954770654439926, 0.007702431175857782, 0.0618215948343277, 0.08160825818777084, 0.08100712299346924, -0.026559635996818542, 0.03787119686603546, -0.07614566385746002, 0.07940047234296799, 0.2676517963409424], [-0.020534280687570572, -0.12112505733966827, -0.014955068938434124, -0.0730569139122963, -0.056142933666706085, -0.07194563746452332, 0.007930233143270016, -0.10721361637115479, 0.11979959160089493, -0.1770412176847458, -0.04776814207434654, 0.0015668384730815887, 0.05406101047992706, 0.0809822678565979, 0.009272309951484203, -0.07253765314817429, -0.13684965670108795, -0.008481308817863464, -0.149344339966774, 0.05152245983481407, 0.04668422415852547, -0.0007843535859137774, 0.03564213961362839, -0.029283957555890083, -0.09963173419237137, -0.08611997216939926, -0.09487667679786682, 0.02594536542892456, -0.047156598418951035, 0.08709056675434113, -0.10737153887748718, -0.09013812243938446], [0.1866549849510193, -0.04759218171238899, -0.09039004892110825, -0.18741071224212646, 0.017232483252882957, -0.12969045341014862, -0.1375698298215866, 0.3362116515636444, -0.26714351773262024, -0.7384417653083801, 0.06062372401356697, -0.0533064641058445, -0.11674612760543823, 0.02104063145816326, -0.19846941530704498, -0.17361439764499664, 0.04475342482328415, 0.18224570155143738, 0.16494594514369965, -0.31127429008483887, 0.2860126197338104, 0.09483618289232254, -0.28648683428764343, 0.07319124788045883, 0.19858437776565552, -0.14381414651870728, -0.05986859276890755, 0.005640762858092785, 0.027729209512472153, -0.30450981855392456, 0.20721223950386047, 0.5237098932266235], [0.0009474350954405963, 0.0018928279168903828, -0.0017012377502396703, 0.0003328904276713729, 1.449554656574037e-05, -2.3352127755060792e-05, -0.0015784497372806072, 0.00038606784073635936, -0.000578705919906497, 0.036515846848487854, -0.0012459146091714501, 0.00023569364566355944, 0.0006311815232038498, -0.0008230547537095845, -0.0013401467585936189, 0.0006010012584738433, 0.001352169900201261, 0.0008231063839048147, 0.0010880418121814728, -0.000804397277534008, -0.0011432452592998743, 0.0019073731964454055, 0.0028712553903460503, -0.00032209482742473483, 0.0004963582032360137, 0.00030502205481752753, 0.002089795656502247, -0.0017066376749426126, -0.00020573395886458457, -0.0003666012780740857, 0.0005794504540972412, -0.0007346926140598953], [0.0029354612343013287, 0.0034615276381373405, -0.0008834366453811526, 0.0024867444299161434, 0.0006946856738068163, 0.0027896517422050238, -0.0019245941657572985, 0.002018197439610958, -0.001667022006586194, -0.014833417721092701, -0.005539704114198685, -0.006919064559042454, 0.004622023086994886, -0.00076857372187078, -0.0005436038482002914, 0.0033392678014934063, 0.002254473976790905, -0.006779306568205357, 0.0012797336094081402, -0.0005337977781891823, -0.0017624649917706847, 0.0014150862116366625, -0.007372654974460602, -0.004379031714051962, 0.00131983682513237, 0.0022105553653091192, 0.0031270680483430624, -0.01183183491230011, -0.000947404361795634, -0.001955778570845723, 0.001891758874990046, 0.05010818690061569], [0.0020017395727336407, 0.0005292429123073816, -0.005277825053781271, -0.0010220432886853814, -0.004149522632360458, -0.004066953901201487, -0.006228247657418251, 0.0069634015671908855, -0.008444230072200298, -0.019408557564020157, 0.0012891911901533604, 0.008948038332164288, -0.0034898598678410053, 0.0012659134808927774, -0.004265279043465853, -0.00011931767221540213, 0.0026628391351550817, 0.0043570841662585735, 0.009617304429411888, -0.0033644302748143673, -0.001681731315329671, 0.0025154564063996077, 0.011231131851673126, 0.0071030291728675365, 0.008788539096713066, -0.00268107233569026, -0.003920731134712696, 0.016382748261094093, 0.004944113083183765, -0.004929120186716318, 0.010129653848707676, -0.01144016720354557], [0.0017925690626725554, 0.004675754811614752, 0.004253421910107136, 0.0024490761570632458, 0.0021853744983673096, 0.005069257691502571, 0.0024503571912646294, -0.002578055951744318, 0.002564796945080161, -0.009328384883701801, -0.00781884603202343, -0.009637536481022835, 0.009160476736724377, -0.0017940716352313757, 0.0012300589587539434, 0.00358067499473691, 0.0026741025503724813, -0.0032955636270344257, -0.001263754558749497, 0.0027646960224956274, -0.0011600966099649668, 0.00027547695208340883, -0.011619102209806442, -0.006553314160555601, -0.0032853055745363235, 0.005463005974888802, 0.006587419658899307, -0.012011725455522537, -0.0027412394993007183, 0.0017273444682359695, -0.002385250059887767, 0.03433651477098465], [3.257946082158014e-05, 3.5536249924916774e-05, -0.0008373832097277045, 6.86457788106054e-05, 0.0002148227795260027, 3.9220150938490406e-05, -0.0001360655587632209, 0.0004684816231019795, -0.0003060820745304227, 0.004361198749393225, 0.00016690741176716983, 0.0010108111891895533, -0.000328237860230729, -0.00012304962729103863, -5.133771264809184e-05, 4.294127938919701e-05, 0.00011156901746289805, 0.0002515433880034834, 0.00011676634312607348, -0.0002557758707553148, -8.101748244371265e-05, -0.00012195169256301597, -8.716731099411845e-05, 0.00099746638443321, 0.0003637897898443043, 2.5380744773428887e-05, 3.29686445184052e-05, 0.0009251537267118692, 0.0005330575513653457, -0.00047571511822752655, 0.00024560411111451685, -0.0018829944310709834], [0.004303469322621822, 0.002480234019458294, 0.003148013260215521, 0.0032580255065113306, 0.00132902548648417, -0.003805930493399501, -0.00024618743918836117, -0.00014609351637773216, -0.0007213896606117487, -0.0006970959948375821, -0.006751830689609051, -0.020152529701590538, 0.007025897037237883, 0.0006826449534855783, -0.0008642931352369487, 0.0029890364967286587, 0.0026861641090363264, -0.007574324496090412, 0.0019585462287068367, 0.0014492144109681249, -0.0040236469358205795, 0.0030981816817075014, -0.005121885798871517, -0.012920541688799858, 0.00032732158433645964, -0.0006054147379472852, 0.0037187521811574697, -0.03478739783167839, -0.0034932575654238462, -4.2990268411813304e-05, 0.0013118039350956678, 0.0583493709564209], [0.0015375878429040313, 0.00354729313403368, -0.001452399417757988, 0.001915277331136167, 0.0020527297165244818, 0.0040923794731497765, -0.00198174687102437, -0.0022309129126369953, 0.002530335681512952, 0.0014136477839201689, -0.003993643913418055, -0.005163979716598988, 0.003190461080521345, -0.002636844525113702, -0.0009358602692373097, 0.0019975032191723585, 0.002620550338178873, -0.0012375444639474154, -0.004191290121525526, 0.0005661508766934276, -0.0013436948647722602, 0.0026610628701746464, -0.002268515294417739, -0.006568282842636108, -0.0031167431734502316, 0.00424752663820982, 0.007550882641226053, -0.014311561360955238, -0.003174726851284504, 0.00016474122821819037, -0.003137054620310664, -0.010743655264377594], [-0.0008766349637880921, -0.0023340315092355013, 0.012432057410478592, -0.0004297299892641604, 0.0031983547378331423, -0.0011796995531767607, 0.005920504219830036, -0.003200527047738433, 0.004503674805164337, 0.044654011726379395, -0.003808077424764633, -0.011047708801925182, 0.004995462018996477, 0.0007080808863975108, 0.001975150778889656, -0.0019809098448604345, -0.0015440236311405897, -0.009242620319128036, -0.006994732655584812, 0.005330832675099373, 0.0005675109568983316, 0.0019625346176326275, -0.006390305235981941, -0.008799909614026546, -0.0028209497686475515, -0.0012924154289066792, -1.4743302017450333e-05, -0.011947440914809704, -0.004379390273243189, 0.0004961925442330539, -0.003465936752036214, -0.07383792847394943], [-0.0003324564022477716, -0.0016652306076139212, 0.012450408190488815, -0.0003674352774396539, 0.0026709791272878647, -0.000937812787014991, 0.008176149800419807, -0.0030522842425853014, 0.003798434976488352, 0.044742733240127563, -0.006660000421106815, -0.011722689494490623, 0.007322704419493675, 0.00067463971208781, 0.0020800461061298847, -0.0014574367087334394, -0.0011378333438187838, -0.008413364179432392, -0.005575105082243681, 0.005805871449410915, 0.0003985424409620464, 0.0017533790087327361, -0.007299103774130344, -0.008316673338413239, -0.0024098772555589676, -0.0009754791972227395, 9.076256537809968e-05, -0.015489708632230759, -0.004295357968658209, 0.0012336685322225094, -0.0029265652410686016, -0.04918956384062767], [0.00699213519692421, -0.06863565742969513, -0.113224096596241, -0.001855652779340744, -0.022052526473999023, -0.04081132262945175, -0.034281618893146515, -0.07095298171043396, 0.050435472279787064, 0.3943324387073517, 0.004756595473736525, -0.016860976815223694, 0.040450938045978546, 0.028568832203745842, -0.001521359197795391, -0.01896248385310173, -0.04907320812344551, 0.12382662296295166, -0.040158599615097046, 0.018680088222026825, 0.04120282456278801, -0.04342095926403999, -0.05121302977204323, -0.006070227827876806, -0.07245940715074539, -0.06208885833621025, -0.03165696561336517, 0.0654696598649025, 0.002388495486229658, 0.10253895819187164, -0.06667299568653107, -0.7321325540542603], [0.0032051531597971916, 0.004496597684919834, -0.012781481258571148, 0.0015327924629673362, -0.0015293722972273827, -4.975474439561367e-06, -0.007809585891664028, 0.007699800189584494, -0.006861620116978884, -0.03616593778133392, -0.0007271710783243179, 0.020019110292196274, -0.0008980561979115009, -0.0001499523059464991, -0.0032367005478590727, 0.0030608433298766613, 0.005179976113140583, 0.006870044395327568, 0.00953442882746458, -0.0028946383390575647, -0.003857541363686323, 0.002172986976802349, 0.009178899228572845, 0.010925306007266045, 0.008190803229808807, -0.0011989520862698555, -0.0023314976133406162, 0.014683191664516926, 0.004351793322712183, -0.002218030858784914, 0.0058000171557068825, 0.027708644047379494], [-0.0009103019838221371, -0.006971633993089199, -0.018006175756454468, -0.004849771969020367, -0.012438515201210976, -0.01688641682267189, -0.01789524406194687, 0.02007623203098774, -0.024701541289687157, -0.023999571800231934, 0.02304057963192463, 0.018392154946923256, -0.03331391513347626, 0.005303984973579645, -0.007707191165536642, -0.0038570326287299395, -0.0010938949417322874, 0.007952315732836723, 0.03174435719847679, -0.024082835763692856, 0.0012458553537726402, -0.005101379472762346, 0.031400226056575775, 0.014123618602752686, 0.020696554332971573, -0.015970248728990555, -0.017059266567230225, 0.02299867570400238, 0.007825128734111786, -0.009271539747714996, 0.023250099271535873, -0.004873430822044611], [0.002203398384153843, 0.003114935476332903, -0.008497601374983788, 0.0015735062770545483, -0.0007108452264219522, 0.0002437520306557417, -0.004576150793582201, 0.003738496219739318, -0.0033931504003703594, -0.011382266879081726, -0.0005163864698261023, 0.012515495531260967, -0.0006329754251055419, -0.0005171908996999264, -0.002128061605617404, 0.0026687944773584604, 0.0035704520996659994, 0.0036264562513679266, 0.005994296632707119, -0.0019019905012100935, -0.0031340366695076227, 0.0015952989924699068, 0.007290945388376713, 0.007482374086976051, 0.004249165300279856, 0.0005790613358840346, 0.00012917688582092524, 0.007528043817728758, 0.0030998853035271168, -0.0011386214755475521, 0.0036282753571867943, 0.002538626082241535], [0.00014857175119686872, -0.00014754885341972113, 0.00038706668419763446, -4.059595812577754e-05, 0.00011898657976416871, -0.0007517973426729441, -4.9185742682311684e-05, 8.996710676001385e-06, -8.857119246385992e-05, 0.0018944493494927883, -0.0004240087582729757, -0.0006196819012984633, 0.0005799548816867173, 0.0002462261472828686, -0.0001225271262228489, -5.2115050493739545e-05, 1.6489844711031765e-05, -0.0009871034417301416, 0.00014441234816331416, 0.0002344416716368869, -0.00020948256133124232, 0.0003457414568401873, -0.0007195129874162376, -0.00018756301142275333, 8.963966683950275e-05, -0.0003661027585621923, -0.000276707811281085, -0.0012823970755562186, -0.00021687071421183646, -2.6095440261997283e-06, 5.8753670600708574e-05, 0.0003403504961170256], [0.0006412763032130897, 0.0011742013739421964, 0.0034880409948527813, 0.0006572859128937125, 0.0008233471889980137, 0.0007463709334842861, 0.001956277759745717, -0.0028290669433772564, 0.002480439841747284, 0.045191049575805664, -0.002303361427038908, -0.00945029966533184, 0.0024123804178088903, -0.001205486711114645, -0.0004972084425389767, 0.0002398336073383689, 0.0007525024702772498, -0.000538510037586093, -0.0026148217730224133, 0.00048294957377947867, -0.0003054208937101066, 0.0014379587955772877, -0.002464467426761985, -0.0051112850196659565, -0.0036920160055160522, 0.0019498683977872133, 0.0047889407724142075, -0.011774761602282524, -0.0027942790184170008, 0.001318751135841012, -0.0028847348876297474, -0.004989354405552149], [0.0024245837703347206, 0.0049527594819664955, 0.001630269456654787, 0.003296823240816593, 0.000635008211247623, 0.004224278032779694, -0.00016888845129869878, 0.00014912497135810554, -0.0004475291643757373, -0.023943297564983368, -0.004331901669502258, -0.011122448369860649, 0.004423866048455238, -0.0016496054595336318, 0.0002423004334559664, 0.003894238965585828, 0.0031628503929823637, -0.0037783635780215263, 0.0012979961466044188, -0.0004896652535535395, -0.0015146431978791952, 5.019028321839869e-05, -0.009778078645467758, -0.007851351983845234, -0.0006147522362880409, 0.004801623523235321, 0.006196717731654644, -0.016658436506986618, -0.0018675181781873107, -0.0002732367720454931, 0.00066740857437253, 0.05438864976167679], [0.0011553773656487465, 0.0011795255122706294, -0.0009073987603187561, 0.0008758385665714741, 0.00020196179684717208, 0.0011515585938468575, -0.0012596616288647056, 0.0008413702016696334, -0.0006922105676494539, 0.0007168102310970426, -0.0023287662770599127, -0.001975863240659237, 0.001492014853283763, -0.00034697845694608986, -0.0004308238276280463, 0.0011796688195317984, 0.0008317949250340462, -0.0012325108982622623, 0.00045765252434648573, -0.0005334524903446436, -0.0006683596293441951, 0.0006612068973481655, -0.00198522862046957, -0.0013614216586574912, 0.0005822692764922976, 0.0009861986618489027, 0.0012884988682344556, -0.003707651514559984, -0.0002078136894851923, -0.0008392523159272969, 0.0007674830267205834, 0.013506317511200905], [0.0008210850064642727, 0.0006383718573488295, -0.0016989592695608735, -0.0008435471099801362, -0.0001784221240086481, -0.0014893084298819304, -0.0010872588027268648, 0.000568192102946341, -0.0009031073423102498, 0.03447401523590088, 0.00013237945677246898, 0.00023950752802193165, -0.0004900913336314261, -0.0002821035450324416, -0.001620011287741363, -0.0005106322350911796, 0.0007958197966217995, 0.0011641382006928325, 0.0018590482650324702, 0.0015297133941203356, 1.3396238500718027e-05, 0.0007749376818537712, 0.0022695823572576046, 0.0006726487190462649, 0.0003639028291217983, -0.0008467414882034063, 0.0003143733483739197, 0.0007426257943734527, 0.00018567536608316004, -0.00028237863443791866, 0.00044915478792972863, -0.02293231524527073], [0.0004999089287593961, -0.000548931653611362, 0.0036761511582881212, 0.00026043562684208155, 0.000840653432533145, -0.000169695500517264, 0.0031592713203281164, -0.0012531497050076723, 0.002239387948065996, 0.04550852254033089, -0.003499162383377552, -0.004706663079559803, 0.003267924766987562, 0.00045055709779262543, -6.904389010742307e-05, -0.0004984912229701877, -0.0006715614581480622, -0.0006832396611571312, -0.009719978086650372, 0.0023170169442892075, -0.001165244379080832, 0.001244423445314169, -0.0010234926594421268, -0.0023121898993849754, -0.0005200625164434314, -0.0004639996332116425, -0.0003900876909028739, -0.005379718728363514, -0.0015419746050611138, 0.000389434106182307, -0.001029915176331997, -0.01905203051865101], [-0.0003279402735643089, -0.003013880690559745, 0.005332323722541332, -0.001277403673157096, 0.00038195992237888277, -0.0018757106736302376, 0.0009224341483786702, -0.0023128148168325424, 0.0029092519544065, 0.07302741706371307, -0.007079262752085924, -0.006658611353486776, 0.004580468405038118, 0.0007123315590433776, 0.0017070559551939368, -0.0019250380573794246, -0.0014507549349218607, 0.00024752438184805214, -0.004089140798896551, 0.013781294226646423, 0.0006525425123982131, 0.0010950295254588127, 0.007856152020394802, -0.004499809350818396, -0.0035085862036794424, -0.0018706760602071881, 0.0004706523031927645, -0.0054693096317350864, -0.002382501494139433, 0.0006246662233024836, -0.0022348430939018726, -0.07190300524234772], [0.0006316303042694926, 0.0011175161926075816, 0.00011297379387542605, 4.576104402076453e-05, -0.00013825665519107133, 0.0008357401238754392, -0.00017008083523251116, 0.0009893174283206463, -0.0011108817998319864, -0.026976512745022774, -0.0005776124307885766, -0.0025411073584109545, 0.0008025282877497375, -0.0005716811865568161, 6.096059223636985e-05, 0.0005734643782489002, 0.0008393760654143989, -0.000797078013420105, 0.0006876896368339658, -0.001422069501131773, 0.0006946368375793099, -0.000942801299970597, -0.003672562539577484, -0.0026959555689245462, 8.81687446963042e-06, 0.0009709542500786483, 0.0017217497806996107, -0.004254334140568972, 0.00020244717597961426, 0.0002522060531191528, 0.0005795452743768692, -0.0214813444763422], [0.0015147890662774444, 0.0016210745088756084, -0.006879069376736879, 0.001154277822934091, -0.002071067225188017, 0.0015741263050585985, -0.005392362829297781, -0.0009637163020670414, -0.0001302932942053303, 0.0439457893371582, -0.0019287043251097202, 0.009578412398695946, 0.0012315316125750542, -0.000513827835675329, -0.002030478324741125, 0.001484074629843235, 0.0012903895694762468, 0.0028884417843073606, 0.0013902055798098445, 0.0002113051014021039, -0.002799795940518379, 0.0035179592669010162, 0.010923237539827824, 0.0012618971522897482, 0.0006902053719386458, 0.0014379378408193588, 0.0010253106011077762, 0.009657005779445171, -0.0003209223214071244, 0.001806364394724369, 0.0006771719781681895, -0.02046499028801918], [-0.004673084709793329, -0.01715303212404251, -0.011569088324904442, -0.008540335111320019, -0.0016889128601178527, -0.019934125244617462, -0.0072440700605511665, 0.005682959221303463, -0.003751107957214117, -0.08418428897857666, -0.0030641285702586174, 0.02989134192466736, -0.0022616288624703884, 0.006891272962093353, -0.002703820588067174, -0.008753147907555103, -0.007194716017693281, 0.013581385836005211, 0.00448645930737257, 0.015084564685821533, -0.0008748145774006844, 0.000520688365213573, 0.049534887075424194, 0.025952454656362534, 0.010306965559720993, -0.024748578667640686, -0.020670384168624878, 0.04120228812098503, 0.005592881236225367, -0.0016649900935590267, 0.0035816081799566746, -0.17506763339042664], [0.0015704375691711903, 0.002276227343827486, -0.0149382334202528, -0.0012807631865143776, -0.0070344130508601665, -0.006395798642188311, -0.016908865422010422, 0.011379769071936607, -0.013582623563706875, -0.014438068494200706, 0.00628271047025919, 0.007280802819877863, -0.01040375791490078, 0.0006197773036547005, -0.004493280313909054, 0.0003755193902179599, 0.0032458638306707144, 0.0033800324890762568, 0.013365558348596096, -0.009214557707309723, -0.001897447626106441, -0.001293775625526905, 0.013948400504887104, 0.007243672851473093, 0.009034848771989346, -0.001908078440465033, -0.0016197202494367957, 0.009693978354334831, 0.002451732289046049, -0.004631203133612871, 0.012108303606510162, 0.008778632618486881], [9.145551302935928e-06, -6.38139244983904e-05, 0.007317978888750076, 0.000108835578430444, 0.001266269013285637, 0.0003713935730047524, 0.0044141472317278385, -0.0008987589972093701, 0.001037180656567216, 0.019135214388370514, -0.0036510846111923456, -0.006577696651220322, 0.003722956869751215, 0.00014660172746516764, 0.0008687039371579885, -0.00020612218941096216, -1.1914297829207499e-05, -0.005980795249342918, -0.0016271498752757907, 0.0027587299700826406, 0.00021561933681368828, 0.0008137567201629281, -0.005006683524698019, -0.004562113434076309, -0.0008695473661646247, 0.00023795265587978065, 0.0006064139888621867, -0.010132142342627048, -0.001958203036338091, 0.00036162007017992437, -0.00086028384976089, -0.011068240739405155], [0.003414199920371175, 0.0014757944736629725, 0.0020342166535556316, 0.0020419294014573097, 0.001530332025140524, -0.0035781883634626865, 0.0006959228776395321, 0.0003610862768255174, -0.0009520032908767462, 0.00046360399574041367, -0.012599867768585682, -0.016034109517931938, 0.010562735609710217, 0.0005144390743225813, -8.065055590122938e-05, 0.0025138736236840487, 0.001908642123453319, -0.007010716944932938, 0.0018067018827423453, 0.00293075037188828, -0.003158565843477845, 0.0012719042133539915, -0.00560586666688323, -0.013256913051009178, 0.0008016065694391727, -0.003023803001269698, 0.002558605745434761, -0.03505437821149826, -0.0027654573787003756, 0.00010394150740467012, 0.0013504110975190997, 0.04294406995177269], [0.0015848880866542459, 0.0009880741126835346, 0.0014957399107515812, 0.00135016068816185, 0.0006832651561126113, -0.0013283153530210257, -0.0006125977961346507, 0.00023284635972231627, -0.0003271048190072179, 0.0028702165000140667, -0.0039537870325148106, -0.005620274227112532, 0.004224633332341909, 0.0003986088850069791, -0.0002044114371528849, 0.0016511804424226284, 0.001112542930059135, -0.005764241795986891, 0.0006077922880649567, 0.0008926322916522622, -0.0016866688383743167, 0.0013141087256371975, -0.006196093745529652, -0.004258325323462486, 0.0003640450304374099, 0.00019829021766781807, 0.0011394652538001537, -0.011461134068667889, -0.0010880662593990564, -0.0004503001400735229, 0.0005584430764429271, 0.016290755942463875], [0.002190978731960058, -0.0059410203248262405, -0.03507866710424423, -0.006739024538546801, -0.0071762315928936005, -0.02699066512286663, -0.017493119463324547, 0.02108500339090824, -0.01978112757205963, 0.05768998712301254, 0.009428039193153381, 0.021498730406165123, -0.020177658647298813, 0.005611059255897999, -0.011358212679624557, -0.004232842940837145, 0.006040181964635849, 0.012590344063937664, 0.036306895315647125, -0.013683387078344822, -0.001232339534908533, -0.013320391066372395, 0.036887869238853455, 0.022423097863793373, 0.025669537484645844, -0.015889206901192665, -0.012155198492109776, 0.03056609444320202, 0.01095317117869854, -0.01443322841078043, 0.030709009617567062, -0.02844078652560711], [3.8344383938238025e-05, -0.0004707495681941509, -0.008988790214061737, -0.0011388537241145968, -0.0021049613133072853, -0.002795982174575329, -0.007406475488096476, 0.002877552295103669, -0.0037759465631097555, 0.0006008838536217809, 0.003354322398081422, 0.005924288183450699, -0.004438583739101887, 0.0005613465909846127, -0.0020628678612411022, -0.0005576287512667477, 0.0001793733681552112, 0.002824073191732168, 0.0034495978616178036, -0.0034968305844813585, -0.0001229787158081308, 4.649502079701051e-05, 0.006101658567786217, 0.00374374957755208, 0.0028019153978675604, -0.0029751888941973448, -0.002042667707428336, 0.0077021773904562, 0.0010872036218643188, -0.0010307921329513192, 0.0032436151523143053, -0.01811061054468155], [-0.0016492647118866444, -0.0017684570048004389, 0.008834338746964931, 0.0001292583765462041, 0.002588981995359063, -0.0011348676634952426, 0.0041856649331748486, -0.000927140936255455, 0.0014668391086161137, 0.05715884640812874, -0.000557995866984129, -0.005754034500569105, 0.00024298662901856005, -0.00042044633300974965, 0.00118257908616215, -0.0011259103193879128, -0.0009044401231221855, -0.004759742878377438, -0.004116607829928398, 0.0015317096840590239, 0.00015690938744228333, 0.00052166439127177, -0.003526071785017848, -0.003976837266236544, -0.0017379473429173231, 6.208705599419773e-05, 0.001020630239509046, -0.008128182031214237, -0.0012828659964725375, -0.0013804483460262418, -0.001568596693687141, -0.06790220737457275], [-4.2957130062859505e-05, -0.0007168577867560089, 0.0069617400877177715, -0.00015283108223229647, 0.0010269141057506204, -0.0005175372352823615, 0.0031118120532482862, -0.0011318547185510397, 0.0014908115845173597, 0.02150629088282585, -0.002273787744343281, -0.006444066297262907, 0.0022957706823945045, 0.0003270789748057723, 0.00028677156660705805, -0.0006531974649988115, -0.00037959267501719296, -0.005743207409977913, -0.002583627589046955, 0.001949302852153778, 6.732480687787756e-05, 0.0010206379229202867, -0.002297758124768734, -0.004498758818954229, -0.0008885713759809732, -0.0004400400212034583, 0.00019824440823867917, -0.009348996914923191, -0.0021725366823375225, 0.00012247051927261055, -0.0010245400480926037, -0.024564659222960472], [0.041140198707580566, 0.15741561353206635, -0.021742230281233788, 0.17894399166107178, 0.08906274288892746, 0.22326254844665527, -0.05740811675786972, 0.06896419078111649, -0.033041808754205704, -0.525991678237915, -0.16175255179405212, -0.05159920081496239, 0.09477800130844116, -0.056119129061698914, 0.030768830329179764, 0.1814950853586197, 0.10248573124408722, -0.14858534932136536, -0.07093995809555054, 0.09200213849544525, -0.20072820782661438, 0.04553290084004402, -0.04380028694868088, -0.10947004705667496, 0.06903813779354095, 0.17697671055793762, 0.13779747486114502, -0.17928078770637512, -0.016127092763781548, -0.11203200370073318, 0.07184520363807678, -0.04102082923054695]], "lstm.bias_ih_l0": [-0.19918714463710785, -0.11638607829809189, -0.27311477065086365, -0.1575363129377365, -0.0645882785320282, -0.09248297661542892, -0.2219362109899521, -0.13728024065494537, -0.14950844645500183, -0.07369902729988098, -0.16524331271648407, -0.15297432243824005, -0.1412646621465683, -0.061746399849653244, -0.167751282453537, -0.14323318004608154, -0.13286760449409485, -0.26120495796203613, -0.20333579182624817, -0.09726131707429886, -0.20966164767742157, -0.2615213394165039, -0.23667782545089722, -0.15719445049762726, -0.14465725421905518, -0.11435343325138092, -0.08455034345388412, -0.2034367322921753, -0.17533990740776062, -0.10494138300418854, -0.13974712789058685, 0.3134276568889618, -0.15698394179344177, -0.10373679548501968, -0.2342960089445114, -0.12159669399261475, -0.054919347167015076, -0.08551794290542603, -0.19639648497104645, -0.11195042729377747, -0.1286405771970749, 1.0626280307769775, -0.14607465267181396, -0.12598103284835815, -0.12009254097938538, -0.052576225250959396, -0.1443183273077011, -0.11676473170518875, -0.11385469883680344, -0.22633932530879974, -0.17739754915237427, -0.10634297877550125, -0.17502224445343018, -0.18310953676700592, -0.21130314469337463, -0.12849658727645874, -0.12093188613653183, -0.09306062012910843, -0.07226307690143585, -0.17718273401260376, -0.12585343420505524, -0.08627985417842865, -0.12121045589447021, -0.08259052038192749, -0.028318684548139572, 0.016741953790187836, 0.05388583987951279, 0.01487947627902031, 0.04723504185676575, 0.03952769190073013, 0.04175317659974098, -0.0345887616276741, 0.045522887259721756, 0.0253264419734478, 0.08481372892856598, 0.013532357290387154, -0.014201708137989044, 0.013579150661826134, 0.040259964764118195, 0.008662836626172066, -0.04697023704648018, -0.0977204367518425, -0.02039797604084015, 0.0398496612906456, 0.03153545409440994, -0.023839715868234634, -0.18237075209617615, 0.01629544049501419, 0.05902181565761566, 0.02768331579864025, -0.0505690760910511, 0.09609716385602951, -0.005920590832829475, 0.041611649096012115, 0.08163623511791229, 0.031335484236478806, -0.2006118893623352, -0.11889759451150894, -0.27546072006225586, -0.16085144877433777, -0.06462650746107101, -0.09542674571275711, -0.22531269490718842, -0.13973571360111237, -0.15161611139774323, 0.14783892035484314, -0.1695893257856369, -0.15428751707077026, -0.14133848249912262, -0.0642743930220604, -0.16886699199676514, -0.14512990415096283, -0.13490107655525208, -0.26648667454719543, -0.20833063125610352, -0.12172764539718628, -0.21322143077850342, -0.2648080885410309, -0.2385423481464386, -0.15836374461650848, -0.14553625881671906, -0.11585166305303574, -0.08551286160945892, -0.20350299775600433, -0.1766742765903473, -0.10673695057630539, -0.14031286537647247, 0.003043030621483922], "lstm.bias_hh_l0": [-0.19918705523014069, -0.1163397878408432, -0.2731624245643616, -0.15751811861991882, -0.06480440497398376, -0.09246839582920074, -0.22193478047847748, -0.13656610250473022, -0.14954625070095062, -0.07290079444646835, -0.16609874367713928, -0.15296998620033264, -0.14098823070526123, -0.06177189201116562, -0.16774609684944153, -0.1432310789823532, -0.1328759342432022, -0.2612769305706024, -0.2033921778202057, -0.10246545821428299, -0.20964695513248444, -0.26153361797332764, -0.2230181246995926, -0.15719497203826904, -0.14464494585990906, -0.11435341835021973, -0.08457797765731812, -0.20345227420330048, -0.1753372848033905, -0.10539910197257996, -0.13990239799022675, 0.3727658689022064, -0.15697376430034637, -0.10372425615787506, -0.23422540724277496, -0.12159806489944458, 