{"lstm.weight_ih_l0": [[-7.888706932135392e-07], [0.03789760172367096], [-1.304146053371369e-06], [-0.1432732492685318], [5.2604551456170157e-05], [0.0011292954441159964], [0.0003609636041801423], [1.5701318261562847e-05], [0.00025106786051765084], [2.8647768886003178e-06], [0.000194947439013049], [0.00029446283588185906], [0.0058476547710597515], [4.308994903112762e-05], [7.637085946043953e-05], [0.0034121552016586065], [1.1108277249149978e-06], [-1.5857311154832132e-05], [0.0008366969996131957], [0.0011158022098243237], [-0.02407783642411232], [0.000668899854645133], [-1.851983142842073e-06], [-0.00018988893134519458], [-0.0034408126957714558], [-0.030294816941022873], [1.0684396329452284e-05], [0.0012856920948252082], [0.001133348559960723], [0.1275118738412857], [1.1971867934335023e-05], [6.607006071135402e-07], [-2.5742299385456135e-06], [0.014850112609565258], [-2.209400236097281e-06], [0.1270884871482849], [7.414804713334888e-05], [0.00032683348399586976], [0.00033877359237521887], [2.2421447283704765e-05], [0.00015440271818079054], [1.162114494945854e-05], [0.0002317624748684466], [-0.0007909530540928245], [-0.02164681814610958], [5.1880182581953704e-05], [0.00010090313298860565], [0.002388418884947896], [1.2938966392539442e-05], [-8.270057151094079e-06], [0.005022574216127396], [0.0006115230498835444], [-0.015887785702943802], [0.00037123082438483834], [3.2356392694055103e-06], [-0.0005620265146717429], [0.004663203377276659], [-0.024392278864979744], [8.82523090695031e-06], [0.00033475609961897135], [0.00036907714093104005], [-0.13514745235443115], [7.903661753516644e-06], [-1.442237407900393e-05], [0.0015078504802659154], [0.3441677987575531], [0.0006778933457098901], [-2.428624391555786], [-0.0015699313953518867], [0.017095355316996574], [0.007204052060842514], [-0.0002422642573947087], [-0.0028853132389485836], [-0.00259617087431252], [-0.003854631446301937], [0.005691396072506905], [-6.082060813903809], [0.0007404973730444908], [0.004988512489944696], [-0.0108902333304286], [0.0027466872707009315], [-0.004967572167515755], [0.3953382968902588], [-0.01394254993647337], [0.2670828402042389], [0.007520557381212711], [-0.0020791511051356792], [0.006260477937757969], [0.4587213695049286], [0.0755288302898407], [-0.003900910262018442], [0.023509206250309944], [-0.02073173224925995], [-2.3324925899505615], [-0.003770405426621437], [0.002027889946475625], [-1.3768813005299307e-05], [0.049529559910297394], [-4.19390471506631e-06], [0.0034023497719317675], [2.0189872884657234e-06], [0.0018794283969327807], [-0.0002744481316767633], [2.3238026187755167e-05], [0.0003086764190811664], [-1.4907142031006515e-05], [6.200082862051204e-05], [0.0022537310142070055], [0.005584613885730505], [1.837433774198871e-05], [6.030471922713332e-05], [0.010665149427950382], [-2.8819127692258917e-05], [-1.9679268007166684e-05], [0.004653075244277716], [0.0018797207158058882], [-0.025009436532855034], [0.0009489518124610186], [-2.4868928448995575e-05], [7.946748519316316e-05], [-0.004077646415680647], [-0.04516837000846863], [4.163784979027696e-06], [0.0023909597657620907], [0.002156083472073078], [-0.01836341992020607], [-0.00017354238661937416], [-2.047021916951053e-05]], "lstm.weight_hh_l0": [[3.597455986437126e-07, 2.4008566015254473e-06, 1.7261137941204652e-07, 5.03084811498411e-06, -1.311453615926439e-06, 5.154775863047689e-06, 3.4154004424635787e-06, -2.287881670781644e-07, -1.9717240320460405e-06, -5.589558895735536e-07, -1.01655280104751e-06, -4.450720552995335e-06, 3.6910878407070413e-06, 1.1449833436927292e-06, 1.1046502095268806e-06, 3.58976649295073e-05, 6.109734727033356e-07, 2.627508024488634e-07, -2.6172050638706423e-05, -4.195694145892048e-06, -5.844376119057415e-06, 3.1586935165250907e-06, -5.062544801148761e-07, 5.5160103329399135e-06, 8.546512617613189e-06, -1.1616850770224119e-06, -4.835400080338559e-09, 3.4265726753801573e-06, -3.3740914204827277e-06, -3.1237326766131446e-05, -5.752480092269252e-07, -1.8950321418742533e-06], [-0.0005107810720801353, 0.025014709681272507, -0.00016788006178103387, 0.0007941221119835973, 0.003350166603922844, -0.003942923620343208, -0.011484428308904171, 0.0012093472760170698, 0.0009046844206750393, 0.0006775809451937675, 0.010178339667618275, 0.003151987912133336, -0.048376571387052536, -0.0029322938062250614, -0.0030609441455453634, -0.08515352010726929, -0.0006710264133289456, 0.0010120876831933856, -0.005802522413432598, 0.002919226884841919, 0.001242256723344326, -0.0017864553956314921, 0.000706446124240756, -0.0014657671563327312, -0.011092113330960274, 0.013087487779557705, 0.002061169594526291, -0.0021078537683933973, 0.002094309777021408, -0.08647408336400986, 0.00034576188772916794, 0.0027017260435968637], [8.122906081098336e-08, 7.170443723225617e-07, 3.51420617050735e-08, -7.382482749562769e-07, -7.371100707587175e-08, 1.6078533349173085e-07, 6.583948675142892e-08, -3.7461873603206186e-08, -1.6110337242025707e-07, -1.2139285843204561e-07, -7.259659184910561e-08, -1.8123071754416742e-07, -7.37462926281296e-07, 7.062738660579271e-08, 8.143059204712699e-08, 4.471228294278262e-06, 1.5016203747109103e-07, 7.050311978673562e-08, -5.491075171448756e-06, -1.727354117520008e-07, -1.4747247405466624e-06, 1.9418848751229234e-07, -1.2140652927428164e-07, -1.0941909067696542e-07, 4.838176664634375e-06, -6.433330099753221e-07, 3.121798641814166e-08, 4.460725477883898e-08, -4.6273711973299214e-08, -6.639324965362903e-06, 2.4531832565344303e-08, -1.6530341895304446e-07], [0.0020970467012375593, -0.07688215374946594, 0.0005768925184383988, -0.024952435865998268, -0.005869720131158829, 0.027212847024202347, 0.022350767627358437, -0.0032426288817077875, -0.01449584774672985, -0.0038748853839933872, -0.01584206521511078, -0.0217950027436018, 0.4583038091659546, 0.004651333671063185, 0.003754593199118972, -0.34749695658683777, 0.005062202922999859, 0.0011719546746462584, 0.12298568338155746, -0.032062988728284836, 0.03920102119445801, 0.025181462988257408, -0.00352924270555377, 0.04570585861802101, -0.24968942999839783, 0.1474715918302536, 0.0001416763407178223, 0.03767116367816925, -0.03921934962272644, 0.40212544798851013, -0.013073836453258991, -0.010377131402492523], [2.031778421951458e-06, 7.170805474743247e-05, 5.72130090858991e-07, 1.352436447632499e-05, -1.1430214726715349e-05, 4.437962343217805e-05, 3.183000808348879e-05, -4.039643954456551e-06, -9.099630005948711e-06, -7.984083367773565e-07, -1.676080319157336e-05, -4.6184955863282084e-05, 4.975204501533881e-05, 9.775708349479828e-06, 5.963814146525692e-06, -1.1942192031710874e-05, 3.4169413538620574e-06, 3.4335482723690802e-06, -0.0001466604880988598, -3.3008414902724326e-05, -0.00013816339196637273, 2.4315871996805072e-05, -3.653447947726818e-06, 5.040600626671221e-06, -7.989844016265124e-05, 2.5801584342843853e-05, 3.715940408710594e-07, 8.977770448836964e-06, -8.250999599113129e-06, 6.735712668159977e-05, -2.8429337817215128e-06, -4.708471806225134e-06], [7.536637713201344e-05, 0.0006510505918413401, 1.9018531020265073e-05, 0.009467964060604572, -0.00011935021029785275, 8.317173342220485e-05, 0.000257891631918028, -0.00011186268966412172, -0.00011731606355169788, -6.698586366837844e-05, -0.0001426519884262234, -0.00028948113322257996, 0.0011485317954793572, 0.00010867833771044388, 2.907120688178111e-05, 0.0027624310459941626, 0.00015882577281445265, 4.260119385435246e-05, 0.0030275459866970778, -0.00013106271217111498, -0.0022450049873441458, 3.8581667467951775e-05, -0.0001551915192976594, 0.0004992716130800545, -0.004542324226349592, 0.0002687113592401147, 1.9627268557087518e-05, 0.00033101107692345977, -0.00031470978865399957, -0.005406769923865795, -3.177220787620172e-05, -2.0424868125701323e-06], [3.49644833477214e-05, 0.00022671229089610279, 1.1661982171062846e-05, 0.0019630289170891047, -7.175579958129674e-05, 0.00021859545086044818, 8.161817822838202e-05, -4.235548112774268e-05, -9.145426884060726e-05, -1.0986685992975254e-05, -0.00013130527804605663, -0.00023064020206220448, 0.0007681698771193624, 6.286610732786357e-05, 3.6877365346299484e-05, 0.0007931707077659667, 3.883956742356531e-05, 5.742957000620663e-06, -0.0019522355869412422, -0.00024416609085164964, -0.0012128426460549235, 0.00011116074165329337, -5.699870234820992e-05, 0.00020138642867095768, 0.0004662902792915702, 0.00018466838810127228, -2.9609202556457603e-06, 0.0002593632380012423, -0.00039108790224418044, -0.0009572557755745947, -4.904778324998915e-05, -4.1200291889254e-06], [1.9316757970955223e-07, -9.332908120995853e-06, 9.709084736186924e-08, -1.48543986142613e-05, 1.424946503902902e-06, -9.128062629315536e-06, -2.910548118961742e-06, 3.0271260698100377e-07, 2.1799617115902947e-06, -3.3032887358785956e-07, 1.4058184660825646e-06, 8.072337550402153e-06, -2.2213562260731123e-05, -1.4020038179296535e-06, 1.915192797241616e-06, -1.6199685433093691e-06, 4.1755228608053585e-07, -2.075326364092689e-07, -1.5822148270672187e-05, 8.997038094094023e-06, -1.1239843843213748e-05, -2.927574087152607e-06, -3.128714070044225e-07, 1.3120197763782926e-05, -3.3490891837573145e-06, 1.8121893390343757e-06, 4.722442952243e-07, -1.0879140063480008e-05, 1.0762444617284928e-05, 1.8395820006844588e-05, 2.166941158066038e-06, 1.634916543480358e-06], [2.8676099645963404e-06, 0.00037042491021566093, 9.7585598268779e-07, 0.02674161270260811, -4.751466622110456e-05, -8.248060112236999e-06, 5.944426447967999e-05, -2.2742287910659797e-05, 3.3173560041177552e-06, -1.2444080311979633e-05, -4.703075683210045e-05, -9.269494330510497e-05, -6.926342030055821e-05, 4.296226325095631e-05, -2.2855908810015535e-07, 0.02985837124288082, 3.0054397939238697e-05, 6.5645463109831326e-06, 0.00037353558582253754, 2.2383228497346863e-05, -6.083129846956581e-06, -1.5304241969715804e-05, -9.852927178144455e-06, 0.00014261921751312912, -0.0002324223896721378, -0.004279325250536203, 3.257810021750629e-06, 4.772407464770367e-06, 3.253412160120206e-06, -0.013166910037398338, 8.855525265971664e-06, -6.984518222452607e-06], [4.1498205405332556e-07, 1.483465894125402e-05, 2.516023869247874e-07, 0.00010141480015590787, -3.857500814774539e-06, 1.6248450265266e-05, 1.1112108040833846e-05, -6.15337683029793e-07, -5.033879460825119e-06, -6.876829274915508e-07, -3.661798473331146e-06, -8.541594070266001e-06, -1.6937176042119972e-05, 3.2375994578615064e-06, 1.5892996998445597e-06, 0.00035283408942632377, 6.257192239900178e-07, 8.678666745254304e-07, -3.682990063680336e-05, -1.2344636161287781e-05, -1.0684072549338453e-05, 1.0729131645348389e-05, -5.336845561032533e-07, 5.81802623855765e-06, 3.677801578305662e-05, 3.563966174624511e-06, 3.009971578649129e-07, 1.265604623768013e-05, -1.4289895261754282e-05, -0.0001881711941678077, -1.6946976302278927e-06, -6.315249720501015e-06], [6.861464044050081e-06, 3.168842158629559e-05, 3.4848571885959245e-06, -0.00014839776849839836, -1.85191493073944e-05, 3.304367419332266e-05, 1.9931700080633163e-05, 1.4094265452513355e-06, 3.675284006021684e-06, -1.8077748791256454e-06, -1.5268280549207702e-05, -8.342209184775129e-05, 0.00026347534731030464, 1.809723471524194e-05, 9.256222256226465e-06, -4.4653701479546726e-05, 7.93347498984076e-06, 7.39973893360002e-06, -0.0006414241506718099, -0.00020479573868215084, -0.00046793167712166905, 0.00010482312791282311, -1.1140297829115298e-05, -0.0001383976632496342, -8.173024980351329e-06, 0.0001598609087523073, 9.757526640896685e-06, -5.029125895816833e-05, 3.6905257729813457e-05, 0.0005270543042570353, 8.237793736043386e-06, -2.658513949427288e-05], [-3.5838806070387363e-05, 0.0006022662855684757, -3.3248714316869155e-05, 0.001436619320884347, -0.00016079534543678164, 0.00034649556619115174, 0.00031718198442831635, -3.664371615741402e-05, -0.0001261159050045535, 9.643851080909371e-05, -0.00022400851594284177, -0.00014719486352987587, -0.0035531807225197554, 0.00014110910706222057, 2.8189544536871836e-05, 0.0036407315637916327, -3.3444153814343736e-05, 3.5517634387360886e-05, -0.0009010428329929709, -0.0007121317321434617, -0.0006974149728193879, 0.00029701838502660394, 1.3846012734575197e-05, 0.00039864261634647846, -0.0010654263896867633, 0.0002990278007928282, 1.1195718798262533e-05, 0.00012129578681197017, -9.035583934746683e-05, -0.0016325368778780103, -5.631201929645613e-05, -0.00011374134192010388], [0.005370086524635553, -0.09171786159276962, 0.0019567913841456175, -0.2903032898902893, -0.01720183901488781, 0.07111427932977676, 0.057161781936883926, -0.007683745119720697, -0.022147297859191895, -0.007539677899330854, -0.040524549782276154, -0.04871230199933052, 0.024401921778917313, 0.013963957317173481, 0.018300099298357964, -0.5588443875312805, 0.0098134009167552, -0.0011706138029694557, 0.008127579465508461, -0.06004934012889862, -0.01634133607149124, 0.03755158558487892, -0.008023451082408428, 0.10667774081230164, -0.013898087665438652, 0.16589586436748505, -0.008257951587438583, 0.06794631481170654, -0.06452397257089615, 0.31734251976013184, -0.023138996213674545, -0.015261964872479439], [-5.796374580313568e-08, 4.647934474633075e-05, -2.5413748971914174e-07, 8.339817213709466e-06, -8.971904208010528e-06, 3.533066046657041e-05, 2.3510359824285842e-05, -7.255985110532492e-07, -4.1519951992086135e-06, 6.796320803914568e-07, -1.3241640772321261e-05, -3.249262954341248e-05, 7.3994269769173115e-06, 6.720606506860349e-06, 2.189747647207696e-06, -1.4900313544785604e-05, 3.184948127454845e-08, 2.3102832074073376e-06, -0.0001077764100045897, -1.4328762517834548e-05, -8.229559898609295e-05, 1.4623993592977058e-05, -3.118210543107125e-07, 2.1461366941366578e-06, -3.0467337637674063e-05, 1.7359054254484363e-05, -3.300656999272178e-06, 3.0909873203199822e-06, -1.6868229977262672e-06, 4.256451575201936e-05, -6.703596682200441e-07, -5.27757083546021e-06], [4.985703071724856e-06, -3.642766023403965e-05, 1.8217489241578733e-06, 0.0006731064058840275, -6.440005563490558e-06, 1.266945582756307e-05, 9.892541129374877e-06, -4.7802291192056146e-06, -4.426391114975559e-06, -8.788128070591483e-06, -8.420608537562657e-06, -7.348203780566109e-06, 6.294115155469626e-05, 5.683746621798491e-06, 5.887191605324915e-07, 0.0011748055694624782, 9.557910743751563e-06, 1.9734029592655133e-06, -3.575747541617602e-06, -8.701570550329052e-06, -1.993435034819413e-05, 6.687311724817846e-06, -9.073101864487398e-06, 1.4109708899923135e-05, -5.555425013881177e-05, 1.114077076636022e-05, 4.180315045232419e-07, 1.0325349649065174e-05, -7.7881140896352e-06, 4.249997073202394e-05, -3.2244890917354496e-06, 3.436116742250306e-07], [0.0009043787722475827, -0.019203942269086838, 0.00026763169444166124, -0.031335700303316116, -0.002451331587508321, 0.013974659144878387, 0.009993157349526882, -0.0009575150907039642, -0.0038240852300077677, -0.0013521835207939148, -0.006143495906144381, -0.012595339678227901, 0.0006861513247713447, 0.001969601958990097, 0.002972494112327695, -0.0006815030938014388, 0.0018949586665257812, -0.0003864401369355619, -0.0007732398225925863, -0.012103321962058544, 0.0021115466952323914, 0.007393284235149622, -0.0014646025374531746, 0.02269013039767742, -0.0028507427778095007, 0.009624644182622433, -0.001820823410525918, 0.014726950787007809, -0.01424836553633213, 0.006867528427392244, -0.0039005924481898546, -0.0024885772727429867], [8.764311019149318e-07, 2.1097686840221286e-05, 4.913726456834411e-07, 8.999094279715791e-05, -7.2407401603413746e-06, 3.0485087336273864e-05, 2.1909785573370755e-05, -9.034975505528564e-07, -7.605577593494672e-06, -1.43771001148707e-06, -8.164804967236705e-06, -1.8265651306137443e-05, -2.7967507776338607e-05, 5.743900601373753e-06, 3.6816654755966738e-06, 0.00036378027289174497, 1.4249976629798766e-06, 1.0130177088285564e-06, -6.211830623215064e-05, -2.4011877030716278e-05, -1.7590959032531828e-05, 1.734388388285879e-05, -1.179951141239144e-06, 1.6171035895240493e-05, 4.550952871795744e-05, 5.384012183640152e-06, -3.4732326525954704e-07, 2.3898539438960142e-05, -2.4064189346972853e-05, -0.00021646376990247518, -4.1690254874993116e-06, -9.947018952516373e-06], [-8.221045391110238e-07, 7.0145879362826236e-06, -4.2751267415042093e-07, 0.007445632014423609, 2.0321081137808505e-06, 2.0140294054726837e-07, 1.633867441341863e-06, 1.349309741272009e-06, 2.6560172727840836e-07, 2.2095550775702577e-06, 5.845059604325797e-06, 3.942599050787976e-06, -2.1362466213759035e-06, -2.210673983427114e-06, 4.9915479394258e-07, 0.0037541883066296577, -2.394091552559985e-06, 3.18766933560255e-06, 3.38782774633728e-05, 4.618580078386003e-06, 1.0064995876746252e-06, -4.52228505309904e-06, 1.8040495888271835e-06, -1.7738648239173926e-05, -2.5600333174224943e-05, 3.855359409499215e-07, -4.695255313436064e-07, -1.3265855159261264e-05, 8.639793122711126e-06, -0.004866600967943668, 2.7261751256446587e-06, -2.236667342003784e-06], [0.0012524789199233055, 0.021453000605106354, 0.0005694599240086973, -0.023401843383908272, 0.0019649285823106766, -0.0013414360582828522, -0.0030279122292995453, 0.0009441222064197063, 8.631098899058998e-05, -0.0023350082337856293, 0.0030720767099410295, -0.0036188268568366766, -0.00758061558008194, -0.0016335448017343879, -0.000959824537858367, -0.15316343307495117, 0.0028525206726044416, 0.0008078119717538357, -0.0011237188009545207, 0.0011123468866571784, -0.027279837056994438, -0.0018701403168961406, -0.0019948857370764017, 0.006994737312197685, 0.004628302995115519, -0.004760738927870989, 0.0011319316690787673, 0.0013283602893352509, -0.0012614832958206534, 0.02605558931827545, 0.0024987931828945875, -0.0003202678053639829], [8.34687816677615e-05, 0.004652451723814011, -8.978713594842702e-06, 0.03643876314163208, -0.000336965051246807, -0.00017087500600609928, 0.00038769759703427553, -0.0001020312265609391, 5.239509846433066e-05, -0.00011730992264347151, -0.0004220898845233023, -0.0004306969349272549, 0.0003071436658501625, 0.0003101223846897483, -3.775420191232115e-05, 0.0406465120613575, 0.0001326111814705655, 3.079605448874645e-05, 0.0018032568041235209, 9.735217463457957e-05, 0.0005953549989499152, -7.268386252690107e-05, -0.00015182720380835235, 0.00037346361204981804, -0.003454281250014901, -0.01345931738615036, 2.3434982722392306e-05, -0.00010942493827315047, 0.00011284585343673825, -0.030848238617181778, 8.167609485099092e-05, -6.320939428405836e-05], [0.0005269988905638456, 0.0026541557163000107, 0.0002390247245784849, 0.0570848323404789, 0.001097773783840239, -0.0029253954999148846, -0.0029808231629431248, 0.0005792042356915772, 0.0017416942864656448, -0.0005787817644886672, 0.00223791622556746, 0.0012395692756399512, 0.020739486441016197, -0.0009166556992568076, -0.001158670405857265, -0.03679689019918442, 0.00042867916636168957, 0.0007376156281679869, -0.00931565836071968, 0.003653205931186676, -0.018486378714442253, -0.0014801756478846073, -0.0005724681541323662, -0.0016523292288184166, 0.016940230503678322, -0.0013121871743351221, 0.0005704807699657977, -0.003096278291195631, 0.0029074843041598797, 0.008494880981743336, 0.001779976300895214, 0.0001589967287145555], [2.1618212485918775e-05, 0.008328340947628021, 3.570105764083564e-05, 0.04738461971282959, -6.992679118411615e-05, -0.00011545846064109355, 2.9493006877601147e-05, -4.673087823903188e-05, 2.121273246302735e-05, -5.038567542214878e-05, -0.00029583246214315295, -0.00011888568405993283, 5.273184069665149e-05, 6.121873593656346e-05, -2.2352649466483854e-05, 0.050531383603811264, 5.168927236809395e-05, 8.496544978697784e-06, 0.0013870139373466372, 6.112171104177833e-05, 0.00025829477817751467, 3.275558992754668e-05, -7.001389894867316e-05, 9.891067020362243e-05, -0.0012462716549634933, -0.021853595972061157, 1.3947105799161363e-05, -8.747536048758775e-05, 8.86585985426791e-05, -0.0370231494307518, 3.9670376281719655e-05, 1.8110960809281096e-05], [7.075657890709408e-07, 9.009551831695717e-06, 3.8164878901625343e-07, 2.2327194528770633e-05, -3.998367901658639e-06, 1.695715582172852e-05, 1.0856331755348947e-05, -5.452035907183017e-07, -5.484318990056636e-06, -1.143698682426475e-06, -3.6206154163664905e-06, -1.224236075358931e-05, -5.800902272312669e-06, 3.317484697618056e-06, 2.8332515285001136e-06, 0.00011823137901956216, 1.1486193898235797e-06, 5.670937071045046e-07, -5.1072824135189876e-05, -1.3767493328487035e-05, -1.1800277206930332e-05, 9.1694937509601e-06, -9.570319434715202e-07, 1.34318261189037e-05, 1.9669963876367547e-05, 4.579413825922529e-08, -1.49244513636404e-07, 1.1656789865810424e-05, -1.1533307770150714e-05, -9.309366578236222e-05, -2.307013119207113e-06, -5.341993528418243e-06], [3.3275970054091886e-05, -0.0015983280027285218, 9.87758903647773e-06, -0.0036705625243484974, -0.00016246229643002152, 0.0006738263182342052, 0.0005391197046265006, -2.241843321826309e-05, -4.8818263167049736e-05, -8.323883230332285e-05, -0.0004430332046467811, 0.00010722451406763867, -0.003369405400007963, 0.00013403940829448402, -3.082623516093008e-05, -0.0019994424656033516, 6.876239785924554e-05, -2.144485006283503e-05, -0.0011962568387389183, 0.0001812571135815233, -0.0013181022368371487, -0.00013682289863936603, -3.7743575376225635e-05, 0.0010244494769722223, 0.0021131529938429594, 0.0017184519674628973, -2.7485302780405618e-05, 0.000650155998300761, -0.0006490311352536082, 0.0030676545575261116, 4.98429435538128e-05, 9.693783067632467e-05], [0.002704555867239833, -0.012173070572316647, 0.0011305054649710655, -0.1759021133184433, -0.005715769715607166, 0.02632945217192173, 0.02097664773464203, -0.001880895346403122, -0.008662656880915165, -0.004077124875038862, -0.012678111903369427, -0.017831550911068916, 0.02072080411016941, 0.004599230829626322, 0.005751300137490034, -0.16664421558380127, 0.005096618551760912, 0.0006196696194820106, 0.003459450788795948, -0.021632226184010506, -0.0159559678286314, 0.013663318008184433, -0.00408873101696372, 0.034090805798769, -0.015191848389804363, 0.044638823717832565, -0.001922088791616261, 0.022802943363785744, -0.021266860887408257, 0.16470813751220703, -0.00861041247844696, -0.00617523118853569], [0.0003215011674910784, -0.003423494752496481, 0.00020139360276516527, 0.09028194844722748, 0.0012619805056601763, 0.008391250856220722, -0.002228159923106432, 0.00028473910060711205, -0.002077761571854353, -8.010290912352502e-05, 0.0021820839028805494, -0.004301581997424364, 0.08273820579051971, -0.0008784905076026917, 0.0018430700292810798, -0.0403008759021759, 0.00017364410450682044, 0.0005109753110446036, 0.045466482639312744, -0.004863849375396967, -0.01799933798611164, 0.0025045392103493214, -0.0002795676700770855, 0.009903532452881336, -0.03908146917819977, -0.02979150600731373, -0.0008527970057912171, 0.003174012526869774, -0.0029783579520881176, 0.021571354940533638, -0.001655353233218193, -0.0011334236478433013], [-5.67476604373951e-07, -2.2440139218815602e-05, 1.5183300661192334e-07, 0.018054982647299767, 2.465550551278284e-06, 2.3596419396199053e-07, 3.290843096692697e-06, 2.3418710952682886e-06, 2.060852693830384e-06, 3.450181225161941e-07, 5.673297437169822e-06, -3.2240309337794315e-06, -4.5540717110270634e-05, -2.237379703728948e-06, 3.1013375973998336e-06, 0.010884653776884079, -4.4516502839542227e-07, 9.226699262399052e-07, 4.703817921836162e-06, 2.4960754672065377e-06, -9.963613592844922e-06, 1.2663869028983754e-06, 1.4370737062563421e-06, -2.3723041522316635e-05, 8.997327313409187e-06, -0.0009664840763434768, -2.8494573598436546e-06, -1.2543619959615171e-05, 1.3394178495218512e-05, -0.012857170775532722, 3.0982180305727525e-06, -2.5629842639318667e-06], [6.613465666305274e-05, 0.0022924074437469244, -5.378811692935415e-06, 0.02260633558034897, -0.0005876679788343608, 0.0006481386953964829, 0.0016150230076164007, -0.00017727368685882539, -4.4558521040016785e-05, -5.636206333292648e-05, -0.0006837202236056328, 0.00022140763758216053, 0.0008888788288459182, 0.0005330157000571489, -4.0894632547860965e-05, 0.03463330492377281, 0.0001777704746928066, 8.854034240357578e-05, 0.003887566737830639, -0.00019015968427993357, 0.0010279332054778934, 6.652087904512882e-05, -0.00017953819769900292, 0.0001827292435336858, -0.004462448880076408, -0.005705723538994789, -8.95126231625909e-06, -0.00015357037773355842, 0.00014772936992812902, -0.01956184022128582, 3.929250669898465e-05, -0.0006936608697287738], [6.327059963950887e-05, 0.004919767379760742, -4.7387784434249625e-06, 0.03059709630906582, -0.00041105481795966625, 0.00043085598736070096, 0.0015768137527629733, -0.00022277326206676662, 2.587489871075377e-05, -6.0879337979713455e-05, -0.0005301530472934246, 0.00020130202756263316, 0.0007395687862299383, 0.0003872181405313313, -3.733157063834369e-05, 0.042622555047273636, 0.0001392711856169626, 6.466287595685571e-05, 0.0033676442690193653, 4.8666253860574216e-05, 0.0006971298134885728, -5.2249961299821734e-05, -0.0001737885468173772, 0.00013192328333389014, -0.003864235244691372, -0.011614330112934113, -1.3132221283740364e-06, -0.00015837412502150983, 0.00013303069863468409, -0.025996381416916847, 6.150852277642116e-05, -0.0006540391477756202], [0.0024722202215343714, -0.12288918346166611, 0.0007787884096615016, -0.42531850934028625, -0.009367275983095169, 0.03215455263853073, 0.027934668585658073, -0.004135909955948591, -0.008544248528778553, -0.0027974292170256376, -0.020153891295194626, -0.025659287348389626, -0.4355182945728302, 0.007840383797883987, 0.009319836273789406, -0.3273603022098541, 0.004244041163474321, -0.0008616943378001451, -0.10235078632831573, -0.015851065516471863, 0.015915052965283394, 0.007454180624336004, -0.0037671581376343966, 0.04992572218179703, 0.20751237869262695, 0.1456911414861679, -0.003963008988648653, 0.02097797393798828, -0.016188260167837143, 0.03759404271841049, -0.005894101690500975, -0.0038857609033584595], [-4.103965693502687e-06, 0.00013707233301829547, 3.4722038435575087e-06, 0.008941709995269775, -4.814482235815376e-05, 1.4781828213017434e-05, 5.572132067754865e-05, -1.1013973562512547e-05, 2.3159202555689262e-06, 1.7013288697853568e-06, -5.035739377490245e-05, -0.00012203687219880521, 0.0002050815091934055, 4.425115912454203e-05, 1.5397869219668792e-06, 0.013188518583774567, 5.7063107306021266e-06, 4.609095412888564e-06, -0.000541319081094116, 2.6056084607262164e-05, -9.933937690220773e-07, -1.407835225109011e-05, -4.514639840635937e-06, 8.307994721690193e-05, -0.0001701947912806645, -0.0002475361106917262, 1.983067932087579e-06, 1.754242657625582e-05, -3.039913281099871e-06, -0.004871355835348368, 2.6770296699396567e-06, -1.4237319192034192e-05], [7.790654308337253e-06, 0.0005594888352788985, -2.987459083669819e-06, 0.025569524616003036, 5.281561243464239e-06, -1.7020824088831432e-05, -1.3490690434991848e-05, -5.2111176955804694e-06, 5.919628165429458e-06, -2.75212551059667e-06, -1.8168513634009287e-05, 9.5855793915689e-06, -7.152603939175606e-05, -4.157258445047773e-06, -5.5536446552650887e-08, 0.018195349723100662, -1.7974762158701196e-05, -4.58905606137705e-06, -9.883534221444279e-05, 9.34746549319243e-06, 2.5809684302657843e-05, -2.3617569695488783e-06, -1.0270188795402646e-05, 8.028237061807886e-05, -0.00013443452189676464, -0.0051823826506733894, 9.754708116815891e-06, 0.0001166318979812786, -3.789549009525217e-05, -0.02070855349302292, 6.066446530894609e-06, 1.0343898793507833e-05], [4.634981962681195e-07, 2.155926722480217e-06, 1.8293046366579802e-07, 1.2807420262106461e-06, -2.0392208170960657e-06, 8.36273466120474e-06, 5.837686330778524e-06, -2.2711905955929979e-07, -3.2730629300203873e-06, -7.160081167967292e-07, -2.6643017463356955e-06, -7.774295227136463e-06, 2.1852565623703413e-06, 1.7895222299557645e-06, 1.4507583045997308e-06, 2.6665813493309543e-05, 8.674828109178634e-07, 5.825687665605983e-08, -3.225830369046889e-05, -6.737329385941848e-06, -9.06410969037097e-06, 4.904994057142176e-06, -6.994324621700798e-07, 1.1822045053122565e-05, 1.8795200958265923e-05, -3.06943297800899e-06, -3.4678129168241867e-07, 7.282910246431129e-06, -6.702066912112059e-06, -2.359376594540663e-05, -1.27971293295559e-06, -2.693564510991564e-06], [-0.0014911299804225564, 0.02504321187734604, -0.0007644930738024414, 0.08227382600307465, 0.004511793609708548, -0.013976248912513256, -0.009685257449746132, 0.0008192512905225158, 0.00487417122349143, 0.001930802594870329, 0.009689245373010635, 0.009906167164444923, -0.03502967953681946, -0.004042858257889748, -0.0024153527338057756, 0.030294667929410934, -0.0022231421899050474, 0.0009233099408447742, -0.004794225096702576, 0.01142606046050787, 0.0004268120101187378, -0.006840907968580723, 0.0020178731065243483, -0.014600381255149841, -0.011974312365055084, -0.02769089862704277, 0.0013189781457185745, -0.01283006276935339, 0.011827949434518814, -0.07331016659736633, 0.003619305556640029, 0.0027345968410372734], [6.434729016291385e-08, 4.5704803142143646e-07, 1.6831954496865364e-08, 9.083714758162387e-07, -1.7872184798761737e-07, 7.433820883306907e-07, 5.711933681595838e-07, -7.808343305271137e-09, -3.442832507971616e-07, -9.066091166687329e-08, -9.96416105181197e-08, -7.872117748775054e-07, -1.786928805813659e-06, 1.543192666986215e-07, 3.517406526043487e-07, 4.457634986465564e-06, 1.47975057984695e-07, 4.3866656085356226e-08, -4.040066869492875e-06, -8.609882229393406e-07, -1.6253546846201061e-06, 5.547111072701227e-07, -1.1404391386804491e-07, 2.7248331662121927e-06, 8.053901183302514e-06, -1.2328146112849936e-06, -2.0999300076596228e-08, 1.0323648211851832e-06, -8.63714035403973e-07, -5.954887910775142e-06, -8.343533153265525e-08, -4.120888092984387e-07], [-0.0015001678839325905, 0.01859717257320881, -0.0009843501029536128, -0.007333825342357159, -0.0019575010519474745, 0.01304322574287653, 0.009819005616009235, -0.00015648340922780335, -0.015363718383014202, 0.002455308800563216, -0.0026444043032824993, -0.008054257370531559, 0.13148541748523712, 0.0014871142338961363, -0.0009110094397328794, 0.1805475950241089, -0.0029276965651661158, 0.0014614920364692807, 0.11632577329874039, -0.02753068134188652, 0.013706785626709461, 0.027694350108504295, 0.002099888399243355, 0.005536437500268221, -0.20584014058113098, 0.00962631031870842, 0.003505198983475566, 0.03520064800977707, -0.03846655786037445, 0.12951233983039856, -0.014760714955627918, -0.01009969599545002], [1.3134565506334184e-06, 7.671565253986046e-05, 1.4071775922275265e-07, 1.2445308129827026e-05, -1.5131942745938431e-05, 5.730459815822542e-05, 3.6516077670967206e-05, -3.05792900689994e-06, -1.3277698599267751e-05, -9.144903287960915e-07, -2.582042543508578e-05, -6.016432962496765e-05, 0.00010362140164943412, 1.312299536948558e-05, 8.678473022882827e-06, -1.876843634818215e-05, 2.7796850190497935e-06, 2.43516933551291e-06, -0.0001762347819749266, -3.9129161450546235e-05, -0.0001441806962247938, 2.9959748644614592e-05, -2.669582272574189e-06, 4.7748217184562236e-05, -2.761088398983702e-05, 2.833928374457173e-05, -1.9839403648802545e-06, 2.3422064259648323e-05, -1.976478597498499e-05, 6.90881788614206e-05, -5.952546416665427e-06, -6.20277387497481e-06], [0.00011895129864569753, 0.0009565139189362526, 2.588342067610938e-05, 0.003937865141779184, -0.000143436249345541, 0.00026985970907844603, 0.0003786356537602842, -0.00014632439706474543, -0.0001418629544787109, -0.00011214335245313123, -0.00022570988221559674, -0.00045244517968967557, 0.0018035491229966283, 0.000123858597362414, 8.159985009115189e-05, 0.0013642000267282128, 0.0002055086224572733, 3.71207352145575e-05, 0.000893845222890377, -0.00016816004063002765, -0.0022676638327538967, 4.527369674178772e-05, -0.00021163820929359645, 0.0009791043121367693, -0.005168278235942125, 0.00018912534869741648, 6.754308742529247e-06, 0.0005034690257161856, -0.0004562021931633353, -0.0021666029933840036, -7.218953396659344e-05, -1.6531002984265797e-05], [4.433108915691264e-05, 0.0003084363997913897, 1.5191440979833715e-05, 0.0018781274557113647, -8.03067596280016e-05, 0.0002527232572901994, 7.668061880394816e-05, -5.5146319937193766e-05, -0.00010447401291457936, -2.7379483071854338e-05, -0.0001687164040049538, -0.0002727780374698341, 0.0012084615882486105, 6.97284413035959e-05, 5.3370506066130474e-05, 0.0007353576947934926, 5.769653944298625e-05, 4.9168866098625585e-06, -0.0017553097568452358, -0.00028543180087581277, -0.0011312314309179783, 0.00012415517994668335, -7.130149606382474e-05, 0.00045250673429109156, 0.001256671268492937, 0.00012757157674059272, -2.8725705760734854e-06, 0.0005967691540718079, -0.0005278489552438259, -0.0009335708455182612, -6.617763574467972e-05, -4.279359018255491e-07], [9.643622433941346e-08, -1.043895463226363e-05, 1.0953593232443382e-07, -5.607525054074358e-06, 2.1798252873850288e-06, -1.1136631655972451e-05, -4.083532985532656e-06, 6.156038239168993e-07, -1.7295449197263224e-06, -1.617999174641227e-07, 2.6924444682663307e-06, 8.937991879065521e-06, -1.095423249353189e-05, -1.9844615053443704e-06, 9.99506937660044e-07, -1.3431861134449719e-06, 1.7133427832050074e-07, 3.8083459230620065e-07, -3.202533480362035e-05, 5.299873464537086e-06, -1.6597557987552136e-05, 4.902066393697169e-06, -1.3896237760491204e-07, 9.855633834376931e-06, 9.562641935190186e-06, 2.7186529223399702e-06, 3.7238174854792305e-07, 4.084768079337664e-06, 7.525742148573045e-06, 1.3849496099282987e-05, 3.159417474307702e-06, 7.494065812352346e-09], [5.277274794934783e-06, 0.00017801791545934975, 7.850649126339704e-06, 0.021295979619026184, -6.591982673853636e-05, 2.5863764676614664e-06, 8.55393591336906e-05, -2.398515061940998e-05, 5.645462806569412e-06, -1.5221254216157831e-05, -5.449986201710999e-05, -0.00012105568021070212, -0.00011863492545671761, 5.816270277136937e-05, 3.958845809393097e-06, 0.0247332863509655, 3.4296805097255856e-05, 3.5598939120973228e-06, 0.00033376202918589115, 1.5812702258699574e-05, -6.854470120742917e-05, -1.5210443962132558e-05, -1.2047802556480747e-05, 0.0001856292801676318, -0.0002869935124181211, -0.0025006094947457314, -8.087930609690375e-07, 1.855630034697242e-05, -5.992700607748702e-06, -0.009507809765636921, 9.237788617610931e-06, -1.4543900761054829e-05], [7.158547532526427e-07, 1.3847618902218528e-05, 4.0979875848279335e-07, 6.294169725151733e-05, -6.476755515905097e-06, 2.7562678951653652e-05, 1.8683374946704134e-05, -6.635317504333216e-07, -4.646645265893312e-06, -1.160958959189884e-06, -7.456008461304009e-06, -1.7622445739107206e-05, -3.0323222745209932e-05, 5.35946946911281e-06, 1.3291737559484318e-06, 0.0003041018499061465, 1.1356742106727324e-06, 4.4568952262125094e-07, -6.12627700320445e-05, -2.0618464986910112e-05, -1.944316682056524e-05, 1.3787454918201547e-05, -9.537787946101162e-07, 1.201680424856022e-05, 5.042478005634621e-05, -1.7190491234941874e-06, -5.461694740915846e-07, 2.4244198357337154e-05, -2.0532464986899868e-05, -0.00015256411279551685, -4.528291356109548e-06, -8.397762940148823e-06], [7.521336101490306e-06, 5.198092549107969e-05, 3.5640844089357415e-06, -0.0001243581500602886, -2.3411015718011186e-05, 5.3980846132617444e-05, 3.0399691240745597e-05, -4.527887540461961e-07, -3.507553628878668e-06, -2.304783720319392e-06, -1.743576103763189e-05, -0.00010425902291899547, 0.0003969286335632205, 2.2290074412012473e-05, 2.1154188289074227e-05, -3.0584418709622696e-05, 8.98172402230557e-06, 6.016048246237915e-06, -0.0006545129581354558, -0.00022876352886669338, -0.00046075278078205884, 0.00013247413153294474, -1.2252367923792917e-05, -0.00010090271825902164, 5.6592427426949143e-05, 0.00015461396833416075, 8.484370482619852e-06, -2.6131750928470865e-05, 1.9769222490140237e-05, 0.000540380657184869, 1.089902980311308e-06, -3.09450515487697e-05], [-4.7676941903773695e-05, 0.0006030545919202268, -2.4452010620734654e-06, 0.0005875322967767715, -0.00028109352570027113, 0.0008368417620658875, 0.0006778151728212833, -0.0001078928034985438, -0.000169303166330792, 9.129253885475919e-05, -0.00044175810762681067, -0.00017688058142084628, -0.0023553723003715277, 0.0002476427180226892, 5.044942008680664e-05, 0.0026798108592629433, -5.743461588281207e-05, 2.8498436222434975e-05, -0.0006538658053614199, -0.0009459112770855427, -0.0006156497402116656, 0.00048289805999957025, 3.789284164668061e-05, 0.0005280455225147307, -0.001782866078428924, 0.00019161432282999158, -6.4317505348299164e-06, 0.00011728500248864293, -6.537102308357134e-05, -0.0004127674619667232, -7.475592428818345e-05, -0.0001271941146114841], [-0.002749043283984065, -0.025134284049272537, -0.0010024430230259895, 0.0825076550245285, 0.008386307395994663, -0.03344804048538208, -0.020302290096879005, 0.0015376433730125427, 0.004555749241262674, 0.0041593448258936405, 0.008789260871708393, 0.01977207325398922, -0.025064803659915924, -0.007584970910102129, -0.006497983820736408, 0.11687856912612915, -0.005475563928484917, 0.001502577681094408, 0.01947176083922386, 0.018277550116181374, 0.009809447452425957, -0.01040850393474102, 0.0044195521622896194, -0.008393563330173492, -0.014210054650902748, 0.0067402455024421215, 0.007076462265104055, -0.02123909629881382, 0.017594899982213974, -0.07993155717849731, 0.00715144956484437, -0.002345666289329529], [-1.416481154592475e-07, 4.717265983344987e-05, -2.254972883974915e-07, 1.1333951988490298e-05, -1.0717169971030671e-05, 4.1064718971028924e-05, 2.6716794309322722e-05, -2.33129912885488e-06, -6.671392839052714e-06, 1.3644212231156416e-06, -1.834958493418526e-05, -3.901607124134898e-05, 4.557774082059041e-05, 8.97860445547849e-06, 3.000201786562684e-06, -1.3904637853556778e-05, 1.386476924380986e-07, 1.5039420304674422e-06, -0.00013337572454474866, -1.961328962352127e-05, -7.988711877260357e-05, 1.8373903003521264e-05, -4.0647285004524747e-07, 3.084159834543243e-05, 1.9761064322665334e-06, 1.6975307516986504e-05, -4.571283170662355e-06, 1.1440776688687038e-05, -1.281517597817583e-05, 4.291633376851678e-05, -3.1440756629308453e-06, -6.708144155709306e-06], [8.632422577647958e-06, -2.1344581909943372e-05, 2.1656128410540987e-06, -5.220462753641186e-06, -7.745990842522588e-06, 1.4623686183767859e-05, 9.021797268360388e-06, -4.25056941821822e-06, -3.727940338649205e-06, -1.285010057472391e-05, -1.112654081225628e-05, -9.248856258636806e-06, 2.9205986720626242e-05, 6.978021247050492e-06, 1.4347274372994434e-06, 0.00040348924812860787, 1.0383030712546315e-05, -8.885183433449129e-08, -6.300108361756429e-05, -1.1158635061292443e-05, -1.698739106359426e-05, 4.71421526526683e-06, -6.938847946003079e-06, 1.55505258589983e-05, -4.349429582362063e-05, 3.524985004332848e-05, 1.8784365352075838e-07, 1.1688730410241988e-05, -7.203612312878249e-06, 4.619452010956593e-05, -1.2899666899102158e-06, -3.392548933334183e-06], [0.0011387421982362866, 0.004225298762321472, 0.00035169703187420964, 0.003065001918002963, -0.003375103697180748, 0.01841842569410801, 0.013162295334041119, -0.0015646718675270677, -0.005437861196696758, -0.0015854892553761601, -0.008551856502890587, -0.015322367660701275, 0.006289441604167223, 0.0027096124831587076, 0.004485847894102335, -0.02660665288567543, 0.0021415515802800655, -0.000515839084982872, -0.002735696965828538, -0.014902661554515362, -0.007037364412099123, 0.008836614899337292, -0.00175224628765136, 0.030113553628325462, -0.005815889686346054, -0.017755746841430664, -0.0021973068360239267, 0.01865423657000065, -0.017201457172632217, 0.0015934545081108809, -0.005134458187967539, -0.002885092282667756], [1.2974630863027414e-06, 2.0115223378525116e-05, 6.951079853934061e-07, 4.570734381559305e-05, -1.0869757716136519e-05, 4.465151869226247e-05, 3.2057167118182406e-05, -1.0760379609564552e-06, -6.625552941841306e-06, -2.088169367198134e-06, -1.460454677726375e-05, -3.237124838051386e-05, -4.9055895942728966e-05, 9.236543519364204e-06, 2.0393408703966998e-06, 0.0003125352377537638, 2.1555026705755154e-06, -2.3088909983925987e-07, -9.617775504011661e-05, -3.450316216913052e-05, -2.7520436560735106e-05, 1.8792672562994994e-05, -1.7796154452298651e-06, 2.138026502507273e-05, 6.328735616989434e-05, 5.111180598760257e-07, -1.7354296915073064e-06, 3.701020614244044e-05, -2.9258706490509212e-05, -0.00018070034275297076, -8.202243407140486e-06, -1.1401538358768448e-05], [-1.1099743915110594e-06, 7.199332685559057e-06, -3.61626632638945e-07, 0.006141982041299343, 3.2221573746937793e-06, -1.7694136431600782e-06, 1.9939743651775643e-06, 2.2189126980265428e-08, 2.253292223031167e-06, 2.293474835823872e-06, 3.3602384519326733e-06, 3.2291222851199564e-06, -9.637638868298382e-06, -3.111286787316203e-06, 1.2100551884941524e-06, 0.003122197464108467, -2.501203425708809e-06, 3.630668288678862e-06, 3.625798490247689e-05, 6.789596682210686e-06, 7.360912604781333e-06, -4.8384667934442405e-06, 1.175710053757939e-06, -1.8817474483512342e-05, -2.556131948949769e-05, 1.1532879398146179e-05, -2.2858857846586034e-06, -1.2051720659655984e-05, 6.948354439373361e-06, -0.004033754114061594, 4.2206502257613465e-06, -3.884146281052381e-06], [-0.00010467914398759604, -0.01406970713287592, -2.898381899285596e-05, -0.036315202713012695, -0.002470000647008419, 0.00554951885715127, 0.005771597847342491, -0.0012027244083583355, -0.0014526040758937597, 0.0004497044428717345, -0.005143186543136835, -0.0019776311237365007, -0.015939220786094666, 0.002024043584242463, 0.0013387907529249787, 0.11122619360685349, -0.0005108723416924477, -0.0004164303536526859, 0.005996250081807375, -0.004649681970477104, 0.009098346345126629, 0.0033249028492718935, 0.00027590504032559693, 0.005919503979384899, -0.005298019386827946, 0.004200444556772709, -0.0009819200495257974, 0.004034511279314756, -0.003763784421607852, 0.016681134700775146, -0.0027454979717731476, -0.001082159229554236], [9.838526602834463e-05, 0.005361614748835564, 2.2234576135815587e-07, 0.038465648889541626, -0.0003610780113376677, -0.0001480018545407802, 0.00044466351391747594, -0.00010900412598857656, 4.117365460842848e-05, -0.00012076566054020077, -0.0004477767797652632, -0.0004931437433697283, 0.0002712026471272111, 0.00032577349338680506, -2.576585757196881e-05, 0.04305281490087509, 0.00013442226918414235, 2.3876558771007694e-05, 0.0015713211614638567, 7.977912173373625e-05, 0.0005880463868379593, -5.803181556984782e-05, -0.00015422177966684103, 0.0005084614385850728, -0.003333571832627058, -0.01530290488153696, 1.3130407751305029e-05, -9.499014413449913e-05, 9.884833707474172e-05, -0.032907962799072266, 6.940770254004747e-05, -7.532000017818063e-05], [0.00019818361033685505, 0.014186955988407135, 0.00023578875698149204, 0.07296823710203171, 0.00025615529739297926, -0.0036003508139401674, -0.0024360637180507183, 0.00040694267954677343, 0.0014133676886558533, 1.0719079909904394e-05, 0.0018693041056394577, 0.005602484103292227, 0.022784100845456123, -0.0004020316118840128, -0.0011573659721761942, 0.002577046863734722, -0.000336218363372609, 0.0007435168954543769, -0.01153192576020956, 0.0019405948696658015, -0.012604334391653538, 0.0017643824685364962, 3.167648537782952e-05, -0.0045877001248300076, 0.016099007800221443, -0.009051400236785412, 0.0006525764474645257, -0.0029544902499765158, 0.0025771991349756718, -0.02462521567940712, 0.0014816841576248407, 0.00018854753579944372], [2.705682891246397e-05, 0.0087016886100173, 3.8529266021214426e-05, 0.04905995726585388, -7.595354691147804e-05, -8.571714715799317e-05, 7.266366446856409e-05, -4.9137743189930916e-05, 1.3287216461321805e-05, -5.1469123718561605e-05, -0.0002885676803998649, -0.00015531523968093097, -4.586574505083263e-06, 6.574102735612541e-05, -1.3802782632410526e-05, 0.05276089534163475, 5.47899617231451e-05, 7.1267850216827355e-06, 0.0011834873585030437, 3.9831778849475086e-05, 0.00026291096583008766, 5.6240409321617335e-05, -7.01932076481171e-05, 0.000159412098582834, -0.00118331762496382, -0.022947993129491806, 8.984590749605559e-06, -6.0983038565609604e-05, 6.41581355012022e-05, -0.03868802636861801, 2.8654359994106926e-05, 1.214516487380024e-05], [1.029329837365367e-06, 8.786076250544284e-06, 5.021846618546988e-07, 4.448890649655368e-06, -6.276798103499459e-06, 2.414693881291896e-05, 1.787675682862755e-05, -6.625859327868966e-07, -5.739056177844759e-06, -1.6313576907123206e-06, -7.791220014041755e-06, -2.1419560653157532e-05, -1.4599600035580806e-05, 5.408922334027011e-06, 2.6126226657652296e-06, 9.174243314191699e-05, 1.7514088312964304e-06, -1.3190236813898082e-07, -7.449538679793477e-05, -1.9680026525747962e-05, -1.8877053662436083e-05, 1.279421485378407e-05, -1.4445045053435024e-06, 2.106613465002738e-05, 3.543010461726226e-05, -3.6170845305605326e-06, -1.0701003247959306e-06, 2.0533472707029432e-05, -1.8955866835312918e-05, -7.463974907295778e-05, -4.040650765091414e-06, -7.064739293127786e-06], [6.197881884872913e-05, -0.001740506268106401, 1.7522423149785027e-05, -0.00389095745049417, -5.3782125178258866e-05, 0.0008169988868758082, 0.0005323083605617285, -5.392705861595459e-05, -0.0002733346482273191, -0.00011962718417635188, -0.0003093574196100235, 0.00015576768782921135, -0.0037272663321346045, 4.1461476939730346e-05, -3.068766454816796e-05, -0.002093955874443054, 0.0001183430795208551, -2.0759056496899575e-05, -0.00017534877406433225, 0.0002333595766685903, -0.0013748129131272435, -4.380480822874233e-05, -7.373373955488205e-05, 0.0008311874698847532, 0.0028357370756566525, 0.001856585149653256, -0.00011172081576660275, 0.0005129898781888187, -0.0006191062275320292, 0.003395145758986473, 6.034300531609915e-05, -0.00016111138393171132], [0.0027450567577034235, 0.10521024465560913, 0.001324005308561027, 0.026898842304944992, -0.002003925619646907, 0.010224632918834686, 0.00913809984922409, 0.0004322932509239763, -0.004264614544808865, -0.004579237196594477, -0.00414374889805913, -0.010874670930206776, -0.011069577187299728, 0.0015272367745637894, 0.0011857312638312578, 0.0892120897769928, 0.005479405168443918, 0.0017998433904722333, -0.02279009483754635, -0.009931012988090515, -0.04808676615357399, 0.006291908212006092, -0.004194749519228935, 0.011191689409315586, -0.009096113964915276, -0.08247736841440201, 0.0006700502126477659, 0.010064339265227318, -0.010097537189722061, -0.08505449444055557, -0.003967191558331251, -0.004434500355273485], [0.0001080284928320907, 0.009262042120099068, -0.000111807843495626, 0.06210030987858772, 0.0008780138450674713, 0.004452737048268318, -0.0025777071714401245, 0.0002514602383598685, -0.0014341662172228098, -8.349058771273121e-05, 0.0026450050063431263, -0.005299998912960291, 0.11884143948554993, -0.0005343359662219882, 0.0012760430108755827, 0.02428438700735569, 0.0002733346482273191, 0.00018820000695995986, 0.05705732852220535, -0.004045436624437571, -0.0032004895620048046, 0.002806605538353324, -0.00028397751157172024, 0.0041084084659814835, -0.059908345341682434, -0.03171670809388161, -0.0003649080463219434, 0.004984426312148571, -0.004565389361232519, 0.011283515952527523, -0.0011203583562746644, -0.00025246012955904007], [-1.1089578038081527e-06, -1.4751415619684849e-05, -1.4116839963662642e-07, 0.0173364095389843, 2.3742950361338444e-06, -1.0995727279805578e-06, 2.5343706511193886e-06, 6.519109660985123e-07, 2.7204787329537794e-06, -5.333303647603316e-07, 4.14833084505517e-06, -2.52013069257373e-06, -6.427244079532102e-05, -1.925137667058152e-06, 2.8753329388564453e-06, 0.010546701960265636, 1.6919773315748898e-07, 1.969848995031498e-08, -8.388884452870116e-06, 2.9834436645614915e-06, -5.81621043238556e-06, 1.790371015886194e-06, 5.46025944458961e-07, -1.9265977243776433e-05, 2.531641257519368e-05, -0.0008230773964896798, -1.8273460682394216e-06, -1.218739907926647e-05, 1.0902750545938034e-05, -0.012430479750037193, 3.3436222111049574e-06, -1.1760268989746692e-06], [5.440297900349833e-05, 0.0024011966306716204, 2.0265189959900454e-05, 0.02221795544028282, -0.0004317838465794921, 0.0008257831796072423, 0.0014752813149243593, -0.0002193111286032945, -4.742285091197118e-05, -7.062424265313894e-05, -0.0006752259796485305, 0.00019800689187832177, 0.0008389894501306117, 0.00038516116910614073, -3.276295683463104e-05, 0.03544527292251587, 0.0002008738520089537, 7.294386887224391e-05, 0.0020702278707176447, -0.00028118694899603724, 0.0010692593641579151, 0.00010196855873800814, -0.00013951562868896872, 0.0002110241912305355, -0.004957406781613827, -0.006305390037596226, -5.541357313632034e-05, -0.00014013517647981644, 0.00013421666517388076, -0.019375944510102272, 3.214035677956417e-05, -0.0005986357573419809], [4.1760329622775316e-05, 0.005340531934052706, 4.206039375276305e-05, 0.03149263560771942, -0.0005467131268233061, 0.000524197006598115, 0.0013038853649049997, -0.00016559832147322595, 2.0156001482973807e-05, -7.962912059156224e-05, -0.00044691242510452867, 0.00016437523299828172, 0.0005584528553299606, 0.0005112202488817275, -2.5260864276788197e-05, 0.04431992769241333, 0.0001563485711812973, 5.3610154282068834e-05, 0.0022933485452085733, 1.2731157767120749e-05, 0.0007381235482171178, -3.6589408409781754e-05, -0.00016517059702891856, 0.0001542665413580835, -0.0038471922744065523, -0.012871862389147282, -3.5050663427682593e-05, -0.00012593643623404205, 0.00010308402124792337, -0.0269946102052927, 5.106417665956542e-05, -0.0005333983572199941], [-0.0015041350852698088, -0.03591843694448471, -0.0006785397999919951, -0.16569368541240692, -0.0015209256671369076, -0.009963571093976498, 0.004204011522233486, -0.0019504321971908212, -0.0016346612246707082, 0.003862527897581458, -0.004223786760121584, 0.00261326739564538, -0.08365530520677567, 0.0013524573296308517, -0.0017052942421287298, 0.17566463351249695, -0.004372571129351854, 0.00491638807579875, -0.05286203697323799, 0.01049389410763979, 0.040474776178598404, -0.00533894682303071, 0.0027432511560618877, 0.007113265339285135, 0.13365992903709412, -0.02208666317164898, 0.0065983971580863, -0.014463578350841999, 0.013843935914337635, 0.05474889278411865, 0.0008538272813893855, -0.005862473044544458], [5.0826747610699385e-06, 0.00013105414109304547, 4.548132437776076e-06, 0.004244802054017782, -3.093610575888306e-05, 2.634046904859133e-05, 9.414558007847518e-05, -1.0454776202095672e-05, -1.3180010682845023e-07, -1.5280181742127752e-07, -3.914374246960506e-05, -0.00014734157593920827, 0.00028943613870069385, 2.9062310204608366e-05, 4.569102657114854e-06, 0.007404648698866367, 6.434139777411474e-06, 4.320485459174961e-06, -0.0004207142337691039, 1.5556050129816867e-05, -8.114962838590145e-05, -1.3788911019219086e-05, -8.983201951195952e-06, 9.962086915038526e-05, -6.060997839085758e-05, -1.0312118320143782e-05, 1.6950169765550527e-06, 2.4703713279450312e-05, -1.856541530287359e-05, -0.001961915288120508, 3.743768274944159e-06, -2.0530196707113646e-05], [8.83956363395555e-06, 0.0009669276769272983, -2.2245010313781677e-06, 0.029291676357388496, 5.418220098363236e-06, -1.2292790415813215e-05, -4.639771759684663e-06, -4.695909865404246e-06, 2.1107387055963045e-06, -2.3513926862506196e-05, -1.907555451907683e-05, 4.023955625598319e-06, -7.18594528734684e-05, -5.286678970151115e-06, 1.1907861789950402e-06, 0.021556755527853966, 1.0945576832455117e-05, -2.085629148496082e-06, -6.707616557832807e-05, 5.023518497182522e-06, 2.2163741959957406e-05, -3.1185529678623425e-06, -1.4847342754364945e-05, 9.597605094313622e-05, -0.0001304197357967496, -0.006963598076254129, 2.1611765532725258e-06, 0.0001287674531340599, -4.147139406995848e-05, -0.024057382717728615, 3.908719008904882e-06, -3.24768407153897e-05], [-0.00019464203796815127, 0.00484082568436861, -6.133722490631044e-05, -0.0011149601778015494, -1.500172493251739e-05, 0.00017054507043212652, 2.150384898413904e-05, 7.487264520023018e-05, -0.0001683723967289552, 0.00022121377696748823, -1.3127937563695014e-06, -9.719205991132185e-05, -0.0022577187046408653, 1.422412879037438e-05, 0.00013770241639576852, 0.0037810697685927153, -0.00029545530560426414, 1.535944829811342e-05, 0.0017123689176514745, -0.00018648302648216486, -0.0003841590660158545, 0.00019870050891768187, 0.00027190588298253715, 0.0010727401822805405, 0.00012696351041086018, -0.0030647653620690107, -9.335072718386073e-06, 0.00041338091250509024, -0.0002758609189186245, -0.005603025667369366, 1.7590964489500038e-06, -6.382394349202514e-05], [-0.002934465417638421, 0.030391840264201164, -0.0018167364178225398, -0.15433727204799652, 0.008487706072628498, -0.021797366440296173, -0.02482193522155285, 0.003375097643584013, 0.01571645215153694, 0.0021369741298258305, 0.014233623631298542, 0.01765216886997223, 0.18662536144256592, -0.007692383136600256, 0.0025082442443817854, -0.030069822445511818, -0.003346268320456147, -0.004245461896061897, 0.4455338716506958, 0.03295782953500748, 0.100314199924469, -0.02810283564031124, 0.0035870058927685022, -0.03360799700021744, -0.1613079011440277, -0.028395457193255424, -0.004675291012972593, -0.026531942188739777, 0.028658155351877213, -0.6801958680152893, 0.012813026085495949, 0.01870650053024292], [-7.822886254871264e-05, 0.002735704882070422, -3.3334326872136444e-05, -0.00024830791517160833, 9.296541975345463e-06, 1.2520587915787473e-05, -1.854660877143033e-05, 4.438445103005506e-05, -7.241500861709937e-05, 6.821362330811098e-05, 5.283810241962783e-05, -8.751389941608068e-06, -0.0017910291207954288, -7.124443527573021e-06, 7.527627167291939e-05, 0.0034732106141746044, -9.045541082741693e-05, 1.1092336535512004e-05, 0.001807982800528407, -6.201692303875461e-05, -0.00015994302520994097, 0.00012383483408484608, 9.659396164352074e-05, 0.000392554939026013, -0.0006679908256046474, -0.002479842398315668, 8.861270544002764e-07, 0.00015271503070835024, -5.8351492043584585e-05, -0.0032685562036931515, 1.1835576515295543e-05, -4.734113099402748e-05], [-0.00018646901298779994, -0.2410302758216858, 0.0008385889232158661, 0.554764449596405, -0.0005487353773787618, -0.01248838473111391, -0.004066101275384426, -0.005315714981406927, 0.014045368880033493, 0.004035202320665121, -0.008953197859227657, -0.0176821481436491, 0.5510064363479614, 0.0006279617082327604, -0.003147948533296585, -0.042539529502391815, -0.004431098233908415, -0.0016909633995965123, -0.31416773796081543, 0.030317170545458794, 0.14349137246608734, -0.02552691288292408, 0.0017092087073251605, 0.0049307681620121, 0.3690793216228485, 0.1913207322359085, -0.003963688388466835, -0.03886481374502182, 0.039161525666713715, -0.11959224939346313, 0.012483904138207436, 0.008389384485781193], [-5.266403604764491e-06, 0.006846679374575615, -3.045357289011008e-06, 0.009300273843109608, -0.00449744937941432, -0.0015594873111695051, 0.01293358113616705, 8.155366231221706e-05, -0.00018716073827818036, -4.611622716765851e-05, 0.0017503047129139304, 5.280056211631745e-05, 0.006720775738358498, 0.00454119686037302, -6.836357351858169e-05, 0.01569824293255806, 4.632063428289257e-05, 0.0063980030827224255, 0.002617667429149151, -0.0004584545677062124, -0.002689771121367812, 0.0010857722954824567, -1.150671778304968e-05, -0.000640819373074919, -0.005533687770366669, -0.011630683206021786, 0.014899320900440216, -0.00016500991478096694, 0.00014179993013385683, -0.005205235444009304, -0.0003292686596978456, -0.02251679077744484], [-0.00022202625405043364, -0.028174104169011116, -9.292826143791899e-05, -0.03761032596230507, -0.0012543235206976533, -0.0403534360229969, 0.014123995788395405, -0.0002944492734968662, 0.019773859530687332, 0.00043432650272734463, -0.00022282387362793088, 0.007818452082574368, -0.021664265543222427, 0.0012215942842885852, 0.0023705626372247934, -0.05492471903562546, -0.0005029141902923584, 0.024824051186442375, -0.014326902106404305, 0.036985065788030624, 0.02266697771847248, -0.03759513422846794, 0.00036951739457435906, 0.0005317156319506466, 0.034538570791482925, 0.0482122078537941, 0.04494599625468254, -0.010634999722242355, 0.012875312007963657, 0.03700978308916092, 0.020114516839385033, -0.045339394360780716], [-6.118488090578467e-05, -0.011595695279538631, -1.4855621884635184e-05, -0.03131791576743126, 0.006231287494301796, 0.012118551880121231, -0.03172958269715309, -0.00020326001686044037, 0.0017828650306910276, 0.00015374353097286075, -0.00044805422658100724, -0.002584403846412897, -0.01575588248670101, -0.005491643212735653, 0.0013469072291627526, -0.01825409196317196, -0.0001659432746237144, -0.023548010736703873, -0.011573998257517815, 0.0013689504703506827, 0.004968340042978525, -0.00270645460113883, 0.00011662991892080754, 0.0024240780621767044, 0.016654249280691147, 0.02351035550236702, -0.03871703892946243, 0.0008070064359344542, -0.0003470869269222021, 0.015033653937280178, 0.0024327458813786507, 0.04564019292593002], [0.00015299365622922778, 0.004382483661174774, 6.197183392941952e-05, 0.004080755636096001, 5.2101229812251404e-05, -0.0001896453177323565, -7.844220090191811e-05, -0.00012918151332996786, 0.0001463340740883723, -6.930698873475194e-05, -0.00011862381506944075, 0.00019557522318791598, 0.003159821033477783, -4.767330756294541e-05, -0.00014792698493693024, 0.0008213278488256037, 8.30181161290966e-05, 3.0818464438198134e-05, -0.0002004215057240799, 0.0002559403656050563, -0.0006503290496766567, -0.00017655447300057858, -0.0001507359993411228, -0.0007944051176309586, -0.0014308990212157369, -0.0031310219783335924, 1.9561661247280426e-05, -0.00043262680992484093, 0.00028693675994873047, -0.006348980125039816, 6.912231765454635e-05, -5.539382073038723e-06], [3.860470314975828e-05, 0.006647224072366953, 1.016696205624612e-05, 0.020722391083836555, -8.708734821993858e-05, 0.020730169489979744, 0.003024839796125889, 0.00014402939996216446, -0.06327345222234726, -8.006763528101146e-05, 4.6519708121195436e-06, 0.004916537553071976, -0.0006230540457181633, 2.130543543898966e-05, -0.031467631459236145, 0.00478490861132741, 8.404065010836348e-05, -0.003740642685443163, 0.008354298770427704, -0.06702152639627457, 0.0004516351327765733, 0.0787828266620636, -7.348746294155717e-05, -0.002945852465927601, -0.01302034966647625, -0.013181022368371487, -0.004784184508025646, -0.004870549775660038, 0.0030419244430959225, -0.0037862411700189114, -0.06252776831388474, -0.004143897909671068], [0.0003384274896234274, -0.011518590152263641, 8.041645196499303e-05, 0.001437903381884098, 1.1110659215773921e-05, -7.013495633145794e-05, -1.1846164852613583e-05, -4.222151983412914e-05, 4.6881745220161974e-05, -0.0009246544796042144, -1.6888869140530005e-05, 5.825426342198625e-06, 0.0001649041660130024, -1.8234066374134272e-05, -0.00011868650472024456, -0.0056890686973929405, 0.0011536169331520796, -2.6762183551909402e-05, -0.00023527070879936218, 9.535433491691947e-05, 0.003556022886186838, -5.041248368797824e-05, -0.0006857414846308529, -0.0013910774141550064, -0.0007661801064386964, 0.005674692336469889, 8.851581583257939e-07, -0.00025425467174500227, 0.0001692703808657825, 0.010681633837521076, -0.00010198785457760096, 0.00012050972145516425], [0.00013957521878182888, 0.007428272627294064, 7.737955456832424e-05, 0.020136691629886627, 0.00045694346772506833, -0.0003933297412004322, -0.0004547082935459912, -3.5775447031483054e-05, 6.0160433349665254e-05, -0.00025276601081714034, -0.005290753208100796, 0.0001180345643660985, 0.006304112728685141, -0.0004560773086268455, -0.00015993988199625164, 0.003279517637565732, 0.00028130016289651394, 5.972741564619355e-05, -0.0008428134606219828, 0.00038201577262952924, -0.004221785813570023, -9.696791676105931e-05, -0.0002060593105852604, -0.000809290271718055, -0.008392881602048874, -0.01439057756215334, -0.0001413316058460623, -0.00022810688824392855, 0.00021447053586598486, -0.013722555711865425, -0.0001489685382694006, 0.0006395508535206318], [-0.00012878727284260094, 0.026185836642980576, -4.450680353329517e-05, -0.0027975994162261486, 0.0004403493949212134, 0.002011028118431568, -0.0024284461978822947, 0.000352331466274336, 0.002764106960967183, 0.00019849467207677662, 0.0005336877075023949, -0.02262914553284645, 0.02977645955979824, -0.00044318425352685153, 0.013602577149868011, 0.043465979397296906, -0.00021227012621238828, -0.0023824868258088827, 0.02555212378501892, 0.0010898467153310776, -0.006624048110097647, -0.0011705682845786214, 0.00017204141477122903, 0.0027019439730793238, -0.032004162669181824, -0.03973798453807831, -0.008807651698589325, 0.03663288429379463, -0.04162740707397461, -0.05601433292031288, 0.004129728768020868, 0.015069647692143917], [0.005863683298230171, 0.42203980684280396, 0.0038901427760720253, 0.2273215651512146, -0.003172194818034768, 0.029224524274468422, 0.01543335895985365, 0.0010092686861753464, -0.014323554001748562, -0.008410518057644367, -0.008548549376428127, -0.007217145059257746, -0.11659538745880127, 0.0019210852915421128, 0.0002581660228315741, 0.0497039258480072, 0.008759408257901669, -0.0035920150112360716, -0.01209828071296215, -0.03303186222910881, 0.3581448495388031, 0.02520183101296425, -0.0075821904465556145, 0.0008925199508666992, 0.24817244708538055, 0.19031833112239838, -0.0013106513069942594, 0.041322313249111176, -0.040467049926519394, 0.24041339755058289, -0.015283162705600262, -0.006781375966966152], [-5.217080797592644e-06, -0.006632562726736069, -1.208244611916598e-06, -0.007525777444243431, 0.004137334879487753, 0.0013724870514124632, -0.011094851419329643, -2.0864928956143558e-05, 0.00013809441588819027, 1.0779966942209285e-05, -0.0011879786616191268, -5.301832425175235e-05, -0.006712942384183407, -0.004491458181291819, 5.2351846534293145e-05, -0.014969252981245518, -9.372372915095184e-06, -0.005811367183923721, -0.002119836863130331, 0.0002700876793824136, 0.0024944653268903494, -0.000860499101690948, 7.46422210795572e-06, 0.0006383895524777472, 0.0046594999730587006, 0.010328927077353, -0.013389529660344124, 0.00023648288333788514, -0.00021954425028525293, 0.004444938153028488, 0.00017633772222325206, 0.02093188650906086], [4.822727350983769e-05, -0.0094551807269454, 1.489300666435156e-05, -0.0017257555155083537, -5.315538146533072e-05, 0.0008994521340355277, 0.0019851948600262403, -0.00012622987560462207, -0.019123652949929237, -4.5564920583274215e-05, -0.0001953087339643389, 0.00640489999204874, -0.0048063346184790134, 5.003763362765312e-05, -0.012983926571905613, -0.022846894338726997, 5.51416160305962e-05, 0.001022262149490416, 0.002067729365080595, -0.023443682119250298, 0.008477487601339817, 0.03641441836953163, -6.330489850370213e-05, -0.0006569138495251536, 0.004866329021751881, 0.01338236965239048, 0.0032340092584490776, -0.013071941211819649, 0.014367546886205673, 0.012890730053186417, -0.01931745745241642, -0.009660274721682072], [-0.0023070811294019222, 0.013597271405160427, -0.0006928232032805681, 0.046921491622924805, 0.007386665791273117, -0.03463105112314224, -0.025170529261231422, 0.003916863817721605, 0.011788489297032356, 0.0032068893779069185, 0.017932971939444542, 0.0289497971534729, 0.0009246875415556133, -0.005982097703963518, -0.010258414782583714, 0.07764647156000137, -0.004405134357511997, 0.0011091353371739388, 0.01648331619799137, 0.028076333925127983, 0.02420841157436371, -0.016880104318261147, 0.0035852533765137196, -0.0585968904197216, 0.003891166765242815, 0.001332489657215774, 0.003994529601186514, -0.035442788153886795, 0.03319048881530762, -0.0549716092646122, 0.010036583989858627, 0.0064534591510891914], [-0.00026648890343494713, 0.011170081794261932, -5.2217201300663874e-05, -0.0016120823565870523, -5.185163172427565e-05, 0.0003429364296607673, 0.00014320859918370843, 2.4524792934244033e-06, -0.00013131510058883578, 0.0007758815190754831, -8.35948740132153e-05, -0.00017688851221464574, -0.001458158832974732, 4.7858997277216986e-05, 0.00020201386359985918, 0.005333473905920982, -0.000994682079181075, 2.6111558327102102e-05, -0.00027275324100628495, -0.0002419869852019474, -0.003193165408447385, 0.0001399595057591796, 0.0005723622743971646, 0.0019931220449507236, 0.0014765429077669978, -0.005976743530482054, -1.277808678423753e-05, 0.0005812807357870042, -0.0004373503034003079, -0.011049093678593636, 4.2347604903625324e-05, -0.00023124700237531215], [0.00022076579625718296, 0.00679120235145092, 5.45232069271151e-05, 0.0004685498133767396, 0.009148499928414822, 0.04303516820073128, -0.03733479231595993, -6.77145435474813e-05, -0.008394683711230755, -0.0002577579580247402, -0.00034983616205863655, -0.011387983337044716, 0.0004892332945019007, -0.008772136643528938, -0.00022947722754906863, 0.016753921285271645, 0.0004326443013269454, -0.04395110905170441, -0.004066664259880781, -0.018562406301498413, -0.01406965870410204, 0.018144357949495316, -0.00038140686228871346, 0.0004321022133808583, -0.0033726051915436983, -0.012427512556314468, -0.0646972805261612, 0.0026239431463181973, -0.003572921035811305, -0.006666131783276796, -0.008863095194101334, 0.06373461335897446], [-0.0019119235221296549, -0.10839701443910599, -0.0023873562458902597, 0.3375290334224701, -0.002144318539649248, 0.026488445699214935, 0.008262922056019306, 0.0010165413841605186, -0.009830761700868607, -6.35586038697511e-05, -0.0002720688353292644, 0.003323100972920656, 0.839313268661499, 0.0013395370915532112, 0.004864216316491365, 0.04492731764912605, 7.905302481958643e-05, -0.005381804425269365, -0.1633908897638321, -0.027196992188692093, -0.18894553184509277, 0.021469146013259888, 0.0013585170963779092, -0.005460143554955721, 0.11283468455076218, 0.12723220884799957, -0.003001326695084572, 0.03456931933760643, -0.03171822801232338, 0.43005478382110596, -0.011199631728231907, -0.0033653080463409424], [5.05349162267521e-05, 0.021257027983665466, -2.939570913440548e-05, 0.039050694555044174, -0.0007879345794208348, 0.04518437385559082, 0.0022250432521104813, 0.0002997441333718598, -0.07494030147790909, -0.0005318441544659436, -0.00010168873996008188, -0.0013123579556122422, 0.0042920224368572235, 0.00059176777722314, -0.04495193436741829, 0.026247266680002213, 0.0010365209309384227, -0.012109844945371151, 0.01847560703754425, -0.07509037107229233, -0.020239533856511116, 0.07944315671920776, -0.0002598174032755196, -0.0033693304285407066, -0.03976336121559143, -0.03174254670739174, -0.01588825136423111, 0.015520249493420124, -0.019644593819975853, -0.02482588216662407, -0.0814841166138649, 0.001589750754646957], [-0.0017875670455396175, 0.05736781284213066, -0.0018080724403262138, -0.3578651547431946, -0.003083654213696718, 0.018393706530332565, 0.011678449809551239, -0.0024384597782045603, -0.005377428140491247, 0.00217163423076272, -0.008711305446922779, -0.011585526168346405, 0.08374535292387009, 0.002245610812678933, 0.0054345810785889626, 0.06247079372406006, -0.0020214333198964596, -0.0014419754734262824, 0.3519164025783539, -0.017855046316981316, 0.012233881279826164, 0.01294383779168129, 0.0017060994869098067, 0.02222020924091339, -0.18567676842212677, -0.05856569483876228, -0.002520109759643674, 0.02226519212126732, -0.022672995924949646, -0.01954089291393757, -0.008003434166312218, -0.00339983101002872], [-0.00015384351718239486, -0.016597064211964607, -9.414221131009981e-05, -0.02932046540081501, 0.0007772939861752093, -0.0363459512591362, -0.0026089835446327925, -0.000261788401985541, 0.07426100969314575, 0.00017051296890713274, 7.664158329134807e-05, -0.0008915674407035112, 0.0052957735024392605, -0.0005880151875317097, 0.05188756063580513, -0.015652602538466454, -0.00025554417516104877, 0.007420212030410767, -0.013700826093554497, 0.06659399718046188, 0.010410835035145283, -0.08244697004556656, 0.00018650092533789575, 0.006702878046780825, 0.029841618612408638, 0.022431369870901108, 0.011063311249017715, -0.004895888268947601, 0.009910178370773792, 0.012465744279325008, 0.08652850240468979, 0.001792682334780693], [0.00025080956402234733, -0.007471385877579451, 6.520919123431668e-05, 0.0014024482807144523, 3.5398297768551856e-05, -0.0002829869044944644, -8.044474088819697e-05, -5.70612792216707e-05, 0.0001712137454887852, -0.000437752838479355, 4.307174822315574e-05, 0.00014731913688592613, 0.0025269303005188704, -3.3119184081442654e-05, -0.00018360433750785887, -0.003988764248788357, 0.0005780989886261523, -2.2989766875980422e-05, -0.000760622147936374, 0.000223164664930664, 0.0012556926812976599, -0.00017329305410385132, -0.00042097875848412514, -0.0016098169144243002, -0.001197977690026164, 0.003980482928454876, 1.2675357538682874e-05, -0.000559686275664717, 0.000399615615606308, 0.007813377305865288, -1.857171446317807e-05, 0.00011532563803484663], [0.00042359798680990934, -0.023252729326486588, 0.00012496048293542117, -0.03438804671168327, -0.0018610231345519423, 0.005806072149425745, 0.003727026516571641, -0.0005866989959031343, -0.0013185434509068727, -0.0006884463946335018, -0.0031443992629647255, -0.003709291573613882, -0.018003379926085472, 0.0015639527700841427, 0.0010863551869988441, -0.04233743995428085, 0.000894568394869566, -0.00016753710224293172, -0.006175403017550707, -0.002724920166656375, 0.0021936120465397835, 0.0016019883332774043, -0.0006863620365038514, 0.0037282085977494717, 0.00292611145414412, 0.029681943356990814, -0.0004422547062858939, 0.002786213532090187, -0.0013058228651061654, 0.04105064645409584, -0.001177606638520956, -0.0006756755174137652], [-0.0025292723439633846, -0.029441094025969505, -0.0022341031581163406, 0.25533443689346313, -0.014511226676404476, 0.04419330880045891, 0.023498548194766045, -0.0067064170725643635, -0.013335412368178368, 0.004436127841472626, -0.010726947337388992, -0.01864904724061489, -1.3177263736724854, 0.013573712669312954, 0.007730033714324236, -0.14314305782318115, -0.0033391565084457397, -0.00899496953934431, -0.281064510345459, -0.03709055855870247, -0.1381518542766571, 0.026833143085241318, 0.0025657943915575743, 0.013479804620146751, 0.015490657649934292, 0.06676210463047028, -0.008883354254066944, 0.04477415233850479, -0.040988706052303314, 0.14134807884693146, -0.011773662641644478, -0.0021616655867546797], [-0.0013714497908949852, 0.021360062062740326, -0.0016718743136152625, -0.620502233505249, -0.006179075688123703, 0.03249058127403259, 0.020310772582888603, -0.0035305037163197994, -0.010941284708678722, 0.0022043678909540176, -0.01554412953555584, -0.02545156516134739, -0.05548115074634552, 0.004766260739415884, 0.009607763029634953, 0.020015329122543335, -0.0018546073697507381, -0.0038584647700190544, 0.15595786273479462, -0.025627708062529564, 0.07358380407094955, 0.016896750777959824, 0.001277585281059146, 0.038221169263124466, -0.10143512487411499, 0.029158951714634895, -0.006955327931791544, 0.03656924143433571, -0.03501619026064873, 0.017300568521022797, -0.01084356103092432, -0.0011119175469502807], [5.9708392655011266e-05, 0.008235269226133823, 3.007985469594132e-05, 0.00015072239330038428, 0.00913264136761427, 0.03939887136220932, -0.036882247775793076, 1.5885456377873197e-05, -0.00387865724042058, -9.011648944579065e-05, -0.0002418079529888928, -0.011346305720508099, 0.005458503495901823, -0.008497489616274834, 0.0013057916657999158, 0.020614081993699074, 0.00010478920739842579, -0.04259736090898514, -0.004534147214144468, -0.01000693254172802, -0.009765439666807652, 0.010261074639856815, -8.38817359181121e-05, 0.00012166763190180063, -0.0015784046845510602, -0.012331808917224407, -0.059962645173072815, 0.0003007160557899624, -0.001348787103779614, -0.01191605906933546, -0.004698177333921194, 0.057576559484004974], [-0.00025516567984595895, -0.020903615280985832, -9.538982703816146e-05, -0.045962199568748474, -0.00010344498150516301, -0.012165412306785583, -0.00033901078859344125, -0.00043705993448384106, -0.004460628610104322, 0.0005231759860180318, 0.00012134837743360549, 0.035092126578092575, 0.0018967214273288846, 0.00021074648248031735, -0.03041035681962967, -0.036097295582294464, -0.0005932024796493351, 0.0004092319868505001, -0.013436766341328621, 0.014140523038804531, 0.029459085315465927, -0.012275414541363716, 0.0004435006412677467, -0.025173822417855263, 0.03806498646736145, 0.044780876487493515, 0.002233077771961689, -0.06773251295089722, 0.06918701529502869, 0.03125721961259842, -0.008153221569955349, -0.0015098968287929893], [0.00030048011103644967, 0.020721711218357086, 0.0001614096254343167, 0.04599374160170555, 6.649742863373831e-05, 0.01187923550605774, 0.00021398156241048127, 0.0004919953644275665, 0.0024106495548039675, -0.0004777108260896057, -5.44583672308363e-05, -0.03787335753440857, -0.006994091905653477, -0.000158238472067751, 0.029668305069208145, 0.03241332992911339, 0.000573786033783108, -0.00036008862662129104, 0.013385877013206482, -0.018982818350195885, -0.026736624538898468, 0.0171731635928154, -0.00047224111040122807, 0.02548886463046074, -0.03997015953063965, -0.043170928955078125, -0.0012479316210374236, 0.07364032417535782, -0.07294555753469467, -0.02950584702193737, 0.005275756120681763, 0.00012140277249272913], [1.0358689905842766e-05, 0.14510083198547363, 0.00022126566909719259, -0.1225058063864708, 0.002370207803323865, -0.03362234681844711, -0.012121888808906078, 0.0031955635640770197, 0.004363672342151403, -0.00015504035400226712, 0.013010307215154171, -0.004224648233503103, 0.5735436677932739, -0.000728757178876549, -0.006144273094832897, 0.13976790010929108, 0.0005822090897709131, 0.011672502383589745, -0.3594880998134613, 0.023445025086402893, -0.12749585509300232, -0.01647922582924366, -0.0002222018811153248, 0.0011593133676797152, 0.4112406373023987, -0.18387097120285034, 0.009635086171329021, -0.034367065876722336, 0.031138364225625992, 0.6052871346473694, 0.008594270795583725, -0.0020229292567819357], [-1.0638985258992761e-05, 0.00019980942306574434, -6.359961844282225e-06, 0.020054783672094345, -2.7371212127036415e-05, 0.007174930535256863, 0.00046700710663571954, 0.00017870659939944744, -0.031157711520791054, -0.00012200466881040484, 0.00018776897923089564, -0.00035695458063855767, -0.008298720233142376, -3.7593345041386783e-06, -0.006146648433059454, -0.00035653909435495734, 0.00018524742336012423, -0.00018194895528722554, 0.005338932387530804, -0.037090420722961426, -0.0016341563314199448, 0.05178141966462135, -0.00010622193804010749, -0.0009626239188946784, -0.009561906568706036, -0.010310882702469826, -0.0003991220728494227, -0.0021536718122661114, 0.001766133587807417, -0.0014570768689736724, -0.03442021831870079, -0.002784108277410269], [-2.2885411453898996e-05, -0.0005807669367641211, -6.638693776039872e-06, 0.011222327128052711, -0.018818415701389313, -0.04837794229388237, 0.04858836531639099, 8.754220471018925e-05, -0.0037304803263396025, 1.1119136615889147e-05, 0.001308349659666419, 0.020748373121023178, -0.0012333982158452272, 0.01777845062315464, -0.009928991086781025, -0.006991010624915361, 1.0440489859320223e-06, 0.05114026740193367, 0.010742731392383575, 0.0013357045827433467, 0.007987557910382748, 0.0009042116580531001, 9.651034815760795e-06, -0.0011300925398245454, -0.009269926697015762, 0.0017522318521514535, 0.06513804197311401, -0.00013494171435013413, 0.0008768915431573987, 0.0037444133777171373, -0.004525293596088886, -0.06021244078874588], [3.4254682645951107e-07, 4.358874775789445e-06, 1.7132278173903615e-07, -1.245918156200787e-06, -1.2146263088652631e-06, 4.901098236587131e-06, 3.048887037948589e-06, -2.2077901462580485e-07, -1.905174372041074e-06, -5.404959892985062e-07, -8.795976782494108e-07, -4.279896529624239e-06, 3.5194177598896204e-06, 1.047442765411688e-06, 1.0996532182616647e-06, 3.7045574572402984e-05, 5.724742209167744e-07, 2.62316660837314e-07, -1.8939132132800296e-05, -4.005343271273887e-06, -5.801674888061825e-06, 2.967953150800895e-06, -4.737244410080166e-07, 5.305836111801909e-06, -3.1130789466260467e-06, -3.900610465734644e-07, 3.798003334054556e-08, 2.9799662115692627e-06, -2.9631098641402787e-06, -3.2619424018776044e-05, -5.783015240012901e-07, -1.7138745533884503e-06], [-0.0005128508782945573, 0.03802983835339546, -0.00025590165751054883, 0.03955550864338875, 0.005017788149416447, -0.006265746429562569, -0.012938437983393669, 0.001170811359770596, 0.0017574139637872577, 0.00044738981523551047, 0.012624455615878105, 0.004860423970967531, -0.08679265528917313, -0.0043943715281784534, -0.0028313100337982178, -0.07922389358282089, -0.00033926035393960774, 0.001159824663773179, -0.010629656724631786, 0.004513114225119352, -0.003765832632780075, -0.0026603618171066046, 0.000560804212000221, -0.004491682164371014, -0.005259770900011063, 0.0014866527635604143, 0.002283671172335744, -0.004385447595268488, 0.004252320155501366, -0.12528567016124725, 0.0009905170882120728, 0.0031435585115104914], [8.412725804873844e-08, 1.2672162483795546e-06, 3.817423888108351e-08, -3.4082677302649245e-06, -6.111700656674657e-08, 1.6332286634224147e-07, 3.874115606095074e-08, -3.798572834057268e-08, -1.4812431459176878e-07, -1.266023161861085e-07, -7.82965372536637e-08, -1.7816169872730825e-07, 1.7782120949050295e-06, 6.280412634396271e-08, 8.627699088492591e-08, 4.648981757782167e-06, 1.5307755063531658e-07, 6.778239480809134e-08, -5.888951818633359e-06, -1.662364752519352e-07, -1.3333694823813858e-06, 1.641578535327426e-07, -1.2372970559226815e-07, -9.147692026090226e-08, 2.3233706087921746e-06, -4.1774615056056064e-07, 3.24929487760528e-08, 1.8077628283208469e-09, -2.6009129072690484e-08, -8.365096618945245e-06, 1.5024582467049186e-08, -1.403537908117869e-07], [0.0018553325207903981, -0.10611175745725632, 0.0003690727171488106, -0.1666659265756607, -0.007394714746624231, 0.02989700250327587, 0.026233240962028503, -0.003546740859746933, -0.01858619600534439, -0.0034822241868823767, -0.017402365803718567, -0.0231730155646801, 0.23886165022850037, 0.005986114498227835, 0.0020836975891143084, -0.29289600253105164, 0.004690284840762615, 0.0014699489111080766, 0.13507145643234253, -0.03652177006006241, 0.054136358201503754, 0.030046839267015457, -0.0032836091704666615, 0.042371269315481186, -0.23725803196430206, 0.18022407591342926, 0.0008920282125473022, 0.043721769005060196, -0.045585621148347855, 0.4653385281562805, -0.016532715409994125, -0.012176819145679474], [1.7689051219349494e-06, 6.353903154376894e-05, 4.209631470075692e-07, -1.8688304407987744e-05, -1.0616910003591329e-05, 4.231507409713231e-05, 3.0300427170004696e-05, -3.7632394196407404e-06, -8.52354696689872e-06, -5.23350990988547e-07, -1.6052526916610077e-05, -4.458372131921351e-05, 6.768619641661644e-06, 9.022611266118474e-06, 5.5197069741552696e-06, -1.2392673852446023e-05, 3.0550925202987855e-06, 3.489729806460673e-06, -9.550504910293967e-05, -3.1530675187241286e-05, -0.00013357566785998642, 2.383616811130196e-05, -3.2915477277128957e-06, 3.973741513618734e-06, -0.00010902121721301228, 3.204775930498727e-05, 4.982989594282117e-07, 6.539682544826064e-06, -6.081007086322643e-06, 7.194592762971297e-05, -3.4634499570529442e-06, -4.399898443807615e-06], [5.403195973485708e-05, 0.0008872271864674985, 7.010689841990825e-06, 0.009573678486049175, -9.598886390449479e-05, 4.860846092924476e-05, 0.00021097628632560372, -0.00010016655141953379, -0.00010489365376997739, -4.3038264266215265e-05, -0.00012086980859749019, -0.00023981166305020452, -0.002081305254250765, 8.743693615542725e-05, 2.050446710200049e-05, 0.002801772439852357, 0.00012601907656062394, 4.267642361810431e-05, 0.0035342767369002104, -0.00010542698146309704, -0.0021888972260057926, 2.4819864847813733e-05, -0.00012644469097722322, 0.00045820680679753423, -0.005116244778037071, 0.0004309514188207686, 1.7005317204166204e-05, 0.00028751028003171086, -0.00028227647999301553, -0.005470296833664179, -3.428126728977077e-05, 1.4169594578561373e-05], [3.0161729227984324e-05, 0.0002391128655290231, 8.919820174924098e-06, 0.0019142604433000088, -6.34573952993378e-05, 0.0001999301020987332, 7.513744640164077e-05, -3.8132155168568715e-05, -8.493274071952328e-05, -5.771178621216677e-06, -0.00011901157267857343, -0.0002112335350830108, 2.6924157282337546e-05, 5.5283708206843585e-05, 3.4510558180045336e-05, 0.0008298951433971524, 3.174861194565892e-05, 4.943605745211244e-06, -0.0010313669918105006, -0.0002249723911518231, -0.0011810609139502048, 0.00010753987589851022, -5.059599061496556e-05, 0.00017268753435928375, -0.00036576000275090337, 0.00025591684971004725, -5.803438398288563e-06, 0.00022603558318223804, -0.00037461103056557477, -0.0009125190554186702, -4.840091060032137e-05, 2.2044569050194696e-06], [1.9960714325861773e-07, -1.1778312000387814e-05, 9.6933156612522e-08, -9.139417670667171e-06, 1.37393635668559e-06, -8.722369784663897e-06, -2.6696034183260053e-06, 2.674690051662765e-07, 2.2369147245626664e-06, -3.395243766135536e-07, 1.2420396160450764e-06, 7.707248187216464e-06, -2.14505289477529e-05, -1.274555074814998e-06, 1.950685600604629e-06, -9.802059821595321e-07, 4.294339532862068e-07, -1.4921539559509256e-07, -1.919115675264038e-05, 8.570037607569247e-06, -1.1505420843604952e-05, -3.1099525585887022e-06, -3.24320581057691e-07, 1.2737630640913267e-05, 9.791656339075416e-07, 3.5112350360577693e-06, 5.168927827980951e-07, -1.0795783964567818e-05, 1.0448913599248044e-05, 1.5232089936034754e-05, 2.1803416530019604e-06, 1.379792934130819e-06], [-4.4411194721760694e-07, 0.00040532511775381863, -9.974451131711248e-07, 0.0271451435983181, -4.1659932321636006e-05, -1.2103162589482963e-05, 5.026979124522768e-05, -2.1363695850595832e-05, 5.073669399280334e-06, -1.0377304533903953e-05, -3.903130709659308e-05, -8.291991252917796e-05, -0.00037834711838513613, 3.748573362827301e-05, -4.801980821866891e-07, 0.03033878281712532, 2.606074485811405e-05, 6.75727551424643e-06, 0.0003830294299405068, 2.637481338751968e-05, -2.311913704033941e-06, -1.7857522834674455e-05, -6.9844604695390444e-06, 0.00013651340850628912, -0.0003158581966999918, -0.004438800737261772, 3.3599374091863865e-06, 2.5563049348420464e-06, 6.102166025812039e-06, -0.013446074910461903, 1.0215530892310198e-05, -5.357533609640086e-06], [3.113072750693391e-07, 1.6665906514390372e-05, 2.0337503769951581e-07, 0.00011021250247722492, -3.3565074772923253e-06, 1.4606594959332142e-05, 9.872225746221375e-06, -5.595632615040813e-07, -4.930514933221275e-06, -5.670100335919415e-07, -3.0673770652356325e-06, -7.753274076094385e-06, -2.028456401603762e-05, 2.7506816877576057e-06, 1.646488044571015e-06, 0.00035815843148157, 4.602522096774919e-07, 8.650783911434701e-07, -6.223513082659338e-06, -1.1482182344479952e-05, -9.621017852623481e-06, 9.90471653494751e-06, -3.8220895248741726e-07, 5.512767529580742e-06, 1.424336096533807e-05, 2.7180758479516953e-06, 3.676715891742788e-07, 1.1002772225765511e-05, -1.2872199476987589e-05, -0.00016975196194835007, -1.6423593933723168e-06, -5.628226972476114e-06], [6.153647973405896e-06, 1.5473176972591318e-05, 3.085975777139538e-06, -0.00023526113363914192, -1.5504067050642334e-05, 2.326002504560165e-05, 1.329863334831316e-05, 2.23302549784421e-06, 8.253347914433107e-06, -1.5983719094947446e-06, -1.4217989701137412e-05, -7.539811485912651e-05, 0.00025450187968090177, 1.5175503904174548e-05, 8.117298420984298e-06, -4.576368519337848e-05, 7.30372767066001e-06, 8.072728633123916e-06, -0.0004145502462051809, -0.00020184564345981926, -0.00044216105015948415, 0.00010128981375601143, -1.0190432476520073e-05, -0.00014658297004643828, -0.0002228642551926896, 0.00019011556287296116, 9.981273251469247e-06, -6.194334127940238e-05, 4.408817767398432e-05, 0.00043109734542667866, 7.442847163474653e-06, -2.485595723555889e-05], [-5.381643495638855e-05, 0.0004222750139888376, -4.1535480704624206e-05, 0.001735941506922245, -0.00012726934801321477, 0.00027148565277457237, 0.0002489573380444199, -3.0798000807408243e-05, -0.00010005598596762866, 0.00011471119796624407, -0.00019260287808720022, -0.00011531452037161216, -0.007615366019308567, 0.00011165018077008426, 2.401821438979823e-05, 0.0037051124963909388, -6.366281013470143e-05, 3.183118315064348e-05, 0.0011155287502333522, -0.0006310433382168412, -0.0006363639840856194, 0.0002566901093814522, 4.02977348130662e-05, 0.00037060980685055256, -0.00046315568033605814, 0.0002299913321621716, 1.214019903272856e-05, 0.00010701524297473952, -8.161135338013992e-05, -0.001129696611315012, -5.374077591113746e-05, -9.76917872321792e-05], [0.0029749893583357334, -0.08992472290992737, 0.0009836939861997962, -0.14697155356407166, -0.013736852444708347, 0.04849635437130928, 0.041144032031297684, -0.007329345215111971, -0.014091331511735916, -0.004201881587505341, -0.03280295059084892, -0.026147328317165375, 0.025771833956241608, 0.011067898012697697, 0.013276472687721252, -0.4324319064617157, 0.005661287810653448, -0.0016058138571679592, 0.002396955853328109, -0.04217758774757385, 0.008154707960784435, 0.026643285527825356, -0.004478675313293934, 0.07540196180343628, 0.00021607757662422955, 0.13003192842006683, -0.006818671245127916, 0.04680395871400833, -0.0448874868452549, 0.16446062922477722, -0.018126051872968674, -0.01049798633903265], [-2.0797830302399234e-07, 3.943322371924296e-05, -3.213155537196144e-07, -1.1008907677023672e-05, -8.550092388759367e-06, 3.433747042436153e-05, 2.2750744392396882e-05, -6.239678214114974e-07, -3.832793481706176e-06, 8.989007369564206e-07, -1.2791736480721738e-05, -3.164853114867583e-05, -1.6558742572669871e-06, 6.3076813603402115e-06, 2.01918555831071e-06, -1.5029274436528794e-05, -2.3562040496472036e-07, 2.4014891550905304e-06, -7.690249913139269e-05, -1.346283079328714e-05, -8.054177305893973e-05, 1.4329207260743715e-05, -7.287883363460423e-08, 1.6503695405845065e-06, -4.740109943668358e-05, 2.1421470592031255e-05, -3.2061250294646015e-06, 1.931677161337575e-06, -7.298658601939678e-07, 4.973701652488671e-05, -4.761009222420398e-07, -5.020330718252808e-06], [5.270780093269423e-06, -2.665602369233966e-05, 2.1149135136511177e-06, 0.0006709086010232568, -6.497334197774762e-06, 1.2729692571156193e-05, 1.0220452168141492e-05, -4.772290139953839e-06, -4.506011464400217e-06, -9.404038792126812e-06, -7.765477676002774e-06, -7.249484951898921e-06, 5.91824937146157e-05, 5.786050678580068e-06, 6.705196256007184e-07, 0.0012104085180908442, 1.0071588803839404e-05, 1.9474387045193e-06, -2.4296943593071774e-05, -8.96598521649139e-06, -1.6732792573748156e-05, 7.062397344270721e-06, -9.45181727729505e-06, 1.383715516567463e-05, -7.620116230100393e-05, 1.8274920876137912e-05, 4.796304438059451e-07, 1.0491555258340668e-05, -8.312730642501265e-06, 1.1876298231072724e-05, -3.369306341483025e-06, 2.200547726260993e-07], [0.001046474208123982, 0.007956266403198242, 0.0003220993676222861, -0.0030741742812097073, -0.0031784595921635628, 0.01691616140305996, 0.012434360571205616, -0.001575148431584239, -0.0049638571217656136, -0.001398528111167252, -0.007684231270104647, -0.01480533555150032, 0.01611986942589283, 0.002588232746347785, 0.004187130834907293, -0.059895239770412445, 0.0019203239353373647, -0.0005007388535887003, -0.023569244891405106, -0.014764867722988129, -0.010349222458899021, 0.008897757157683372, -0.0016004700446501374, 0.028829041868448257, 0.01720074936747551, -0.009008355438709259, -0.0021780740935355425, 0.018158087506890297, -0.016794906929135323, 0.010245718993246555, -0.004907559137791395, -0.003058440051972866], [7.274409199453657e-07, 2.4717508495086804e-05, 4.268782731742249e-07, 9.52092232182622e-05, -6.593122634512838e-06, 2.7943940949626267e-05, 2.0379391571623273e-05, -8.352005806955276e-07, -7.544631444034167e-06, -1.2547599226309103e-06, -7.386338438664097e-06, -1.6975312973954715e-05, -4.088130663149059e-05, 5.084026270196773e-06, 3.775437562580919e-06, 0.00037165998946875334, 1.1730566029655165e-06, 1.014782469610509e-06, -2.0006413251394406e-05, -2.2748925402993336e-05, -1.474581404181663e-05, 1.6597043213550933e-05, -9.559518048263271e-07, 1.5627138054696843e-05, 1.2921202142024413e-05, 6.00876637690817e-06, -2.2582847236662928e-07, 2.156850678147748e-05, -2.2637012079940178e-05, -0.00019257872190792114, -3.900491265085293e-06, -9.113191481446847e-06], [-8.018815833565895e-07, 1.2411646821419708e-05, -4.0323982375412015e-07, 0.007554518058896065, 1.8555055021352018e-06, 9.410780421603704e-08, 1.3226020882939338e-06, 1.5017794794403017e-06, 4.040191470267018e-08, 2.209131025665556e-06, 6.0159022723382805e-06, 4.55464942206163e-06, -1.391930527461227e-05, -2.0619447695935378e-06, 2.5044167273335916e-07, 0.0038621705025434494, -2.3970810616447125e-06, 3.010753061971627e-06, 3.0151235478115268e-05, 4.444484147825278e-06, 5.055847850599093e-06, -4.575410457619e-06, 1.7846841728896834e-06, -1.7819987988332286e-05, -2.861327084247023e-05, -1.1396351737857913e-06, -1.2521510939222935e-07, -1.363272804155713e-05, 9.094770575757138e-06, -0.005093672778457403, 2.458632025081897e-06, -1.782882577572309e-06], [0.0016705964226275682, 0.03626961633563042, 0.0008170379442162812, -0.008180469274520874, 0.0018363018753007054, -0.000348054978530854, -0.001747551141306758, 0.0010086912661790848, -0.00046775361988693476, -0.0029609373304992914, 0.0024885889142751694, -0.003212306648492813, -0.012037334032356739, -0.0015499891014769673, -0.0008475476643070579, -0.1511627584695816, 0.0034919946920126677, 0.001332633662968874, -0.008319951593875885, -0.00023033912293612957, -0.03180913254618645, -0.0010042955400422215, -0.0025377923157066107, 0.008847870863974094, 0.00851860735565424, -0.01736454665660858, 0.0013447857927531004, 0.0022757272236049175, -0.002234081504866481, -0.006408702116459608, 0.0021242592483758926, -0.0009949654340744019], [6.98332441970706e-05, 0.004884023219347, -1.5961591998348013e-05, 0.03731236234307289, -0.0002993177331518382, -0.00019559038628358394, 0.00032841728534549475, -9.312018664786592e-05, 6.262931856326759e-05, -0.00010420678154332563, -0.0003771544434130192, -0.00037574200541712344, -0.00263502006419003, 0.0002751175779849291, -3.544753781170584e-05, 0.041315410286188126, 0.00011449423618614674, 3.1449319067178294e-05, 0.002484650583937764, 0.00012070513184880838, 0.0010003383504226804, -8.811386214802042e-05, -0.00013034277071710676, 0.00034541141940280795, -0.003808335866779089, -0.013908881694078445, 1.9983914171461947e-05, -0.00012822839198634028, 0.00013356863928493112, -0.031008753925561905, 9.356391819892451e-05, -5.4966592870187014e-05], [0.00048201519530266523, -0.003295725677162409, 0.0002459076058585197, 0.08719870448112488, 0.0013140798546373844, -0.002529771998524666, -0.0025745814200490713, 0.0005693885614164174, 0.0015803627902641892, -0.0005223254556767642, 0.002645848784595728, 0.0014576060930266976, 0.040813472121953964, -0.0011312277056276798, -0.0010834471322596073, -0.03698425740003586, 0.0003664425457827747, 0.0007595384959131479, 0.0006138361059129238, 0.00404328852891922, -0.023599853739142418, -0.0015741633251309395, -0.0004996560164727271, -0.0012152756098657846, 0.007512746844440699, -0.006731787696480751, 0.0005702281487174332, -0.0027963416650891304, 0.0026609187480062246, 0.01606827601790428, 0.0018644626252353191, -1.0016490705311298e-05], [1.7303113054367714e-05, 0.008826332166790962, 2.7742771635530517e-05, 0.04830944538116455, -5.7851993915392086e-05, -0.00012540852185338736, 1.556850656925235e-05, -4.272270962246694e-05, 2.511364255042281e-05, -4.3521598854567856e-05, -0.00027613455313257873, -9.955372661352158e-05, -0.0009836619719862938, 5.0144270062446594e-05, -2.1260309949866496e-05, 0.05144733935594559, 4.4455820898292586e-05, 6.930312792974291e-06, 0.0015274438774213195, 6.275763007579371e-05, 0.00043570960406214, 5.114186933496967e-05, -5.8589175750967115e-05, 8.754176087677479e-05, -0.0014072415651753545, -0.022608695551753044, 1.1051098226744216e-05, -9.512012911727652e-05, 9.590333502274007e-05, -0.03776780515909195, 4.28773055318743e-05, 2.5299141270807013e-05], [6.273397161749017e-07, 1.175655961560551e-05, 3.5197493275518354e-07, 1.7325013686786406e-05, -3.646017376013333e-06, 1.5862047803238966e-05, 9.845783097262029e-06, -5.152281232767564e-07, -5.3527337513514794e-06, -1.0417156772746239e-06, -3.1918852982926182e-06, -1.1546821042429656e-05, -1.6908783436520025e-05, 2.967646878460073e-06, 2.849611064448254e-06, 0.00012122927000746131, 9.995435448217904e-07, 5.612133691101917e-07, -2.7148009394295514e-05, -1.310542575083673e-05, -1.075079035217641e-05, 8.58325347508071e-06, -8.297131444123806e-07, 1.2937261089973617e-05, -2.859055712178815e-06, 1.2915284059999976e-06, -7.682601221858931e-08, 1.0444455256219953e-05, -1.0434619071020279e-05, -8.42641675262712e-05, -2.314331368324929e-06, -4.8179153964156285e-06], [3.564174403436482e-05, -0.0017425308469682932, 1.1582943443499971e-05, -0.003848630003631115, -0.00016603362746536732, 0.0006545561482198536, 0.0005301001365296543, -2.298083927598782e-05, -3.8581580156460404e-05, -8.340140630025417e-05, -0.0004427052044775337, 9.100427996600047e-05, -0.00454405602067709, 0.00013732234947383404, -2.9956867365399376e-05, -0.0020095319487154484, 7.11733810021542e-05, -1.911276558530517e-05, -0.0019560297951102257, 0.00017012062016874552, -0.0013893083669245243, -0.00013313093222677708, -4.105683910893276e-05, 0.0010378494625911117, 0.0026685113552957773, 0.0018983044428750873, -2.568016316217836e-05, 0.0006633402081206441, -0.0006604443769901991, 0.0031711021438241005, 4.842035559704527e-05, 9.995861910283566e-05], [0.0032291689421981573, 0.03139113634824753, 0.0013963347300887108, -0.15005551278591156, -0.005653856787830591, 0.024486538022756577, 0.020940445363521576, -0.0015068543143570423, -0.008338488638401031, -0.005094568245112896, -0.01193890068680048, -0.01763865351676941, 0.010898342356085777, 0.004528057761490345, 0.004465378355234861, -0.07600034773349762, 0.006288398522883654, 0.0009472166420891881, -0.011064130812883377, -0.020472146570682526, -0.026954345405101776, 0.01298571191728115, -0.004950502887368202, 0.02800530008971691, 0.00041558180237188935, -0.007003789767622948, -0.001198299927636981, 0.020624449476599693, -0.019509337842464447, 0.1334390938282013, -0.008762919344007969, -0.00691444706171751], [7.44791905162856e-05, 0.014607956632971764, 0.00017849478172138333, 0.10177905857563019, 0.0011329865083098412, 0.007183984387665987, -0.001911944360472262, -2.8344380552880466e-05, -0.0010344209149479866, 0.00012317804794292897, 0.002225357573479414, -0.0025923303328454494, 0.13227912783622742, -0.0005599783617071807, 0.0008086708839982748, -0.03211212530732155, -5.168176721781492e-05, 0.0005558604607358575, 0.031766414642333984, -0.002085961401462555, -0.0196005180478096, 0.000972708803601563, 3.665300027932972e-05, 0.00431282352656126, -0.024250317364931107, -0.04220062121748924, -0.0009180851629935205, 0.0013486475218087435, -0.0016704828012734652, -0.028133325278759003, -0.0006934984703548253, -0.0012279979418963194], [-4.1304645037598675e-07, -2.0462979591684416e-05, 1.6571618743910221e-07, 0.018486222252249718, 2.363413841521833e-06, 1.0672134749256657e-06, 4.0445447666570544e-06, 2.4998946628329577e-06, 1.5248991758198827e-06, 3.8372752442228375e-07, 5.671175586030586e-06, -3.2025254768086597e-06, -4.9877588025992736e-05, -2.2760168576496653e-06, 3.16857085636002e-06, 0.011281839571893215, -4.953272423335875e-07, 1.5233952126436634e-06, -6.428404958569445e-06, 2.245574250991922e-06, -4.745151272800285e-06, 6.767743343516486e-07, 1.3526046132028569e-06, -2.3881098968558945e-05, 1.1149106285301968e-05, -0.0010570581071078777, -3.5974139791505877e-06, -1.2658686500799377e-05, 1.351309401798062e-05, -0.013488685712218285, 2.9062321118544787e-06, -3.5726027363125468e-06], [5.8291112509323284e-05, 0.0025476450100541115, -1.2778371456079185e-05, 0.02336585335433483, -0.0005222734762355685, 0.0005250090034678578, 0.001454689772799611, -0.00016516449977643788, -2.7269208658253774e-05, -2.954552837763913e-05, -0.0006218437338247895, 0.00026272828108631074, -0.003267215797677636, 0.00047363259363919497, -4.00196950067766e-05, 0.03515339642763138, 0.00013363643665798008, 9.537204459775239e-05, 0.004675055854022503, -0.00014644971815869212, 0.0016747511690482497, 4.434259972185828e-05, -0.00016146183770615608, 0.00017969416512642056, -0.00538121210411191, -0.005860840901732445, -2.9705092856602278e-06, -0.0001899309572763741, 0.00018360931426286697, -0.019335443153977394, 4.862147034145892e-05, -0.0006639377679675817], [5.492877244250849e-05, 0.005223100073635578, -1.410662844136823e-05, 0.0315016470849514, -0.0003409305354580283, 0.00034264670102857053, 0.0014269029488787055, -0.00021553847182076424, 4.404088394949213e-05, -2.790606777125504e-05, -0.00046324898721650243, 0.0002395985648036003, -0.00308817345649004, 0.0003237611963413656, -3.6324126995168626e-05, 0.04329933598637581, 9.94046640698798e-05, 6.607196701224893e-05, 0.00414651446044445, 8.71423544595018e-05, 0.0012552202679216862, -8.23616428533569e-05, -0.0001385685318382457, 0.00013822497567161918, -0.004689720459282398, -0.011991799809038639, 4.4438229451770894e-07, -0.00018802701379172504, 0.00016093713929876685, -0.02597828395664692, 7.68527461332269e-05, -0.0006239262293092906], [0.0017547030001878738, -0.15492844581604004, 0.00042070302879437804, -0.4930381774902344, -0.00991695374250412, 0.027185983955860138, 0.02664840780198574, -0.004841783549636602, -0.008034826256334782, -0.0014512047637254, -0.0202142596244812, -0.02351178042590618, -0.21851100027561188, 0.008479796350002289, 0.009016580879688263, -0.2736888527870178, 0.002758957678452134, -0.0005044752033427358, -0.09530459344387054, -0.010765251703560352, 0.058114077895879745, 0.005352423992007971, -0.0026484234258532524, 0.04930803179740906, 0.17599424719810486, 0.16415803134441376, -0.0030138737056404352, 0.015147345140576363, -0.011136133223772049, 0.17585285007953644, -0.004684353247284889, -0.0037778185214847326], [-5.120858986629173e-06, 0.00016038033936638385, 2.207194938819157e-06, 0.00911285262554884, -4.113167233299464e-05, 8.08074400993064e-06, 4.275297760614194e-05, -1.026564586936729e-05, 4.2656820369302295e-06, 4.5515816964325495e-06, -4.58263821201399e-05, -0.0001065756005118601, -0.00018050873768515885, 3.8032885640859604e-05, 5.603431532108516e-07, 0.013409853912889957, 2.849739757948555e-06, 4.656099008570891e-06, -0.00016411526303272694, 2.999864227604121e-05, 7.693444786127657e-06, -1.715980215521995e-05, -3.242381296786334e-07, 7.364834164036438e-05, -0.0004030181444250047, -0.0002495775406714529, 2.7481489723868435e-06, 1.3921287063567434e-05, -5.080423761683051e-07, -0.00492501026019454, 3.1985532586986665e-06, -1.2524865269369911e-05], [7.065762474667281e-06, 0.0006345243309624493, -3.2444993394165067e-06, 0.026316354051232338, 6.326064067252446e-06, -1.8416942111798562e-05, -1.3403317097981926e-05, -4.270859790267423e-06, 6.287662472459488e-06, -1.187769157695584e-06, -1.679450178926345e-05, 9.234136996383313e-06, -0.00025675195502117276, -5.312212124408688e-06, 5.173312160877686e-07, 0.018973762169480324, -1.9175080524291843e-05, -4.581262146530207e-06, -2.306359601789154e-05, 1.0806202226376627e-05, 4.1120547393802553e-05, -3.952364295400912e-06, -1.0094609024235979e-05, 7.859257311793044e-05, -0.0001384172501275316, -0.005587466526776552, 8.396992598136421e-06, 0.00011354449816280976, -3.554789873305708e-05, -0.021686218678951263, 6.707216471113497e-06, 5.195774974708911e-06]], "lstm.bias_ih_l0": [-0.00028126611141487956, 0.23819299042224884, -5.276209412841126e-05, 0.5576285719871521, -0.009843038395047188, -0.06561408191919327, -0.03260846063494682, -0.0013394426787272096, -0.07483457028865814, -0.0011672239052131772, -0.007678531575948, -0.03750677779316902, 1.202705979347229, -0.008656028658151627, -0.029836751520633698, 0.0793353021144867, -0.0012297218199819326, -0.04898921772837639, 0.29293712973594666, -0.0717117115855217, 0.10532184690237045, -0.07782692462205887, -0.0005710383411496878, 0.0002538549597375095, 0.37590858340263367, 0.11332414299249649, -0.06049813702702522, -0.0702105388045311, -0.07200786471366882, 0.5508970618247986, -0.05811107158660889, -0.053772907704114914, -0.00024065037723630667, -0.0033413993660360575, -4.4747834181180224e-05, -0.2988697588443756, -0.006535226944833994, -0.05184534192085266, -0.032240934669971466, -0.00058242172235623, -0.06988996267318726, -0.0010455562733113766, -0.0064180828630924225, -0.02897336706519127, -0.24685285985469818, -0.006091662682592869, -0.019896250218153, 0.15263144671916962, -0.0011182016460224986, -0.046864841133356094, -0.21409964561462402, -0.07386147230863571, 