{"lstm.weight_ih_l0": [[0.022060321643948555], [-0.0019468894461169839], [-0.201326385140419], [0.0017186690820381045], [0.13847705721855164], [0.00036307977279648185], [0.09555371105670929], [0.001289493520744145], [0.0004372557159513235], [0.003732420038431883], [-0.5281972289085388], [0.16131767630577087], [0.0017904770793393254], [0.0363803394138813], [0.07536602020263672], [-0.21357035636901855], [0.00015279137005563825], [-0.05581800639629364], [-0.0012107647489756346], [0.33976277709007263], [-0.0025254313368350267], [0.016982901841402054], [0.0020133687648922205], [-0.004258496221154928], [0.02792298048734665], [0.003229748923331499], [-0.04221577197313309], [0.0007167290896177292], [-0.0012160378973931074], [0.006765448488295078], [-0.36983722448349], [0.0029630246572196484], [0.11387215554714203], [-0.00122037751134485], [0.18310919404029846], [0.001625854056328535], [-0.06798696517944336], [0.0007687833276577294], [0.33800560235977173], [0.0010275921085849404], [0.0004881708591710776], [0.0033915552776306868], [-0.6700791120529175], [0.013156970031559467], [0.0037254311610013247], [0.0132608562707901], [0.1651722639799118], [0.08689850568771362], [0.0003694845945574343], [-0.07814949005842209], [0.0009420857531949878], [-0.004146661143749952], [-0.0012908437056466937], [-0.20063279569149017], [0.0012730692978948355], [-0.029326854273676872], [0.0797666683793068], [0.0023264328483492136], [0.24101680517196655], [0.00044555478962138295], [-0.055233705788850784], [0.009225897490978241], [-0.325357586145401], [0.0041934289038181305], [-0.6722013354301453], [-0.01202810276299715], [0.17393535375595093], [-0.010820024646818638], [0.37356773018836975], [0.003028629580512643], [0.027831194922327995], [0.010774652473628521], [-0.0006353607750497758], [0.010945448651909828], [-0.18434159457683563], [0.9293277859687805], [0.0133287338539958], [0.2943938076496124], [0.17550325393676758], [-0.9873067140579224], [0.04411901533603668], [0.1820482462644577], [-0.017412621527910233], [-1.1479476690292358], [-0.021110516041517258], [-1.4576770067214966], [-0.004443549085408449], [-0.2232881486415863], [-0.1976664513349533], [0.05373916029930115], [-0.6793598532676697], [-0.000563877634704113], [-0.6036767959594727], [0.04059680551290512], [-0.6903687119483948], [-0.013052823022007942], [0.3600568473339081], [-0.0019009143579751253], [0.24163727462291718], [0.0017262307228520513], [-0.011448550969362259], [0.00041680759750306606], [0.2777470648288727], [0.0012959212763234973], [0.00036663762875832617], [0.0038961381651461124], [-0.8506306409835815], [0.0023294459097087383], [0.0016383613692596555], [0.10105230659246445], [0.02872883528470993], [-0.16001573204994202], [0.00016344602045137435], [0.00022337769041769207], [-0.0013415496796369553], [0.09579692035913467], [-0.0025359110441058874], [0.7123380899429321], [0.001970819430425763], [-0.006060461513698101], [0.021552491933107376], [0.003810142632573843], [0.033244650810956955], [0.0007101590745151043], [0.022824415937066078], [0.006664343643933535], [-0.35563090443611145], [0.003059109440073371]], "lstm.weight_hh_l0": [[-0.18732909858226776, 0.001270631910301745, 0.0425049364566803, -0.0002008135779760778, 0.024033593013882637, -0.009089716710150242, -0.27126243710517883, 0.00847269594669342, 0.011891018599271774, 0.0224902406334877, -0.1986268013715744, 0.2540588676929474, -0.0002028380404226482, -0.029039885848760605, -0.2587549686431885, 0.07018338888883591, 0.009103004820644855, 0.012521694414317608, -0.012480489909648895, -0.03228440135717392, 0.008295581676065922, 0.00962238758802414, -0.009844455868005753, -0.0393073745071888, -0.12932489812374115, -0.006777175702154636, 0.004940319806337357, -0.007772661279886961, -0.036773890256881714, 0.015938935801386833, -0.012301403097808361, -0.019420400261878967], [0.05366870015859604, -0.0004892591969110072, -0.021949343383312225, 0.0007412255508825183, 0.004951258655637503, -0.0006210901774466038, -0.003957940265536308, 0.0005400809459388256, -0.00023344684450421482, -0.0004786271310877055, 0.004550645127892494, -0.006070292554795742, -0.000248030002694577, -0.0015866943867877126, 0.013208389282226562, 0.003195564029738307, 0.00036360183730721474, 0.0018020396819338202, 0.0005337724578566849, 0.009209170006215572, -0.0005634918925352395, -0.0032040607184171677, 9.559027967043221e-05, 0.00032497363281436265, -0.0020556647796183825, 0.0001742636668495834, 0.0015207708347588778, 0.00032028910936787724, -0.0009879427962005138, 0.0005079201655462384, 9.387517638970166e-05, -0.0004818276793230325], [0.5678516626358032, -0.003529110224917531, 0.008301010355353355, 0.021579617634415627, 0.2718239426612854, 0.010192831046879292, -0.1441829651594162, -0.004291670862585306, -0.00012848779442720115, -0.03208788484334946, -0.35434818267822266, -0.2869585454463959, 0.008808627724647522, 0.5847165584564209, 1.0417829751968384, 0.21568554639816284, 0.0006927573122084141, -0.2558559477329254, 0.015040994621813297, 0.23285086452960968, -0.013369835913181305, -0.33303576707839966, 0.011950463987886906, 0.02390262857079506, 0.24290785193443298, -0.004645854700356722, -0.1676945835351944, 0.009313737973570824, -0.18828846514225006, 0.013314371928572655, -0.016554148867726326, 0.025192756205797195], [0.09201630204916, -0.00038420327473431826, -0.032725151628255844, -0.001386522315442562, 0.0005544271552935243, 2.2261752746999264e-05, -0.004157136660069227, -0.00017818431660998613, -0.00013990633306093514, -0.0009794434299692512, 0.0015585336368530989, -0.013090737164020538, 0.0011020047822967172, -0.005255314987152815, 0.03495165333151817, -0.002442500786855817, -0.0006613192381337285, 0.0031003074254840612, 1.6245146980509162e-05, 0.0007146609714254737, 0.0001889016421046108, -0.013591626659035683, 0.0007261589053086936, 0.0004365112981759012, -0.003644846845418215, 0.00024186655355151743, 0.003474625525996089, -0.0003303060366306454, -0.0004417799646034837, 0.0017383043887093663, -0.0005524491425603628, 0.0005967681063339114], [0.04794631898403168, 0.006698236800730228, 0.15719373524188995, -0.0066455346532166, -0.17520718276500702, 0.010749143548309803, -0.10651654750108719, 0.007302010897547007, 0.006913476623594761, -0.011648803018033504, 0.014842282980680466, 0.15448224544525146, 0.003606695681810379, 0.16123716533184052, 0.4378078877925873, -0.030733201652765274, 0.008853292092680931, -0.16201017796993256, 0.005227384623140097, 0.021878153085708618, -0.018128931522369385, -0.13395600020885468, -0.0054749599657952785, -0.09535133838653564, 0.060200389474630356, 0.015090280212461948, -0.002672029659152031, -0.0012549565872177482, -0.2728254795074463, 0.03133474290370941, 0.175950825214386, 0.009712059050798416], [0.05084717273712158, -0.0004227107856422663, -0.02625674568116665, 0.0008357285987585783, 0.013929874636232853, 0.0003449003561399877, -0.007285847328603268, 8.180557779269293e-05, 0.00028405195917002857, 0.0027139177545905113, 0.007344698999077082, -0.017258072271943092, 0.00034694914938881993, 0.005396486725658178, 0.02098304033279419, 0.005685327108949423, -0.0002532803046051413, -0.004088126588612795, -0.0016508905682712793, 0.00973280519247055, 0.0016237031668424606, -0.02431178092956543, -0.000251812394708395, -0.0027558060828596354, -0.0022121802903711796, -0.0008057292434386909, -0.001260933349840343, -0.00046555392327718437, -0.0022922088392078876, -0.0004943083040416241, 0.003470055293291807, -0.000778305868152529], [0.31046420335769653, 0.013548687100410461, -0.33116140961647034, -0.019333843141794205, 0.07778406888246536, -0.0156396571546793, 0.37567758560180664, 0.009684602729976177, 0.027189776301383972, -0.00011581284343264997, -0.056482020765542984, -0.7257071733474731, -0.03096359223127365, -0.17012569308280945, 0.04555465281009674, -0.10785238444805145, 0.024896670132875443, -0.021717878058552742, -0.0049347057938575745, -0.2966481149196625, -0.004501614719629288, 0.0663352757692337, -0.01618991605937481, 0.070020891726017, -0.059205640107393265, -0.0030617956072092056, -0.2650777995586395, -0.026146961376070976, 0.015995915979146957, 0.03148338943719864, 0.045528337359428406, -0.00238119438290596], [0.056678656488657, -0.00034469031379558146, -0.018595002591609955, 0.00010448067769175395, -0.001008028513751924, 2.6828452973859385e-05, -0.0009042132296599448, 9.800685802474618e-05, -0.0005601131124421954, -0.00040180550422519445, 0.0010195465292781591, -0.006807534024119377, 6.560942711075768e-05, 0.011134966276586056, 0.026309827342629433, -0.00036687636747956276, -2.878856503230054e-05, 0.00011973642540397123, -0.00035789929097518325, -0.00040056256693787873, -0.0005021099932491779, -0.005981558468192816, -0.0005197066348046064, -0.0006153474096208811, 0.0010316850384697318, -2.760799543466419e-05, 0.0011784937232732773, -0.00012604999938048422, -0.00207000644877553, -0.0003160524065606296, -0.001296229544095695, -0.00019354479445610195], [0.07213790714740753, 1.3721160939894617e-05, -0.023942166939377785, 0.00045111082727089524, -0.002007208066061139, -0.0003384081937838346, -0.000543819391168654, 0.000279598287306726, -0.00014289413229562342, -0.0005905920988880098, 0.002069914247840643, -0.012473993934690952, 0.0002620132581796497, 0.004340971354395151, 0.028903650119900703, -0.0013999019283801317, 0.0004300323489587754, 0.0006616819882765412, -0.0002788325073197484, 0.0017360519850626588, -5.38734020665288e-05, -0.004272707272320986, -0.00038774783024564385, 0.0008377293706871569, -0.0002721390628721565, -0.0003089179517701268, 0.0016220450634136796, 0.0002449924359098077, -0.003158081555739045, 0.0006357432575896382, 0.001975616440176964, 0.00044095938210375607], [0.10641815513372421, 0.0010277357650920749, -0.06596769392490387, -0.0006111176917329431, 0.03321447968482971, -0.00439624534919858, -0.010726118460297585, 0.0004643989377655089, 0.0005389989819377661, 0.0026094773784279823, 0.02526424266397953, -0.042632151395082474, 0.0003338167443871498, 0.016957184299826622, 0.04398259520530701, 0.007890054024755955, 0.0021058698184788227, -0.002544341841712594, 0.002044140826910734, 0.022939225658774376, -0.0011595838004723191, -0.06628123670816422, -0.00035643254523165524, -0.0024381247349083424, -0.005676742177456617, -0.00030692576547153294, 0.0001131594181060791, 6.252409366425127e-05, 0.006433435715734959, 0.0010955729521811008, -0.0012674005702137947, -0.004311051219701767], [0.386060893535614, 0.00828856322914362, 0.23124633729457855, -0.013388244435191154, -0.41833505034446716, 0.024176673963665962, 0.09875299781560898, -0.003506283974274993, -0.0007068808190524578, -0.01939457282423973, 0.14891476929187775, -0.4488724172115326, -0.010982918553054333, 0.04066245257854462, 0.6032990217208862, -0.12102247029542923, -0.018222076818346977, -0.20676662027835846, 0.011439751833677292, 0.1820136159658432, 0.036384034901857376, 0.10086152702569962, -0.004037176258862019, -0.09297335892915726, -0.06152460351586342, 0.027145618572831154, 0.15535564720630646, 0.008640740998089314, -0.22811277210712433, -0.04594585672020912, 0.3552969694137573, 0.019795211032032967], [0.10243325680494308, -0.0073961480520665646, -0.20467405021190643, 0.029943864792585373, -0.23221302032470703, -0.015601430088281631, -0.0894407331943512, 0.02413044311106205, -0.008379217237234116, 0.024855628609657288, -0.24461928009986877, -0.10378865152597427, 0.03379463776946068, -0.33970907330513, 0.04047771170735359, 0.37176448106765747, 0.016309615224599838, -0.14882126450538635, -0.04075450450181961, 0.5077322125434875, -0.011266916058957577, -0.20044925808906555, -0.0007129765581339598, -0.2567388713359833, 0.18002371490001678, -0.0037127798423171043, 0.40968838334083557, 0.00747578265145421, 0.35189881920814514, -0.009324999526143074, -0.02663404680788517, -0.02224930375814438], [0.08449139446020126, 0.0003742759581655264, -0.036116939038038254, -0.0014856797643005848, -0.0013484787195920944, -4.859926048084162e-05, -0.002941504819318652, 0.000565721420571208, 0.0007695031818002462, -0.0002049781323876232, 0.0015757750952616334, -0.011068458668887615, -0.000372548820450902, 0.008477838709950447, 0.03720814734697342, -0.001041322946548462, -0.00010408977686893195, 0.0041823009960353374, -2.125048922607675e-06, -0.00117885519284755, -0.000576741062104702, -0.010123561136424541, 0.00041224094456993043, 0.0006143067730590701, -0.0017688689986243844, -9.90002226899378e-05, 0.0025778498966246843, 0.00043922700569964945, -0.002746890066191554, -0.0010309001663699746, -0.00201587681658566, -0.00014082885172683746], [0.08933693170547485, 0.020165031775832176, -0.5271123647689819, -0.036968182772397995, -0.2867344915866852, 0.012847358360886574, -0.17415472865104675, 0.007767209317535162, 0.014150159433484077, 0.00038474390748888254, 0.19992688298225403, 0.1438368707895279, -0.030848603695631027, -0.307926744222641, 0.0036714202724397182, -0.09881777316331863, 0.0019751887302845716, 0.0019321141298860312, 0.006928213872015476, 0.2538752853870392, 0.01000983640551567, -0.3827386200428009, -0.012320298701524734, -0.10055430233478546, -0.08877772092819214, 0.033741544932127, 0.5969380736351013, -0.00624196557328105, -0.07161392271518707, 0.003147892886772752, 0.05643949657678604, 0.0017306983936578035], [0.14345736801624298, 0.024669066071510315, -0.7928686738014221, -0.02307850867509842, 0.49314501881599426, 0.0003569498367141932, -0.1404838263988495, 0.021276941522955894, 0.01912139728665352, -0.005577110219746828, 0.10181388258934021, -0.10470812022686005, -0.00812944769859314, 0.024630649015307426, 0.03408372029662132, 0.76790851354599, 0.014751655980944633, -0.13380920886993408, 0.01449899934232235, 0.4413231611251831, -0.004969940986484289, -0.45629337430000305, 0.020025746896862984, -0.05968150496482849, -0.12761613726615906, 0.007370804436504841, -0.4262286126613617, 0.0057437969371676445, -0.3162400722503662, 0.009851908311247826, 0.06908450275659561, 0.013300818391144276], [0.28894081711769104, -0.02506246790289879, -0.37971997261047363, 0.0448225662112236, 0.3240976631641388, -0.007247891277074814, 0.15689633786678314, -0.009118808433413506, -0.028645319864153862, 0.03924112394452095, -0.0489487461745739, -0.11161873489618301, 0.030466103926301003, 0.18008455634117126, 0.051105741411447525, 0.149066761136055, -0.00665799155831337, 0.15759380161762238, -0.044155385345220566, -0.26650744676589966, -0.01624884456396103, 0.2495819628238678, 0.044709619134664536, 0.020481446757912636, 0.16235852241516113, -0.03427732735872269, 0.23874282836914062, 0.03680277615785599, -0.6903223395347595, 0.009485866874456406, -0.12292064726352692, -0.03447393700480461], [0.04016786068677902, -2.2497742975247093e-05, -0.016240693628787994, 0.00018123169138561934, 0.00685579190030694, 0.0001284442696487531, -0.0037083157803863287, 6.829973426647484e-05, 3.1255040084943175e-06, 0.00043061847100034356, 0.0033624807838350534, -0.010396020486950874, 0.0002541357825975865, 0.0072914110496640205, 0.01943170465528965, 0.002113108756020665, -2.9049155273241922e-05, -0.0011427445570006967, -6.154603761387989e-05, 0.0032575256191194057, 4.935127799399197e-05, -0.010432176291942596, 7.65677250456065e-05, -0.0008979998528957367, -0.0017048812005668879, 9.691716695670038e-05, -0.0010490977438166738, 7.570956950075924e-05, -0.0032134405337274075, 0.00043615096365101635, 0.0020974264480173588, -1.276369221159257e-05], [0.5015779137611389, 0.017850345000624657, -0.5492163300514221, -0.017988912761211395, 0.180736243724823, -0.014459474012255669, -0.04825160279870033, 0.0191207118332386, 0.017865069210529327, 0.03892858326435089, 0.058449842035770416, -0.18135720491409302, -0.005193170625716448, 0.08111530542373657, 0.3231259882450104, -0.04896637424826622, -0.013081494718790054, -0.17627832293510437, 0.011754239909350872, 0.20790526270866394, 0.03964593634009361, -0.26695531606674194, -0.012376038357615471, 0.00886864960193634, -0.02772548981010914, 0.0002230702666565776, -0.14972364902496338, -0.009028022177517414, -0.22358839213848114, -0.08913448452949524, 0.13420219719409943, -0.019681686535477638], [0.08190584182739258, -0.00031933002173900604, -0.0398363322019577, -0.0003935406275559217, 0.011888125911355019, -0.000723461271263659, -0.004779048729687929, -6.3516436057398096e-06, -0.00037063128547742963, 0.0012895327527076006, 0.005760551895946264, -0.02631295472383499, 0.0003335654328111559, 0.007070207968354225, 0.03420421853661537, 0.0009581599151715636, -0.0001066327968146652, 0.0024730279110372066, -0.001982160611078143, 0.01116833183914423, 0.0015600839396938682, -0.0259670689702034, -0.0005599341820925474, 0.00028781197033822536, 0.004417546559125185, -0.0002219132729806006, 0.0030547073110938072, -0.0005123434239067137, 0.00612562196329236, 0.0010951687581837177, -0.0014450214803218842, -0.0014223039615899324], [1.1282002925872803, 0.018092738464474678, -0.9103392958641052, -0.017897510901093483, 0.6894508600234985, 0.029965877532958984, -0.1544015109539032, 0.031006818637251854, 0.01939469762146473, -0.017351558431982994, 0.3989151418209076, -0.904512345790863, -0.005884896963834763, 0.6486117839813232, 0.7263392210006714, 0.005270861554890871, 0.008873478509485722, 0.37898585200309753, -0.015561689622700214, 0.3176695704460144, 0.022398419678211212, -1.0190207958221436, -0.024185659363865852, -0.2845231890678406, -0.9480603337287903, 0.05069141462445259, 0.35061442852020264, -0.014674893580377102, -0.20327575504779816, 0.005511174909770489, 0.731735110282898, 0.01800491102039814], [0.1326705813407898, -0.000679043005220592, -0.09225358068943024, -0.0012903021415695548, 0.02007889561355114, 0.0008562994189560413, 0.003109967801719904, -7.238612306537107e-05, -0.00011924235877813771, 0.003938403911888599, 0.00603037653490901, -0.05191260576248169, 0.00013398751616477966, 0.016335593536496162, 0.049574483186006546, -0.003875900059938431, -0.0010524624958634377, 0.0031995566096156836, -0.0027186223305761814, 0.026494748890399933, 0.0018865023739635944, -0.049346525222063065, -0.0023942203260958195, -0.0046758330427110195, 0.011907058767974377, -0.0015052203088998795, 0.00822837557643652, -0.001371095422655344, 0.0020535693038254976, -0.004229752812534571, -0.0003218409256078303, -0.004507224541157484], [-0.19494259357452393, 0.0010008064564317465, -0.03406282886862755, -0.0006756188813596964, -0.06929297745227814, -0.013452388346195221, -0.07800622284412384, 0.003839283948764205, 0.0077491882257163525, 0.014893772080540657, -0.04072749614715576, 0.020946841686964035, -0.008969070389866829, -0.1380392611026764, -0.10650018602609634, -0.051598574966192245, 0.011205239221453667, -0.048186469823122025, -0.01616179198026657, 0.06023252010345459, 0.02858053706586361, 0.05499124154448509, -0.01227960828691721, -0.026608183979988098, -0.07353232055902481, -0.005797451827675104, 0.03935103863477707, -0.010371830314397812, 0.004130024462938309, -0.007748001255095005, -0.008746781386435032, -0.014208244159817696], [0.059946466237306595, 0.00010435238073114306, -0.028991643339395523, 0.0003613573790062219, 0.0074300989508628845, 0.00010947387636406347, -0.00024287629639729857, 3.9283720980165526e-05, 0.0003099809109698981, 0.0010823406046256423, 0.0024069545324891806, -0.01982373744249344, -0.00047782663023099303, 0.010823405347764492, 0.0291882436722517, -0.0016177113866433501, -7.556256605312228e-05, -2.775202301563695e-05, -0.0006758846575394273, 0.004799347836524248, -0.0002540565328672528, -0.019596459344029427, -3.5010896681342274e-05, -0.0019492938881739974, -0.00047607108717784286, -0.00011821272346423939, 0.00017638997815083712, -4.3640233343467116e-05, -0.0019801734015345573, -0.00021999824093654752, -4.686319152824581e-05, -0.0006396067910827696], [0.10592887550592422, -0.00021736021153628826, -0.05033904314041138, 0.0005309906555339694, 0.030258294194936752, 0.0015295656630769372, 0.04428420215845108, 0.0046383775770664215, 0.001072723069228232, 0.002665403299033642, 0.002216594060882926, -0.10930733382701874, 0.0007986829150468111, 0.04184484854340553, 0.032367412000894547, -0.028251849114894867, 0.0016811862587928772, -0.01358669064939022, -0.0009303793776780367, 0.010762043297290802, 0.0010317331179976463, -0.0117571409791708, -0.0005099623813293874, 0.0030893217772245407, -0.02164774015545845, 0.0010298833949491382, -0.06776754558086395, -0.0021007643081247807, -0.0017694135894998908, -0.00552596990019083, 0.010048944503068924, -0.0003389500197954476], [0.4223554730415344, 0.021423792466521263, -0.19075661897659302, -0.028074515983462334, 0.010368228890001774, 0.007440110202878714, 0.17024032771587372, 0.006019314285367727, 0.009801600128412247, -0.009629396721720695, -0.3184230923652649, -0.22584669291973114, -0.028960229828953743, 0.04117268696427345, 0.6959531307220459, 0.027729736641049385, -0.0019061879720538855, -0.010768184438347816, 0.002832797821611166, -0.276242733001709, 0.018633151426911354, -0.1384977251291275, -0.0059980545192956924, -0.08238344639539719, 0.21698221564292908, 0.013533145189285278, 0.19728891551494598, -0.004297083243727684, 0.06599762290716171, -0.0024806137662380934, -0.023101501166820526, 0.006739309523254633], [0.05126829072833061, 8.762770448811352e-05, -0.02734084613621235, 0.00011608185741351917, 0.009257351979613304, -0.00014198035933077335, 0.000345097912941128, -4.8089052143041044e-05, -0.00013971253065392375, -0.000485156720969826, 0.0016670783516019583, -0.01529933512210846, 4.3659099901560694e-05, 0.006704474333673716, 0.024340111762285233, 0.00011249438102822751, -0.00014639701112173498, 0.00025224548880942166, -0.0008070020703598857, 0.006112910807132721, 7.92693390394561e-05, -0.01875254698097706, 2.5679448299342766e-05, -0.0003634831227827817, -0.0009197769686579704, 0.00012694334145635366, -1.997549225052353e-05, 0.00011567037290660664, -0.0018936126725748181, 0.00017104446305893362, -0.0010219445684924722, -0.00032631822978146374], [0.3422320485115051, -0.0026284721679985523, -0.2077270895242691, 0.013161453418433666, 0.08874691277742386, 0.0418090783059597, 0.4281875491142273, 0.003107792232185602, -0.008700305595993996, -0.04592430591583252, -0.2489955574274063, 0.01031345035880804, 0.022342868149280548, 0.22471046447753906, -0.07801222056150436, 0.3598752021789551, -0.030527209863066673, -0.06533505767583847, 0.025023294612765312, -0.05107277259230614, -0.04525986313819885, -0.03304945304989815, 0.04204466566443443, 0.041491784155368805, -0.004059504717588425, 0.004881052300333977, -0.545831561088562, 0.03615786135196686, -0.43803712725639343, 0.025397121906280518, -0.02803400158882141, 0.03923872485756874], [0.050987791270017624, -6.28491397947073e-05, -0.02623278833925724, 0.00038305314956232905, 0.003962630406022072, -0.00011356592585798353, -0.0002777701593004167, 0.00012079257430741563, 0.00041384994983673096, -3.0728348065167665e-05, 0.001232604030519724, -0.014565209858119488, 0.00017173454398289323, 0.004892938304692507, 0.020991716533899307, -0.0011018476216122508, -6.735843271599151e-06, -0.0009918063879013062, -0.00048398124636150897, 0.005265113897621632, 0.0003487250651232898, -0.013373703695833683, -1.853555477282498e-05, -0.0021092623937875032, -0.0005514416843652725, 2.2895441361470148e-05, 0.0017717870650812984, 1.7399133867002092e-06, -0.000992791261523962, -0.0008800161886028945, 0.0005224454216659069, -0.00021312676835805178], [0.23750393092632294, 0.01170335989445448, -0.1625813990831375, -0.014306639321148396, 0.46274641156196594, -0.005776698235422373, 0.21021515130996704, 0.021285902708768845, 0.028295550495386124, -0.03301941603422165, 0.10599517822265625, 0.005441875196993351, -0.018102215602993965, -0.21253451704978943, 0.37142816185951233, -0.41691040992736816, 0.02622774988412857, -0.07571819424629211, 0.009480061940848827, 0.45587360858917236, -0.052635401487350464, -0.1748911440372467, -0.005233190022408962, 0.014982928521931171, -0.1584518700838089, -0.006109743379056454, 0.18466854095458984, -0.02341982163488865, -0.2760046422481537, 0.07336476445198059, 0.06812185794115067, 0.02722044475376606], [0.12493033707141876, 0.0005861591780558228, -0.07758297771215439, -0.0008351330761797726, 0.018477750942111015, 0.0008495290530845523, 0.006445573642849922, -9.555011638440192e-05, 0.0009939565788954496, -0.0016779890283942223, 0.009765451774001122, -0.046738751232624054, -0.0003202218795195222, 0.026845861226320267, 0.0564480759203434, -0.007590361870825291, 0.002168102655559778, -0.00035006809048354626, -0.00042832549661397934, 0.01374287623912096, 0.00312027707695961, -0.052544012665748596, -0.001130111631937325, -0.006232790648937225, 0.0073698582127690315, -0.0005341644864529371, 0.006907431874424219, -0.0009883490856736898, 0.00829982291907072, 0.0011782293440774083, -0.011939307674765587, -0.0013067787513136864], [0.5398259162902832, 0.01936597377061844, -0.38207003474235535, -0.008398870006203651, 0.29289621114730835, -0.0037152348086237907, 0.01276825089007616, 0.020493250340223312, 0.02904560975730419, -0.02164153940975666, 0.2026766836643219, 0.03039979375898838, -0.007879984565079212, 0.06077483296394348, 0.2760608494281769, 0.15948958694934845, -0.006008768454194069, 0.0787983387708664, 0.01731889322400093, 0.525341808795929, 0.01594918966293335, -0.19628962874412537, -0.004613619297742844, 0.01869504153728485, 0.06423473358154297, 0.008329000324010849, -0.029035121202468872, -0.009077453054487705, 0.17250539362430573, -0.052134498953819275, 0.1737767606973648, 0.02683781087398529], [0.0800386592745781, -0.0004077779594808817, -0.05486534535884857, 0.0011218823492527008, 0.02398669719696045, -0.0029449239373207092, -0.012288132682442665, 0.000390287721529603, 0.00037526030791923404, 0.004370096139609814, 0.02001524716615677, -0.027907012030482292, 0.0003898124268744141, 0.0065256282687187195, 0.030501583591103554, 0.006215131375938654, 0.0012455674586817622, 0.0003654523752629757, -0.0027422229759395123, 0.018754450604319572, 0.0009867902845144272, -0.044738639146089554, -0.00017687442596070468, 0.0002890682080760598, -0.0014617489650845528, -0.0015948130749166012, 0.0011394420871511102, -0.0012805969454348087, 0.0060457829385995865, -9.902325109578669e-05, 0.001064725685864687, -0.0014859039802104235], [-0.4174119234085083, 0.00683131068944931, 0.07565134763717651, -0.01535120140761137, -0.02609814517199993, -0.015613216906785965, -0.42657244205474854, 0.01371296588331461, 0.02419201284646988, 0.03338392451405525, -0.290274053812027, 0.3081321716308594, -0.01595156639814377, -0.08465664088726044, -0.4732244312763214, 0.15362893044948578, 0.014745095744729042, 0.003945633303374052, -0.01929878443479538, -0.13934995234012604, 0.02494954876601696, 0.08836017549037933, -0.018538206815719604, -0.05644732713699341, -0.1837528496980667, -0.008090270683169365, 0.029765835031867027, -0.01673365943133831, -0.015084097161889076, 0.011454051360487938, -0.023073427379131317, -0.029405489563941956], [0.027981987223029137, -0.000341691542416811, -0.011559725739061832, -0.0004120705707464367, 0.004808162339031696, -0.00047221838030964136, -0.002555814804509282, -0.00013721200230065733, -0.00023520409013144672, -0.0007335877744480968, 0.0044828844256699085, -0.002829594537615776, 0.00014963500143494457, -0.0027642978820949793, 0.004228199832141399, 0.0011528690811246634, 0.0002442520926706493, 0.001370500074699521, -0.00042339478386566043, 0.008085119538009167, -1.7004938854370266e-05, -0.0006286300485953689, -8.602776506450027e-05, 0.000677764939609915, -0.0019162908429279923, 0.0001960073714144528, 0.0012599872425198555, 0.00011418727808631957, 0.0005732448771595955, -9.872241935227066e-05, -4.9083981139119714e-05, -0.00014764034131076187], [-0.9764882922172546, -0.010221384465694427, 0.405599445104599, 0.04114425927400589, -0.34954410791397095, 0.00845553632825613, 0.09702518582344055, -0.017267191782593727, -0.03044917806982994, -0.006044465582817793, -0.0007336250855587423, 0.16176800429821014, 0.03273465111851692, -1.3200360536575317, -0.210818812251091, 0.006594397593289614, -0.015230492688715458, -0.32407334446907043, -0.012318672612309456, -0.47462794184684753, -0.02879278175532818, 0.26916247606277466, 0.013804043643176556, -0.001357611850835383, 0.26137641072273254, -0.011404438875615597, -0.1781875044107437, 0.014584225602447987, 0.02773422561585903, -0.0018007091712206602, 0.37695226073265076, 0.002827111165970564], [0.05123573914170265, 0.00012762160622514784, -0.013249416835606098, -0.0009062921162694693, 0.000666533422190696, 0.0005344400415197015, -0.003940298687666655, -1.3838696759194136e-05, 0.0003052912652492523, 0.00018732494208961725, 0.004064660519361496, -0.00103673804551363, -0.0010100866202265024, -0.006700193975120783, 0.009432470425963402, -0.0019225511932745576, -0.0004320463049225509, 0.001467795460484922, 0.0006836415268480778, 0.0012560510076582432, 0.0006071211537346244, 0.00018980284221470356, 0.00042821886017918587, 0.0006172300199978054, -0.0014469565358012915, -8.302891365019605e-05, 0.0020577837713062763, 0.0002926763263531029, 0.003277450567111373, 0.0005188989453017712, -0.0012729524169117212, 0.00011807138071162626], [-0.29612815380096436, 0.018005533143877983, 0.08160640299320221, -0.011729266494512558, -0.18723678588867188, 0.004873727448284626, -0.24403658509254456, 0.014468643814325333, 0.012304154224693775, -0.004598863888531923, -0.08993708342313766, 0.15411266684532166, 0.00854369904845953, -0.005977165419608355, -0.027569102123379707, 0.29631710052490234, 0.011539258062839508, -0.12003377079963684, 0.005439619533717632, -0.13277310132980347, -0.019495423883199692, 0.12629708647727966, 0.011082641780376434, -0.052471280097961426, 0.03764159232378006, -0.009400456212460995, -0.041220273822546005, 0.014005018398165703, -0.16461744904518127, 0.038898367434740067, 0.12067538499832153, 0.0037539652548730373], [0.038620539009571075, -0.00032123873825185, -0.02221912331879139, 0.0006055381963960826, 0.011973914690315723, 0.0002698711468838155, -0.007262732833623886, 7.072139851516113e-05, 0.0001284281606785953, 0.0020403601229190826, 0.0060348198749125, -0.015087531879544258, 0.00030400563264265656, 0.004433418158441782, 0.015819024294614792, 0.0044694142416119576, -0.0002095920208375901, -0.003338756039738655, -0.0011585616739466786, 0.00852535292506218, 0.0014133843360468745, -0.022086452692747116, -0.00037064027856104076, -0.0018904001917690039, -0.0017976199742406607, -0.0002640302409417927, -0.000558061117772013, -0.00013416809088084847, -0.0011033476330339909, -0.0006025397451594472, 0.0023064911365509033, -7.522976375184953e-05], [-0.2495299130678177, 0.02158699370920658, 0.2969900965690613, -0.026586901396512985, 0.00561360502615571, -0.0063425288535654545, 0.5787820219993591, 0.015722857788205147, 0.03841976076364517, -0.0205104760825634, -0.15565460920333862, -0.32838645577430725, -0.033236801624298096, -0.13420291244983673, 0.14040343463420868, -0.505265474319458, 0.016572866588830948, 0.06637751311063766, 0.013439556583762169, -0.6077804565429688, -0.01574762910604477, 0.15631619095802307, -0.005929315462708473, 0.1176513284444809, 0.1025441363453865, -0.007844356819987297, -0.07381729036569595, -0.022629646584391594, -0.23048622906208038, 0.03708665445446968, -0.06556185334920883, 0.015342663042247295], [0.04212908074259758, -0.0002523218863643706, -0.010727227665483952, 7.143889524741098e-05, -0.0013107022969052196, 2.270490222144872e-05, -0.0006235567852854729, 5.784246968687512e-05, -0.0003309458843432367, -0.00020218205463606864, 0.0011394815519452095, -0.0013267822796478868, -0.00014714097778778523, 0.008358560502529144, 0.018922625109553337, -0.00038094542105682194, -4.527792407316156e-05, 0.00012194860755698755, -0.00021672010188922286, -0.00040613795863464475, -0.00044670578790828586, -0.0014982264256104827, -0.0004065415414515883, -0.0006256155320443213, 0.0009494973346590996, 0.0003132674901280552, 0.0008091432973742485, 6.204706733115017e-05, -0.0022344456519931555, -0.000133047069539316, -0.0010579589288681746, -0.00011154049570905045], [0.042314160615205765, -2.5732253561727703e-05, -0.009333331137895584, -1.386544681736268e-06, 0.0009608852560631931, 0.0001629142789170146, -0.002478149952366948, 0.00029785471269860864, 0.001045801443979144, 4.9740265239961445e-05, 0.001867659855633974, 0.0013699789997190237, -7.116325286915526e-05, -0.002733483910560608, 0.008734170347452164, -0.0014381792861968279, 0.00015432531654369086, 0.0015377361560240388, -7.571790047222748e-05, 0.00100595538970083, 0.00038086713175289333, 0.0026162932626903057, 0.00013146412675268948, -0.0008999459678307176, -0.0007761696469970047, -0.00022951663413550705, -0.0012636756291612983, 0.00014491383626591414, -0.0010557810310274363, -0.0010716094402596354, 0.002073060953989625, 0.00011523212015163153], [0.09174835681915283, 0.0011664631310850382, -0.05395403876900673, -0.0006412588991224766, 0.01859707199037075, -0.0013798254076391459, -0.008244878612458706, 7.828052912373096e-05, 0.0003763576387427747, 0.0015828883042559028, 0.01579642854630947, -0.03316066786646843, 0.00023406423861160874, 0.010893008671700954, 0.03622234985232353, 0.0014100299449637532, 0.0018420715350657701, 0.00017152432701550424, 0.0007216308731585741, 0.018265701830387115, -0.0017011378658935428, -0.05256107077002525, -7.086407276801765e-05, 0.0010591901373118162, -0.004053508397191763, -0.0001613604836165905, 0.0015541922766715288, 6.048448267392814e-05, 0.008941044099628925, -0.000559365376830101, -0.004773396532982588, -0.0014940999681130052], [-0.24588847160339355, 0.015735609456896782, 0.3089836835861206, -0.03281646966934204, -0.45176202058792114, 0.02133891172707081, 0.15746213495731354, -0.002210427774116397, 0.015227770432829857, -0.018851036205887794, 0.16882659494876862, -0.19037890434265137, -0.02609381265938282, -0.21645241975784302, 0.2659119665622711, 0.15131966769695282, -0.016389623284339905, -0.2238130122423172, 0.016048965975642204, 0.09304815530776978, 0.0252652820199728, 0.30585870146751404, 0.002517967950552702, -0.0511934794485569, 0.12034215033054352, 0.02268688939511776, 0.3081722855567932, 0.006966044194996357, -0.22520296275615692, -0.027018820866942406, 0.3202028274536133, 0.015263998880982399], [-0.5143905282020569, 0.0015369749162346125, 0.7255268692970276, 0.02913406305015087, -0.20615363121032715, 0.016857175156474113, -0.13638128340244293, 0.001336546614766121, -0.01875441148877144, -0.010517144575715065, -0.08870925009250641, 0.03095301054418087, 0.028383955359458923, -0.28417107462882996, -0.14666055142879486, 0.2631593346595764, -0.035442981868982315, 0.2564169466495514, 0.03764230012893677, 0.1268857717514038, -0.025292780250310898, 0.22729326784610748, 0.015133350156247616, 0.03174997493624687, 0.0641273558139801, -0.023677438497543335, 0.1844194382429123, 0.024296196177601814, 0.024435611441731453, -0.009157687425613403, -0.26473695039749146, 0.011238472536206245], [0.05113336443901062, 0.00013334114919416606, -0.022386182099580765, -0.0009476852137595415, 0.0005571726942434907, -3.738815212273039e-05, -0.0013118414208292961, -0.000441551033873111, 0.0006758230156265199, -0.000502651440910995, 0.005091459956020117, 0.0001935056789079681, -0.00021030021889600903, -0.00010556340566836298, 0.018500156700611115, -0.0019145443802699447, 1.3056594980298541e-05, 0.002566439565271139, 0.00012900459114462137, -0.0019274591468274593, -0.0010298052802681923, 0.0017315575387328863, -0.0005432208417914808, -0.0004203174903523177, -0.0013707145117223263, 5.906418664380908e-05, -0.0001276060938835144, 0.00024360201496165246, -0.003414872568100691, -0.0006984338979236782, -0.0031653805635869503, -7.877605821704492e-05], [-0.43609195947647095, 0.025774717330932617, -0.5169411897659302, -0.040768250823020935, 0.001627719379030168, 0.011091252788901329, -0.06377177685499191, 0.014699888415634632, 0.02674892731010914, -0.0025648456066846848, 0.12095139920711517, 0.3791635036468506, -0.028607366606593132, -0.5101673007011414, -0.4552558362483978, 0.2297249138355255, 0.008829977363348007, 0.04425296187400818, 0.01523963175714016, 0.5474799275398254, 0.009507372975349426, -0.11419478803873062, -0.021255385130643845, -0.1019010841846466, -0.07657945901155472, 0.03672666847705841, 0.49190041422843933, -0.012649067677557468, -0.053754422813653946, 0.0073855724185705185, -0.026898590847849846, 0.00617824774235487], [-0.6459723114967346, 0.02108597569167614, 0.48907455801963806, -0.014858606271445751, -0.223490908741951, 0.0037869857624173164, 0.604140043258667, 0.013561058789491653, 0.028163747861981392, -0.008370962925255299, 0.18541398644447327, 0.29951199889183044, -0.008992504328489304, -0.19020704925060272, 0.05509834736585617, -0.013349399901926517, -0.008158345706760883, 0.11254163086414337, 0.02152230031788349, -0.33693727850914, 0.003842492587864399, 0.4318515360355377, 0.01744355447590351, 0.0033681821078062057, 0.3793204128742218, -0.008239977061748505, -0.15328837931156158, 0.010108298622071743, 0.041939083486795425, 0.0010420032776892185, -0.07094036787748337, 0.011255240067839622], [-0.4578962028026581, -0.023487137630581856, 0.611903965473175, 0.012301022186875343, -0.15545597672462463, -0.002039644867181778, -0.1909121572971344, -0.024544116109609604, -0.010639237239956856, 0.020797070115804672, -0.24262195825576782, 0.12430299818515778, 0.01086422335356474, 0.21016748249530792, -0.3019198179244995, -0.07691383361816406, -0.00490694772452116, 0.23366154730319977, -0.022008800879120827, 0.18476378917694092, 0.01688012108206749, 0.6176216006278992, 0.0036072523798793554, -0.027489665895700455, 0.3958892524242401, -0.003937292844057083, 0.07707532495260239, 0.007953003980219364, -0.1671769767999649, -0.03253675997257233, -0.0073861852288246155, -0.012957110069692135], [0.029745304957032204, -3.345633012941107e-05, -0.0115487240254879, 0.00020234641851857305, 0.006446987856179476, 0.00013310530630405992, -0.003569765714928508, 7.866178202675655e-05, -6.338024832075462e-06, 0.00038999051321297884, 0.002985164290294051, -0.006710215471684933, 0.00016363913891837, 0.005807341076433659, 0.014068991877138615, 0.0013596058124676347, -3.585230660974048e-05, -0.0011816988699138165, -0.0001255483803106472, 0.0025178533978760242, 0.0002431302855256945, -0.009411867707967758, 2.8983500669710338e-05, -0.0004127550346311182, -0.0015251297736540437, 9.84121288638562e-05, -0.001002109725959599, 5.7938857935369015e-05, -0.002657311037182808, 0.00029076135251671076, 0.0018397833919152617, 5.6231128837680444e-05], [-0.4778476655483246, 0.021137608215212822, -0.8065324425697327, -0.01932561583817005, 0.039132218807935715, -0.006308332085609436, -0.04347829893231392, 0.015902670100331306, 0.01852198876440525, 0.01924501173198223, -0.06690749526023865, 0.14581453800201416, -0.005566361825913191, -0.6157082319259644, -0.32933226227760315, 0.013040607795119286, -0.017454450950026512, -0.28799983859062195, 0.020855190232396126, 0.26220864057540894, 0.030413543805480003, -0.06900985538959503, -0.007611989043653011, -0.006766590755432844, -0.017937440425157547, 0.008368325419723988, -0.11721837520599365, -0.004573830869048834, -0.03113100677728653, -0.07716552168130875, 0.13157737255096436, -0.003958231303840876], [0.055273573845624924, 0.0005718525499105453, -0.028128109872341156, -0.0002070967311738059, 0.0038520009256899357, -0.0008012923062779009, -0.004107508342713118, 0.0002830713347066194, -0.00022128467389848083, -0.0007604614947922528, 0.00145629420876503, -0.018233727663755417, 0.0003230497823096812, 0.003270411165431142, 0.023479590192437172, -0.0006560974288731813, 0.0001315137924393639, 0.0037789843045175076, -0.0012095560086891055, 0.00644264230504632, 0.0005639191367663443, -0.01942535862326622, -0.00013679763651452959, 0.0019668450113385916, 0.0033661567140370607, 0.00032369905966334045, 0.004884981084614992, -4.7870344133116305e-05, 0.0059198057278990746, 0.0009523669141344726, -0.002024964429438114, -0.0004262015863787383], [-0.9114604592323303, 0.001474031014367938, 0.9158929586410522, 0.015171489678323269, -0.6379891037940979, -0.003456185106188059, 0.07167000323534012, 0.019143564626574516, 0.0041987840086221695, 0.004668992478400469, -0.4861862063407898, 0.7114462852478027, 0.011112060397863388, -0.7429527640342712, -0.6719903349876404, -0.1764356791973114, -0.004215881694108248, 0.5902313590049744, -0.01560540497303009, -0.5336226224899292, -0.004102025646716356, 0.3627457916736603, 0.0030333111062645912, -0.04568655416369438, -0.05781819298863411, -0.013840747997164726, 0.29658862948417664, -0.002238320419564843, 0.25925132632255554, -0.0071708038449287415, 0.16434022784233093, -0.0014558187685906887], [0.10393773764371872, 0.00014235521666705608, -0.06762895733118057, -0.0007401686743833125, 0.006459918804466724, -0.00042782939272001386, 0.003924957010895014, -5.848122964380309e-05, -2.8298236429691315e-06, 6.818852853029966e-05, 0.006294553633779287, -0.028389906510710716, 0.0011564751621335745, 0.0084376847371459, 0.031416088342666626, -0.005275676026940346, -0.00036318376078270376, 0.003317872993648052, -0.0017109293257817626, 0.013434215448796749, 0.0007067311671562493, -0.02604258432984352, -0.0009083078475669026, 0.00013618986122310162, 0.007456490769982338, 0.000823197653517127, 0.006103364285081625, -0.001714652986265719, 0.0030739549547433853, -0.0020206270273774862, -0.0003844631719402969, -0.0030667572282254696], [-0.2008737027645111, 0.004114687908440828, 0.37457752227783203, -0.016068238765001297, -0.1288909614086151, -0.009548620320856571, -0.2534853518009186, 0.004294289276003838, 0.016904989257454872, 0.01310687605291605, -0.020928645506501198, -0.0686153918504715, -0.013226808980107307, 0.023779865354299545, 0.16417481005191803, -0.004655977711081505, 0.010931041091680527, -0.14877614378929138, -0.024010824039578438, -0.0834539458155632, 0.02891073189675808, -0.04950006678700447, -0.00790310651063919, -0.04376547038555145, -0.12650278210639954, -0.011017771437764168, -0.007431693375110626, -0.002927925670519471, 0.0032686907798051834, 0.000939084799028933, 0.01470537856221199, -0.014284410513937473], [0.047256238758563995, 0.0001763533364282921, -0.02001067064702511, 3.472586831776425e-05, 0.0026085670106112957, 6.269120058277622e-05, 0.00016932038124650717, 0.0001396197621943429, 0.00011380683281458914, 0.000771382765378803, 0.0015628909459337592, -0.010245207697153091, 0.00019071958377026021, 0.007031567860394716, 0.020621005445718765, -0.001215869328007102, -2.2183059627423063e-05, -0.000860820000525564, -0.000534470658749342, 0.0018615485168993473, 0.00023589968623127788, -0.010376755148172379, -2.600607149361167e-05, -0.0013652632478624582, -0.00020101189147680998, -2.2964128220337443e-05, 0.0006437809206545353, -0.0006476413691416383, -0.0011722765630111098, -0.0010188843589276075, -3.275764538557269e-05, -0.000663121638353914], [0.0019236369989812374, 0.0007867964450269938, 0.029841430485248566, 0.00018042582087218761, -0.013141369447112083, 0.004454595502465963, 0.032669831067323685, 0.0055039916187524796, 0.0020237332209944725, -0.004552587866783142, -0.019131500273942947, -0.08220124244689941, 0.0002520535490475595, 0.04817723482847214, -0.029889941215515137, -0.03572263568639755, 0.0019374818075448275, -0.0006057340651750565, 6.731483153998852e-05, -0.004322008229792118, 0.00043962267227470875, 0.04643922299146652, 0.00031246308935806155, 0.0026086207944899797, -0.02740904875099659, 0.0019040993647649884, -0.05668485164642334, -0.0015751956962049007, 0.012256504036486149, -0.0023438697680830956, 0.0023864605464041233, 0.0056501999497413635], [0.011725160293281078, 0.017097940668463707, 0.3223469853401184, -0.020299695432186127, -0.14218337833881378, 0.001831448171287775, 0.18500977754592896, 0.0065335058607161045, 0.0076164379715919495, -0.006682970095425844, -0.2500714361667633, 0.06925534456968307, -0.02334706112742424, 0.0720464214682579, 0.9234595894813538, 0.06082126870751381, 0.001776878722012043, 0.005099055357277393, -0.00020747334929183125, -0.5969624519348145, 0.011261537671089172, -0.024078164249658585, -0.0028800982981920242, -0.0719439759850502, 0.41569849848747253, 0.008384501561522484, 0.18387645483016968, -0.003479914041236043, 0.1145477220416069, 0.004396914038807154, -0.08557787537574768, 0.002808110322803259], [0.04106995835900307, 7.912352157291025e-05, -0.021963007748126984, 0.00017212331295013428, 0.0068252114579081535, 3.867299892590381e-05, 7.617181836394593e-05, -3.6925961467204615e-05, -2.2188585717231035e-05, -0.0003957428561989218, 0.0015114136040210724, -0.012029707431793213, -5.101758142700419e-05, 0.005046321544796228, 0.019377131015062332, -5.665915523422882e-05, -0.00012237591727171093, 0.0004957372439093888, -0.0006265118718147278, 0.004985051229596138, 1.4082848792895675e-05, -0.014545527286827564, 3.208866837667301e-05, -0.00022670731414109468, -0.0008402481325902045, 8.904374408302829e-05, 0.0001264378079213202, 9.188917465507984e-05, -0.001502542058005929, 0.0001762643805705011, -0.0008824323886074126, -0.00012381710985209793], [-0.36721497774124146, 0.006652705371379852, 0.10393206775188446, -0.017176024615764618, -0.020522532984614372, 0.037114113569259644, -0.024131927639245987, -0.013644879683852196, 0.0034508202224969864, -0.047948092222213745, -0.542159914970398, 0.1240299642086029, -0.016996540129184723, 0.175681933760643, -0.6305543780326843, 0.1290316879749298, -0.018177703022956848, 0.11262518167495728, 0.009151936508715153, -0.14059214293956757, 0.007627144921571016, -0.19007235765457153, 0.012461662292480469, -0.06218918785452843, -0.026381853967905045, 0.030028317123651505, -0.1895751655101776, 0.013777769170701504, -0.3611922562122345, -0.0026090724859386683, -0.04900078848004341, 0.03943568095564842], [0.038195040076971054, 1.629246980883181e-05, -0.020849080756306648, 0.00025489856489002705, 0.00232444959692657, -1.7177782865474e-05, -0.0002425345592200756, 9.663528180681169e-05, -8.54295794852078e-05, -1.3225040675024502e-05, 0.0012103546177968383, -0.010028930380940437, 0.0001093643659260124, 0.003295233706012368, 0.01651711016893387, -0.0008384339744225144, -3.673261744552292e-06, -0.0007858594763092697, -0.00032522642868570983, 0.004298097919672728, 0.0002671916736289859, -0.009532821364700794, -1.4562812793883495e-05, -0.0017304299399256706, -0.000514375336933881, 1.6134879842866212e-05, 0.0017260658787563443, -4.331106083554914e-06, -0.0007435213192366064, -0.0005038614035584033, 0.0004651387862395495, -1.1648833606159315e-05], [-0.36051228642463684, -0.003209406975656748, 0.3327658176422119, 0.018907122313976288, 0.2690337002277374, -0.006732507608830929, 0.04077477380633354, 0.020965155214071274, 0.012872674502432346, -0.024969246238470078, -0.0035244186874479055, 0.5022563338279724, 0.015653111040592194, 0.07484323531389236, 0.09094464778900146, -0.18397603929042816, 0.024481208994984627, -0.025795839726924896, -0.006797578185796738, 0.2767542898654938, -0.055401597172021866, 0.13939066231250763, 0.006563272327184677, -0.038727447390556335, -0.09253362566232681, -0.024357154965400696, 0.4865461587905884, -0.0036791779566556215, -0.44968122243881226, 0.06253675371408463, -0.12738466262817383, 0.022988704964518547], [0.10004384815692902, -0.00027379667153581977, -0.05519586428999901, -1.0314397513866425e-05, -0.004158686846494675, 0.0007551371236331761, 0.006437715608626604, 0.0007296778494492173, -0.001545499311760068, 0.0037689285818487406, 0.002912867348641157, -0.02302955463528633, -0.00031634338665753603, 0.01425437442958355, 0.03690384328365326, -0.01302464958280325, 0.0015130277024582028, -0.010551518760621548, -0.0001532391324872151, -0.0013911148998886347, 0.00476376386359334, -0.026778215542435646, 0.00019946105021517724, -0.008614960126578808, 0.005707765929400921, -0.0008343723602592945, 0.007547313347458839, -0.0002766026882454753, 0.0058858077973127365, 0.005411015823483467, -0.006022593472152948, -0.0006561972550116479], [0.031101560220122337, 0.019731275737285614, -0.20549622178077698, -0.017673654481768608, 0.17686961591243744, -0.0009118648013100028, -0.04268582537770271, 0.020705237984657288, 0.027733590453863144, -0.029159946367144585, 0.19408291578292847, 0.18645459413528442, -0.013646400533616543, -0.11578413099050522, 0.03411728888750076, 0.13097132742404938, -0.005417923908680677, 0.06399567425251007, 0.02135695517063141, 0.4889812171459198, 0.01130244042724371, -0.06515206396579742, -0.00539380544796586, 0.009917104616761208, 0.02702237479388714, 0.017020784318447113, -0.008345459587872028, -0.008071629330515862, 0.2003827691078186, -0.04263917729258537, 0.2345065474510193, 0.031130028888583183], [0.06590349972248077, -0.00043759209802374244, -0.046291809529066086, 0.0008495698566548526, 0.014028474688529968, -0.00163310207426548, -0.01211038138717413, 0.0002563903690315783, 0.00029434883617796004, 0.003402793314307928, 0.015073992311954498, -0.021327832713723183, 0.00040701101534068584, 0.003343300661072135, 0.024577490985393524, 0.00025122996885329485, 0.00045690438128076494, 0.0024888308253139257, -0.002229440025985241, 0.013653859496116638, -7.71363265812397e-05, -0.03658613562583923, 0.00022771564545109868, 0.000645246880594641, -0.0007930696592666209, -0.0013473608996719122, 0.0028177262283861637, -0.0008590543293394148, 0.007132168859243393, -0.00022817408898845315, -0.002247139113023877, -0.0002587716735433787], [0.6508470773696899, 0.01754695177078247, -0.43681347370147705, 0.006328468676656485, 0.038353290408849716, 0.011260796338319778, 0.0067929839715361595, 0.008260924369096756, 0.006853652186691761, -0.010409992188215256, -0.01375315897166729, -0.45866307616233826, 0.01037620473653078, 0.24244506657123566, 0.2964646518230438, 0.05153941735625267, -0.014632084406912327, 0.12902918457984924, 0.0029914220795035362, 0.15871532261371613, -0.012372191995382309, -0.25288012623786926, 0.017773162573575974, 0.08581306040287018, -0.010099628940224648, -0.028345927596092224, 0.12988470494747162, 0.011868078261613846, -0.08535970002412796, -0.02009839192032814, 0.10542306303977966, 0.019635988399386406], [0.007332568988204002, -0.03210286796092987, 0.0041460031643509865, 0.017246926203370094, -0.007020734250545502, -0.010412245988845825, -0.01713583990931511, -0.02044643461704254, -0.01873120106756687, 0.0193478986620903, -0.008808162994682789, 0.0023511697072535753, 0.008388259448111057, 0.0047609941102564335, 0.0034977933391928673, 0.0009351067128591239, 0.008579382672905922, 0.0032362272031605244, -0.015180783346295357, 0.0007216315716505051, 0.0010486480314284563, -0.003999719396233559, 0.0013791858218610287, -0.009692894294857979, -0.017347924411296844, -0.007442767266184092, 0.016488056629896164, 0.0034660915844142437, 0.0194349717348814, 0.009144322946667671, -0.011667853221297264, -0.0242437943816185], [-0.030407095327973366, 0.010653069242835045, 0.2870919704437256, 0.0011835743207484484, -0.42048120498657227, 0.011401857249438763, 0.29375556111335754, 0.017912372946739197, 0.004630448762327433, -0.007790443487465382, -0.13962595164775848, -0.3499948978424072, -0.0011382431257516146, 0.08573182672262192, 0.23717577755451202, -0.3373878300189972, -0.008034907281398773, 0.1657133549451828, -0.011715619824826717, -0.650089681148529, 0.01189199648797512, -0.16137056052684784, -0.005692362319678068, -0.1646675020456314, 0.0667218491435051, 0.007830003276467323, 0.3811248242855072, 0.0038537124637514353, 0.028342055156826973, -0.006755246315151453, -0.08007672429084778, 0.01109121274203062], [0.0001491340808570385, 0.019306043162941933, -0.0050324490293860435, -0.0475790910422802, 0.010913007892668247, 0.006597614381462336, 0.018453367054462433, 0.003243244718760252, 0.02671721950173378, -0.013660155236721039, 0.0040326775051653385, 0.010643258690834045, -0.019149906933307648, -0.002442888915538788, 0.0014626036863774061, -0.008893655613064766, -0.0034120825584977865, -0.015041601844131947, 0.011895032599568367, -0.0004424301441758871, -0.00811418704688549, 0.006803462281823158, 0.0006666522822342813, 0.03619927912950516, 0.003011554479598999, 0.00546725420281291, -0.009713415987789631, -0.0027050692588090897, -0.01695846952497959, 0.0022368300706148148, 0.013969143852591515, 0.01194482110440731], [0.045107968151569366, -0.008449461311101913, -0.0694240927696228, 0.007254584692418575, 0.21612998843193054, -0.006712194532155991, 0.41572853922843933, -0.019314369186758995, -0.01906227320432663, 0.012704046443104744, 0.38508009910583496, 0.9534123539924622, -0.00048703327775001526, 0.04037861153483391, 0.018909433856606483, 0.09299161285161972, -0.002319933846592903, 0.3116806447505951, -0.014410370960831642, 0.7013811469078064, 0.013856145553290844, -0.6390115022659302, -0.002524299779906869, 0.0003735495265573263, 0.15358416736125946, -0.011691122315824032, -0.38213464617729187, 0.006576670333743095, -0.10233795642852783, 0.014658498577773571, -0.09410794079303741, -0.01120850071310997], [0.02314949594438076, -0.011165754869580269, -0.006183388642966747, 0.004541936330497265, -0.0014427801361307502, -0.044415183365345, -0.02736731432378292, 0.0016230957116931677, 0.017328903079032898, 0.04350478947162628, -0.01696864701807499, -0.006350331474095583, -0.004484332166612148, 0.010162053629755974, 0.006811255589127541, -0.0037737644743174314, 0.038930218666791916, 0.007326587103307247, -0.03935174643993378, 0.006535250693559647, 0.03305606171488762, 0.009662097319960594, -0.021377481520175934, -0.0074221063405275345, -0.031109578907489777, -0.017934344708919525, 0.0006993227289058268, -0.019439782947301865, -0.009738359600305557, -0.0015817866660654545, -0.019430143758654594, -0.037260446697473526], [-0.32634806632995605, -0.011123382486402988, -0.10579516738653183, 0.010864931158721447, 0.10563339293003082, -0.007202384062111378, 0.5860270857810974, -0.0076821912080049515, -0.0006775749498046935, 0.006659356877207756, 0.31671851873397827, -0.4995206296443939, 0.012190194800496101, -0.2602437138557434, 0.08346478641033173, -0.09755722433328629, 0.016621390357613564, 0.03486476466059685, 0.00991253275424242, -0.2627618610858917, -0.016850225627422333, 0.12204769998788834, -0.004941660910844803, 0.1459462195634842, 0.3664536476135254, -0.01403762400150299, -0.35338786244392395, -0.004412652924656868, -0.4545281231403351, 0.021172160282731056, 0.008599669672548771, -0.006021091714501381], [0.05002103000879288, -0.0033469998743385077, -0.014634789898991585, 0.0038102027028799057, -0.0008957464597187936, -0.0026251692324876785, -0.016934426501393318, -0.04470936954021454, -0.01760321855545044, 0.0024414141662418842, -0.005404307506978512, -0.005338422022759914, -0.003196763340383768, 0.012501819059252739, 0.0025553321465849876, 0.005486761219799519, 0.0007893652655184269, -0.008639801293611526, 0.0025492568966001272, 0.01812729798257351, 0.013678348623216152, -0.010018900968134403, -0.01866418868303299, -0.01701849326491356, -0.010589423589408398, 0.013940447941422462, 0.012960166670382023, -0.008278116583824158, 0.01567387580871582, -0.012040992267429829, -0.0010827603982761502, -0.013749714940786362], [0.00589946610853076, -0.009739778004586697, -0.002897457219660282, 0.014478471130132675, 0.0004762766766361892, 0.0009999070316553116, -0.015132781118154526, -0.01515335775911808, -0.038732390850782394, 0.011564560234546661, 0.00669505400583148, -0.0022767488844692707, 0.010374557226896286, 0.004734917543828487, 0.003741270862519741, -0.000534426886588335, -0.008460775949060917, 0.008124209940433502, 0.00497257336974144, 0.00015809533942956477, 0.005228567402809858, -0.0012194421142339706, 0.0028508321847766638, -0.0302195455878973, -0.017504429444670677, 0.0035074122715741396, 0.0010697554098442197, 0.005357685498893261, 0.012070680968463421, -0.02357856184244156, 0.012426846660673618, -0.011249195784330368], [-0.007201883476227522, 0.020746823400259018, -0.016263645142316818, -0.019322795793414116, 0.013892795890569687, 0.05873475968837738, 0.010829310864210129, -0.006029446609318256, -0.009246572852134705, -0.08939754217863083, 0.012715967372059822, -0.009355396963655949, 0.0019576209597289562, -0.015249432995915413, -0.001225270563736558, 0.018222607672214508, -0.03530837222933769, -0.007523225154727697, 0.06517564505338669, 0.0070572588592767715, -0.060118041932582855, -0.021503234282135963, 0.030320191755890846, 0.04076439142227173, 0.037636611610651016, 0.027850085869431496, 0.018092654645442963, 0.026241246610879898, 0.008879551663994789, 0.031749971210956573, 0.011492216028273106, 0.0819844976067543], [0.2799946069717407, -0.021279344335198402, 0.27635595202445984, 0.02097463048994541, 0.30255573987960815, 0.009502078406512737, -0.25865596532821655, -0.0002556773251853883, -0.004608046263456345, -0.003939964808523655, 0.9898630976676941, 0.3060268759727478, 0.002299850806593895, -0.043322984129190445, 0.6321021318435669, 0.11205725371837616, -0.0014817259507253766, 0.19442160427570343, -0.011467470787465572, 0.3684096932411194, -0.0030547818168997765, -0.06854131072759628, 0.0029348470270633698, 0.13717840611934662, -0.005949259269982576, -0.023082731291651726, -0.5797328352928162, -0.0020325041841715574, 0.19715645909309387, 0.009463505819439888, -0.2408524453639984, 0.003707271069288254], [0.05533784255385399, 0.0014650326920673251, 0.2145424336194992, -0.004698589444160461, -0.03807388246059418, 0.0004949652939103544, 0.0020579772535711527, -0.004937542136758566, -0.0020977873355150223, 0.010433788411319256, -0.0776258334517479, 0.19557790458202362, -0.012593574821949005, -0.1010555848479271, 0.23134422302246094, -0.3894301652908325, -0.007934761233627796, 0.11338132619857788, -0.011400684714317322, 1.0494635105133057, 0.03168513625860214, -0.2512279748916626, -0.015031695365905762, -0.08600442111492157, 0.21593332290649414, 0.02034923993051052, 0.1673431247472763, -0.008601347915828228, -0.24062003195285797, -0.03373218700289726, 0.12606805562973022, -0.007426281459629536], [0.0008344223024323583, 0.023503832519054413, -0.011093934066593647, -0.04465692490339279, 0.004602665081620216, -0.00469023734331131, 0.0032532252371311188, 0.012914055027067661, 0.032803501933813095, -0.006457987707108259, 0.007539092563092709, 0.0009641093201935291, -0.06034998968243599, 0.010665219277143478, -0.0019626368302851915, -0.0007237012614496052, 0.004986038897186518, -0.014213994145393372, 0.0067305415868759155, 0.009727605618536472, 0.026012111455202103, 0.013780973851680756, -0.012527970597147942, 0.02697845920920372, -0.0004641521954908967, 0.009899590164422989, -3.101254696957767e-05, -0.023688022047281265, -0.013551775366067886, -0.003978967200964689, 0.02356206625699997, 0.008015465922653675], [0.022009680047631264, -0.00563476700335741, 0.5948423147201538, 0.021580522879958153, 0.06452859193086624, -0.009480271488428116, -0.042538661509752274, 0.009093662723898888, -0.0033121383748948574, 0.018445977941155434, -0.35575976967811584, 0.3093448877334595, 0.02233165130019188, 0.6615062355995178, 0.08765916526317596, -0.2518593370914459, -0.008841232396662235, -0.101168192923069, -0.024073369801044464, -0.5282137393951416, 0.017520757392048836, -0.049732159823179245, 0.014726114459335804, 0.04904671013355255, -0.11816798895597458, -0.04351615905761719, 0.2130337804555893, 0.025516821071505547, -0.10997475683689117, -0.02456554025411606, -0.10745050758123398, -0.01224654819816351], [0.21808962523937225, 0.004454763140529394, 0.29425087571144104, 0.0005680099711753428, -0.37500670552253723, 0.0001353794359602034, 0.2169630378484726, -0.0013725901953876019, -0.0004571506578940898, -0.0009528095833957195, -0.32923179864883423, -0.16582798957824707, -0.007896702736616135, 0.020772211253643036, 0.5470640659332275, -0.29084500670433044, -0.011639143340289593, -0.10294803231954575, 0.006218300200998783, -0.3453788459300995, 0.00167240877635777, 0.036676689982414246, -0.005639336071908474, -0.004982584621757269, 0.04956088587641716, -0.0002829811128322035, -0.002917299512773752, -0.0030322615057229996, 0.0723571628332138, -0.008166046813130379, 0.1287556290626526, 0.004020090214908123], [-0.0016864279750734568, -0.011107384227216244, 0.09132276475429535, 0.015489403158426285, -0.015538141131401062, 0.015342680737376213, -0.1383691132068634, -0.0027126255445182323, -0.014006665907800198, -0.010679595172405243, -0.17106488347053528, 0.3736944794654846, 0.002259827684611082, -0.06887146085500717, 0.09179116040468216, 0.4620155692100525, -0.01759815402328968, -0.16033494472503662, -0.016268309205770493, -0.3223579227924347, 0.007893206551671028, -0.1736505627632141, -0.0015994836576282978, -0.10689594596624374, -0.07971702516078949, 0.012732445262372494, 0.592674195766449, 0.010037839412689209, -0.4035472273826599, 0.001296444097533822, -0.00764694157987833, 0.004919747821986675], [0.0053740618750452995, 0.0030921194702386856, -0.023081477731466293, 0.004162520170211792, 0.009633653797209263, 0.024367285892367363, -0.0007026083767414093, 0.0027362375985831022, -0.012207090854644775, -0.01308805588632822, 0.02073458954691887, -0.013164438307285309, 0.0024276021867990494, 0.02096608281135559, 0.011722382158041, 0.014154285192489624, -0.033297229558229446, 0.0106896897777915, 0.016980687156319618, 0.02057666890323162, 0.0027621418703347445, -0.003755470272153616, 0.013421782292425632, -0.004075906239449978, 0.009213654324412346, 0.006205533631145954, 0.00879974476993084, 0.011725624091923237, 0.004938639234751463, -0.034992773085832596, 0.009142773225903511, 0.019032824784517288], [0.16144083440303802, -0.015201441012322903, 0.6316976547241211, 0.012835239060223103, -0.12121272087097168, -0.005469031166285276, 0.008575644344091415, 0.006913903169333935, 0.003439112566411495, -0.012638427317142487, 0.11981838196516037, -0.10204014182090759, 0.015050983987748623, 0.2578883469104767, -0.27049434185028076, -0.09586746245622635, 0.013969648629426956, 0.2414385825395584, -0.020693382248282433, -0.20719014108181, -0.03754893317818642, 0.17088274657726288, 0.015276467427611351, 0.03301258385181427, -0.08327031135559082, -0.018406251445412636, 0.04773290082812309, 0.00827984418720007, 0.04201874881982803, 0.07517340779304504, -0.09905526787042618, -0.000576837221160531], [-0.05953577905893326, -0.027547240257263184, 0.027840422466397285, 0.012116494588553905, -0.005456663202494383, -0.029640574008226395, -4.352594260126352e-05, -0.014691522344946861, 0.002916829427704215, 0.04347354173660278, 0.0022620675154030323, -0.004766206257045269, 0.00014426496636588126, -0.001204982865601778, -0.006201878190040588, -0.012549523264169693, 0.027679670602083206, -0.001284418161958456, -0.05620575696229935, -0.0008545597665943205, 0.020369458943605423, 0.02128100022673607, -0.014327814802527428, -0.010201097466051579, -0.02484758570790291, -0.022022007033228874, -0.006468485109508038, -0.011454104445874691, 0.005632286425679922, 0.020815929397940636, -0.011941453441977501, -0.04679524526000023], [0.07219292968511581, -0.00046323888818733394, 0.3324802815914154, 0.003018544986844063, -0.07539695501327515, 0.002325101289898157, 0.08557504415512085, -0.002373921684920788, -0.003492190735414624, -0.004424543585628271, -0.019356008619070053, -0.1484142392873764, 0.00021830889454577118, -0.02890606038272381, 0.057526588439941406, -0.18038876354694366, -0.0022845352068543434, 0.04585293307900429, -0.002638221252709627, 0.27111515402793884, -0.004297869745641947, 0.11194887012243271, 0.0004349425435066223, -0.008560152724385262, 0.2601698338985443, 0.0009528356604278088, 0.06489890068769455, 0.0027308426797389984, 0.15086233615875244, 0.005587246268987656, 0.2799977958202362, 0.0028310068883001804], [0.06420065462589264, -0.0022423425689339638, -0.01337283942848444, 0.009946156293153763, -0.0001594888890394941, 0.040094293653964996, -0.006455590948462486, -0.009487968869507313, -0.017976541072130203, -0.06161979213356972, -0.0016622235998511314, 0.0030438860412687063, 0.035181451588869095, 0.003307212144136429, 0.012429995462298393, 0.01589168794453144, -0.01878044381737709, 0.008169561624526978, 0.051391538232564926, -0.0030122948810458183, -0.10583582520484924, -0.03733786568045616, 0.03743007779121399, 0.014209401793777943, 0.025270560756325722, 0.01157802902162075, 0.00921257957816124, 0.03785908967256546, 0.041932519525289536, 0.05276794731616974, -0.005474017467349768, 0.050827182829380035], [-0.1845216006040573, -0.004872316960245371, 0.38858160376548767, 0.022047223523259163, 0.12863968312740326, 0.0025483216159045696, 0.30159953236579895, 0.003910035360604525, 0.0011463931296020746, -0.0030602936167269945, -0.5001142024993896, -0.11305022984743118, 0.022470127791166306, 0.007050351705402136, -0.2453743815422058, 0.34868553280830383, -0.020088808611035347, -0.20620319247245789, 0.006241007708013058, 0.06913989782333374, -0.015387840569019318, 0.056068506091833115, -0.002580244094133377, 0.027265381067991257, -0.0884690210223198, -0.009161523543298244, -0.3999634385108948, -0.0051684146746993065, 0.052464719861745834, -0.023103725165128708, 0.20854952931404114, 0.007559695281088352], [-0.06500015407800674, 0.002311761723831296, 0.012686950154602528, 0.002034462057054043, 0.008996042422950268, -0.02247449941933155, 0.0014845021069049835, -0.005889260210096836, 0.006303813308477402, 0.029999909922480583, -0.007284638471901417, -0.0041284104809165, -0.02314061112701893, 0.007024493999779224, -0.0026442515663802624, -0.0034113433212041855, 0.02299422398209572, -0.010844695381820202, -0.020888814702630043, -0.001444931491278112, 0.0419347882270813, 0.010242550633847713, -0.04800185188651085, -0.011559251695871353, 0.0012198297772556543, 0.006453277077525854, 0.0006371034542098641, -0.042958181351423264, -0.005588308908045292, -0.016054360195994377, -0.003533856710419059, -0.02344474382698536], [-0.32289034128189087, -0.03360799327492714, 0.11525095254182816, 0.05906764790415764, 0.06006436422467232, -0.031458403915166855, 0.16995491087436676, -0.028030015528202057, -0.054401945322752, 0.06418392062187195, 0.14991648495197296, 0.0960860550403595, 0.010576489381492138, -0.026369165629148483, -0.13473525643348694, -0.22272664308547974, 0.007441710215061903, -0.07717759162187576, -0.06148749217391014, -0.13679388165473938, 0.07029963284730911, 0.10630470514297485, -0.03971261531114578, 0.048929955810308456, 0.06868266314268112, -0.016514018177986145, -0.1820453405380249, -0.026190653443336487, 0.06454120576381683, -0.05636589974164963, -0.050328873097896576, -0.04644222557544708], [-0.25798311829566956, 0.012859470210969448, 0.018670862540602684, -0.020882179960608482, -0.009220832027494907, 0.02430906891822815, 0.015819407999515533, 0.0015283687971532345, -0.007236665114760399, -0.001722556771710515, -0.28771504759788513, 0.024527473375201225, -0.017133677378296852, -0.38053807616233826, 0.2982647120952606, 0.11929882317781448, -0.005223596468567848, -0.016171904280781746, -0.018342459574341774, -0.3314133584499359, 0.02871309220790863, -0.1556287705898285, 0.006631798576563597, -0.1153801828622818, 0.4517635405063629, 0.002513124840334058, 0.40322086215019226, 0.008480255492031574, 0.2104947865009308, 0.027324464172124863, -0.19880881905555725, -0.007636543828994036], [0.07201910763978958, -0.011346366256475449, -0.0053762211464345455, 0.014487124979496002, -0.011101135984063148, -0.007653784938156605, -0.0184498094022274, 0.014293870888650417, 0.010468297637999058, 0.015199396759271622, -0.006762864999473095, -0.012195290066301823, 0.02349472977221012, -0.002398835029453039, 0.0018626302480697632, 0.02941313572227955, 0.0069059086963534355, 0.01656055450439453, -0.01958221010863781, 0.02143288403749466, -0.01779695600271225, 0.004148067906498909, 0.03050335682928562, 0.0032060956582427025, -0.0070818690583109856, -0.04643279314041138, 0.02080022543668747, 0.03549444302916527, -0.005496783182024956, 0.031184107065200806, -0.006148314103484154, -0.010220667347311974], [0.10775642842054367, -0.02519967220723629, -0.27516838908195496, 0.011089460924267769, 0.1669626384973526, -0.027954189106822014, 0.08302181959152222, -0.005143509246408939, 0.0034643025137484074, 0.04341692477464676, 0.2844484746456146, 0.18732157349586487, 0.010098773054778576, 0.046806901693344116, 0.12489718943834305, -0.7942318916320801, -0.0017241809982806444, 0.32204437255859375, -0.014317617751657963, -0.17745764553546906, 0.0074724964797496796, 0.03437260538339615, 0.0017440400552004576, 0.207047700881958, -0.18820571899414062, -0.01586069166660309, 0.34005099534988403, -0.0005792534211650491, 0.010872958227992058, -0.03478909656405449, -0.17349612712860107, -0.03820978105068207], [-0.033920299261808395, 0.010560860857367516, 0.0039108432829380035, -0.005956132430583239, -0.0019422117620706558, -0.012615177780389786, 0.004295052960515022, 0.007320436183363199, 0.01865951344370842, 0.004804182332009077, -0.013168730773031712, -0.00013057742035016418, -0.02843860536813736, 0.013823913410305977, -0.00045511857024393976, 0.0018277368508279324, 0.014461537823081017, -0.009519869461655617, -0.007754769641906023, 0.0006529518868774176, 0.026629609987139702, 0.003997803200036287, -0.028641313314437866, -0.0038482302334159613, 0.003865360515192151, 0.01412714272737503, 0.0032629461493343115, -0.04486841708421707, -0.009895102120935917, -0.0029787097591906786, -0.0012177140451967716, -0.006481914781033993], [0.005300947930663824, 0.011967125348746777, -0.005539747886359692, -0.004187197890132666, -0.20145010948181152, 0.001084382412955165, -0.3865637481212616, 0.011705625802278519, 0.012921691872179508, 0.007959968410432339, 0.14080682396888733, -0.43807563185691833, -0.003637871239334345, -0.3175335228443146, -0.0806175246834755, 0.719630241394043, -0.01112101785838604, 0.047366902232170105, 0.004230671562254429, -0.6466447710990906, 0.007271353621035814, -0.02378564514219761, 0.00749999238178134, -0.02754654549062252, -0.014560312032699585, -0.0056675816886126995, -0.10707994550466537, 0.005061452742666006, 0.5035671591758728, -0.020702797919511795, -0.016072003170847893, -7.522289524786174e-05], [-0.016025865450501442, -0.012889951467514038, -0.0003237488854210824, 0.014326393604278564, -0.007724151946604252, -0.044731318950653076, 0.015615198761224747, -0.00012285637785680592, -0.006330462172627449, 0.08248526602983475, -0.0018015175592154264, 0.0076510366052389145, -0.008954794146120548, 0.00729487556964159, -0.012839505448937416, -0.028917916119098663, 0.004083361476659775, 0.016456739977002144, -0.03939519450068474, -0.011723428964614868, 0.07769570499658585, 0.01803641766309738, -0.02423711307346821, -0.04732660576701164, -0.026354772970080376, -0.014316844753921032, -0.008586662821471691, -0.015549296513199806, -0.029939742758870125, -0.10003744810819626, -0.024388834834098816, -0.055557314306497574], [0.36767637729644775, -0.003913717810064554, -0.2990984320640564, -0.0034864041954278946, -0.03035600669682026, -0.006229580845683813, 0.13511282205581665, 0.010784109123051167, 0.011716855689883232, -0.007036018650978804, 0.11631666868925095, -0.4418606162071228, -0.0010802894830703735, -0.013008818961679935, -0.02732420340180397, 0.2062644511461258, 0.002876453334465623, 0.21320582926273346, 0.013015874661505222, 0.640968918800354, 0.02020614594221115, -0.12108529359102249, -0.008913757279515266, -0.04145188257098198, -0.03294352814555168, 0.006473435088992119, 0.02176850475370884, -0.008856406435370445, -0.1975463628768921, -0.03436587005853653, 0.1730755716562271, 0.005306581500917673], [0.008557996712625027, -0.018638228997588158, 0.006705994717776775, 0.009444679133594036, -0.013450353406369686, -0.04628533124923706, -0.01423327811062336, 0.00023566465824842453, 0.005395050626248121, 0.08156757801771164, -0.0034896729048341513, 0.003458897117525339, -0.009865263476967812, 0.01655092090368271, 0.007182201836258173, -0.0100849699229002, 0.03015034832060337, 0.003464646404609084, -0.05291260406374931, 0.0018613701686263084, 0.048956695944070816, 0.012994116172194481, -0.025695985183119774, -0.030461302027106285, -0.0390130952000618, -0.030326129868626595, -0.011655229143798351, -0.02432573214173317, -0.005147881805896759, -0.020708546042442322, -0.0017889096634462476, -0.06518422812223434], [-0.4878556430339813, 0.00540096964687109, -0.5306751132011414, 0.014600558206439018, -0.07111801952123642, 0.008707975037395954, -0.051873985677957535, 0.012571177445352077, -0.008086254820227623, 0.00032701579038985074, 0.19294314086437225, 0.3442895710468292, 0.00957880262285471, -0.6784482002258301, -0.2008955478668213, 0.0057067666202783585, 9.700527880340815e-05, -0.02896873466670513, -0.0049714576452970505, 0.1621706485748291, -0.0014393957098945975, -0.06571278721094131, 5.0480535719543695e-05, -0.014079617336392403, 0.31094440817832947, -0.004142915364354849, 0.1467793881893158, 0.005731883458793163, -0.10037031024694443, 0.008685084991157055, -0.03605679050087929, 0.001641647657379508], [0.05378228425979614, -0.00047638066462241113, -0.022130055353045464, 0.0007873860886320472, 0.005030317697674036, -0.0005491272895596921, -0.004054626449942589, 0.0005863690748810768, -7.825229840818793e-05, -0.00040904717752709985, 0.0044728610664606094, -0.006059405393898487, -0.00015455055108759552, -0.0010793731780722737, 0.013383672572672367, 0.0032444640528410673, 0.0003562602505553514, 0.0017388144042342901, 0.0005731822457164526, 0.00916453916579485, -0.0006540912436321378, -0.0033070161007344723, 0.0001413048303220421, 0.0003540976904332638, -0.0021110116504132748, 0.000104523693153169, 0.0014936728402972221, 0.0003012099477928132, -0.0010980420047417283, 0.0005380020011216402, 0.00021403358550742269, -0.0006310455501079559], [-0.482123464345932, -0.0023716981522738934, 0.45420658588409424, 0.014746462926268578, -0.08028669655323029, 0.0051683830097317696, 0.09291873872280121, 0.0066822911612689495, -0.007656957022845745, -0.011813181452453136, -0.20569446682929993, 0.37486252188682556, 0.005969922989606857, -0.3259839713573456, 0.08660103380680084, -0.38028305768966675, -0.019768977537751198, -0.24874480068683624, 0.0165836401283741, -0.2557458281517029, -0.0035098260268568993, 0.2553998529911041, 0.013904780149459839, 0.10501478612422943, 0.2414737045764923, -0.004598517436534166, 0.18333572149276733, 0.012367721647024155, 0.019883451983332634, -0.014455980621278286, 0.07769407331943512, 0.008247308433055878], [0.09229728579521179, -0.00042663642670959234, -0.03289954736828804, -0.001316392095759511, 0.0004457156755961478, -7.379343151114881e-05, -0.00418743584305048, -0.00017423609097022563, -7.055600872263312e-05, -0.000977828400209546, 0.0013287898618727922, -0.013225303962826729, 0.0011145995231345296, -0.005128297954797745, 0.03520644083619118, -0.00239173392765224, -0.0006531230756081641, 0.003116791835054755, -1.139793312177062e-06, 0.0007208262104541063, 0.00012195613817311823, -0.013726847246289253, 0.000733770604711026, 0.000358081073500216, -0.003675217041745782, 0.0002417543437331915, 0.0037740052212029696, -0.00029043725226074457, -0.000639410805888474, 0.0016778954304754734, -0.0005214709090068936, 0.0005795661127194762], [-0.05381433293223381, -0.00434093177318573, -0.5462032556533813, 0.008427196182310581, 0.32134467363357544, 0.0058691794984042645, 0.018694497644901276, 0.0006667155539616942, -0.004592187702655792, 0.012329379096627235, 0.21004024147987366, 0.5282001495361328, 0.017316605895757675, -0.3253483176231384, 0.3872225284576416, 0.40992453694343567, 0.00419323705136776, -0.20895050466060638, 0.0024559576995670795, 0.17721329629421234, -0.026614541187882423, -0.37599194049835205, -0.004309577401727438, -0.08678261935710907, 0.18434087932109833, 0.006148254498839378, -0.4915342330932617, 0.0022418522275984287, -0.5863161087036133, 0.03176453709602356, 0.2769739329814911, -0.010091803967952728], [0.051761504262685776, -0.0003583334619179368, -0.026166530326008797, 0.0007767924107611179, 0.013581660576164722, 0.00037720525870099664, -0.006927832495421171, 7.351490785367787e-05, 0.0001138927909778431, 0.002152465982362628, 0.007130084093660116, -0.017083916813135147, 0.0003818526747636497, 0.005427266005426645, 0.021644219756126404, 0.00574791943654418, -0.00026244932087138295, -0.00401843199506402, -0.0011761704226955771, 0.009321337565779686, 0.0013454507570713758, -0.023879725486040115, -0.0001353335246676579, -0.0025679138489067554, -0.0022171069867908955, -0.0004880492342635989, -0.0016392625402659178, -0.0002117595140589401, -0.0023497645743191242, -0.0008463186677545309, 0.003862916026264429, -0.00022142173838801682], [-0.012614695355296135, 0.013335390947759151, 0.049871183931827545, -0.01866745948791504, 0.06492441892623901, -0.014231832697987556, 0.45828428864479065, 0.013798759318888187, 0.02873719297349453, -0.0008626595372334123, -0.1677580177783966, -0.4028290808200836, -0.02414451166987419, -0.06217918172478676, 0.05213494226336479, -0.2380818873643875, 0.017709815874695778, 0.029821427538990974, 0.0008662702748551965, -0.5001407265663147, -0.0017925410065799952, 0.0068340906873345375, -0.00862901657819748, 0.06711380183696747, 0.019034534692764282, -0.005692597478628159, -0.09324803948402405, -0.01913582906126976, -0.14245475828647614, 0.022223521023988724, -0.02392691932618618, -0.0008590446086600423], [0.057210590690374374, -2.3224783944897354e-05, -0.01919063739478588, 4.1240407881559804e-05, -0.0007662203861400485, 1.7447386198909953e-05, -0.0011060757096856833, 3.8441867218352854e-05, -8.884523413144052e-05, -0.00032857898622751236, 0.0008926055743359029, -0.007322981953620911, 0.0002638037840370089, 0.011465021409094334, 0.026905762031674385, -0.00022837652068119496, -6.713518814649433e-06, 0.0002503814466763288, -0.00030980497831478715, -0.00029129767790436745, -0.00013049456174485385, -0.0063917809166014194, -0.0004440072225406766, -0.0006362797576002777, 0.0009022389422170818, -0.00017918866069521755, 0.0011702298652380705, -0.00028894617571495473, -0.002119955373927951, -0.00033042122959159315, -0.0013193696504458785, -0.0006056464044377208], [0.07228586822748184, 3.067389479838312e-05, -0.024042941629886627, 0.0004539504006970674, -0.002102677011862397, -0.000277714803814888, -0.0006086332141421735, 8.849261212162673e-05, -0.0001952704624272883, -0.0005951742059551179, 0.0019383059116080403, -0.012798753567039967, 0.00025895185535773635, 0.004362833220511675, 0.02915479615330696, -0.001272312132641673, 0.00041972383041866124, 0.0006164328660815954, -0.0002814382314682007, 0.0017475589411333203, -2.9993709176778793e-05, -0.004217477981001139, -0.0004060450301039964, 0.0007926602847874165, -0.00025846128119155765, -0.000385787570849061, 0.001802511396817863, 0.00022360606817528605, -0.003357510082423687, 0.0006531566032208502, 0.0019889066461473703, 0.000432744127465412], [0.10637015104293823, 0.0009950438980013132, -0.06611289829015732, -0.000593306147493422, 0.032782647758722305, -0.004419398959726095, -0.011074600741267204, 0.0004387393710203469, 0.0005235702847130597, 0.0024720649234950542, 0.025178367272019386, -0.0429837629199028, 0.0003501450701151043, 0.01674683950841427, 0.043684910982847214, 0.007782139349728823, 0.002087696921080351, -0.0023663723841309547, 0.0020308587700128555, 0.022737665101885796, -0.0010423398343846202, -0.06629089266061783, -0.00041024255915544927, -0.0028248955495655537, -0.005903240293264389, -0.0003023920289706439, 6.018555723130703e-05, 7.103262760210782e-05, 0.006594786420464516, 0.0010870617115870118, -0.0011045360006392002, -0.0045095947571098804], [0.1560249626636505, 0.024894310161471367, -0.0219223964959383, -0.03456752374768257, -0.2974109947681427, 0.03264135494828224, 0.20874901115894318, -0.004557631444185972, 0.005531811621040106, -0.02424541302025318, 0.23037046194076538, -0.29086029529571533, -0.03137139976024628, -0.21915695071220398, 0.19068269431591034, -0.036948516964912415, -0.030324257910251617, -0.19019263982772827, 0.026003839448094368, 0.31335529685020447, 0.05080937594175339, 0.09655530750751495, 0.0007231564959511161, -0.014248916879296303, -0.11812402307987213, 0.029385792091488838, 0.2088749259710312, 0.007239451631903648, -0.15353937447071075, -0.0495494119822979, 0.4710931181907654, 0.023350512608885765], [-0.35971561074256897, -0.02166316844522953, 0.5747069120407104, 0.03316543251276016, -0.021593725308775902, -0.015480461530387402, 0.24947619438171387, -0.006816604174673557, -0.01655004732310772, 0.012239105999469757, 0.22594758868217468, 0.08165633678436279, 0.024052923545241356, 0.13036155700683594, -0.1957591027021408, 0.15190578997135162, 0.004381618462502956, 0.020545896142721176, -0.0131478700786829, 0.286588579416275, -0.023488463833928108, 0.4324268400669098, -0.003933944273740053, 0.004086931236088276, -0.010859732516109943, -0.01236745622009039, -0.22615331411361694, -0.0008878899971023202, -0.22370785474777222, 0.0012861968716606498, -0.010563923045992851, -0.009989536367356777], [0.08458845317363739, 0.000835927203297615, -0.037545107305049896, -0.0020167981274425983, -0.0014894995838403702, -7.896564056864008e-05, -0.0030227764509618282, 0.000548589916434139, 0.0014148392947390676, -3.2084150006994605e-05, 0.0013586177956312895, -0.011281500570476055, -0.00022018537856638432, 0.008529121987521648, 0.03780664503574371, -0.0010499900672584772, 5.601682642009109e-05, 0.00418076990172267, 0.00023005875118542463, -0.0010898213367909193, 0.0003090535174123943, -0.010086444206535816, 0.0004044518282171339, 0.0005421348614618182, -0.0017617372795939445, 3.8198864785954356e-05, 0.002796894870698452, 0.00036231911508366466, -0.002518349327147007, -0.0009876652620732784, -0.001870882697403431, -6.9302404881455e-05], [-0.12046825140714645, 0.01006750576198101, -1.072731614112854, -0.004632921423763037, 0.010476132854819298, 0.004655132070183754, -0.16321739554405212, 0.0155227892100811, -0.005381032824516296, 0.014384737238287926, 0.1365540474653244, -0.1448778659105301, 0.012632496654987335, -0.27158743143081665, -0.04739317297935486, 0.22891154885292053, 0.023349419236183167, -0.1407560408115387, -0.010790005326271057, 0.48884478211402893, 0.03593820706009865, -0.5901502966880798, -0.023383773863315582, -0.22559458017349243, -0.10562945902347565, 0.02813829854130745, 0.4740898013114929, 0.004270968958735466, -0.11681805551052094, -0.016824761405587196, 0.09960225969552994, 0.0021884171292185783], [-0.1817021667957306, 0.0008183734025806189, 0.02488534152507782, -0.006396950222551823, -0.33766496181488037, -0.01329135987907648, 0.46417930722236633, 0.0031778463162481785, 0.001657863613218069, 0.0038067977875471115, -0.04346471652388573, 0.15841542184352875, 0.0011713679414242506, -0.13236048817634583, 0.2005629986524582, -0.1776222288608551, 0.010664209723472595, 0.009002412669360638, -0.004704308696091175, -0.4232393205165863, 0.01412641629576683, 0.15827004611492157, -0.016401497647166252, -0.028778541833162308, 0.2722337245941162, -0.0018147184746339917, 0.10167246311903, -0.009419230744242668, 0.13758835196495056, -0.007272755727171898, -0.09365759789943695, 0.002290258649736643], [-0.21206414699554443, -0.022568361833691597, 0.28264331817626953, 0.029722213745117188, 0.11688034236431122, -0.01745886541903019, 0.11936113238334656, -0.001864797086454928, -0.012206930667161942, 0.034764938056468964, -0.11021728068590164, 0.2799604535102844, 0.024234667420387268, 0.025226585566997528, -0.1797623187303543, 0.15994390845298767, 0.0006822949508205056, 0.04783456400036812, -0.02874778024852276, -0.07367749512195587, 0.0003983263741247356, 0.5427286028862, 0.017636390402913094, 0.037101563066244125, 0.09462980926036835, -0.018904099240899086, -0.028924407437443733, 0.009929170832037926, -0.2833440899848938, -0.003813243005424738, -0.048431601375341415, -0.02680373005568981], [0.04013315960764885, -1.8545037164585665e-05, -0.016212835907936096, 0.000208539524464868, 0.006863091606646776, 0.00012685253750532866, -0.00364274182356894, 6.795109220547602e-05, -2.9804883524775505e-05, 0.0004107977729290724, 0.0032673818059265614, -0.010355890728533268, 0.00022831966634839773, 0.007281177211552858, 0.019412944093346596, 0.0021764617413282394, -2.602141466923058e-05, -0.0011777650797739625, -2.944262814708054e-05, 0.0031922776252031326, 4.823747440241277e-05, -0.01039316039532423, 7.80633999966085e-05, -0.0006913102697581053, -0.0016428621020168066, 0.00010956064215861261, -0.001087335404008627, 7.763139001326635e-05, -0.003185737645253539, 0.00029656372498720884, 0.002082612132653594, 1.7967962776310742e-05], [-0.0932508111000061, 0.006560983136296272, -0.6188482642173767, -0.0037716084625571966, -0.0190235935151577, -0.008517883718013763, 0.004287515301257372, 0.010001440532505512, 0.0014256394933909178, 0.029723435640335083, -0.04756816104054451, -0.0572742260992527, 0.00545206805691123, -0.3525371551513672, -0.09580624103546143, -0.030703281983733177, -0.008453779853880405, -0.2901003360748291, 0.008108244277536869, 0.18342135846614838, 0.019351912662386894, -0.12576408684253693, -0.002448541112244129, -0.012732979841530323, -0.011563141830265522, -0.0022921068593859673, -0.08264823257923126, 0.0010687577305361629, -0.081145741045475, -0.05422206223011017, 0.1239519789814949, -0.016008224338293076], [0.08198732882738113, -0.00048016320215538144, -0.040015291422605515, -0.00044499116484075785, 0.012019068002700806, -0.00045114033855497837, -0.0046933675184845924, -4.05929604312405e-05, -0.0003530329850036651, 0.0015384554862976074, 0.00565878301858902, -0.026372812688350677, 0.0004545195843093097, 0.00733958650380373, 0.034149475395679474, 0.0011849842267110944, -0.0002778595080599189, 0.0024449911434203386, -0.001359875313937664, 0.0112202949821949, 0.0019100250210613012, -0.026339692994952202, -0.0006645222310908139, -0.0001541106030344963, 0.004476398229598999, -0.0005425023264251649, 0.002147889230400324, -0.0006048210198059678, 0.006233450025320053, 0.001252972288057208, -0.0011223535984754562, -0.0006397449178621173], [-0.4456481337547302, 0.010900349356234074, 0.40599119663238525, -0.019596420228481293, -0.23648136854171753, 0.012646224349737167, 0.030047878623008728, 0.0036523460876196623, 0.01313889492303133, -0.01803242228925228, 0.004109411966055632, 0.5411292910575867, -0.01485165860503912, -0.3048860430717468, -0.4267473816871643, -0.21994513273239136, -0.014855308458209038, -0.04586050286889076, 0.016627680510282516, -0.210151806473732, -0.003135137027129531, 0.17930160462856293, 0.009439660236239433, 0.039223212748765945, -0.12420142441987991, -0.0007351343519985676, 0.19226130843162537, 0.002742927288636565, 0.07164029031991959, 0.004264409653842449, 0.26886799931526184, 0.015709850937128067], [0.13218040764331818, -0.0009844339219853282, -0.09168120473623276, -0.0011551189236342907, 0.020419249311089516, 0.0010453846771270037, 0.0027937605045735836, -6.117279554018751e-05, -0.00025294654187746346, 0.004245968069881201, 0.005019419826567173, -0.05215403810143471, -0.0003496631688904017, 0.016817931085824966, 0.04952084273099899, -0.0032843255903571844, -0.0010850114049389958, 0.0031750870402902365, -0.0037729330360889435, 0.027190882712602615, 0.0002744226949289441, -0.05004975199699402, -0.00149748963303864, -0.005412755999714136, 0.011987775564193726, -0.0016382562462240458, 0.008385080844163895, -0.001201825449243188, 0.0017501325346529484, -0.004120632074773312, 0.0006541921757161617, -0.004116198979318142], [0.060070767998695374, -0.002965184859931469, -0.14433962106704712, 0.00752088101580739, 0.0036659587640315294, -0.008645265363156796, -0.01998213306069374, -0.0034394622780382633, -0.0054696183651685715, 0.027737287804484367, 0.24279285967350006, -0.25830748677253723, 0.006816981825977564, -0.05668256804347038, 0.16478250920772552, -0.382900595664978, 0.02511846460402012, -0.051593929529190063, -0.025959039106965065, -0.6738765239715576, 0.008100885897874832, -0.19309133291244507, -0.012430723756551743, 0.015035719610750675, 0.08502843976020813, -0.00858256034553051, -0.06851499527692795, -0.0037213172763586044, -0.01883023977279663, 0.020573539659380913, -0.10138697922229767, -0.023701338097453117], [0.05998316407203674, 0.00010217452654615045, -0.028876764699816704, 0.0003514162381179631, 0.007325752638280392, 0.00011459975939942524, -0.00022215630451682955, 4.7474732127739117e-05, 0.0002987991028930992, 0.0010445681400597095, 0.002342810621485114, -0.019486116245388985, -0.00039728445699438453, 0.010790903121232986, 0.029217736795544624, -0.001593866152688861, -6.761681288480759e-05, -3.698762157000601e-05, -0.0006965526263229549, 0.004642311949282885, -0.0001821947080316022, -0.019376398995518684, -5.472587508847937e-05, -0.0013948511332273483, -0.00044574146158993244, -0.00011818087659776211, 0.00018780890968628228, -8.478723611915484e-05, -0.0020597060211002827, -0.0002722852514125407, -9.463269088882953e-05, -0.0006944829365238547], [0.09105752408504486, 0.00017848113202489913, -0.04586562141776085, 0.00013718276750296354, 0.024487823247909546, 0.0022191042080521584, 0.046621888875961304, 0.0049265301786363125, 0.001251680194400251, 0.002230913145467639, -0.002267059637233615, -0.1067551001906395, 0.0007423171773552895, 0.0321592316031456, 0.02857198938727379, -0.03647923842072487, 0.0018351231701672077, -0.012200551107525826, -0.0004294482059776783, 0.011013653129339218, 0.000742033589631319, -0.008478210307657719, -0.0006608317489735782, 0.0036267584655433893, -0.021272040903568268, 0.0021315831691026688, -0.059161290526390076, -0.0016756006516516209, 0.0016570726875215769, -0.005198572296649218, 0.007722232956439257, 5.0013011787086725e-05], [0.14499638974666595, 0.018793795257806778, 0.13813161849975586, -0.021449189633131027, -0.07232224196195602, 0.006785960868000984, 0.25834280252456665, 0.0031151161529123783, 0.005392628721892834, -0.010025073774158955, -0.28756290674209595, -0.11425825208425522, -0.020707881078124046, 0.062162064015865326, 0.7103111743927002, 0.05082838982343674, -0.00321060954593122, 0.012084308080375195, 0.0037059220485389233, -0.4342414140701294, 0.013435355387628078, -0.1753586083650589, -0.004802596289664507, -0.07732637971639633, 0.37783533334732056, 0.012640692293643951, 0.11748405545949936, -0.003196529345586896, 0.0864269956946373, -0.0028540559578686953, -0.02825307473540306, 0.007802372798323631], [0.050689488649368286, 4.827395241591148e-05, -0.02735085040330887, 0.0002854477206710726, 0.008290482684969902, -6.686439883196726e-05, 0.00017393188318237662, 9.797349775908515e-07, -0.00011138292757095769, -0.0004829301906283945, 0.0014571640640497208, -0.014673871919512749, -6.0600686992984265e-06, 0.006473820190876722, 0.0240778848528862, -0.00025590514997020364, -0.0001411343109793961, 0.00044668844202533364, -0.0008121311548165977, 0.005907390266656876, 0.00022669794270768762, -0.018100563436746597, -4.8457855882588774e-05, -0.00033492493093945086, -0.0009382646530866623, 0.0001394643186358735, 6.696139462292194e-05, 0.00011730269034160301, -0.0017960101831704378, 0.0002653143310453743, -0.0010538229253143072, -0.0002823550021275878], [-0.2067246288061142, -0.0005330528365448117, 0.0681869313120842, 0.00017284713976550847, 0.05713225156068802, 0.02110058255493641, 0.13251855969429016, 0.0041925255209207535, -0.00226401025429368, -0.019734911620616913, -0.09404267370700836, 0.152159184217453, 0.00837621744722128, 0.03221026062965393, -0.22580067813396454, 0.16417153179645538, -0.01042917836457491, -0.005552834365516901, 0.013215653598308563, -0.06353944540023804, -0.022007593885064125, 0.16702447831630707, 0.01321311667561531, 0.013735565356910229, 0.010503833182156086, 0.009711861610412598, -0.4433629810810089, 0.011126115918159485, -0.18579033017158508, 0.014614011161029339, -0.04327988252043724, 0.016673803329467773], [0.0513930507004261, -1.0656336598913185e-05, -0.026676544919610023, 3.685322008095682e-05, 0.00422506220638752, 5.71788041270338e-06, -0.00025885290233418345, 0.00012172451533842832, -0.00011911406181752682, -2.492775456630625e-05, 0.0012593299616128206, -0.015047281980514526, 0.0001404622889822349, 0.005041289143264294, 0.021815311163663864, -0.0009816584642976522, -7.924612873466685e-06, -0.0009280453668907285, -0.00040048363734968007, 0.005445102695375681, 0.00014984850713517517, -0.01404610276222229, -3.3695636375341564e-05, -0.002106941770762205, -0.0006128039094619453, 1.888288534246385e-05, 0.0017152688233181834, -1.6489220797666349e-06, -0.0010945843532681465, -0.0003921891620848328, 0.0004863810318056494, -2.819371729856357e-06], [-0.08079688251018524, 0.006152701564133167, 0.1277051717042923, -0.008287659846246243, 0.41392022371292114, -0.011111386120319366, -0.027635162696242332, 0.02068345621228218, 0.02487710304558277, -0.01454712264239788, 0.05597305670380592, 0.43955254554748535, -0.006261622533202171, 0.035785216838121414, 0.12088418006896973, -0.08279385417699814, 0.02352743409574032, -0.07029815763235092, -0.004794550593942404, 0.3672429621219635, -0.041195712983608246, 0.017374791204929352, -0.003267036285251379, -0.024847138673067093, -0.1504942625761032, -0.00858431775122881, 0.27650555968284607, -0.015602713450789452, -0.5324129462242126, 0.05724902078509331, -0.003497415455058217, 0.013558169826865196], [0.12505356967449188, 0.0006067922804504633, -0.07763876765966415, -0.0008283515926450491, 0.018794402480125427, 8.782749500824139e-05, 0.006071491166949272, -7.066174293868244e-05, 0.0011338276090100408, -0.0018338988302275538, 0.009991508908569813, -0.04680147022008896, 0.0005410615704022348, 0.026866575703024864, 0.05620378255844116, -0.007204499561339617, 0.0015009273774921894, 4.278798587620258e-05, -0.0008634556434117258, 0.013824835419654846, 0.002540656365454197, -0.053016092628240585, -0.0011729132384061813, -0.006914564408361912, 0.007266499102115631, -0.0004495393659453839, 0.006861480418592691, -0.0009527089423500001, 0.008485219441354275, 6.389885675162077e-05, -0.012046132236719131, -0.002495015040040016], [0.20345769822597504, 0.015885988250374794, -0.3548085391521454, -0.00769099872559309, 0.2680957019329071, -0.001712840050458908, 0.0026435530744493008, 0.015425982885062695, 0.01978921890258789, -0.017270777374505997, 0.2392052412033081, 0.1302802562713623, -0.010660865344107151, -0.13793900609016418, 0.07725037634372711, 0.16181334853172302, -0.006410578265786171, 0.03999369218945503, 0.011703385971486568, 0.5546827912330627, 0.021128764376044273, -0.12304043769836426, -0.008296438492834568, 0.006769612897187471, 0.05409528687596321, 0.010475635528564453, 0.04186975210905075, -0.010385094210505486, 0.1871817260980606, -0.04697493091225624, 0.21861039102077484, 0.02112804353237152], [0.08004997670650482, -0.0005111675709486008, -0.05465094372630119, 0.0011413589818403125, 0.02362697571516037, -0.0025197211652994156, -0.012514964677393436, 0.0004260266723576933, 0.0003872351080644876, 0.004594140686094761, 0.019959397614002228, -0.02835094928741455, 0.0005306076491251588, 0.0063580842688679695, 0.030127109959721565, 0.006029790733009577, 0.0008719683391973376, 0.00038247788324952126, -0.0029776094015687704, 0.018503481522202492, 0.0010985899716615677, -0.044756706804037094, -0.0001730842632241547, -4.27949707955122e-05, -0.0017241219757124782, -0.0015416833339259028, 0.0009603583021089435, -0.0012496234849095345, 0.006173745729029179, -0.000835287501104176, 0.0011088617611676455, -0.0008412684546783566]], "lstm.bias_ih_l0": [0.20841999351978302, -0.0912076085805893, -0.49735450744628906, -0.13410580158233643, -0.05950692668557167, -0.08132732659578323, -0.40209487080574036, -0.08433529734611511, -0.10487757623195648, -0.13553057610988617, -0.3416191339492798, -0.624993085861206, -0.12387589365243912, -0.13269996643066406, -0.3757043480873108, -0.6523823142051697, -0.0592726469039917, -0.8050524592399597, -0.12161753326654434, -0.6411905288696289, -0.15338724851608276, 0.3567901849746704, -0.08274679630994797, -0.041110239923000336, -0.4453677833080292, -0.07479643821716309, -0.31397226452827454, -0.0828358605504036, -0.4447898268699646, -0.158359557390213, -0.2644335925579071, -0.11215952038764954, 0.6649745106697083, -0.05938396975398064, 0.948065459728241, -0.08861037343740463, 0.5670912861824036, -0.0630824863910675, 0.39930567145347595, -0.06392935663461685, -0.07060305774211884, -0.109372079372406, 0.5450032949447632, 0.9812541007995605, -0.09094573557376862, 0.3616085350513458, 0.8181626796722412, 0.8291335105895996, -0.04839076101779938, 0.424777626991272, -0.08795267343521118, 1.2705872058868408, -0.1266542226076126, 0.5939004421234131, -0.06640233099460602, 0.06653912365436554, 0.17733056843280792, -0.05967910960316658, 0.65867018699646, -0.0626462996006012, 0.4240993857383728, -0.13005420565605164, 0.1969708800315857, -0.0868927389383316, -0.10230954736471176, 0.03103247657418251, 0.06652512401342392, -0.019246282055974007, -0.08893082290887833, 0.007573538459837437, 0.06025104597210884, 0.012362882494926453, 0.004141875542700291, -0.010209276340901852, 0.11891543865203857, 0.2095806747674942, -0.009534277953207493, -0.19861413538455963, -0.132388636469841, -0.0010089331772178411, 0.053596850484609604, 0.20449979603290558, -0.014428125694394112, 0.04076823964715004, 0.025740569457411766, 0.08802525699138641, -0.013545311987400055, -0.19963811337947845, -0.18586431443691254, 0.03925713151693344, 0.09660544246435165, -0.01841777190566063, 0.1114037036895752, 0.013357844203710556, 0.19367560744285583, 0.004694034345448017, 0.3216693103313446, -0.09151466935873032, 0.20736727118492126, -0.1343356966972351, -0.11307788640260696, -0.08182170987129211, 0.03629494830965996, -0.08496275544166565, -0.10499951243400574, -0.13569682836532593, -0.14177513122558594, 0.28741613030433655, -0.12365280836820602, -0.013718323782086372, 0.13117796182632446, 0.1692863404750824, -0.059294283390045166, -0.019601769745349884, -0.12176463007926941, 0.46031200885772705, -0.15252594649791718, -0.024925285950303078, -0.08278502523899078, -0.03596177697181702, -0.018553918227553368, -0.07397161424160004, 0.3662205636501312, -0.08441396057605743, 0.03526737540960312, -0.1582898199558258, -0.044732190668582916, -0.11228740215301514], "lstm.bias_hh_l0": [0.22787277400493622, -0.0912083238363266, -0.5006864666938782, -0.13410581648349762, -0.015409886837005615, -0.08132743090391159, -0.4063323438167572, -0.0843353196978569, -0.10487775504589081, -0.1355299949645996, -0.2680369019508362, -0.5920220613479614, -0.12387560307979584, -0.16764308512210846, -0.36186152696609497, -0.634703516960144, -0.059243761003017426, -0.7848414778709412, -0.12161756306886673, -0.6483619809150696, -0.15338510274887085, 0.347407728433609, -0.08274715393781662, -0.04111022874712944, -0.4115593433380127, -0.07480631023645401, -0.3170141875743866, -0.08283641189336777, -0.41620320081710815, -0.15835893154144287, -0.3117750883102417, -0.11215949803590775, 0.6283380389213562, -0.059383194893598557, 0.8901183605194092, -0.08861035108566284, 0.5302454829216003, -0.06308247894048691, 0.40573588013648987, -0.06392927467823029, -0.07060304284095764, -0.10937249660491943, 0.578739583492279, 0.9266538619995117, -0.09094564616680145, 0.4235852062702179, 0.8614706993103027, 0.8305537104606628, -0.048390716314315796, 0.4036019444465637, -0.08795269578695297, 1.171097755432129, -0.12665526568889618, 0.6151738166809082, -0.06640233844518661, 0.06653916090726852, 0.17042411863803864, -0.059687260538339615, 0.6570001244544983, -0.06264633685350418, 0.42386889457702637, -0.13005436956882477, 0.1774882823228836, -0.08689280599355698, -0.06340787559747696, -0.012269864790141582, 0.1985442191362381, -0.011980564333498478, -0.1548510044813156, 0.026657426729798317, -0.20117050409317017, 0.024013206362724304, 0.004176090005785227, -0.004964796826243401, 0.0700506865978241, 0.03962751850485802, -0.007113099098205566, -0.13804948329925537, -0.08986746519804001, -0.05476086959242821, -0.040404122322797775, 0.06690368801355362, -0.01095474511384964, -0.12279601395130157, 0.016101928427815437, 0.025730030611157417, -0.03807612508535385, -0.1450192779302597, -0.03783441707491875, 0.04223582521080971, 0.0741616040468216, -0.00637414213269949, 0.022196516394615173, -0.0020511080510914326, 0.021273009479045868, 0.008204454556107521, 0.32467007637023926, -0.09151347726583481, 0.2933712601661682, 