{"lstm.weight_ih_l0": [[0.14722056686878204], [-0.03596833348274231], [-0.06223443150520325], [-0.083437979221344], [-0.04489268735051155], [-0.18306617438793182], [-0.049149252474308014], [-0.004126168787479401], [0.03013148345053196], [-0.07361210882663727], [0.03315761685371399], [-0.1949732005596161], [0.05349693447351456], [-0.06432478874921799], [0.1492408663034439], [-0.04998628422617912], [-0.0624358132481575], [-0.103246308863163], [-0.1404019445180893], [0.07669397443532944], [0.059295572340488434], [0.10944196581840515], [-0.07741767168045044], [0.040391210466623306], [-0.0994485467672348], [-0.08847242593765259], [0.048543721437454224], [-0.1453665792942047], [0.01181668322533369], [-0.002136633964255452], [0.05972232669591904], [-0.017247067764401436], [-0.030950699001550674], [-0.18381814658641815], [-0.10589364171028137], [1.3571931049227715e-05], [0.1300186961889267], [0.0886148065328598], [-0.0313364639878273], [0.14127634465694427], [0.11398959159851074], [0.1406843364238739], [-0.19012868404388428], [-0.10723876953125], [0.09928231686353683], [-0.038483843207359314], [0.10925884544849396], [-0.03547299653291702], [-0.03686464577913284], [0.14490382373332977], [-0.017853425815701485], [-0.022023240104317665], [0.12031693756580353], [0.11721088737249374], [-0.07449792325496674], [0.06388219445943832], [-0.12321167439222336], [0.06822065263986588], [-0.013069121167063713], [0.1417488157749176], [-0.14120206236839294], [-0.12217769771814346], [0.10161618888378143], [0.118132583796978], [-0.13646864891052246], [-0.028481483459472656], [-0.1395808756351471], [0.20077703893184662], [0.1906154304742813], [0.010190320201218128], [-0.08467515558004379], [-0.0466487742960453], [-0.20300105214118958], [-0.06057160347700119], [0.029873304069042206], [-0.044982969760894775], [0.06498979032039642], [-0.0785316750407219], [0.07315031439065933], [0.05759409815073013], [0.03139294311404228], [-0.0552719384431839], [-0.054668884724378586], [0.18997040390968323], [-0.13713392615318298], [0.09190300107002258], [0.17823831737041473], [-0.029659859836101532], [-0.14668743312358856], [0.03873291611671448], [-0.11498606204986572], [0.040682777762413025], [0.07226357609033585], [0.10581458359956741], [0.08243099600076675], [-0.1420290470123291], [0.0016203783452510834], [0.02413630671799183], [0.13452358543872833], [0.029253076761960983], [-0.12220815569162369], [0.14194156229496002], [0.09926348924636841], [0.12122178077697754], [-0.1915842890739441], [-0.055457670241594315], [0.1399291455745697], [0.03472944349050522], [-0.16539357602596283], [-0.13782182335853577], [-0.03878985717892647], [-0.016400564461946487], [-0.09055817872285843], [0.06681642681360245], [-0.005305803380906582], [-0.10583222657442093], [-0.10113262385129929], [-0.17437265813350677], [0.03526373580098152], [0.12612193822860718], [-0.018626948818564415], [0.149857297539711], [0.004591586068272591], [-0.08632905036211014], [-0.102540984749794], [0.06085722893476486], [-0.08612850308418274], [-0.008428090251982212]], "lstm.weight_hh_l0": [[0.08701029419898987, 0.16298948228359222, -0.15195168554782867, -0.1099705845117569, 0.04098329693078995, 0.09618715941905975, 0.02975153736770153, -0.06470523029565811, 0.17378202080726624, 0.14308694005012512, 0.18558092415332794, -0.05550001561641693, 0.15522760152816772, 0.17509043216705322, -0.03626076504588127, 0.181492879986763, -0.06738317012786865, 0.08263790607452393, 0.15494827926158905, -0.11444608867168427, -0.11796009540557861, -0.09751037508249283, 0.08201701939105988, -0.13316373527050018, 0.055828411132097244, 0.07289823889732361, 0.14254890382289886, -0.013643475249409676, -0.1798163801431656, -0.1498275250196457, 0.15406426787376404, -0.0745479017496109], [-0.036085840314626694, 0.18116405606269836, 0.12757714092731476, -0.12272617965936661, -0.12704746425151825, -0.04222632572054863, 0.1514139026403427, -0.12719759345054626, -0.12556400895118713, 0.07837304472923279, -0.020542845129966736, -0.014281908050179482, -0.026163659989833832, -0.11731664091348648, 0.10200497508049011, 0.14270375669002533, -0.09224503487348557, -0.1364714503288269, 0.0062393853440880775, -0.03625872731208801, -0.1356213241815567, 0.022190570831298828, 0.13550570607185364, -0.12595234811306, 0.0018884064629673958, 0.10037457197904587, -0.11400150507688522, -0.11806274205446243, -0.1084352359175682, -0.01659347675740719, 0.13834978640079498, -0.10265275090932846], [0.14362773299217224, -0.11102695018053055, 0.04390968009829521, -0.056471358984708786, 0.0797184556722641, 0.02773432619869709, 0.11906850337982178, -0.04232199117541313, 0.033540185540914536, -0.06886780261993408, 0.16305683553218842, -0.15911786258220673, 0.0970686823129654, -0.07533532381057739, -0.10976702719926834, 0.13885095715522766, -0.11010975390672684, -0.06752139329910278, -0.08251025527715683, -0.10371354967355728, -0.0787147656083107, 0.09195785224437714, 0.06366788595914841, -0.1288125067949295, -0.06689255684614182, -0.05963214486837387, 0.15702931582927704, -0.09982135891914368, 0.03151712566614151, -0.11526338756084442, 0.11214680969715118, -0.07149765640497208], [-0.04898391664028168, 0.07185123860836029, -0.00043604406528174877, 0.04672214388847351, -0.11277396231889725, -0.16223996877670288, -0.050499048084020615, 0.08255366235971451, -0.13333486020565033, 0.09413262456655502, -0.005927360150963068, 0.1459420770406723, 0.1296444833278656, 0.12127316743135452, 0.05960923433303833, 0.03675398975610733, -0.14702549576759338, 0.03504515439271927, -0.021951885893940926, -0.05410541221499443, 0.05556642264127731, -0.1287313997745514, 0.07785153388977051, 0.06489191204309464, 0.15398146212100983, -0.04923153668642044, -0.1495566964149475, 0.11718650907278061, 0.11552631109952927, -0.08565987646579742, 0.10119360685348511, -0.020501352846622467], [0.10083112865686417, 0.07447068393230438, 0.009076696820557117, -0.0499936006963253, 0.10583100467920303, -0.021858418360352516, 0.17393876612186432, -0.18397609889507294, 0.17928536236286163, -0.14712092280387878, 0.03814292699098587, -0.03421381115913391, -0.007382810115814209, 0.1175084114074707, 0.09134864807128906, 0.07142556458711624, -0.06306961923837662, 0.09650056809186935, -0.15111567080020905, 0.12595656514167786, -0.022972121834754944, 0.14832274615764618, 0.034629564732313156, -0.10659319907426834, 0.034794602543115616, -0.0368778370320797, -0.08466898649930954, -0.13580624759197235, 0.06372148543596268, -0.16524362564086914, -0.06833203136920929, -0.07799621671438217], [0.016636431217193604, 0.11737551540136337, -0.1290646493434906, -0.14991329610347748, 0.11081220954656601, -0.013741323724389076, 0.09478730708360672, 0.1674453616142273, -0.182389497756958, 0.104874387383461, 0.1514458805322647, 0.12548692524433136, -0.004649261478334665, -0.054885994642972946, 0.0886874794960022, -0.0007854169234633446, -0.11386487632989883, -0.0716874897480011, 0.09306278824806213, 0.18993085622787476, 0.13343816995620728, -0.0051787495613098145, -0.06654176115989685, -0.12118897587060928, -0.06832525134086609, 0.04276205599308014, -0.0945865586400032, 0.09481892734766006, -0.12137071043252945, 0.119214728474617, -0.1443963497877121, -0.023901786655187607], [-0.0471772775053978, 0.1526341587305069, 0.006526037584990263, -0.09538903832435608, -0.028403902426362038, 0.11520929634571075, 0.006876200903207064, -0.004356440622359514, -0.07681717723608017, 0.007029992528259754, 0.046089932322502136, 0.013079289346933365, -0.14153163135051727, 0.15648002922534943, -0.01803884468972683, -0.051781561225652695, -0.1312042772769928, 0.12963946163654327, 0.06893756240606308, 0.029690708965063095, 0.07899611443281174, 0.10054010152816772, 0.15569880604743958, 0.019035056233406067, 0.08789528161287308, 0.10091222822666168, -0.04047507792711258, -0.17118431627750397, 0.09465257078409195, -0.17012859880924225, -0.021710237488150597, -0.14019960165023804], [-0.05659651756286621, -0.09721219539642334, -0.1398053914308548, -0.14427638053894043, 0.14496755599975586, -0.08143806457519531, -0.1453312784433365, -0.1387149691581726, -0.058320023119449615, -0.15123441815376282, -0.084549181163311, -0.10576970875263214, -0.06023562699556351, -0.11249567568302155, -0.056285545229911804, -0.04168897867202759, 0.09381914138793945, 0.15687140822410583, -0.1555326282978058, 0.1614510416984558, 0.0806671530008316, -0.02391587756574154, 0.0571596696972847, 0.06359702348709106, -0.10103532671928406, -0.1367792934179306, -0.08406317234039307, 0.1117076575756073, 0.00022479332983493805, 0.031446050852537155, 0.013969260267913342, -0.0767122283577919], [-0.07848186045885086, 0.15549367666244507, 0.006700623780488968, 0.0349590927362442, -0.1637302041053772, -0.12705567479133606, -0.13756433129310608, -0.11824708431959152, -0.06191491335630417, 0.13111647963523865, 0.020444601774215698, 0.15196220576763153, -0.05351662263274193, 0.09453688561916351, -0.08536293357610703, -0.11974593251943588, -0.09668567776679993, 0.10649667680263519, -0.10841170698404312, 0.10616276413202286, 0.13212141394615173, 0.17118693888187408, -0.04881127551198006, -0.11036950349807739, -0.06823054701089859, -0.11692288517951965, 0.12774860858917236, 0.1375177949666977, -0.10549264401197433, 0.13286210596561432, 0.03129797428846359, -0.020763618871569633], [-0.1757042407989502, 0.13782672584056854, -0.03584744408726692, -0.16211019456386566, -0.15767844021320343, 0.1278330385684967, -0.06980548799037933, 0.035025570541620255, -0.03823277726769447, 0.14566023647785187, -0.09067586809396744, 0.1369168609380722, 0.008380464278161526, -0.1335022747516632, 0.07082412391901016, 0.1250605285167694, 0.0145795913413167, 0.1689714640378952, 0.15359774231910706, -0.10200458019971848, -0.17457012832164764, 0.11425302922725677, -0.07880023866891861, -0.072138212621212, 0.03837861493229866, 0.11059227585792542, -0.13333776593208313, -0.12288518249988556, 0.17038828134536743, 0.08951898664236069, -0.09613978862762451, -0.15012866258621216], [0.07513416558504105, -0.039650045335292816, -0.09602122008800507, -0.05032513290643692, 0.014064174145460129, -0.12172116339206696, 0.03618679940700531, 0.06852617859840393, 0.1069377213716507, -0.0798933133482933, -0.06115073338150978, -0.14042611420154572, -0.1808111071586609, -0.07195409387350082, -0.025421082973480225, -0.11266293376684189, 0.06018539518117905, 0.07987554371356964, -0.1663685142993927, -0.18100738525390625, 0.1290697157382965, 0.09367842972278595, 0.1672094166278839, 0.03931747376918793, -0.0924985408782959, -0.057348448783159256, 0.019526997581124306, -0.02938753552734852, 0.1404927372932434, -0.11244398355484009, 0.03563409671187401, 0.08125631511211395], [0.17242512106895447, 0.17315243184566498, 0.041245318949222565, 0.1754990518093109, -0.08757347613573074, 0.08621113002300262, -0.07792151719331741, 0.06613572686910629, 0.16914059221744537, -0.15643100440502167, -0.10797345638275146, -0.18213523924350739, 0.05790918692946434, -0.07372910529375076, -0.11411755532026291, 0.015241522341966629, -0.0391751304268837, 0.08006136864423752, -0.09041675925254822, 0.05281432718038559, 0.08291478455066681, -0.09427589178085327, -0.1524394303560257, -0.026857957243919373, -0.14528004825115204, 0.013328900560736656, -0.15917861461639404, -0.06583301723003387, -0.05328775942325592, 0.07822342216968536, -0.11799553036689758, 0.005046212114393711], [-0.024112440645694733, -0.1441197395324707, 0.13884860277175903, -0.10732722282409668, -0.15645967423915863, -0.14166153967380524, 0.06416323781013489, 0.04469994828104973, -0.027051974087953568, 0.11136935651302338, -0.10164930671453476, -0.1429523229598999, 0.006299410946667194, -0.04126176983118057, -0.1506447046995163, -0.06609116494655609, -0.07613561302423477, -0.1530216485261917, 0.05591908097267151, 0.10488758236169815, -0.06007224693894386, -0.09158960729837418, 0.04730568826198578, 0.0844026431441307, -0.06306792795658112, 0.16991841793060303, -0.018809648230671883, -0.1601397544145584, -0.028697259724140167, 0.017694517970085144, -0.1658504605293274, -0.032006703317165375], [-0.08213268965482712, -0.060214634984731674, -0.04802395775914192, 0.08583147823810577, -0.06269676238298416, -0.1577058881521225, 0.10288188606500626, 0.03213416785001755, 0.0869235172867775, 0.1170884221792221, -0.09286751598119736, 0.13006152212619781, 0.10971393436193466, 0.1288347840309143, 0.11860945075750351, -0.05082011595368385, -0.06802733987569809, -0.06005090847611427, 0.0974060520529747, -0.010791942477226257, 0.05434151738882065, 0.01828474923968315, -0.17885485291481018, -0.15076123178005219, -0.01744646020233631, 0.08953005820512772, 0.0938788652420044, -0.10056930780410767, -0.12149636447429657, 0.11515671759843826, 0.14370504021644592, 0.06792348623275757], [0.06959880143404007, -0.050909608602523804, -0.023872192949056625, 0.13953064382076263, 0.02769496664404869, -0.13423021137714386, -0.1312241107225418, -0.10388771444559097, -0.0011687057558447123, -0.0033775747288018465, 0.03610401600599289, -0.021156124770641327, -0.04911945387721062, -0.13634558022022247, -0.0022424831986427307, 0.04389230161905289, 0.08733365684747696, 0.031264543533325195, -0.14114350080490112, -0.09744857996702194, 0.05044807493686676, -0.16143867373466492, 0.1217687800526619, 0.05954977497458458, 0.10374953597784042, 0.028273478150367737, 0.0690736472606659, -0.013458251953125, 0.07260346412658691, -0.12873224914073944, -0.012480653822422028, -0.037436507642269135], [0.12142102420330048, -0.042170386761426926, -0.024714861065149307, -0.09412733465433121, -0.12526805698871613, -0.05942104011774063, 0.03461998701095581, -0.134612038731575, 0.06724046170711517, 0.03430440276861191, 0.0678793415427208, 0.05389988794922829, 0.11589202284812927, 0.07801675796508789, 0.13972243666648865, -0.06458165496587753, 0.0371943861246109, 0.1266798973083496, 0.15020063519477844, -0.13191241025924683, -0.0896926298737526, 0.028309429064393044, 0.10586080700159073, 0.03830443695187569, -0.15720012784004211, -0.06957409530878067, -0.14620502293109894, 0.0809532105922699, 0.026869459077715874, -0.11246229708194733, 0.021779969334602356, 0.03447287902235985], [0.064919613301754, -0.1181088462471962, 0.0927201583981514, -0.004410257562994957, 0.11432608962059021, 0.17972096800804138, 0.16899320483207703, -0.16814695298671722, 0.03248472884297371, 0.15440593659877777, -0.007130930200219154, -0.06616529822349548, 0.09484772384166718, 0.14907728135585785, 0.05395670235157013, 0.13616715371608734, -0.15584467351436615, 0.09235977381467819, -0.08331049978733063, 0.06531349569559097, -0.03762161731719971, -0.0765613541007042, 0.07384564727544785, 0.016459371894598007, -0.028103532269597054, -0.0515587292611599, 0.08374454826116562, -0.0628136470913887, 0.06394478678703308, -0.18604831397533417, -0.1775660663843155, 0.13839715719223022], [0.10606026649475098, 0.10543861240148544, 0.03978968411684036, -0.00444113090634346, -0.01978665217757225, 0.056354157626628876, 0.12761616706848145, 0.11143125593662262, 0.09126020222902298, 0.03227917104959488, -0.08764712512493134, 0.08299347013235092, -0.07087447494268417, 0.016772864386439323, 0.06554805487394333, 0.028660142794251442, 0.11772119998931885, -0.12486308813095093, -0.007989780977368355, -0.048803385347127914, 0.0401085764169693, 0.030023790895938873, -0.030795635655522346, -0.039517708122730255, 0.03663129359483719, -0.050547365099191666, -0.003959964029490948, -0.046938616782426834, -0.05228521302342415, -0.07477304339408875, -0.11315254867076874, 0.0617743581533432], [0.04894161969423294, 0.15264640748500824, -0.008251621387898922, 0.026350319385528564, 0.02180681750178337, 0.17917227745056152, -0.1397130787372589, 0.019020259380340576, 0.008049458265304565, -0.06284252554178238, 0.14698468148708344, 0.027606956660747528, -0.010444874875247478, -0.1038886234164238, 0.1342482566833496, 0.023720242083072662, 0.06121644377708435, -0.1433730125427246, 0.07000497728586197, -0.12602576613426208, -0.039576027542352676, -0.0459132045507431, -0.006043856032192707, 0.02057826891541481, 0.05248536542057991, 0.013509734533727169, -0.07592016458511353, 0.09159252792596817, -0.1769164502620697, -0.07960826903581619, -0.03129590302705765, -0.018617134541273117], [-0.07302221655845642, 0.13789811730384827, -0.10239280760288239, 0.09410406649112701, 0.04558996856212616, 0.14929607510566711, -0.12812380492687225, -0.11846830695867538, -0.1470065861940384, 0.036871716380119324, -0.00367122795432806, 0.15216399729251862, -0.17435964941978455, 0.05058157444000244, -0.08484949171543121, -0.06514665484428406, -0.07707836478948593, -0.12570206820964813, -0.04575243592262268, 0.0895317792892456, -0.049864571541547775, -0.1493223011493683, 0.15929223597049713, -0.17823129892349243, -0.14135564863681793, 0.19492758810520172, -0.1271880865097046, -0.02984793670475483, 0.008748695254325867, -0.045657094568014145, -0.014614753425121307, 0.12250031530857086], [-0.18102067708969116, -0.07621730118989944, -0.18723854422569275, -0.09906956553459167, 0.0825425535440445, -0.010979601182043552, 0.12203399091959, 0.13160453736782074, -0.1597774475812912, 0.13998806476593018, -0.1499071717262268, 0.060295674949884415, 0.149307981133461, 0.138277068734169, 0.10929881036281586, -0.15048366785049438, -0.07239621877670288, 0.07643387466669083, 0.12265326827764511, -0.053818441927433014, -0.09845967590808868, -0.1418853998184204, 0.1460614651441574, 0.07497679442167282, -0.025471823289990425, -0.13507772982120514, 0.14734679460525513, -0.021000884473323822, 0.007171711418777704, -0.12653161585330963, -0.016624541953206062, 0.08914320915937424], [0.08111895620822906, -0.08221746981143951, -0.07204212248325348, -0.054025668650865555, -0.15116176009178162, 0.026768308132886887, -0.08718135207891464, 0.17162616550922394, -0.16583631932735443, -0.1741725355386734, 0.031616777181625366, -0.13902021944522858, 0.1510239839553833, -0.08463239669799805, 0.04754813760519028, -0.15010784566402435, -0.09562484920024872, -0.07442431151866913, 0.0107011329382658, 0.13744483888149261, -0.177207350730896, -0.04804706200957298, -0.04858570545911789, 0.1410786658525467, -0.016766078770160675, -0.11529415100812912, 0.040107544511556625, -0.00026525347493588924, 0.13520649075508118, 0.17137937247753143, 0.1309187263250351, -0.07143718749284744], [0.021524952724575996, 0.18060491979122162, 0.01979614421725273, 0.10157585144042969, 0.10027310997247696, 0.05564885213971138, -0.08885458111763, -0.019510919228196144, 0.03523097187280655, -0.0476468950510025, 0.0825868546962738, 0.005394590087234974, -0.08314500749111176, 0.15800818800926208, 0.06142560765147209, 0.129478320479393, -0.11751758307218552, 0.04453512653708458, 0.12380272895097733, -0.0931943878531456, 0.15948086977005005, 0.13440917432308197, -0.14860598742961884, -0.10190553963184357, 0.07877199351787567, 0.04495637118816376, 0.00048493334907107055, -0.1105671301484108, -0.1724160611629486, -0.16920912265777588, 0.004639965482056141, -0.00013770605437457561], [-0.08528859168291092, 0.010556590743362904, 0.03999480977654457, 0.0376814603805542, -0.15176093578338623, -0.011795014142990112, -0.13139666616916656, -0.005635185167193413, 0.1567773073911667, -0.051643066108226776, 0.05440288409590721, 0.06635215133428574, -0.03485735505819321, -0.10554022341966629, 0.017194725573062897, -0.10127680748701096, 0.06907951086759567, 0.027536604553461075, 0.09746900200843811, -0.06537911295890808, 0.07599465548992157, -0.02319636009633541, -0.08194585889577866, 0.035808589309453964, -0.09055918455123901, 0.0029001845978200436, 0.12286482006311417, -0.044664569199085236, 0.11963862925767899, -0.057034533470869064, -0.1045081689953804, 0.020890498533844948], [0.09805015474557877, 0.07073835283517838, -0.06737060099840164, 0.12926551699638367, 0.033186979591846466, 0.08744589239358902, 0.11627385765314102, -0.005434426944702864, -0.14542441070079803, 0.11582902818918228, -0.021808061748743057, -0.10017227381467819, 0.0942445620894432, -0.10859835147857666, 0.02100420370697975, -0.14486268162727356, 0.07174980640411377, -0.06114908307790756, 0.0914178267121315, 0.0685613676905632, -0.07629141956567764, 0.1349974274635315, 0.019071370363235474, 0.02147519588470459, 0.04031769931316376, -0.13165973126888275, 0.07601846754550934, -0.023907795548439026, 0.11125202476978302, 0.08698749542236328, 0.02896204963326454, -0.10584937781095505], [-0.17181046307086945, 0.060075387358665466, 0.14534246921539307, -0.05875090882182121, 0.10835939645767212, -0.027705706655979156, 0.05040205270051956, 0.10145781189203262, -0.055373214185237885, 0.05233534798026085, -0.0850125402212143, 0.11624468117952347, -0.045191630721092224, 0.13787142932415009, 0.12743785977363586, 0.06676646322011948, -0.021429341286420822, -0.12604455649852753, -0.18717776238918304, 0.08931255340576172, -0.05497609078884125, -0.17546647787094116, -0.028785597532987595, -0.058573637157678604, -0.08179806172847748, -0.1437690705060959, -0.06767753511667252, 0.10986297577619553, 0.07161299139261246, 0.023157738149166107, -0.03721572831273079, -0.08171859383583069], [0.05046558007597923, -0.09451059997081757, 0.0031649251468479633, 0.0749044194817543, -0.10870318859815598, -0.0018766751745715737, -0.16751229763031006, 0.15047051012516022, 0.08235356211662292, 0.03056015446782112, -0.020104479044675827, 0.16277772188186646, 0.07125518471002579, -0.09250012040138245, 0.04008588567376137, -0.04302152618765831, 0.13452346622943878, 0.028319910168647766, 0.019525298848748207, -0.1066560298204422, -0.11598944664001465, -0.18525004386901855, 0.019105898216366768, -0.01329950150102377, 0.041796449571847916, 0.03169663995504379, -0.05314765125513077, -0.03479547053575516, 0.17526875436306, 0.10637923330068588, 0.02604430541396141, -0.0844588428735733], [-0.021748898550868034, -0.05561819300055504, 0.021894048899412155, -0.0824502483010292, -0.10901268571615219, -0.07000980526208878, -0.06985929608345032, -0.10261469334363937, -0.1487879604101181, -0.004173488821834326, 0.06426136940717697, 0.08452405035495758, 0.04178112745285034, 0.14521507918834686, 0.07250352948904037, 0.11547701060771942, -0.039780862629413605, -0.05652580410242081, 0.03949080780148506, 0.1447283774614334, -0.04241567477583885, 0.14922523498535156, -0.0356157124042511, 0.12432236224412918, 0.06897010654211044, -0.06617626547813416, -0.017385710030794144, 0.044900570064783096, -0.009836236946284771, 0.01792253367602825, -0.01811438612639904, 0.14077353477478027], [0.13314123451709747, -0.08031174540519714, 0.0446130707859993, 0.000995579524897039, -0.10692400485277176, -0.03884229063987732, -0.14997678995132446, 0.10465739667415619, -0.17152199149131775, -0.061737269163131714, 0.10704327374696732, -0.12530195713043213, 0.11202698945999146, -0.1473974883556366, 0.06779567152261734, -0.18260134756565094, 0.030107270926237106, -0.083363376557827, -0.1401970535516739, 0.049794845283031464, 0.11274183541536331, -0.026663880795240402, -0.08581870794296265, 0.0687011182308197, -0.11405810713768005, 0.0944090262055397, -0.09457475692033768, -0.004451845772564411, 0.028609007596969604, 0.1682996302843094, 0.09076850861310959, 0.0014416277408599854], [0.08099749684333801, 0.01899108663201332, 0.07956817001104355, 0.11829116195440292, -0.016887245699763298, 0.10989329218864441, 0.094014011323452, -0.02696347050368786, 0.12324730306863785, -0.00942949764430523, 0.12669242918491364, -0.008208492770791054, -0.1801830232143402, 0.07522357255220413, -0.10374922305345535, -0.027509599924087524, -0.11224595457315445, -0.13168828189373016, -0.10730152577161789, -0.0513068363070488, -0.04169803112745285, 0.04525892809033394, 0.15631593763828278, -0.025889558717608452, 0.012157408520579338, -0.13782426714897156, 0.08604910969734192, 0.14376439154148102, -0.0026589666958898306, -0.032867468893527985, -0.18156462907791138, -0.006910285912454128], [-0.06624002754688263, -0.08508218824863434, 0.1386595368385315, -0.07199141383171082, -0.09792295843362808, -0.11671433597803116, -0.0017603382002562284, 0.00235139112919569, 0.1305820494890213, -0.10265202075242996, -0.15212462842464447, -0.1250201314687729, 0.021370233967900276, 0.06862291693687439, -0.1375112682580948, 0.1250445544719696, 0.023676082491874695, 0.013137822970747948, 0.023352058604359627, -0.17564190924167633, 0.0035776805598288774, 0.05122474953532219, -0.032031647861003876, -0.15148617327213287, -0.11895003169775009, -0.0030692038126289845, 0.08947145193815231, -0.12906500697135925, -0.026333309710025787, 0.12672092020511627, -0.022972557693719864, 0.11110510677099228], [0.058318596333265305, 0.10759133845567703, 0.11593376845121384, -0.02253922075033188, 0.16673283278942108, 0.1456937938928604, 0.0425509475171566, 0.01867092214524746, 0.1375361680984497, -0.15570133924484253, 0.008184146136045456, 0.1775618940591812, -0.10905434936285019, 0.007544868625700474, -0.027348848059773445, -0.03210454061627388, 0.0027057419065386057, 0.009473493322730064, 0.02045627310872078, -0.012852337211370468, -0.025686929002404213, -0.0439121387898922, -0.14567139744758606, 0.11152532696723938, 0.11896750330924988, -0.022572286427021027, 0.04064430668950081, 0.15938781201839447, 0.057661496102809906, -0.1160687804222107, 0.0013152605388313532, 0.031912174075841904], [-0.0026376217138022184, -0.16217918694019318, 0.03155270591378212, 0.15627031028270721, -0.16279569268226624, -0.12576639652252197, 0.013807706534862518, 0.05181656405329704, -0.10764868557453156, -0.14926330745220184, 0.18500670790672302, 0.014601973816752434, -0.16789285838603973, -0.030227728188037872, -0.1276055872440338, 0.0974748283624649, 0.13188894093036652, 0.022793516516685486, 0.009076553396880627, -0.022973164916038513, 0.08939099311828613, 0.1583826094865799, -0.11443278193473816, -0.14759007096290588, 0.11849690228700638, 0.05429679900407791, 0.12892606854438782, 0.04004514217376709, -0.14992070198059082, 0.03139064460992813, -0.10042427480220795, 0.11089898645877838], [-0.0983816459774971, -0.009102286770939827, -0.07369689643383026, 0.01877991296350956, -0.08730589598417282, 0.1491738110780716, -0.0751301497220993, 0.030900275334715843, -0.02638765424489975, -0.07693541049957275, 0.08737731724977493, -0.1748514026403427, -0.052106451243162155, -0.12356515973806381, -0.10839762538671494, -0.09970147162675858, -0.0020668813958764076, -0.12710963189601898, 0.09674910455942154, -0.09439054876565933, -0.1560559868812561, -0.14732125401496887, 0.016464153304696083, -0.08064844459295273, 0.11464273929595947, -0.07918831706047058, 0.1516212821006775, -0.032421454787254333, 0.0036791020538657904, 0.15682239830493927, 0.02179666981101036, -0.13965849578380585], [0.11727298051118851, 0.14956055581569672, 0.02479786053299904, 0.12528765201568604, 0.0001302887685596943, 0.16106659173965454, 0.11126400530338287, 0.02003495953977108, -0.14642314612865448, 0.11020562052726746, 0.09180896729230881, -0.1325264275074005, 0.03490068390965462, -0.09066545218229294, -0.028234783560037613, 0.10727886110544205, 0.016648977994918823, 0.13237982988357544, -0.098121777176857, -0.16939248144626617, -0.03905254974961281, 0.03985309228301048, -0.024596991017460823, -0.11919110268354416, -0.03853928670287132, 0.056528206914663315, -0.05962209776043892, -0.15562108159065247, 0.10453363507986069, 0.007228465750813484, -0.1431078314781189, -0.08793861418962479], [0.0693678930401802, 0.13493365049362183, 0.08891088515520096, 0.136811301112175, -0.04584499076008797, 0.14762212336063385, -0.019448228180408478, -0.12371900677680969, 0.07382768392562866, -0.06700150668621063, 0.04388195276260376, 0.047902438789606094, 0.022153928875923157, 0.07869115471839905, -0.01663018763065338, 0.14399176836013794, 0.07870417833328247, 0.06400259584188461, 0.08944281935691833, -0.05221348628401756, -0.12561438977718353, 0.14755667746067047, -0.09441545605659485, -0.07365023344755173, 0.04615550488233566, -0.11977634578943253, -0.08082988113164902, 0.06850533187389374, -0.07039520889520645, 0.10693992674350739, -0.06847763806581497, -0.09289707988500595], [0.06149289011955261, 0.009669041261076927, -0.016062799841165543, -0.1372913420200348, -0.04110284149646759, -0.019692692905664444, -0.06682534515857697, 0.07748687267303467, 0.11270611733198166, -0.08542072027921677, 0.1471901834011078, -0.15502320230007172, -0.045492399483919144, -0.08349532634019852, -0.006806823890656233, 0.17265768349170685, 0.09979771822690964, 0.1339365690946579, -0.11099782586097717, 0.14885196089744568, -0.09779222309589386, 0.09225749969482422, 0.07051272690296173, 0.10611847043037415, 0.1274070292711258, 0.056016791611909866, -0.14703935384750366, -0.1554221212863922, 0.026491273194551468, -0.08313518017530441, 0.15905439853668213, -0.14721140265464783], [-0.17076042294502258, 0.14114928245544434, -0.05149349570274353, 0.1271160989999771, 0.08606640249490738, -0.1742790937423706, 0.012414056807756424, 0.08702962100505829, 0.07831522077322006, -0.17159458994865417, 0.08340305835008621, 0.18032126128673553, 0.10246386379003525, 0.13959576189517975, 0.00047583761624991894, 0.14071357250213623, -0.014904332347214222, -0.018896307796239853, 0.012197126634418964, -0.14125096797943115, -0.06814273446798325, 0.013839907944202423, -0.05367244780063629, -0.11245699226856232, 0.008318697102367878, -0.026521876454353333, -0.05534520745277405, 0.15458418428897858, 0.018143754452466965, 0.07543795555830002, 0.03709475323557854, 0.1545301228761673], [-0.14129546284675598, 0.13871672749519348, 0.10876808315515518, 0.06285122781991959, -0.06834004074335098, -0.12673704326152802, 0.11210735887289047, -0.12986809015274048, 0.03974802792072296, -0.13189566135406494, 0.09553928673267365, -0.1558072417974472, 0.0827573761343956, 0.12105698883533478, -0.07840138673782349, 0.16595472395420074, -0.07927078008651733, 0.13772986829280853, 0.14325161278247833, -0.0008539743721485138, 0.08955969661474228, 0.15535132586956024, 0.029587388038635254, 0.1662648767232895, -0.13921351730823517, -0.03497316688299179, 0.0831708312034607, -0.01220289058983326, -0.033318668603897095, 0.04330591857433319, 0.15496094524860382, 0.062134452164173126], [-0.07096531987190247, 0.04783409461379051, -0.1813487857580185, -0.1752450168132782, 0.11528217047452927, 0.10545335710048676, -0.012167909182608128, 0.021761052310466766, -0.007006405387073755, -0.08466677367687225, 0.004471939988434315, -0.12433568388223648, -0.0966712236404419, -0.15937229990959167, -0.006783897988498211, -0.03890860825777054, 0.11546369642019272, 0.15225805342197418, 0.1154375672340393, 0.1335921436548233, -0.07099606841802597, -0.01807282119989395, -0.09883196651935577, 0.10702084749937057, 0.15248596668243408, 0.0690883919596672, 0.12200705707073212, 0.028643878176808357, -0.06538855284452438, -0.0778079554438591, -0.11649001389741898, -0.122751384973526], [-0.09181815385818481, 0.04753793030977249, -0.001823544967919588, 0.18798546493053436, -0.05431070923805237, 0.16472145915031433, -0.10690858960151672, 0.047067128121852875, -0.12434419989585876, -0.13313430547714233, -0.15298475325107574, 0.020508863031864166, -0.14469289779663086, 0.18418386578559875, 0.05243092402815819, -0.0019619599916040897, 0.10052686929702759, 0.030006587505340576, -0.10410993546247482, 0.10950639843940735, 0.11590390652418137, 0.18004001677036285, 0.05555643141269684, -0.14430195093154907, 0.054859232157468796, 0.09697245061397552, 0.13893374800682068, -0.03734607622027397, -0.12751024961471558, -0.16207751631736755, -0.033990368247032166, 0.13392795622348785], [0.15785205364227295, -0.08688358217477798, -0.1701280176639557, -0.15271815657615662, -0.12876975536346436, 0.027887338772416115, -0.07788420468568802, 0.07780486345291138, -0.09900327026844025, 0.15530063211917877, -0.017960229888558388, -0.05386873707175255, 0.10687506198883057, -0.0925612524151802, -0.11770246922969818, -0.0589880496263504, 0.1139586865901947, -0.04084240645170212, 0.07685139030218124, 0.04327954724431038, 0.12179277092218399, -0.029215779155492783, 0.13257169723510742, -0.03500784933567047, 0.17312631011009216, -0.07227996736764908, -0.14334478974342346, 0.13461492955684662, 0.026307448744773865, 0.1463606208562851, 0.04066408798098564, -0.1500636786222458], [0.10788056254386902, 0.17773523926734924, 0.15806066989898682, -0.024315329268574715, 0.15324702858924866, -0.10466476529836655, 0.16285134851932526, -0.15102265775203705, -0.006780742201954126, -0.0010940702632069588, 0.10207361727952957, -0.15179385244846344, -0.13560695946216583, 0.15048718452453613, -0.04069571569561958, -0.15423795580863953, -0.030327854678034782, -0.013679762370884418, 0.020993877202272415, -0.007053850218653679, 0.1444575935602188, 0.1054140031337738, -0.16231977939605713, 0.07821793109178543, 0.14094972610473633, -0.0604693628847599, 0.007517327554523945, 0.08845256268978119, 0.08604418486356735, -0.010922553017735481, -0.11807946115732193, 0.12357339262962341], [0.12363745272159576, 0.17876234650611877, 0.008414515294134617, -0.13712438941001892, -0.12526971101760864, -0.11350908130407333, -0.06309465318918228, 0.05243859812617302, 0.1314714550971985, 0.007943578064441681, -0.07042127847671509, -0.11746438592672348, 0.039811521768569946, 0.03902652859687805, 0.13534274697303772, -0.013048876076936722, 0.03158232942223549, -0.137858048081398, 0.1771966814994812, 0.1040634959936142, 0.12581831216812134, 0.14688362181186676, 0.14297232031822205, -0.12924093008041382, -0.013101493939757347, 0.12624812126159668, -0.18057440221309662, 0.022288769483566284, -0.1587231308221817, -0.10785147547721863, -0.1064499020576477, -0.08672550320625305], [0.1778067797422409, -0.037664882838726044, -0.08859787881374359, -0.08625450730323792, 0.0942140743136406, 0.053416647017002106, 0.14590579271316528, -0.15967583656311035, 0.014534187503159046, -0.13716167211532593, 0.11065801233053207, -0.16874755918979645, -0.09084533900022507, 0.10553497076034546, -0.10321848839521408, 0.17907771468162537, 0.07946750521659851, 0.12680771946907043, -0.06962013244628906, -0.17948636412620544, 0.1043054386973381, 0.11524179577827454, 0.11198457330465317, 0.13725824654102325, -0.05752670019865036, -0.07264912873506546, 0.15459735691547394, -0.1440967619419098, -0.018908891826868057, 0.13512395322322845, 0.15636470913887024, 0.14215479791164398], [-0.0557437501847744, -0.14700952172279358, -0.06456112116575241, 0.080466628074646, 0.10801798105239868, -0.00435539660975337, 0.09317042678594589, -0.007485616952180862, -0.11611584573984146, 0.1568836122751236, 0.1784708946943283, 0.04123794287443161, 0.009426582604646683, -0.035149965435266495, 0.034870125353336334, -0.15410417318344116, -0.1797945648431778, -0.15863166749477386, 0.049497731029987335, -0.13215547800064087, -0.04147564619779587, 0.15880340337753296, 0.10246886312961578, -0.16625328361988068, 0.13155576586723328, -0.027034185826778412, -0.04041115194559097, -0.002207415644079447, 0.0247823353856802, -0.08034327626228333, -0.03238259628415108, 0.10562050342559814], [0.049393102526664734, 0.06547926366329193, -0.15302933752536774, 0.09518837183713913, 0.07283218950033188, -0.11692369729280472, 0.06418127566576004, -0.04522104188799858, -0.14409950375556946, 0.06671617180109024, -0.10938431322574615, -0.046005479991436005, -0.12503410875797272, -0.07816428691148758, -0.10452904552221298, 0.10575917363166809, -0.05038566514849663, 0.13373355567455292, 0.10982439666986465, 0.0565449595451355, 0.003528447123244405, 0.07577521353960037, 0.11433494091033936, 0.05742809921503067, -0.0078820139169693, 0.052984096109867096, -0.10782448202371597, 0.1223510354757309, 0.03771330043673515, -0.06837126612663269, 0.09744919091463089, -0.02827800065279007], [-0.15715384483337402, -0.13002453744411469, 0.1735105961561203, 0.09017884731292725, -0.09447009116411209, 0.10376136749982834, 0.04766884073615074, 0.15602266788482666, -0.10558678209781647, 0.12431023269891739, -0.006624334491789341, -0.12976408004760742, 0.10236020386219025, -0.0019870921969413757, 0.1482100486755371, -0.009240173734724522, 0.13624578714370728, 0.07581394910812378, 0.17062191665172577, 0.11970800161361694, 0.02561553753912449, 0.1291421800851822, 0.0996934175491333, -0.10098229348659515, -0.1568402349948883, 0.10151886940002441, -0.07066980004310608, -0.006450939923524857, 0.07104002684354782, -0.08437253534793854, 0.15335607528686523, -0.13362988829612732], [-0.15832529962062836, 0.1297101378440857, 0.05140870064496994, -0.11964941024780273, -0.1758299171924591, -0.15651848912239075, -0.16039016842842102, 0.01667884923517704, -0.00928794126957655, 0.1733987182378769, 0.11887894570827484, 0.03654998540878296, -0.0022756115067750216, 0.0764855220913887, 0.06135660409927368, 0.022687029093503952, -0.09901374578475952, 0.12263122946023941, -0.10771384835243225, -0.18014751374721527, -0.019122423604130745, -0.061396658420562744, 0.03064195066690445, -0.0678703561425209, -0.09543989598751068, 0.02728141099214554, 0.13966259360313416, 0.14228788018226624, -0.010158252902328968, 0.09512612223625183, -0.0508083738386631, 0.15500424802303314], [0.06890881061553955, -0.10335182398557663, -0.03631056845188141, 0.07838916033506393, 0.1697540432214737, -0.09787843376398087, -0.011708020232617855, 0.12838095426559448, -0.07681916654109955, -0.11392513662576675, 0.026701854541897774, -0.15462897717952728, 0.11266082525253296, 0.021971896290779114, -0.12969449162483215, -0.15958625078201294, 0.13505344092845917, -0.038046810775995255, -0.029471449553966522, 0.07826520502567291, 0.014218493364751339, -0.14163543283939362, 0.10127352178096771, 0.07698342204093933, 0.12904737889766693, 0.0018186077941209078, -0.1043684110045433, -0.02416102960705757, 0.05158916860818863, -0.05844992399215698, 0.06488359719514847, -0.009767738170921803], [0.14128723740577698, 0.15230080485343933, 0.07368536293506622, -0.023455392569303513, -0.1601543128490448, -0.02390362322330475, 0.08103261888027191, -0.10453325510025024, 0.015609240159392357, 0.03827793896198273, -0.16447699069976807, -0.06355845183134079, 0.14816518127918243, 0.1765054613351822, 0.03201298043131828, 0.00034506339579820633, -0.025096558034420013, 0.13246209919452667, 0.045422326773405075, -0.002196607179939747, 0.09872905910015106, -0.04464370012283325, -0.036989979445934296, 0.13718241453170776, 0.056958310306072235, 0.13478901982307434, -0.052197784185409546, -0.12145255506038666, 0.0005678816232830286, -0.0021744268015027046, -0.0001527594868093729, 0.03577267378568649], [-0.02732844464480877, 0.04189940541982651, -0.023755917325615883, -0.024167800322175026, -0.0002013854682445526, -0.1306244432926178, -0.10277793556451797, 0.006334178615361452, 0.028685512021183968, 0.02316330559551716, -0.08383795619010925, -0.18183459341526031, -0.07531285285949707, 0.027890538796782494, -0.019948897883296013, 0.09701462090015411, -0.1420677900314331, -0.002304987981915474, 0.11745230853557587, -0.14404939115047455, 0.09095989167690277, -0.03940308094024658, 0.026880374178290367, 0.1406996250152588, 0.14992500841617584, -0.0005380446091294289, -0.03641939163208008, 0.11875897645950317, 0.07981285452842712, -0.06536591053009033, -0.15581737458705902, -0.1306716948747635], [0.011152401566505432, 0.05250801518559456, 0.03497431054711342, -0.011569390073418617, 0.08428645133972168, -0.14318977296352386, -0.08926936984062195, -0.1422184854745865, 0.1360280066728592, 0.12582699954509735, -0.09458065032958984, 0.12697754800319672, 0.044837359338998795, 0.1078546792268753, -0.03930523246526718, -0.03835354745388031, 0.05990225076675415, 0.01925479620695114, -0.10223955661058426, -0.0015853053191676736, -0.05634631589055061, 0.14319023489952087, -0.09268850088119507, 0.02915125899016857, -0.06288591772317886, 0.10210100561380386, 0.08349566161632538, 0.10766057670116425, -0.059546224772930145, 0.02286766655743122, -0.10329169780015945, 0.0790470689535141], [-0.044185344129800797, 0.13067808747291565, 0.1349748820066452, -0.02685743197798729, 0.11941519379615784, -0.10221166908740997, -0.14256449043750763, 0.08586867898702621, 0.02605222910642624, 0.024793682619929314, 0.11767414957284927, -0.10365775227546692, 0.14113453030586243, -0.15072450041770935, 0.09394721686840057, -0.18554961681365967, 0.052709147334098816, -0.02738376334309578, -0.15012352168560028, -0.050591062754392624, -0.17710234224796295, 0.03380923345685005, -0.07542911916971207, -0.08183035999536514, 0.04266813024878502, -0.036451585590839386, 0.11388455331325531, -0.1109699159860611, 0.11147572100162506, 0.06942099332809448, 0.060705266892910004, 0.1493031531572342], [0.17426329851150513, 0.17615145444869995, 0.09574556350708008, 0.08962854743003845, -0.0749305933713913, 0.1270999312400818, 0.10742586851119995, 0.0024495660327374935, 0.1717977374792099, -0.029266994446516037, 0.03372674062848091, -0.16566291451454163, 0.06163475289940834, -0.0961766317486763, -0.11625763773918152, -0.058181289583444595, 0.16026151180267334, -0.12379816919565201, -0.12320472300052643, 0.14970766007900238, -0.007509556133300066, -0.12677974998950958, -0.043317634612321854, 0.15772223472595215, -0.18293389678001404, 0.14593470096588135, 0.012941628694534302, 0.11601710319519043, -0.06672526895999908, -0.07400252670049667, 0.06782301515340805, -0.12083472311496735], [0.13695849478244781, 0.12246379256248474, -0.1656508445739746, 0.02292817458510399, -0.15023857355117798, 0.04666496813297272, -0.005173323675990105, -0.0936054140329361, 0.039329975843429565, -0.07572691887617111, -0.13777464628219604, 0.127669557929039, -0.14611025154590607, -0.05944198742508888, 0.03640158846974373, -0.009728548116981983, 0.11914432793855667, -0.14653636515140533, -0.047066401690244675, 0.16357937455177307, -0.004467337392270565, 0.16455361247062683, -0.1774957776069641, 0.020114433020353317, 0.010525204241275787, -0.1187322586774826, -0.17174866795539856, -0.14691752195358276, -0.1328107863664627, -0.10902252793312073, 0.12812168896198273, -0.13314782083034515], [-0.017220182344317436, 0.08857204765081406, 0.04853437468409538, -0.0732831060886383, -0.07213666290044785, -0.03592139855027199, -0.12965138256549835, -0.058272771537303925, 0.13841339945793152, 0.05957135185599327, 0.07800512760877609, 0.02746189944446087, -0.038329966366291046, 0.011265150271356106, -0.14297345280647278, 0.13360606133937836, 0.11180485785007477, 0.07463426142930984, -0.06168002635240555, 0.1487710028886795, 0.005889028310775757, 0.016187425702810287, 0.057105034589767456, 0.03972785547375679, 0.030249666422605515, 0.08069576323032379, 0.10268411040306091, -0.06422781199216843, 0.022605402395129204, 0.006477342918515205, 0.0881619080901146, 0.09072954207658768], [0.12872128188610077, 0.0070120953023433685, -0.05315683037042618, -0.10621120035648346, -0.04620182514190674, -0.06447742134332657, -0.03860507160425186, 0.06709165126085281, -0.02426205202937126, -0.011509555391967297, -0.09956278651952744, -0.03737659007310867, -0.11298462003469467, -0.023449886590242386, -0.0012665682006627321, -0.10055816173553467, 0.027446381747722626, -0.11762909591197968, 0.05832492187619209, 0.024047385901212692, -0.11009000986814499, -0.14910772442817688, -0.09426675736904144, -0.05257360637187958, 0.05796756595373154, 0.028158653527498245, -0.07133907824754715, -0.035229165107011795, 0.010779105126857758, -0.13032224774360657, -0.09378521144390106, 0.08006047457456589], [0.05732528120279312, 0.14647407829761505, 0.1290273368358612, -0.09939122200012207, -0.1394994705915451, -0.14940766990184784, -0.08941373229026794, 0.04269833862781525, -0.05253419652581215, 0.13816027343273163, -0.12679573893547058, -0.15650750696659088, -0.08085618168115616, -0.16265712678432465, 0.03301946446299553, 0.15346506237983704, -0.04070180281996727, 0.12353034317493439, 0.05015682429075241, -0.0582457110285759, 0.14508292078971863, -0.02814961038529873, -0.12177581340074539, -0.10412450134754181, -0.09941525757312775, 0.004824407398700714, 0.025141296908259392, 0.035536766052246094, -0.023485850542783737, 0.1768994778394699, -0.060588713735342026, -0.14740979671478271], [-0.020236322656273842, 0.14727520942687988, 0.13391517102718353, -0.14313505589962006, 0.13859494030475616, 0.032355617731809616, 0.06511321663856506, -0.1477346420288086, -0.006434128154069185, 0.11885533481836319, -0.16991204023361206, 0.10708975046873093, -0.0033369646407663822, 0.1481456607580185, 0.028195034712553024, -0.1230042427778244, 0.05495614930987358, 0.07470465451478958, -0.14890241622924805, -0.06100544333457947, -0.1147509217262268, 0.04844820871949196, 0.09522813558578491, 0.17539437115192413, -0.11534858494997025, 0.0745130404829979, -0.016860608011484146, -0.028249390423297882, 0.12155391275882721, -0.0741669237613678, 0.07688867300748825, 0.12721481919288635], [-0.034579332917928696, -0.1093207374215126, -0.055379174649715424, 0.013369722291827202, -0.037968628108501434, -0.02719072438776493, -0.0213125329464674, -0.03963080048561096, -0.1562064290046692, 0.0176076702773571, 0.11996307224035263, 0.09232163429260254, -0.053975909948349, -0.04071829095482826, 0.0017220042645931244, -0.04798110947012901, 0.1704133152961731, 0.054106637835502625, -0.1038053035736084, -0.015748579055070877, -0.07109678536653519, 0.15048599243164062, 0.11206299811601639, 0.02225334756076336, 0.04010363295674324, 0.08448868989944458, 0.10835444182157516, -0.038659289479255676, -0.13554945588111877, -0.07906656712293625, -0.0865536481142044, -0.056087836623191833], [-0.16322779655456543, -0.08166639506816864, 0.14754800498485565, 0.0046838801354169846, -0.026343824341893196, -0.15180468559265137, 0.15445184707641602, -0.15489110350608826, 0.057392269372940063, -0.09209205210208893, 0.17206059396266937, 0.15968270599842072, 0.16098785400390625, 0.15534456074237823, -0.1265580803155899, 0.1295345276594162, 0.11985424160957336, 0.1207038015127182, -0.03705025091767311, -0.12650161981582642, -0.10360188782215118, -0.09513253718614578, -0.03685079514980316, -0.13829274475574493, -0.08276891708374023, -0.01295415684580803, 0.1315932422876358, -0.08126305043697357, -0.008912189863622189, 0.01911097951233387, -0.15587642788887024, 0.10862365365028381], [0.018870515748858452, -0.04394254460930824, 0.05900096893310547, -0.05910556763410568, 0.12197594344615936, 0.07953491061925888, -0.03333458676934242, -0.06013157591223717, 0.05185335502028465, -0.040609557181596756, -0.06897151470184326, 0.03114292211830616, 0.1309916228055954, -0.1457509696483612, 0.07089400291442871, 0.12168654054403305, -0.009601247496902943, 0.015298254787921906, 0.09034192562103271, -0.03425418213009834, 0.1804298311471939, 0.13492152094841003, 0.05029035732150078, 0.04728095605969429, -0.00795742217451334, -0.0953214168548584, 0.011784710921347141, 0.089643195271492, -0.024356406182050705, 0.011939117684960365, 0.08312200754880905, -0.0641665980219841], [-0.016224270686507225, 0.10010192543268204, -0.12371078133583069, 0.0638575330376625, -0.06523723155260086, -0.13626573979854584, 0.07759761810302734, -0.0012864915188401937, 0.1455751359462738, 0.07397367805242538, -0.18023353815078735, 0.043203841894865036, 0.11286674439907074, -0.0850609838962555, -0.0849887803196907, -0.17750431597232819, -0.019158175215125084, -0.019270997494459152, -0.004722557961940765, 0.13266430795192719, -0.014760373160243034, 0.13059966266155243, 0.015093617141246796, 0.0654369369149208, 0.011461639776825905, 0.08949699997901917, 0.1376267522573471, -0.05402064323425293, 0.017964275553822517, -0.1340600699186325, -0.01686818152666092, 0.03283512219786644], [-0.09951112419366837, 0.08169828355312347, 0.17298123240470886, -0.15329627692699432, -0.16055120527744293, -0.05861308425664902, 0.053377870470285416, 0.13902117311954498, -0.024152657017111778, -0.14491382241249084, 0.009061643853783607, 0.1292709857225418, -0.15052209794521332, -0.04431230202317238, 0.11177626997232437, -0.004952426999807358, 0.07883717864751816, 0.07145074009895325, 0.09074899554252625, -0.17813611030578613, -0.11201038956642151, -0.07369901239871979, 0.10191977769136429, -0.027415703982114792, -0.07772520184516907, 0.09296014904975891, 0.03447101637721062, 0.12438102066516876, -0.0909060388803482, 0.1162365972995758, -0.06276885420084, -0.12777401506900787], [-0.06671073287725449, -0.11216723173856735, -0.1214960366487503, -0.059078361839056015, 0.15974365174770355, 0.10053019970655441, -0.10656525194644928, 0.061464644968509674, 0.012814617715775967, -0.06504568457603455, 0.14340008795261383, 0.12490886449813843, 0.12881937623023987, 0.04496295005083084, -0.14851856231689453, -0.07579579204320908, 0.12684062123298645, 0.0022851116955280304, -0.013714241795241833, 0.02756653167307377, 0.007820765487849712, 0.07832390069961548, 0.07164105772972107, -0.05158903822302818, 0.005210088565945625, 0.04207196831703186, 0.1161259338259697, -0.0832907184958458, 0.038586050271987915, -0.17890812456607819, -0.15067513287067413, 0.14924967288970947], [0.08307577669620514, -0.09138479828834534, 0.02593393065035343, -0.11776349693536758, -0.09747236222028732, 0.13218683004379272, 0.053044047206640244, 0.08757661283016205, -0.11313240230083466, -0.11548817157745361, 0.15887272357940674, -0.16335704922676086, 0.044019412249326706, -0.15378424525260925, -0.004855804145336151, 0.020883917808532715, -0.1405753642320633, -0.0627884566783905, 0.15471036732196808, 0.08101186156272888, -0.1168699860572815, 0.17186233401298523, 0.16217005252838135, -0.10965036600828171, -0.05665755644440651, -0.14457739889621735, -0.14080266654491425, -0.11358257383108139, 0.016554217785596848, 0.1218365728855133, 0.11625250428915024, -0.01789122447371483], [0.08766145259141922, -0.13939660787582397, 0.031951673328876495, -0.12482669949531555, -0.020543260499835014, -0.05466367304325104, -0.10847687721252441, -0.1328110694885254, 0.01383902970701456, -0.17526137828826904, 0.000557516876142472, 0.17474280297756195, 0.15226054191589355, -0.1139526218175888, -0.11508466303348541, 0.09340257942676544, 0.06071244180202484, -0.03940500319004059, -0.11790421605110168, -0.14042051136493683, -0.18019819259643555, 0.09956616163253784, -0.14782242476940155, 0.12880566716194153, -0.06218773499131203, -0.10786202549934387, -0.01625373400747776, 0.037639059126377106, 0.13393360376358032, 0.0068163019604980946, 0.04131485894322395, -0.08718016743659973], [0.05123510956764221, -0.09299402683973312, -0.14506471157073975, 0.07862232625484467, 0.04469013586640358, 0.04368152469396591, -0.13462252914905548, -0.03190058842301369, -0.04325784370303154, 0.13019520044326782, -0.15289486944675446, -0.03875948488712311, -0.08235722035169601, 0.10177968442440033, 0.11875484138727188, -0.09343603998422623, -0.14357823133468628, 0.035929303616285324, -0.13190776109695435, -0.005176221020519733, 0.11830392479896545, 0.02962384559214115, -0.07198411226272583, 0.03964291512966156, 0.1902117133140564, -0.11142973601818085, 0.12322096526622772, 0.08788616955280304, -0.008742120116949081, 0.14537528157234192, 0.17949111759662628, 0.12612920999526978], [-0.08087974041700363, 0.021493075415492058, 0.06743144989013672, 0.11568441241979599, 0.012528281658887863, 0.11817283928394318, -0.1813466101884842, -0.15012969076633453, -0.06653159856796265, -0.06216469779610634, 0.14679071307182312, -0.0850268304347992, -0.012443764135241508, 0.11758070439100266, 0.11495311558246613, -0.177582785487175, -0.09752912074327469, -0.13192132115364075, -0.17058268189430237, -0.13510297238826752, 0.08877567946910858, 0.017189742997288704, -0.1420140564441681, 0.08425877243280411, 0.10023584216833115, 0.10044711083173752, 0.014400815591216087, -0.1621827334165573, 0.04671704024076462, -0.07964307814836502, -0.09318683296442032, 0.06010134890675545], [-0.0227378960698843, 0.04472007974982262, -0.012777973897755146, -0.10719369351863861, -0.1345614641904831, -0.0076407878659665585, 0.029950398951768875, -0.046625155955553055, 0.07830340415239334, 0.006677538156509399, -0.038800936192274094, -0.13267306983470917, 0.14091937243938446, 0.013052009046077728, -0.1121051162481308, -0.03980855643749237, -0.03996051847934723, 0.035370513796806335, 0.10307306051254272, -0.02081138826906681, 0.10272818803787231, -0.08882712572813034, 0.05925299599766731, -0.130364790558815, -0.12229684740304947, -0.015356915071606636, 0.15348124504089355, -0.07898402959108353, -0.07999879121780396, 0.06486478447914124, -0.09460566192865372, -0.13808810710906982], [0.13296616077423096, -0.12170857191085815, 0.12167252600193024, -0.04666953161358833, 0.13020475208759308, 0.012764126062393188, -0.06073460727930069, 0.00120419857557863, 0.06870418787002563, -0.1107727587223053, -0.07722064107656479, 0.06360361725091934, 0.004747599363327026, -0.05446576699614525, 0.06336767971515656, 0.12814903259277344, 0.005431872792541981, -0.1166711300611496, -0.03505036607384682, 0.11446963995695114, 0.13234543800354004, 0.14150315523147583, 0.07064971327781677, -0.12220776826143265, -0.1369231641292572, -0.10068267583847046, -0.10642649233341217, -0.11544835567474365, -0.12594030797481537, -0.06527666747570038, -0.10086603462696075, 0.09234335273504257], [0.03439247980713844, -0.056800149381160736, -0.041902489960193634, -0.02312229759991169, -0.16761821508407593, 0.06856545805931091, 0.03935127332806587, 0.03381263092160225, 0.0987560972571373, 0.0848301351070404, 0.03739264979958534, -0.16875059902668, -0.17098483443260193, -0.14704962074756622, 0.12080270797014236, 0.03381605073809624, -0.11856959760189056, 0.059768810868263245, -0.14491142332553864, 0.07514550536870956, 0.11701750010251999, -0.03506820648908615, -0.062142692506313324, -0.1226954534649849, 0.09142880141735077, -0.14590701460838318, 0.05284314602613449, -0.10868850350379944, 0.14195065200328827, -0.08613546192646027, 0.08299068361520767, -0.15754257142543793], [-0.1534668505191803, -0.06294580549001694, -0.16793711483478546, -0.019691340625286102, -0.15125766396522522, 0.11984727531671524, -0.1370207965373993, -0.05223669856786728, -0.0664614886045456, -0.13484738767147064, -0.03847039118409157, 0.020687147974967957, -0.08180475980043411, 0.10784602910280228, -0.11126762628555298, 0.020754294469952583, 0.09141906350851059, 0.08951325714588165, -0.1591896265745163, 0.13085485994815826, 0.07482615113258362, 0.10978028923273087, -0.0029336903244256973, -0.10791019350290298, 0.09556281566619873, -0.14020878076553345, 0.05578909069299698, -0.02665821835398674, 0.0033046924509108067, 0.0842176005244255, 0.12106186151504517, 0.10588353872299194], [0.15658652782440186, 0.1365063637495041, 0.006759648211300373, -0.06587782502174377, 0.00793195515871048, -0.02391827292740345, 0.15729540586471558, 0.014713211916387081, 0.07792124897241592, -0.09481792896986008, 0.11765210330486298, -0.004551449790596962, -0.14111968874931335, -0.11390557885169983, -0.03626052662730217, 0.04561542719602585, 0.03693797439336777, -0.09326057881116867, 0.05118096247315407, -0.060086484998464584, 0.1792553812265396, 0.06529796868562698, -0.0790814608335495, -0.1086466833949089, -0.03411387652158737, 0.09413807094097137, 0.15827877819538116, 0.14307953417301178, 0.0919637456536293, -0.02057161182165146, 0.0721190944314003, -0.07373090833425522], [-0.004367347806692123, 0.09199127554893494, -0.12101094424724579, -0.16808462142944336, 0.15912982821464539, -0.0658378079533577, -0.027216140180826187, 0.17847076058387756, 0.10651718825101852, -0.08932092040777206, -0.066274493932724, -0.05783728510141373, -0.11622786521911621, 0.08932174742221832, -0.12268942594528198, 0.12017098814249039, 0.09788116067647934, -0.08003696799278259, 0.11067445576190948, 0.07211238890886307, -0.12621113657951355, 0.06221519410610199, -0.1345926821231842, 0.11819454282522202, 0.08186100423336029, 0.07026815414428711, -0.09353331476449966, -0.09335196763277054, -0.104863241314888, 0.03838304802775383, -0.06315149366855621, 0.06120741739869118], [-0.12003818899393082, -0.17258265614509583, 0.015320848673582077, -0.010752620175480843, 0.1277274787425995, -0.023500194773077965, 0.021300897002220154, 0.13646630942821503, -0.03278697282075882, 0.1001809686422348, -0.028566895052790642, -0.14941726624965668, 0.03877177834510803, 0.025103479623794556, 0.16790340840816498, -0.1407783031463623, -0.10612397640943527, 0.06961247324943542, -0.085414819419384, -0.03705551102757454, 0.07402719557285309, 0.030512681230902672, 0.1076849102973938, 0.11938858032226562, -0.0029730903916060925, 0.016874944791197777, -0.015986012294888496, 0.0323462150990963, 0.07628706097602844, -0.05220674350857735, 0.07725448161363602, -0.01837439090013504], [-0.009286182001233101, 0.12315472960472107, -0.08452457189559937, 0.09876923263072968, -0.11467167735099792, 0.14961126446723938, -0.07328382879495621, 0.09174472838640213, -0.14324256777763367, -0.022471563890576363, 0.17923232913017273, -0.1703350991010666, 0.14927205443382263, -0.0769999697804451, -0.11622657626867294, -0.03249014541506767, -0.08386047929525375, -0.10188935697078705, -0.09928911924362183, -0.0036583389155566692, 0.028091346845030785, 0.05758919566869736, -0.06920885294675827, -0.09087862819433212, -0.11407294869422913, -0.03985964506864548, 0.04208741709589958, 0.011431040242314339, 0.12972186505794525, 0.024338530376553535, 0.15608151257038116, 0.12972024083137512], [0.016766399145126343, -0.09561193734407425, -0.09716220945119858, 0.07352184504270554, -0.04772940278053284, -0.032548688352108, -0.10594042390584946, -0.05732271820306778, -0.027996493503451347, -0.030851280316710472, -0.047982972115278244, 0.05454828590154648, -0.12862245738506317, -0.14939703047275543, -0.11720847338438034, -0.006699529476463795, -0.016219405457377434, 0.0867912769317627, -0.09509897232055664, -0.045295946300029755, 0.1301746964454651, 0.14268183708190918, 0.08622712641954422, 0.07903212308883667, 0.0660531222820282, 0.06980724632740021, -0.05081888288259506, -0.18611197173595428, -0.08393914252519608, -0.09232959896326065, -0.0856076329946518, -0.10244929790496826], [-0.051734134554862976, 0.05321990326046944, -0.1150534451007843, 0.1618819385766983, 0.0986674427986145, -0.038794390857219696, -0.051448721438646317, -0.12886717915534973, 0.1258254498243332, -0.021209590137004852, 0.006968474946916103, -0.0510580837726593, 0.04398776590824127, 0.14545169472694397, 0.17155444622039795, 0.06377679854631424, -0.06852303445339203, -0.04278683662414551, 0.15655162930488586, -0.0009375578374601901, 0.02304346114397049, -0.11649242788553238, -0.15983577072620392, -0.08520946651697159, -0.1539919078350067, 0.14703305065631866, -0.09178651869297028, -0.09747519344091415, -0.13020579516887665, -0.017168492078781128, -0.1584579050540924, 0.09160617738962173], [0.03315267339348793, -0.1400536745786667, 0.033469028770923615, -0.050804901868104935, 0.09135477244853973, -0.09631140530109406, 0.14478793740272522, 0.10191406309604645, -0.08923245221376419, -0.19033458828926086, -0.0804811641573906, -0.01734345778822899, -0.08153603225946426, 0.14833103120326996, -0.13416169583797455, -0.09102176129817963, -0.030857909470796585, 0.030647175386548042, 0.16065554320812225, -0.11558462679386139, -0.018117539584636688, -0.06021764874458313, -0.13474313914775848, 0.03220251947641373, -0.08855873346328735, 0.13901786506175995, 0.14582352340221405, -0.010377254337072372, 0.09269625693559647, -0.12884753942489624, 0.08120080828666687, -0.18696708977222443], [0.17154859006404877, -0.08334387093782425, -0.09765586256980896, 0.04909301549196243, 0.08633624017238617, -0.1457577645778656, 0.0710035115480423, 0.02852058783173561, 0.15368406474590302, 0.15822841227054596, 0.16595573723316193, 0.05289597064256668, -0.1844024360179901, 0.13618110120296478, 0.03249983489513397, 0.10558035224676132, -0.11293870210647583, 0.001647356664761901, -0.13820841908454895, 0.06050058454275131, 0.028502672910690308, -0.03949446231126785, 0.12828783690929413, 0.10245678573846817, 0.08196939527988434, 0.07010669261217117, -0.08685971051454544, 0.0524258054792881, -0.1744402050971985, 0.1429869830608368, -0.005200138781219721, -0.11035461723804474], [0.06613576412200928, -0.13093654811382294, -0.04736124724149704, 0.04808611050248146, 0.04946056008338928, 0.14734052121639252, 0.05425795912742615, -0.14846907556056976, -0.12811113893985748, 0.18857429921627045, 0.11907710134983063, 0.15342874825000763, -0.16753777861595154, 0.013185618445277214, -0.09174971282482147, 0.16230908036231995, 0.12157824635505676, -0.06574664264917374, -0.05615382269024849, 0.015722017735242844, 0.18172650039196014, 0.12413010001182556, -0.008929217234253883, -0.07714960724115372, -0.15852834284305573, 0.08291193842887878, -0.002982193836942315, 0.08405444025993347, -0.062294550240039825, -0.09751036763191223, -0.16117313504219055, -0.02943991869688034], [0.014309722930192947, -0.07492458820343018, -0.12006515264511108, -0.18520407378673553, -0.08547406643629074, -0.05608583241701126, -0.06527571380138397, -0.04087339714169502, -0.1105552390217781, 0.0029946393333375454, -0.061792559921741486, -0.047114454209804535, -0.16212892532348633, -0.16018009185791016, 0.08962563425302505, 0.12241547554731369, -0.04902253672480583, 0.16303497552871704, -0.15169447660446167, 0.07721449434757233, -0.16861744225025177, -0.024284880608320236, 0.15442128479480743, -0.0896926000714302, -0.09019128978252411, 0.04562598466873169, 0.08603271096944809, 0.08013619482517242, 0.04438852146267891, 0.07196825742721558, 0.0209977924823761, -0.015143638476729393], [-0.12444354593753815, -0.06272700428962708, 0.07761270552873611, -0.1473848819732666, -0.04529741406440735, 0.0960647463798523, 0.14568255841732025, -0.09658075124025345, -0.14516453444957733, -0.027447329834103584, -0.10310022532939911, 0.12259393185377121, 0.17911909520626068, -0.1638192981481552, 0.07449079304933548, -0.07333289831876755, 0.04555491730570793, 0.12666675448417664, 0.04361879080533981, -0.039549168199300766, -0.031648166477680206, 0.14899852871894836, -0.025567971169948578, -0.051502253860235214, 0.0008229725062847137, 0.14819708466529846, 0.13489997386932373, -0.024034500122070312, -0.012712989002466202, -0.05496511235833168, 0.16711199283599854, -0.038773924112319946], [0.10091684013605118, 0.1288306564092636, 0.10387562960386276, -0.1435527354478836, -0.15283086895942688, -0.05671254172921181, 0.12734033167362213, 0.012221393175423145, -0.16877061128616333, -0.18175190687179565, -0.03077889233827591, -0.05793440714478493, -0.05175168439745903, -0.12342248111963272, -0.043710507452487946, -0.05460524559020996, -0.100248321890831, 8.950382471084595e-05, 0.11455497145652771, -0.08714568614959717, -0.026890268549323082, -0.0334983691573143, -0.1531015783548355, -0.030436836183071136, -0.14666642248630524, 0.10001633316278458, 0.039555877447128296, -0.09934385865926743, 0.09882786124944687, -0.010137632489204407, -0.09292437136173248, 0.15451321005821228], [-0.11988073587417603, -0.11126365512609482, -0.012271028012037277, -0.11287199705839157, 0.04308503121137619, -0.1661749929189682, -0.05103473365306854, 0.05784909799695015, -0.14786957204341888, -0.014471044763922691, 0.15747761726379395, -0.09979277849197388, 0.10735386610031128, 0.03525196760892868, 0.17143183946609497, -0.10094161331653595, 0.035654909908771515, -0.05881448835134506, -0.18533436954021454, -0.09426300972700119, -0.022394433617591858, -0.007995128631591797, -0.08993188291788101, 0.10347220301628113, -0.10311481356620789, 0.009003144688904285, 0.12661665678024292, 0.09930582344532013, -0.11172720789909363, 0.11325634270906448, 0.021646933630108833, -0.14295469224452972], [0.08547577261924744, -0.0551101416349411, -0.14039035141468048, 0.008279413916170597, -0.0756034404039383, 0.11219168454408646, -0.1063489317893982, -0.009867214597761631, -0.1070094034075737, -0.14071430265903473, -0.15751056373119354, 0.014547888189554214, -0.13181765377521515, -0.10422199964523315, -0.04063357040286064, 0.09695043414831161, -0.08469180017709732, 0.12595134973526, -0.09681495279073715, 0.17614014446735382, -0.0327332466840744, 0.08244802802801132, 0.1765570491552353, 0.179291769862175, 0.17848853766918182, 0.019848305732011795, 0.11111561208963394, 0.1568102389574051, 0.10041877627372742, 0.009201602078974247, 0.14041481912136078, 0.05622237175703049], [-0.008517814800143242, -0.05903427675366402, -0.15803666412830353, -0.06083755940198898, 0.044924233108758926, -0.12323163449764252, 0.12282466143369675, 0.08282110095024109, 0.18176454305648804, 0.11554791033267975, -0.07357745617628098, 0.03286939859390259, 0.019726121798157692, -0.06493321806192398, -0.014084020629525185, -0.14558617770671844, 0.00937822088599205, 0.030723152682185173, -0.12031624466180801, -0.1925901472568512, -0.046988777816295624, 0.11183755844831467, 0.15265046060085297, -0.15814998745918274, -0.05711788684129715, -0.14568819105625153, -0.1533447802066803, 0.1172793060541153, -0.015488095581531525, 0.11599909514188766, 0.08519744127988815, -0.14303410053253174], [-0.07653827965259552, 0.0989546850323677, -0.08590339869260788, -0.03992297872900963, 0.042411405593156815, 0.14075618982315063, -0.17279811203479767, -0.005228748545050621, -0.04416555538773537, -0.18926069140434265, -0.12702755630016327, 0.0762564092874527, -0.0018782420083880424, -0.053803760558366776, -0.03813835233449936, 0.0334649495780468, -0.12306423485279083, 0.18035905063152313, 0.12468386441469193, 0.09467802941799164, 0.04350622743368149, -0.13078854978084564, 0.036047644913196564, 0.05065857619047165, -0.025442898273468018, 0.0087857935577631, 0.01454212050884962, 0.13204751908779144, 0.08234623074531555, 0.15248067677021027, 0.09072867780923843, -0.05686395615339279], [-0.021244900301098824, -0.048760779201984406, 0.008848155848681927, -0.05881389230489731, 0.08612891286611557, -0.10274278372526169, 0.0330670028924942, 0.10944779217243195, 0.02559862844645977, 0.1281527578830719, 0.07105505466461182, -0.13098445534706116, 0.10399103909730911, -0.15408539772033691, 0.10450884699821472, 0.16772806644439697, -0.09204105287790298, 0.13300321996212006, -0.09390520304441452, -0.013344531878829002, -0.08195161074399948, 0.07136381417512894, 0.14961852133274078, 0.12325078248977661, -0.01670464687049389, 0.07033499330282211, -0.12656216323375702, -0.1790212094783783, -0.04036904126405716, -0.09523068368434906, 0.08097564429044724, -0.028378060087561607], [0.008480740711092949, -0.1290472447872162, 0.05722580477595329, 0.15418973565101624, -0.19730310142040253, -0.09226565808057785, -0.06429185718297958, -0.030562274158000946, 0.06455618143081665, 0.004437630996108055, -0.05963464826345444, -0.014813603833317757, -0.08421961218118668, -0.07917118817567825, 0.002535480773076415, 0.04307974502444267, -0.14241936802864075, 0.16526277363300323, 0.1515459418296814, -0.12227686494588852, 0.11313681304454803, -0.019546452909708023, -0.07480964809656143, -0.08249929547309875, 0.01779153011739254, 0.15097519755363464, 0.07118543237447739, 0.07254935801029205, 0.09607723355293274, -0.14944550395011902, 0.10845890641212463, -0.08543770760297775], [0.041320767253637314, -0.13050736486911774, 0.021031664684414864, 0.16510912775993347, -0.05148380249738693, -0.035729680210351944, 0.00481781642884016, -0.07197404652833939, 0.041766952723264694, 0.07046429812908173, 0.023179829120635986, 0.16083838045597076, -0.1726885437965393, -0.13408014178276062, -0.008013218641281128, -0.0956503301858902, -0.048933546990156174, 0.10685443878173828, -0.06584864109754562, -0.02300320751965046, 0.14609873294830322, -0.12089132517576218, 0.11101847141981125, -0.029643461108207703, 0.14466173946857452, 0.11898542940616608, 0.09776853024959564, 0.014908500015735626, -0.03213316947221756, 0.0045808665454387665, -0.07365875691175461, -0.1582462042570114], [0.06610649079084396, 0.14374658465385437, -0.0019077346660196781, 0.0011851678136736155, 0.09945283085107803, -0.09210143983364105, 0.07439327985048294, 0.11741086840629578, -0.12113165855407715, 0.08971108496189117, 0.02169649861752987, -0.0686274915933609, -0.01439010351896286, 0.10454878211021423, -0.06761710345745087, 0.15281234681606293, 0.013052551075816154, 0.09783639758825302, -0.03297979012131691, 0.03527980297803879, -0.001013132045045495, 0.10131365060806274, -0.14407531917095184, -0.10753152519464493, 0.028662879019975662, 0.028061091899871826, -0.007964923977851868, -0.08853184431791306, -0.004463523626327515, -0.06100760027766228, -0.04028918594121933, -0.1661306917667389], [-0.17193739116191864, -0.16775082051753998, 0.12339185178279877, -0.11169370263814926, -0.11259938776493073, 0.05614600330591202, 0.16685687005519867, 0.06705014407634735, 0.06288284808397293, -0.06229783967137337, -0.020682021975517273, 0.15870891511440277, -0.11947746574878693, 0.14373646676540375, -0.028974853456020355, -0.09245377779006958, -0.11122369766235352, 0.14367985725402832, -0.07189185172319412, 0.1435638666152954, -0.04892215505242348, 0.06612943112850189, 0.11912664026021957, -0.016629185527563095, -0.05568554997444153, 0.1102457195520401, 0.10464295744895935, 0.056161098182201385, -0.1205168068408966, 0.15110212564468384, -0.13058620691299438, -0.0352962464094162], [-0.17923645675182343, 0.08393082022666931, 0.12330817431211472, -0.038644082844257355, -0.09187452495098114, 0.09872117638587952, -0.07904717326164246, 0.021430207416415215, -0.1531139314174652, -0.02622533217072487, 0.01763763092458248, -0.03910999000072479, -0.15107718110084534, 0.13915356993675232, -0.1318364292383194, -0.07749038189649582, 0.14850619435310364, -0.13886338472366333, 0.005875915288925171, 0.016209561377763748, -0.1036577969789505, 0.024693237617611885, -0.010258982889354229, 0.08989260345697403, -0.07535520195960999, -0.013340002857148647, 0.12027446180582047, -0.0963139459490776, -0.01999516412615776, 0.08457519114017487, 0.06053100898861885, 0.10615386068820953], [0.05740613862872124, -0.13917773962020874, -0.010645853355526924, 0.07932338118553162, 0.16300331056118011, -0.07241750508546829, 0.08655721694231033, 0.0032303105108439922, -0.05786280333995819, 0.08545432239770889, 0.02447786182165146, -0.04766981303691864, -0.10503748804330826, -0.0776543840765953, 0.0324166864156723, -0.012813828885555267, -0.009341460652649403, 0.05801605060696602, 0.12882982194423676, 0.1085469201207161, 0.18506695330142975, -0.06119472160935402, -0.06701415032148361, -0.022697240114212036, 0.10083876550197601, -0.10420550405979156, 0.10232415050268173, 0.0473172590136528, -0.1392536610364914, -0.0797504186630249, 0.16079097986221313, 0.14121228456497192], [0.08423864841461182, 0.008046917617321014, 0.007767967879772186, -0.06268150359392166, 0.12062783539295197, -0.14744363725185394, 0.05513906478881836, 0.10855937004089355, 0.18324673175811768, 0.04279063269495964, -0.01843806356191635, 0.10979371517896652, -0.1444612443447113, 0.11275822669267654, 0.04243234544992447, -0.022316114977002144, -0.09052814543247223, 0.08279173821210861, -0.14795799553394318, -0.14944028854370117, 0.09596868604421616, 0.13600505888462067, -0.1726030558347702, -0.01795053295791149, -0.13516691327095032, 0.08669669926166534, 0.11256171762943268, 0.14929528534412384, 0.09374145418405533, -0.1691650152206421, -0.10793762654066086, 0.03510246425867081], [-0.04936141148209572, 0.03312427178025246, -0.0662829801440239, 0.1354345679283142, 0.04947282746434212, -0.05559079721570015, -0.003127404721453786, 0.035782527178525925, -0.08400137722492218, 0.15493184328079224, -0.10721157491207123, 0.04568346589803696, -0.09712745249271393, 0.12378436326980591, -0.11139760166406631, -0.08410026878118515, -0.015557782724499702, 0.11273012310266495, -0.1602277159690857, 0.0022512918803840876, 0.051917992532253265, -0.1475917398929596, 0.04457678645849228, 0.16629940271377563, -0.07060126215219498, 0.136373370885849, 0.014807838015258312, -0.1100880578160286, -0.11274095624685287, 0.04523840174078941, -0.07165751606225967, -0.022720489650964737], [0.09759928286075592, 0.007129140663892031, 0.10391917079687119, -0.04276442527770996, 0.014972944743931293, -0.10876025259494781, -0.11875607818365097, -0.006097727455198765, -0.02159699983894825, -0.09548009932041168, -0.16599291563034058, -0.03730458766222, -0.09208588302135468, -0.17000074684619904, 0.038941048085689545, -0.11072983592748642, -0.13133512437343597, 0.023835109546780586, 0.03839198499917984, 0.1289372593164444, -0.08549834787845612, -0.009904657490551472, 0.19111351668834686, 0.005587376654148102, -0.03611993044614792, 0.04549599438905716, 0.0951589047908783, 0.12773126363754272, -0.1066959798336029, -0.11540039628744125, 0.018812043592333794, -0.014558170922100544], [0.17026680707931519, 0.12353168427944183, 0.17255112528800964, -0.12685927748680115, 0.13002493977546692, 0.15731731057167053, -0.12631306052207947, -0.14509090781211853, -0.07720217853784561, -0.07032468169927597, -0.1492680162191391, 0.008182398043572903, -0.16314855217933655, -0.09959611296653748, -0.028770972043275833, 0.07665209472179413, 0.021149320527911186, -0.13331428170204163, -0.1320129930973053, 0.01280164998024702, 0.13662151992321014, 0.1612246185541153, 0.12451259046792984, 0.10823192447423935, 0.07126061618328094, -0.08721351623535156, 0.08208873122930527, -0.19812342524528503, -0.08045729994773865, 0.13467517495155334, -0.1312117874622345, -0.07379403710365295], [0.07159518450498581, -0.038996610790491104, -0.12035846710205078, 0.045910466462373734, 0.13278186321258545, -0.18344156444072723, 0.09902583062648773, 0.054581183940172195, -0.07404720038175583, -0.18447397649288177, -0.13828948140144348, 0.16016249358654022, -0.0708242878317833, 0.138702854514122, -0.07089801132678986, -0.1556161642074585, -0.12868888676166534, 0.022963281720876694, 0.12443616986274719, -0.07161954045295715, 0.053665343672037125, 0.1451966017484665, 0.04906199127435684, 0.1770295798778534, -0.04253887012600899, 0.02370424196124077, 0.049816664308309555, -0.12293371558189392, -0.11837687343358994, 0.024337047711014748, -0.1115252822637558, -0.09708067029714584], [-0.16260507702827454, -0.010147846303880215, 0.10303132236003876, -0.1378658264875412, -0.11542224138975143, 0.09590509533882141, -0.019268248230218887, -0.15846338868141174, 0.10211246460676193, -0.09225072711706161, 0.14370977878570557, 0.16436275839805603, -0.09334643930196762, -0.05976441875100136, 0.061347588896751404, -0.03761575371026993, -0.035373054444789886, 0.10990443080663681, -0.07268095761537552, 0.08098281919956207, -0.12635883688926697, 0.1457071751356125, -0.07117298990488052, 0.07343709468841553, 0.043188370764255524, 0.08562736213207245, -0.057061437517404556, -0.040139712393283844, -0.0344199500977993, 0.16126689314842224, -0.099985271692276, -0.0650445744395256], [0.010247166268527508, 0.03869892284274101, 0.1524886041879654, -0.08349866420030594, -0.11306200176477432, 0.1383792608976364, -0.005960953421890736, 0.15215608477592468, 0.047192852944135666, -0.13018916547298431, 0.11438795179128647, -0.14995092153549194, -0.050191305577754974, 0.03251007944345474, -0.05902688205242157, -0.14707954227924347, 0.043231185525655746, -0.12730291485786438, 0.13367941975593567, -0.004493447951972485, -0.04745979979634285, -0.03206030651926994, -0.036065611988306046, 0.12907744944095612, -0.008926095440983772, 0.1473226547241211, 0.11271750926971436, -0.055921025574207306, -0.031218478456139565, -0.025475289672613144, -0.0002706704253796488, -0.12013164907693863], [-0.10324603319168091, -0.09922046959400177, -0.02409832738339901, -0.13299527764320374, -0.18380685150623322, 0.0007966876728460193, 0.12774764001369476, -0.13332365453243256, 0.14235009253025055, 0.1251295506954193, -0.12438816577196121, 0.1125301644206047, -0.06196650117635727, -0.09768915921449661, -0.14746151864528656, -0.09377448260784149, 0.15088152885437012, -0.156874880194664, -0.05624154210090637, 0.0866987332701683, -0.09947071224451065, 0.002958686789497733, 0.11098644137382507, -0.16804316639900208, 0.14101585745811462, 0.08614541590213776, -0.15542177855968475, -0.14038309454917908, 0.13715754449367523, -0.09762611985206604, 0.13417942821979523, -0.1216118186712265], [-0.1710163950920105, 0.047639235854148865, 0.022481027990579605, -0.15993814170360565, -0.08087871968746185, 0.013995482586324215, -0.1684737205505371, 0.029406826943159103, -0.1057213544845581, -0.14635878801345825, 0.1093575730919838, 0.13336181640625, -0.10241413116455078, 0.029339753091335297, 0.020495982840657234, -0.021866537630558014, -0.15670906007289886, 0.05253526568412781, -0.059646137058734894, -0.05460181459784508, -0.1874748021364212, -0.14698226749897003, -0.024120882153511047, 0.13864585757255554, 0.18466942012310028, -0.07885616272687912, 0.005968802608549595, 0.18602734804153442, -0.15200304985046387, -0.116117924451828, 0.02048589661717415, -0.14739744365215302], [-0.14742033183574677, 0.17385749518871307, 0.03920380026102066, 0.01171979121863842, -0.17691867053508759, 0.18166811764240265, 0.16284054517745972, 0.0781204104423523, 0.1379762887954712, -0.11167935281991959, 0.06334183365106583, -0.07039504498243332, -0.09063170105218887, 0.031967099756002426, 0.14561867713928223, 0.10184872895479202, 0.1216818317770958, 0.013478009030222893, -0.11239924281835556, -0.019032176584005356, -0.14091293513774872, 0.14059166610240936, -0.0221925750374794, 0.005619814153760672, 0.028767138719558716, 0.012063506059348583, 0.0924077257514, -0.16640540957450867, -0.00578702799975872, 0.08686915040016174, -0.15542003512382507, 0.15655770897865295], [-0.09441663324832916, 0.08215534687042236, -0.12864723801612854, -0.08783644437789917, -0.1018838956952095, -0.08220930397510529, -0.13605204224586487, 0.07376692444086075, 0.16726574301719666, -0.020436352118849754, -0.08391355723142624, 0.07767391204833984, 0.09594012796878815, -0.02539900690317154, -0.0708848088979721, 0.024238206446170807, 0.03809620067477226, 0.02953515760600567, -0.09216447174549103, 0.06520409882068634, 0.17192602157592773, 0.11872488260269165, 0.015712346881628036, -0.15224389731884003, 0.055619824677705765, 0.11941497027873993, -0.06507475674152374, 0.007730129640549421, -0.12289568781852722, -0.08123227953910828, 0.03985532745718956, 0.010695132426917553], [-0.04363526031374931, -0.11539438366889954, 0.11916498094797134, -0.14677076041698456, -0.1214112862944603, 0.05151842534542084, -0.05877602845430374, -0.16739727556705475, 0.03658086061477661, -0.11290581524372101, -0.04805046692490578, -0.1515360325574875, 0.12488003075122833, 0.13655604422092438, 0.03927116468548775, -0.010920204222202301, 0.08780188113451004, -0.0764731839299202, 0.11435186117887497, 0.02143237181007862, 0.09910453855991364, 0.11749417334794998, 0.02643287368118763, -0.12694211304187775, 0.13119567930698395, -0.06386926025152206, -0.17849451303482056, -0.1004921942949295, -0.1149216815829277, 0.03604929521679878, -0.030115043744444847, 0.06527188420295715], [0.1066228449344635, 0.003508464666083455, -0.015820501372218132, -0.1226949617266655, 0.13121815025806427, 0.039629947394132614, 0.10496791452169418, -0.130036860704422, 0.03001810982823372, -0.027510927990078926, 0.01677810400724411, -0.025643406435847282, -0.12698832154273987, -0.07191979885101318, 0.010632799938321114, 0.025936944410204887, -0.11319401115179062, 0.00606134906411171, 0.08962496370077133, 0.06285124272108078, 0.17954249680042267, -0.12694869935512543, -0.07150143384933472, 0.09847699105739594, -0.011082049459218979, -0.04005535691976547, 0.03513437137007713, 0.017271557822823524, -0.1265154629945755, -0.06941661983728409, 0.08478187024593353, 0.1462199091911316], [-0.09286997467279434, 0.1259249448776245, 0.11510206013917923, -0.020153962075710297, -0.10814973711967468, -0.02268083766102791, -0.1088300570845604, 0.11545667052268982, -0.027940800413489342, 0.13641546666622162, -0.0028094016015529633, 0.12809117138385773, 0.14943575859069824, -0.04461789131164551, 0.12561136484146118, 0.00491403229534626, -0.1070900708436966, 0.12359076738357544, 0.04172225296497345, 0.1089499220252037, 0.09718155860900879, 0.002372652292251587, -0.03343143314123154, -0.007911800406873226, 0.023200038820505142, 0.033668115735054016, 0.06684626638889313, -0.1422763466835022, -0.038636185228824615, -0.018045535311102867, 0.12707363069057465, 0.10016608238220215], [0.1188964918255806, -0.08610344678163528, 0.10895884037017822, 0.14934629201889038, -0.11482153087854385, -0.0018227429827675223, -0.018060339614748955, -0.05827502906322479, -0.15521632134914398, -0.15214456617832184, 0.048912495374679565, 0.12268538028001785, -0.007323235273361206, -0.09998423606157303, -0.07573525607585907, 0.043834686279296875, 0.07840882986783981, -0.1178436279296875, -0.06908675283193588, -0.008950509130954742, 0.04024985805153847, 0.12192615121603012, 0.1167534813284874, 0.15316280722618103, 0.08219587802886963, -0.004515948239713907, -0.04881290718913078, -0.13209252059459686, -0.1171819269657135, 0.14330168068408966, 0.011635981500148773, -0.07613526284694672], [-0.034478869289159775, 0.16731497645378113, 0.06241542473435402, 0.009149136953055859, -0.08111730962991714, -0.14606453478336334, -0.15637654066085815, -0.008827947080135345, -0.058298543095588684, 0.08155643939971924, -0.12299063801765442, 0.051473911851644516, 0.021999960765242577, 0.17289893329143524, -0.039976321160793304, -0.047644421458244324, 0.062397588044404984, 0.13886651396751404, -0.06523356586694717, -0.011888955719769001, -0.0463462769985199, 0.12475957721471786, -0.05494697019457817, 0.09275583177804947, -0.05126223340630531, 0.13503825664520264, 0.054565489292144775, 0.05636850744485855, 0.08361511677503586, 0.09403159469366074, -0.10303070396184921, 0.14472663402557373], [0.1362040787935257, -0.1304149329662323, 0.09746295213699341, 0.09251531958580017, -0.11448551714420319, 0.05101289972662926, -0.01038312166929245, 0.09016972780227661, -0.024833587929606438, -0.005372955929487944, -0.175190269947052, 0.007785704452544451, -0.13156257569789886, 0.051017776131629944, -0.1473885029554367, 0.07857009768486023, 0.16999317705631256, -0.023672141134738922, 0.07163318246603012, -0.11970295757055283, -0.058956582099199295, -0.11976732313632965, 0.012678248807787895, -0.05850348621606827, 0.054866693913936615, -0.13383151590824127, 0.05040241777896881, -0.07437265664339066, -0.14627380669116974, -0.11904166638851166, 0.14859230816364288, 0.07094666361808777], [-0.04929453134536743, -0.09550142288208008, -0.005610529333353043, -0.06733690947294235, 0.08743544667959213, 0.025874385610222816, -0.03645996004343033, 0.036921437829732895, 0.08712529391050339, -0.08302923291921616, 0.058500826358795166, -0.0854899063706398, 0.16593559086322784, -0.13933278620243073, 0.12382709234952927, -0.10706600546836853, -0.1634395718574524, -0.020333606749773026, 0.12825217843055725, -0.14137950539588928, 0.01638953574001789, 0.10345400869846344, 0.0643584132194519, -0.03552888333797455, -0.12068375945091248, 0.03085966221988201, -0.14774098992347717, -0.05691888928413391, 0.07511962205171585, -0.0219577569514513, -0.1206282526254654, 0.08329412341117859], [-0.021247535943984985, -0.0913369432091713, -0.09439057856798172, -0.021553223952651024, -0.05389586091041565, -0.14986348152160645, -0.06311479210853577, -0.05708029121160507, 0.1264270842075348, -0.04268185794353485, -0.05390429124236107, -0.17459702491760254, 0.10140736401081085, 0.0498523935675621, 0.06606101989746094, -0.15519584715366364, 0.13290053606033325, 0.0657624751329422, -0.13513976335525513, -0.10712731629610062, -0.09837779402732849, 0.026027631014585495, 0.020002614706754684, 0.08617546409368515, -0.14665785431861877, 0.09442278742790222, -0.0421389639377594, 0.1323697566986084, 0.12610670924186707, -0.12407337874174118, 0.02980431728065014, 0.0810503140091896], [0.13178561627864838, 0.11290892958641052, 0.07855305820703506, 0.10206764936447144, 0.18917027115821838, 0.07152572274208069, 0.05226218327879906, 0.00036276387982070446, -0.060071926563978195, -0.12293518334627151, -0.031328972429037094, 0.0695040300488472, -0.05055064335465431, 0.048753537237644196, 0.08534343540668488, -0.18225571513175964, -0.08500199019908905, -0.08568112552165985, -0.011625261045992374, -0.05699174106121063, -0.1357472836971283, 0.06567832082509995, -0.05858716741204262, -0.10364110767841339, -0.06027437746524811, -0.056665051728487015, 0.13813522458076477, 0.07315441966056824, 0.039368558675050735, -0.001318719587288797, 0.1519145667552948, 0.11951602250337601], [-0.09323326498270035, -0.1507536619901657, 0.028019987046718597, -0.03812266141176224, -0.07975383847951889, 0.0529075488448143, 0.12832747399806976, 0.04301488399505615, 0.028453513979911804, -0.0352792926132679, 0.026107685640454292, -0.11193428933620453, 0.11740540713071823, -0.08083702623844147, -0.13774892687797546, -0.0659775361418724, -0.036584917455911636, 0.05001218616962433, -0.029251545667648315, 0.12500031292438507, -0.090791255235672, -0.11663225293159485, -0.09492813050746918, -0.10731375962495804, -0.1332101970911026, 0.03249366581439972, -0.08652977645397186, 0.09511861205101013, 0.11649575084447861, -0.05596122145652771, -0.04388056695461273, -0.12040683627128601], [-0.10354363918304443, -0.05403982102870941, 0.08965598046779633, -0.11440639197826385, 0.13119153678417206, -0.05306342989206314, -0.12571485340595245, -0.04776141420006752, -0.07097534090280533, 0.06907404214143753, -0.0991622656583786, -0.1478123664855957, 0.10869023203849792, 0.12541183829307556, -0.138662651181221, -0.0014693496050313115, -0.0823921337723732, -0.1366189569234848, 0.05437285080552101, -0.05184968560934067, -0.11605764180421829, -0.04734813794493675, -0.017093272879719734, 0.05206913873553276, -0.16302695870399475, -0.1410745233297348, 0.13964174687862396, 0.08272872120141983, -0.17933304607868195, 0.09377525001764297, -0.1411888748407364, -0.013675868511199951], [-0.024730602279305458, 0.15013664960861206, 0.0478256493806839, 0.026289567351341248, -0.07449105381965637, 0.1399267613887787, 0.0038421712815761566, -0.12220728397369385, 0.14194023609161377, 0.018748892471194267, -0.12044911086559296, 0.16107416152954102, -0.16720718145370483, 0.1408461034297943, 0.038137782365083694, -0.11791341006755829, -0.03080742247402668, -0.0008442301768809557, 0.024415701627731323, 0.01848062127828598, 0.15564130246639252, -0.07897526770830154, -0.03813856840133667, -0.09617259353399277, 0.12093031406402588, -0.129621222615242, -0.1309179812669754, 0.017770901322364807, -0.05634767934679985, -0.1740240454673767, -0.008277309127151966, 0.04171764850616455], [-0.12282822281122208, 0.06023009866476059, -0.07302742451429367, -0.01201919000595808, 0.13800166547298431, -0.020582538098096848, 0.06765609979629517, -0.02727792039513588, 0.03183360397815704, 0.04006405174732208, 0.026634514331817627, 0.01692632958292961, -0.14188577234745026, 0.06525725871324539, 0.14668840169906616, -0.05957356095314026, -0.03307528793811798, 0.009926645085215569, -0.02188311703503132, -0.13052774965763092, 0.1150100976228714, 0.1330249309539795, 0.036808423697948456, 0.129326730966568, 0.009097931906580925, 0.07469195872545242, 0.006843524985015392, 0.020067233592271805, 0.08581524342298508, -0.09097323566675186, 0.04557497054338455, -0.08601474016904831], [-0.04228345677256584, 0.11760659515857697, 0.08786683529615402, -0.024375442415475845, -0.1320439577102661, 0.039529889822006226, 0.005456141196191311, 0.07991936802864075, -0.02766716480255127, -0.08872193098068237, -0.16599686443805695, 0.10083562135696411, -0.03579709678888321, 0.06998897343873978, -0.0020224284380674362, -0.05298742279410362, -0.0929267629981041, 0.08217371255159378, 0.04930972307920456, -0.08615361154079437, -0.13968968391418457, -0.13416588306427002, 0.027319634333252907, -0.1343291848897934, 0.04470999911427498, -0.12313378602266312, 0.1105775386095047, -0.006134186405688524, -0.049275465309619904, 0.05022566393017769, -0.013039501383900642, 0.00703688059002161], [-0.07056822627782822, 0.14111092686653137, -0.09159651398658752, -0.13329795002937317, -0.029561711475253105, 0.07376237958669662, -0.12292829155921936, -0.15338297188282013, -0.1877661794424057, 0.015463395044207573, 0.04367194324731827, -0.07103504240512848, -0.10810665041208267, 0.004476620815694332, 0.10631551593542099, 0.08609309792518616, -0.09034372866153717, -0.11290615051984787, 0.05955443158745766, 0.09925522655248642, -0.14975762367248535, -0.11626698821783066, 0.016619844362139702, -0.00834287703037262, 0.0546647273004055, -0.17013613879680634, -0.025888435542583466, -0.10304512828588486, 0.12963609397411346, 0.04796236753463745, 0.14136993885040283, -0.029237370938062668], [-0.10517768561840057, 0.14850273728370667, 0.1284436732530594, -0.07507093995809555, -0.0395921990275383, 0.10440585762262344, -0.013780600391328335, 0.06037420406937599, 0.07130413502454758, -0.05446356534957886, 0.10426102578639984, -0.06614334881305695, 0.03040720336139202, 0.14130084216594696, -0.11890906095504761, 0.012487636879086494, -0.14785921573638916, 0.1454690396785736, 0.021120339632034302, 0.18517832458019257, -0.10018236190080643, 0.140670046210289, -0.09354182332754135, 0.16019085049629211, 0.11035273969173431, 0.09175577014684677, 0.12853828072547913, -0.06734057515859604, 0.016822146251797676, 0.11968637257814407, -0.07599867880344391, 0.0270346961915493], [0.09056172519922256, 0.028861790895462036, -0.05247728154063225, 0.09268546104431152, -0.027639787644147873, 0.08827760815620422, 0.0019905571825802326, -0.03730529174208641, -0.09965348988771439, 0.09541656821966171, -0.01853495091199875, -0.03215966373682022, 0.13987332582473755, -0.05070456117391586, -0.0077448077499866486, -0.04622936248779297, 0.17874151468276978, -0.044837672263383865, -0.14191050827503204, 0.05361567810177803, -0.07418942451477051, -0.14477333426475525, 0.12590335309505463, -0.1362830102443695, 0.0711713582277298, 0.07606074959039688, -0.03914473205804825, 0.06386712938547134, 0.10174297541379929, 0.03886551782488823, -0.11446426808834076, 0.08236026018857956], [0.08382546156644821, 0.12246446311473846, 0.08884456753730774, 0.08554589748382568, 0.07138682156801224, -0.017774872481822968, -0.12468603253364563, -0.17040902376174927, -0.05208880454301834, 0.011842709966003895, 0.07119721174240112, -0.18571233749389648, 0.15224114060401917, -0.022578248754143715, -0.08120031654834747, 0.07838557660579681, -0.06446833163499832, 0.09959132969379425, 0.02862512692809105, -0.11878879368305206, 0.18708939850330353, -0.0326421856880188, -0.10934443771839142, 0.14730025827884674, 0.0053914999589324, -0.12925033271312714, -0.14022542536258698, -0.1446593999862671, -0.1511947065591812, 0.07876429706811905, -0.0793120488524437, -0.06237442418932915], [-0.07128201425075531, -0.09174104034900665, 0.10668716579675674, 0.003628532402217388, -0.01058615930378437, -0.07264870405197144, -0.07700835168361664, 0.10085581988096237, -0.10188644379377365, -0.06286495178937912, -0.02103646658360958, -0.02460285648703575, -0.01332478504627943, -0.137470081448555, 0.018353214487433434, 0.1751510500907898, -0.04282810911536217, -0.090874083340168, 0.0865757018327713, 0.011827212758362293, -0.1357836276292801, -0.03398408368229866, 0.12434916943311691, -0.06299665570259094, 0.14279025793075562, 0.06239576265215874, 0.028063269332051277, -0.015001524239778519, -0.10248018056154251, 0.05533326417207718, -0.09117794781923294, 0.12795445322990417], [0.1456809639930725, -0.04807949811220169, -0.09300968050956726, -0.10107240825891495, 0.05121437460184097, -0.1689060926437378, 0.046769410371780396, 0.06851974874734879, -0.016827549785375595, -0.12993311882019043, -0.04622763767838478, -0.056491777300834656, 0.049857933074235916, 0.1268490105867386, -0.07664895057678223, -0.07624520361423492, -0.07150673866271973, -0.1414317786693573, -0.10301708430051804, 0.18319159746170044, -0.015413175337016582, 0.009021777659654617, -0.03711214289069176, -0.055880602449178696, 0.07070346921682358, -0.08880893886089325, 0.1715724766254425, -0.042950339615345, -0.13787586987018585, -0.14460352063179016, 0.11900749057531357, -0.1329251229763031]], "lstm.bias_ih_l0": [-0.03129010275006294, -0.06232225149869919, 0.03200587257742882, -0.08317340165376663, 0.08842401951551437, 0.12916599214076996, 0.012101777829229832, -0.02123238891363144, -0.15990662574768066, -0.04252922162413597, -0.05088772997260094, 0.16110998392105103, 0.0523645281791687, 0.1313367784023285, -0.14108586311340332, 0.027176272124052048, 0.15390048921108246, -0.1525978446006775, 0.1551077961921692, 0.1784636229276657, 0.05226096138358116, -0.18652692437171936, 0.1354241818189621, 0.05505050718784332, 0.05043041706085205, -0.1594821661710739, 0.11654737591743469, 0.10864465683698654, -0.12978467345237732, -0.07373329997062683, 0.162828266620636, -0.13381674885749817, 0.02157776802778244, -0.030711546540260315, -0.13817839324474335, 0.024230029433965683, -0.11975903064012527, 0.12856197357177734, 0.06367474794387817, 0.08575327694416046, 0.17068926990032196, -0.10725850611925125, -0.1578369289636612, -0.11398202180862427, 0.0890645682811737, -0.06112290918827057, -0.06165235862135887, -0.15830133855342865, -0.08069968968629837, 0.055912233889102936, 0.16871455311775208, -0.09180474281311035, 0.043719418346881866, 0.042312927544116974, 0.11574093997478485, 0.0729469284415245, 0.01928374357521534, -0.12811081111431122, -0.08562777936458588, 0.07684344798326492, -0.17989228665828705, -0.016343699768185616, 0.0613185353577137, -0.13310283422470093, 0.04275389388203621, 0.07097605615854263, -0.090903639793396, 0.1300114095211029, -0.12568390369415283, 0.10414919257164001, -0.1334550529718399, 0.0004697163822129369, -0.03194042295217514, 0.06177578866481781, 0.1503680944442749, -0.10306008160114288, 0.028939679265022278, 0.09976699203252792, 0.07772989571094513, 0.18473732471466064, -0.1557430773973465, -0.043354332447052, 0.040000904351472855, -0.10485329478979111, 0.15171712636947632, 0.12981101870536804, -0.1673724353313446, 0.1385221779346466, -0.11320479959249496, 0.12900303304195404, -0.07475718855857849, -0.08087281882762909, 0.04438880831003189, -0.09259890019893646, -0.04232171177864075, 0.10407514870166779, -0.154142826795578, -0.012582629919052124, -0.12566156685352325, 0.011098425835371017, 0.017555836588144302, -0.04459844157099724, 0.041884057223796844, 0.15608662366867065, -0.08739131689071655, 0.09026019275188446, -0.02567252144217491, 0.02309889905154705, -0.09294163435697556, 0.03668761998414993, -0.11957457661628723, 0.10529004037380219, 0.10099240392446518, 0.036012835800647736, 0.08700499683618546, -0.05271466448903084, -0.09374452382326126, -0.14999426901340485, 0.04815039038658142, -0.1669275164604187, 0.020357776433229446, -0.16801810264587402, -0.017417926341295242, 0.050688885152339935, -0.13836610317230225, -0.14214739203453064, -0.14539805054664612, -0.12212963402271271], "lstm.bias_hh_l0": [-0.06428053230047226, 0.10467758029699326, 0.11710463464260101, -0.0412016324698925, 0.0193471796810627, -0.06496831774711609, -0.12713104486465454, 0.015339027158915997, -0.06697440147399902, 0.03339901566505432, -0.054900556802749634, 0.09260516613721848, -0.14546704292297363, -0.13910864293575287, -0.1601382941007614, 0.14938372373580933, -0.06913714855909348, -0.10308529436588287, -0.056101471185684204, 0.18343734741210938, 0.09225524216890335, -0.11110224574804306, -0.009044320322573185, 0.07742428034543991, -0.09824966639280319, 0.018914565443992615, -0.023376554250717163, -0.1478918194770813, -0.11437858641147614, 0.14448514580726624, 0.04718716815114021, -0.09468953311443329, -0.1632521003484726, -0.1457814872264862, -0.16378802061080933, -0.04325055330991745, -0.09113135188817978, -0.032690588384866714, 0.15095694363117218, -0.16548609733581543, -0.03565399721264839, -0.18147319555282593, 0.1787101775407791, -0.053587935864925385, 0.14368712902069092, -0.004629920702427626, 0.030733654275536537, 0.027349449694156647, -0.11205192655324936, -0.07525510340929031, 0.058680444955825806, -0.15570589900016785, -0.169745534658432, -0.0899655818939209, 0.17122076451778412, 0.07732793688774109, 0.00614501116797328, -0.10451433062553406, -0.12134678661823273, -0.01688145473599434, 0.08874153345823288, 0.11216200888156891, -0.08461122959852219, -0.09163563698530197, 0.192795991897583, 0.14062708616256714, 0.12623728811740875, -0.11436396837234497, -0.12779584527015686, -0.08609415590763092, 0.18262821435928345, -0.06965884566307068, 0.19259820878505707, 0.1484096348285675, -0.027102140709757805, -0.1375197023153305, -0.1223989725112915, -0.04426061362028122, -0.03091072291135788, -0.000503426999785006, -0.1325068324804306, 0.10093574225902557, 0.16636626422405243, -0.1738869845867157, -0.02915823459625244, 0.04236713424324989, 0.00040072720730677247, -0.17083145678043365, 0.17695637047290802, -0.12694498896598816, -0.07049310207366943, 0.007217498496174812, 0.03580451011657715, -0.15572470426559448, 0.05534464493393898, -0.1177537590265274, -0.09922777116298676, 0.043205585330724716, 0.1762998402118683, 0.012847605161368847, -0.07062578201293945, -0.0866985097527504, 0.10468864440917969, 0.020891886204481125, -0.04966422915458679, 0.09271275997161865, -0.05112374201416969, -0.001376135740429163, -0.021431058645248413, 0.03881549835205078, -0.1682666838169098, 0.11064253002405167, -0.02033836767077446, -0.10936515033245087, 0.13477568328380585, 0.16906526684761047, 0.07462034374475479, -0.10261683166027069, 0.15271152555942535, 0.18016548454761505, 0.0870470330119133, -0.03493955731391907, 0.1330365091562271, -0.12099168449640274, -0.004075372591614723, -0.10989243537187576, 0.12131042033433914, -0.0777498409152031], "dense.weight": [[-0.17093463242053986, -0.17868374288082123, -0.1019325703382492, 0.12016046047210693, 0.0968117043375969, -0.04044697806239128, -0.09647242724895477, -0.07637374103069305, -0.17339052259922028, 0.1337243765592575, -0.03637807443737984, 0.048073798418045044, 0.10267067700624466, -0.10604172199964523, -0.1266913115978241, -0.1924661099910736, 0.06715553998947144, -0.12698186933994293, -0.07790187746286392, 0.12525764107704163, 0.09518736600875854, -0.04234872758388519, 0.16920585930347443, 0.0033310032449662685, 0.01403206679970026, 0.025532251223921776, -0.14929212629795074, -0.03688966855406761, -0.07644106447696686, 0.11571143567562103, 0.11345309019088745, 0.14623278379440308]], "dense.bias": [0.14923784136772156]}