{"lstm.weight_ih_l0": [[0.033385660499334335], [-0.07166096568107605], [-0.08700864017009735], [-0.07346977293491364], [-0.09911130368709564], [0.005433402955532074], [0.02401985041797161], [-0.10871899873018265], [0.0498783215880394], [0.2308507114648819], [0.014664259739220142], [-0.013287398032844067], [-0.06267479807138443], [0.07799679040908813], [0.05001884698867798], [0.15246663987636566], [0.23981307446956635], [0.13302724063396454], [0.026848260313272476], [-0.04146251082420349], [0.04114815592765808], [0.007516411133110523], [-0.005682763643562794], [-0.09787567704916], [0.4744971692562103], [0.03015122376382351], [-0.03059445694088936], [0.05198598653078079], [0.10217443853616714], [0.2281867414712906], [-0.023371469229459763], [-0.28664907813072205], [0.06323335319757462], [-0.024303143844008446], [0.02102062664926052], [-0.05708214268088341], [-0.36205172538757324], [0.003672791412100196], [-0.10651549696922302], [-0.08909637480974197], [-0.08702874928712845], [0.1502791941165924], [-0.05055002495646477], [-0.06989166885614395], [-0.20869067311286926], [0.07417645305395126], [-0.15092062950134277], [0.18822258710861206], [0.1664968729019165], [0.10868077725172043], [0.007976542226970196], [-0.02251376584172249], [0.07281635701656342], [-0.016039114445447922], [-0.11720798164606094], [-0.03118065372109413], [-0.36750438809394836], [-0.04874547943472862], [-0.2928427755832672], [-0.1727072298526764], [0.11991922557353973], [0.40748482942581177], [-0.05631420388817787], [0.029076527804136276], [0.12662720680236816], [0.09101936966180801], [1.1240928173065186], [-0.2338174730539322], [0.11343254148960114], [0.10422449558973312], [-1.0386866331100464], [-1.3034694194793701], [-0.31470221281051636], [0.1881093829870224], [-0.12538981437683105], [0.1927707940340042], [0.10735984891653061], [-0.19931074976921082], [0.641839325428009], [1.5349169969558716], [0.716011643409729], [-0.20507869124412537], [1.0192636251449585], [-0.5388240814208984], [-0.554444432258606], [-0.31927287578582764], [-0.04512915387749672], [0.843586266040802], [0.22271645069122314], [-0.06482230871915817], [0.1862630397081375], [0.25095489621162415], [-0.6948493719100952], [2.176313638687134], [-0.5203320980072021], [0.6636812090873718], [-0.0002777951885946095], [-0.046050406992435455], [0.015020456165075302], [-0.12920638918876648], [-0.4380078911781311], [0.007399433292448521], [-0.10424042493104935], [-0.22039936482906342], [-0.05425839126110077], [0.13077732920646667], [0.007151921279728413], [-0.018942557275295258], [-0.13023386895656586], [0.1147681176662445], [-0.032479606568813324], [0.10127438604831696], [0.08537624031305313], [0.06092172861099243], [0.09116848558187485], [-0.006044813897460699], [0.06157829612493515], [0.005455598700791597], [-0.20531399548053741], [-0.07518333941698074], [0.015057815238833427], [-0.1972707360982895], [-0.36377274990081787], [-0.15539118647575378], [0.10113312304019928], [0.23164835572242737], [-0.054054610431194305], [0.06811340898275375]], "lstm.weight_hh_l0": [[0.15861983597278595, -0.032287515699863434, -0.07981402426958084, 0.006121139042079449, -0.09894467890262604, -0.019068647176027298, -0.14067044854164124, -0.5065546035766602, -0.01475585624575615, -0.0013065807288512588, 0.011426788754761219, 0.08358467370271683, 0.05822617560625076, 0.022279685363173485, 0.04610854759812355, 0.01750630885362625, -0.07901698350906372, 0.08113204687833786, 0.15990467369556427, -0.06993773579597473, 0.06419459730386734, 0.00047266617184504867, 0.11973227560520172, 0.2381182163953781, 0.30160075426101685, -0.11028514802455902, 0.13737301528453827, -0.10304807126522064, 0.0594172365963459, 0.044106606394052505, -0.1827709674835205, 0.03696874529123306], [-0.028394589200615883, -0.03370411694049835, -0.06765846908092499, 0.022799527272582054, -0.0389094315469265, -0.01013009063899517, -0.04597316309809685, 0.08960854262113571, 0.11441389471292496, 0.048817746341228485, 0.026749148964881897, 0.061773281544446945, 0.13470213115215302, 0.10749824345111847, -0.13219054043293, -0.20823442935943604, -0.19823724031448364, 0.032998502254486084, -0.18044614791870117, 0.009000640362501144, 0.009139519184827805, 0.049168191850185394, -0.097990021109581, -0.04669880121946335, -0.020140379667282104, 0.09748164564371109, -0.11635293811559677, 0.07330496609210968, 0.022522374987602234, -0.34634456038475037, -0.19258996844291687, 0.024017808958888054], [-0.0048011671751737595, 0.026901554316282272, 0.16746702790260315, -0.10943814367055893, 0.036806926131248474, -0.007666915189474821, 0.10364235937595367, 0.019681502133607864, -0.062159810215234756, 0.14125634729862213, -0.03212771937251091, -0.14007580280303955, -0.02716093137860298, 0.1242360919713974, -0.06024195998907089, -0.037563443183898926, -0.19964225590229034, 0.19157308340072632, -0.0374455451965332, 0.00619847048074007, 0.18468160927295685, 0.04430265352129936, -0.05542901158332825, 0.001768732094205916, -0.003737738821655512, 0.050435345619916916, -0.3057290315628052, 0.1591220647096634, 0.06418579071760178, -0.011267785914242268, -0.05740293115377426, 0.17596988379955292], [-0.1298983246088028, 0.04776442423462868, -0.15190531313419342, 0.1084025427699089, -0.0208746250718832, -0.02779299020767212, 0.06456475704908371, 0.02504787966609001, -0.07112503051757812, 0.5184006690979004, -0.030077610164880753, -0.2618490159511566, -0.14006075263023376, 0.2386627197265625, 0.08262121677398682, 0.14999882876873016, -0.14229243993759155, 0.05654818192124367, -0.12108077108860016, 0.09780164808034897, 0.03748796880245209, -0.005066057201474905, -0.12152598053216934, 0.09691475331783295, -0.0576830729842186, 0.07502882182598114, -0.11959969252347946, 0.21066951751708984, -0.29517531394958496, -0.08179675787687302, -0.250771164894104, -0.06700292974710464], [-0.3478890657424927, -0.15289409458637238, 0.2620759904384613, 0.24238191545009613, -0.0863446295261383, 0.036530837416648865, -0.002971224719658494, -0.17036692798137665, -0.18781854212284088, 0.06957820802927017, -0.13686063885688782, -0.18855944275856018, -0.15597806870937347, 0.13998933136463165, 0.1785786747932434, 0.1244305893778801, -0.050825875252485275, 0.18287700414657593, 0.04958576336503029, -0.16971637308597565, 0.020712412893772125, 0.03535360097885132, 0.0778842642903328, 0.28042760491371155, 0.18927709758281708, -0.12341243028640747, -0.11767195910215378, 0.027517350390553474, -0.05402199551463127, 0.12926390767097473, -0.26168787479400635, -0.1968296766281128], [0.000275387370493263, -0.0031101179774850607, 0.013113792054355145, 0.022366320714354515, -0.014210131950676441, 0.007639551535248756, -0.01405254751443863, 0.014356479048728943, -0.033053748309612274, -0.0010109059512615204, 0.000742102216463536, -0.003008610801771283, 0.0067390985786914825, 0.04684893786907196, 0.024523738771677017, -0.02730167843401432, 0.0020349002443253994, 0.009599589742720127, -0.003085490083321929, 0.002103965962305665, -0.0071348948404192924, 0.00014060374815016985, 0.009225595742464066, 0.06380237638950348, 0.013909745961427689, -0.03317352011799812, -0.023954974487423897, 0.03228382393717766, -0.009560411795973778, 0.006912803743034601, -0.0825011134147644, 0.032630737870931625], [0.01907447539269924, -0.1754295825958252, 0.05365339294075966, -0.1289823353290558, -0.5381219387054443, 0.11171592772006989, -0.07826515287160873, -0.06305404007434845, -0.10817140340805054, 0.03406909853219986, 0.19275063276290894, 0.08058613538742065, -0.0009115319699048996, 0.492387980222702, -0.003591217566281557, -0.7423876523971558, -0.11306022107601166, 0.5449169278144836, -0.2695388197898865, -0.28181150555610657, -0.07894539833068848, -0.10042379051446915, -0.025351421907544136, 0.48280978202819824, -0.19731640815734863, -0.3651779592037201, -0.24329309165477753, 0.20337000489234924, -0.05285198614001274, -0.030746497213840485, -0.8204923272132874, 0.4592248499393463], [0.16020667552947998, -0.035916734486818314, -0.07218997180461884, 0.05468339845538139, 0.031418584287166595, -0.024050163105130196, 0.0606779083609581, -0.08972568809986115, -0.0015650250716134906, -0.1721583902835846, 0.05016199126839638, 0.03351660817861557, -0.0652463287115097, -0.12023846060037613, -0.1346343457698822, 0.03244620934128761, 0.07428454607725143, -0.059647589921951294, 0.05546052008867264, 0.05336681380867958, -0.020336313173174858, -0.0033995434641838074, 0.08000686019659042, -0.122494176030159, 0.031895849853754044, 0.032935697585344315, 0.04179888218641281, -0.1341649442911148, -0.011874758638441563, -0.09498729556798935, 0.1437435746192932, -0.08298297971487045], [-0.10915588587522507, -0.00016678721294738352, 0.41237303614616394, 0.2699345052242279, 0.017123788595199585, 0.03641512617468834, 0.2611689865589142, -0.07245663553476334, -0.33811357617378235, -0.19242890179157257, -0.062035057693719864, -0.04012180119752884, 0.12003955990076065, 0.16705752909183502, 0.06579545885324478, 0.19320032000541687, 0.1654951125383377, -0.008330123499035835, 0.1536966860294342, -0.07733713090419769, 0.11744331568479538, -0.017796596512198448, 0.024431653320789337, 0.08453856408596039, 0.11053019762039185, -0.21316856145858765, -0.14479538798332214, 0.0038617660757154226, 0.05158648639917374, 0.05746191367506981, -0.20481336116790771, -0.2854919135570526], [-0.16121318936347961, 0.22412289679050446, 0.13201318681240082, 0.1717854142189026, -0.21891817450523376, 0.02742544189095497, 0.12153322994709015, -0.128421813249588, -0.2127772867679596, -0.09131155163049698, 0.16713500022888184, -0.28481921553611755, 0.3722986578941345, 0.5320072770118713, -0.22761450707912445, -0.47462335228919983, -0.22970479726791382, 0.11235969513654709, -0.2579120993614197, -0.20100265741348267, 0.03994659334421158, 0.07724089920520782, -0.4081627130508423, 0.4159311354160309, -0.05675079673528671, 0.052279528230428696, -0.1446470469236374, 0.13947071135044098, -0.15965427458286285, -0.20139345526695251, -0.5288651585578918, 0.16197334229946136], [-0.15689240396022797, -0.17425601184368134, -0.1605028361082077, 0.08997460454702377, 0.012733018957078457, 0.024653326719999313, 0.2740401327610016, -0.05436806380748749, -0.15333931148052216, 0.04060830548405647, -0.23139747977256775, -0.09640617668628693, -0.06434619426727295, 0.20994623005390167, 0.2659759223461151, 0.0955570712685585, -0.06116993725299835, -0.12509916722774506, -0.003080609953030944, -0.0867382064461708, 0.06761500239372253, -0.0816362127661705, 0.1360735297203064, 0.2603980004787445, -0.09646794199943542, -0.2588248550891876, -0.027976645156741142, 0.15535783767700195, -0.026529906317591667, -0.06678248941898346, -0.3278410732746124, 0.27151283621788025], [-0.14445023238658905, 0.05572238564491272, 0.11126682907342911, 0.12204651534557343, 0.08714303374290466, 0.009860175661742687, 0.017795294523239136, 0.09523779898881912, -0.3293225169181824, 0.10460545122623444, -0.024188248440623283, -0.1525372862815857, 0.067243792116642, 0.1467752605676651, 0.0566224604845047, -0.1764792948961258, -0.19859884679317474, 0.1337907463312149, -0.023323554545640945, 0.04377796873450279, -0.024960868060588837, 0.0499638170003891, -0.07884477823972702, 0.21608683466911316, 0.02787759341299534, -0.07001535594463348, -0.35145872831344604, 0.1909393072128296, -0.11844247579574585, -0.024027002975344658, -0.15822263062000275, 0.008841908536851406], [0.07071395218372345, -0.08739723265171051, 0.15725354850292206, -0.10569208860397339, -0.014238493517041206, -0.0007816499564796686, 0.061307646334171295, 0.00973762758076191, 0.07913263887166977, 0.37436845898628235, -0.08964207768440247, 0.04070619121193886, -0.08210525661706924, 0.17216363549232483, 0.09312688559293747, 0.16619879007339478, -0.09549126774072647, 0.052669424563646317, 0.12029346078634262, -0.08095075935125351, 0.09656878560781479, -0.02729366533458233, -0.27510395646095276, 0.24617747962474823, -0.11867086589336395, 0.023356148973107338, -0.004486382473260164, -0.029217788949608803, -0.01730291172862053, 0.2504236102104187, -0.14779101312160492, -0.10405473411083221], [0.10908522456884384, -0.0828280821442604, -0.020272886380553246, 0.045407045632600784, 0.18415357172489166, 0.013067510910332203, -0.08758503943681717, -0.045041851699352264, -0.021156759932637215, -0.027504755184054375, -0.02364537864923477, 0.05784189701080322, -0.11329919099807739, -0.14833897352218628, 0.09468983858823776, -0.08775019645690918, 0.15759578347206116, -0.03161906450986862, 0.12302154302597046, 0.04216281324625015, -0.006083223968744278, -0.047416120767593384, 0.16386474668979645, 0.06398843228816986, 0.12288206070661545, -0.11218100786209106, 0.08052670955657959, 0.05555344000458717, -0.020074866712093353, 0.04167473688721657, 0.08783042430877686, 0.10342828929424286], [-0.16667284071445465, 0.28513285517692566, -0.023739654570817947, 0.03703533485531807, -0.4270477890968323, 0.01259411871433258, -0.07821866124868393, 0.046574708074331284, 0.1499767154455185, 0.0723760575056076, 0.15762747824192047, 0.15153424441814423, 0.2032550722360611, 0.37866610288619995, -0.006678484845906496, -0.12021454423666, -0.14890649914741516, 0.06747604161500931, -0.131722092628479, 0.036828428506851196, 0.06619351357221603, 0.06789132207632065, -0.06666790693998337, 0.2793501615524292, 0.12064992636442184, -0.11954247206449509, 0.030932163819670677, 0.000530744029674679, 0.062106333673000336, 0.06434723734855652, -0.473757266998291, 0.1200842335820198], [-0.04203180968761444, -0.2047329843044281, 0.02756521850824356, 0.03531796857714653, -0.011668558232486248, 0.01840086840093136, 0.10235414654016495, -0.18539200723171234, 0.15799687802791595, -0.06576935946941376, -0.04090855270624161, 0.039005912840366364, -0.16728854179382324, -0.07578326016664505, 0.13236726820468903, 0.0077947163954377174, 0.0005934558575972915, -0.16078408062458038, 0.10348903387784958, 0.02525515668094158, 0.06808340549468994, -0.07598990201950073, 0.03823462873697281, 0.09451142698526382, -0.10997167229652405, -0.13231803476810455, -0.12526875734329224, 0.13061276078224182, -0.06436480581760406, 0.19534724950790405, 0.16915450990200043, 0.21218521893024445], [0.17442698776721954, 0.18108490109443665, 0.03305860236287117, 0.013626105152070522, -0.19628803431987762, 0.023686589673161507, -0.05321190506219864, 0.19513778388500214, 0.19054009020328522, -0.3498169779777527, -0.022192636504769325, -0.15641801059246063, 0.11653050035238266, 0.25528696179389954, 0.04693141207098961, -0.2375335842370987, 0.021304165944457054, 0.07281625270843506, -0.022359343245625496, 0.1137620285153389, 0.058501288294792175, 0.11115650832653046, -0.04691096767783165, 0.06794356554746628, -0.1546277105808258, -0.04350368306040764, -0.3306650221347809, 0.11465954035520554, 0.1515720784664154, -0.052048537880182266, -0.27028390765190125, 0.4017563462257385], [0.0011009885929524899, 0.062498174607753754, -0.08244569599628448, -0.06277855485677719, -0.1872103214263916, 0.020887484773993492, -0.07418742775917053, 0.02764451690018177, 0.13092562556266785, 0.12291740626096725, 0.03782050311565399, -0.040816038846969604, -0.07467444241046906, 0.15764304995536804, -0.0045257448218762875, -0.18271538615226746, 0.031016893684864044, 0.05293641984462738, 0.03270397707819939, 0.03033136948943138, 0.03467701002955437, 0.0267518050968647, 0.05534838140010834, 0.160420760512352, 0.13655808568000793, -0.06584157049655914, -0.2062544971704483, -0.07993128150701523, 0.0335124135017395, 0.24176937341690063, -0.17921239137649536, 0.4089672863483429], [0.10228557139635086, 0.05140012502670288, -0.12046083062887192, -0.15958286821842194, -0.01364949345588684, -0.006757344119250774, -0.0756073147058487, -0.044169072061777115, 0.09708882868289948, 0.03487019240856171, -0.027125589549541473, -0.057804398238658905, -0.0854240283370018, 0.018669331446290016, 0.04596031829714775, 0.2044607400894165, -0.0794333890080452, -0.09003078192472458, 0.04167382791638374, -0.03285231068730354, 0.1133122369647026, -0.013167936354875565, 0.043486274778842926, 0.21843130886554718, -0.22640769183635712, 0.03118147701025009, -0.014802727848291397, 0.053024616092443466, 0.034462668001651764, 0.2816512882709503, -0.04804611578583717, 0.18025000393390656], [0.06695113331079483, -0.002082702238112688, 0.11981704831123352, 0.09333107620477676, 0.03857358172535896, -0.020938940346240997, 0.034915171563625336, -0.05435255914926529, -0.059914328157901764, -0.05363847687840462, 0.00032270047813653946, 0.02806808054447174, 0.03263866901397705, 0.0014538426185026765, -0.0359458401799202, -0.0407964363694191, -0.0959276556968689, 0.08199573308229446, 0.04014776647090912, -0.010268365032970905, 0.09253993630409241, 0.025861160829663277, -0.04153268411755562, -0.1805933564901352, 0.19426530599594116, 0.05143266171216965, 0.0592111237347126, 0.028139812871813774, 0.09911853075027466, -0.06239140033721924, 0.051587484776973724, -0.11300458759069443], [-0.09925548732280731, -0.07031556963920593, 0.1283833533525467, 0.019760357216000557, 0.18005472421646118, 0.0385897196829319, 0.009652945213019848, 0.2844071090221405, -0.1904321312904358, 0.19986200332641602, 0.025680629536509514, -0.1737266629934311, -0.1992691606283188, 0.04131161794066429, 0.2358652949333191, -0.20980434119701385, 0.09918487817049026, 0.11646198481321335, -5.754781886935234e-05, 0.039524536579847336, -0.08592045307159424, -0.006666497327387333, 0.1128339096903801, 0.2745542824268341, -0.0669170618057251, -0.25502273440361023, -0.07120036333799362, 0.14623980224132538, -0.07443759590387344, 0.08747579902410507, -0.1039600595831871, -0.04051531106233597], [0.02639881893992424, 0.011296321637928486, -0.028425008058547974, -0.019917085766792297, -0.07711222767829895, -0.0043808878399431705, 0.1308901458978653, 0.00528073450550437, 0.08647435903549194, -0.06751241534948349, 0.024701561778783798, 0.07454582303762436, 0.043265704065561295, 0.09175411611795425, -0.03221512958407402, -0.02083062194287777, -0.016901927068829536, -0.06247779726982117, -0.0704052746295929, 0.009969836100935936, 0.023630622774362564, 0.008603125810623169, -0.055420611053705215, -0.0023082951083779335, -0.11366810649633408, 0.023543374612927437, -0.10168062150478363, 0.08156382292509079, 0.014779848977923393, -0.07468078285455704, -0.12046343833208084, 0.06960323452949524], [0.20777280628681183, 0.2933689057826996, -0.16398359835147858, 0.11521954089403152, -0.056690312922000885, -0.010024492628872395, -0.07468986511230469, -0.14892825484275818, 0.04313615337014198, -0.39503034949302673, 0.03731410950422287, 0.058337412774562836, -0.002943522296845913, 0.0811094418168068, -0.00036973634269088507, -0.06486688554286957, -0.0081853112205863, -0.1419774293899536, -0.08694356679916382, -0.08122728765010834, 0.07935380935668945, 0.011489806696772575, 0.029616372659802437, 0.2924225926399231, -0.04357592761516571, -0.09808412939310074, -0.050870802253484726, 0.045953359454870224, 0.019590629264712334, 0.171025812625885, -0.2807905077934265, 0.36054715514183044], [-0.18770848214626312, 0.15327955782413483, 0.037929706275463104, 0.012388588860630989, -0.19074437022209167, -0.006791178602725267, 0.18778663873672485, 0.24202294647693634, 0.33240562677383423, -0.09260173887014389, 0.061277370899915695, -0.016732942312955856, -0.08463820815086365, 0.20204873383045197, -0.15974204242229462, -0.189804807305336, -0.30434638261795044, 0.2375183403491974, -0.1420552134513855, 0.0782567635178566, 0.15067385137081146, 0.09709075838327408, -0.1863316297531128, -0.06503761559724808, -0.22063608467578888, 0.10082819312810898, 0.006598410662263632, 0.19224202632904053, 0.13293059170246124, -0.13182996213436127, -0.13577863574028015, -0.14030125737190247], [-0.33343589305877686, 0.15591572225093842, 0.28929322957992554, 0.38376209139823914, -0.5295667052268982, 0.07928639650344849, 0.06372642517089844, -0.17653697729110718, 0.12093570083379745, 0.2070271372795105, 0.036455780267715454, -0.017646372318267822, 0.06545399874448776, 0.7493191957473755, 0.1809544414281845, 0.1419518142938614, -0.3512461185455322, 0.14474409818649292, -0.4052724540233612, -0.27548015117645264, 0.027051838114857674, 0.2045942097902298, -0.5706320405006409, 0.14755886793136597, 0.46958526968955994, -0.04273766651749611, -0.7162967324256897, 0.5589416027069092, -0.12040064483880997, -0.4567755460739136, -0.7161134481430054, 0.8275845050811768], [0.21992236375808716, -0.01448681578040123, 0.023286975920200348, 0.1482526659965515, 0.0829586461186409, 0.002711853478103876, 0.20354397594928741, -0.22525568306446075, 0.3586965501308441, 0.022641122341156006, -0.11985110491514206, -0.06342514604330063, -0.15406176447868347, 0.12858335673809052, 0.05679919943213463, -0.1947021633386612, -0.21485589444637299, 0.04545309767127037, -0.04339691251516342, -0.011625716462731361, 0.014507337473332882, 0.006410801317542791, -0.1753370612859726, -0.13070186972618103, 0.05738823115825653, 0.13133342564105988, 0.04804813116788864, 0.40318548679351807, -0.02197214961051941, 0.008787528611719608, -0.35537219047546387, 0.2573515474796295], [-0.05835316702723503, -0.2847399413585663, -0.21977970004081726, -0.042117130011320114, -0.3861350417137146, 0.12870383262634277, -0.381224125623703, 0.305462121963501, 0.1593141257762909, -0.2926744222640991, 0.19634971022605896, -0.2341902107000351, -0.21204279363155365, 0.002369233872741461, 0.37154582142829895, -0.1780276894569397, 0.4164126217365265, 0.015741968527436256, 0.1252552717924118, 0.08172952383756638, -0.18827542662620544, -0.05999103933572769, 0.390737920999527, 0.212228462100029, 0.2104240357875824, -0.3513279855251312, 0.011885254643857479, -0.15797638893127441, 0.17698849737644196, 0.34636834263801575, -0.1550014466047287, 0.34020593762397766], [0.07567321509122849, -0.22466358542442322, 0.15742924809455872, 0.33160433173179626, -0.40190714597702026, 0.05543388053774834, 0.24218487739562988, -0.26613175868988037, -0.026960115879774094, -0.4381810128688812, -0.11356683075428009, 0.10571412742137909, 0.21046526730060577, -0.020077688619494438, 0.049950674176216125, 0.101723812520504, 0.23057851195335388, 0.03034214861690998, 0.04365309700369835, -0.05729657784104347, -0.24734511971473694, -0.12390682846307755, 0.48472705483436584, 0.3307151198387146, 0.4708336293697357, -0.37951260805130005, -0.38671258091926575, -0.05943689122796059, -0.03423984721302986, 0.2622091770172119, -0.37558093667030334, 0.023695146664977074], [0.08049139380455017, -0.030303774401545525, -0.1315246820449829, 0.2083025723695755, -0.08329323679208755, -0.019082607701420784, 0.2160065770149231, -0.06407441943883896, -0.2260185331106186, -0.1979621797800064, 0.04784996435046196, -0.06598509103059769, 0.05093300715088844, 0.13000985980033875, 0.07578377425670624, 0.056847721338272095, 0.05158413201570511, -0.1559521108865738, -0.10712800920009613, 0.00403326191008091, 0.12784430384635925, -0.03302796185016632, -0.056565843522548676, 0.15106134116649628, -0.07637724280357361, -0.054420385509729385, -0.2273501753807068, 0.11174021661281586, -0.020167915150523186, -0.010164204053580761, -0.12727442383766174, 0.2938597798347473], [-0.09519043564796448, 0.03418656811118126, 0.04797052964568138, -0.06771628558635712, -0.06844877451658249, -0.001035330118611455, -0.22170794010162354, -0.33424004912376404, 0.043422095477581024, -0.2543357014656067, 0.17025037109851837, 0.09081844240427017, -0.23110367357730865, 0.03374955803155899, -0.06281920522451401, 0.1331060230731964, -0.13212262094020844, -0.03155308589339256, 0.18077205121517181, -0.042410820722579956, -0.01894640363752842, -0.013093000277876854, -0.15179912745952606, 0.12364578247070312, -0.1324300765991211, 0.03245144709944725, 0.1501087248325348, 0.04013258218765259, -0.06859945505857468, 0.22250741720199585, -0.09235535562038422, 0.09742877632379532], [-0.07276349514722824, -0.0005489610484801233, -0.1690264344215393, -0.27221593260765076, 0.15739284455776215, 0.029140347614884377, -0.16704429686069489, 0.10046310722827911, 0.2123366743326187, -0.02077571116387844, -0.03675711527466774, -0.07455673813819885, -0.12487811595201492, -0.04449307546019554, 0.01471478957682848, -0.02606859803199768, 0.04470890387892723, -0.13933886587619781, 0.0628594383597374, 0.1385515183210373, -0.035251058638095856, -0.027068661525845528, -0.05945996940135956, -0.07811647653579712, -0.16914433240890503, 0.03876858577132225, 0.11142567545175552, 0.13851849734783173, 0.033280473202466965, 0.10279960185289383, 0.2043231874704361, 0.06786608695983887], [-0.3029513359069824, 0.03463881462812424, 0.31576111912727356, 0.3123711049556732, -0.6044430136680603, -0.029865967109799385, 0.29310324788093567, 0.08265446126461029, -0.1987261176109314, 0.3436737060546875, -0.10133618116378784, 0.2286999225616455, 0.25944557785987854, 0.5596892833709717, -0.22577285766601562, -0.04220451042056084, -0.41252851486206055, 0.5078110694885254, -0.4003793001174927, -0.35409218072891235, -0.07298845052719116, 0.15240070223808289, -0.34953099489212036, -0.09170936793088913, 0.14022615551948547, 0.19337725639343262, -0.2386612743139267, 0.32336926460266113, -0.01688787154853344, -0.27010631561279297, -0.46356290578842163, 0.2520013451576233], [0.1884414404630661, -0.11977582424879074, -0.09620606154203415, -0.10876035690307617, -0.014217007905244827, -0.008393604308366776, -0.1909477859735489, -0.5173581838607788, 0.153417706489563, -0.028937511146068573, 0.054082147777080536, 0.07520779967308044, 0.1040208712220192, -0.3590415120124817, 0.009202493354678154, 0.10847876220941544, 0.21556296944618225, 0.0051459455862641335, 0.2236451655626297, -0.00755040580406785, 0.02271859720349312, -0.0907454565167427, 0.4355156123638153, 0.07832904905080795, 0.2287549376487732, -0.2210616022348404, 0.14770658314228058, -0.329765260219574, 0.12213103473186493, 0.13801929354667664, 0.22101226449012756, -0.018618227913975716], [0.06614123284816742, 0.13074491918087006, -0.00080658815568313, -0.07439927756786346, 0.10785238444805145, -0.03193870186805725, -0.036812808364629745, 0.06354977190494537, 0.2671853005886078, 0.13766834139823914, 0.03861416503787041, 0.15675324201583862, 0.15689806640148163, -0.004417675547301769, -0.3367360234260559, -0.1211049035191536, -0.3249470889568329, 0.0458582304418087, -0.17222288250923157, 0.06183237582445145, -0.014029732905328274, 0.06536225974559784, -0.24192401766777039, -0.33494171500205994, -0.12776458263397217, 0.26606816053390503, -0.012616261839866638, 0.08485203236341476, 0.008323999121785164, -0.27952253818511963, 0.11862045526504517, -0.10357189178466797], [0.14843273162841797, -0.0005355601897463202, 0.17948240041732788, -0.1048809289932251, 0.1895761787891388, -0.02058601751923561, 0.013463332317769527, 0.016814740374684334, -0.035677071660757065, -0.07299043238162994, 0.022376403212547302, -0.09822075068950653, 0.03834384307265282, -0.26371803879737854, -0.02720467746257782, 0.33668118715286255, 0.13858036696910858, -0.025535697117447853, 0.06988941878080368, 0.15356887876987457, 0.10907141864299774, -0.05068464204668999, 0.3175462782382965, -0.29586344957351685, 0.014664139598608017, 0.0033495486713945866, -0.0979466438293457, -0.1971995085477829, 0.1455998718738556, 0.12804728746414185, 0.37168222665786743, 0.21699394285678864], [0.2932891845703125, -0.1127256378531456, 0.1519983559846878, 0.14978471398353577, 0.05197358876466751, -0.03358008340001106, 0.08446572721004486, -0.030814597383141518, 0.06221416965126991, 0.4921666979789734, -0.10378536581993103, -0.2753579616546631, -0.019840888679027557, -0.4482653737068176, 0.024798141792416573, 0.43889138102531433, 0.26145869493484497, 0.1902734488248825, 0.14408348500728607, 0.1912742555141449, -0.013467514887452126, -0.10013233125209808, 0.34696388244628906, -0.043104130774736404, -0.0011574618984013796, -0.019781971350312233, 0.006166507489979267, -0.20680950582027435, -0.30364978313446045, 0.2067890465259552, 0.4457077383995056, -0.3868531584739685], [-0.1433543562889099, -0.13693954050540924, 0.06054554507136345, -0.03918297216296196, 0.22023552656173706, -0.054944366216659546, -0.06654475629329681, 0.05799960717558861, 0.047881994396448135, 0.21888116002082825, -0.0846482515335083, -0.1227647066116333, -0.19551394879817963, -0.19357633590698242, -0.1801506131887436, -0.009262817911803722, -0.17632918059825897, 0.29428431391716003, 0.02229170687496662, -0.03676940128207207, 0.03444911539554596, 0.11101657152175903, -0.008358712308108807, -0.44396957755088806, 0.13518942892551422, 0.35559985041618347, 0.16736042499542236, -0.04621661826968193, -0.05524484068155289, -0.018919773399829865, 0.28136399388313293, -0.3044702112674713], [-0.0008664223714731634, -0.005770398303866386, 0.009727499447762966, 0.01589818485081196, -0.0045061963610351086, 0.005701327696442604, -0.009667424485087395, 0.010226377286016941, -0.027515314519405365, 0.0003351696068421006, 0.0014895115746185184, -0.0013118304777890444, 0.005025035701692104, 0.019391298294067383, 0.018878066912293434, -0.020668992772698402, 0.011778044514358044, 0.0071887001395225525, 0.0007330222870223224, 0.0018459218554198742, -0.003622172400355339, -0.0021448167972266674, 0.01641589216887951, 0.0406365841627121, 0.011118086986243725, -0.027186144143342972, -0.014426438137888908, 0.01580750197172165, -0.009556269273161888, 0.005198398604989052, -0.04410776495933533, 0.017357148230075836], [0.46164578199386597, 0.5078868269920349, -0.04575999453663826, -0.41535577178001404, 0.060388486832380295, -0.12035968899726868, 0.1858403980731964, 0.03558473661541939, 0.3339475691318512, -0.08423923701047897, -0.07535106688737869, 0.12634631991386414, -0.17400608956813812, -0.2820608615875244, -0.4068414568901062, 0.656170129776001, 0.049585022032260895, 0.1520017832517624, -0.09982844442129135, 0.05664752796292305, 0.15595506131649017, 0.0070105199702084064, 0.054456159472465515, -0.41504213213920593, -0.14943945407867432, 0.3006201386451721, -0.08850256353616714, -0.3653202950954437, -0.1801884025335312, 0.017045345157384872, 0.39822715520858765, -0.08119998127222061], [0.11549223959445953, 0.03567899763584137, -0.1650983989238739, 0.18339061737060547, 0.08057208359241486, -0.04803406447172165, 0.37829142808914185, -0.0517965704202652, -0.07435180991888046, -0.533184289932251, 0.022761832922697067, -0.06086573377251625, 0.04250083863735199, -0.176401749253273, -0.23792977631092072, 0.09305326640605927, 0.21023127436637878, -0.231947124004364, -0.08009614050388336, 0.12667062878608704, -0.15624892711639404, -0.001914557651616633, 0.07842650264501572, -0.2785433232784271, -0.025086553767323494, 0.03363082930445671, -0.08013647794723511, -0.19919848442077637, -0.09290733933448792, -0.3803793787956238, 0.28722164034843445, -0.13844552636146545], [0.043880168348550797, 0.13739138841629028, 0.19637565314769745, 0.10442601144313812, 0.12664292752742767, -0.07604809105396271, 0.07684136182069778, -0.03562140092253685, -0.631043553352356, -0.021612657234072685, 0.045467983931303024, 0.16480451822280884, 0.02073906548321247, -0.1375344693660736, -0.26533249020576477, -0.0087966937571764, 0.1261185258626938, 0.18156698346138, 0.03374500572681427, -0.17921793460845947, 0.20264165103435516, -0.010496607050299644, -0.11299307644367218, -0.14964525401592255, 0.23489637672901154, 0.07869116961956024, 0.0467720665037632, -0.19691410660743713, -0.041844919323921204, -0.20918896794319153, 0.2526487410068512, -0.5823107957839966], [0.4568643867969513, -0.14943598210811615, -0.12070608884096146, -0.1792527586221695, 0.37638458609580994, -0.03733294457197189, -0.3449054956436157, 0.22713999450206757, -0.2643424868583679, 0.04098101705312729, -0.08849406987428665, -0.20455114543437958, -0.11385181546211243, -0.3782556653022766, 0.034482285380363464, -0.042885880917310715, 0.4441048502922058, -0.24615660309791565, 0.21730993688106537, 0.25409138202667236, 0.2206420749425888, -0.29236844182014465, 0.1992630511522293, -0.17409639060497284, 0.023209447041153908, 0.1488809585571289, 0.2708651125431061, -0.3505685031414032, 0.2278156578540802, 0.3461512327194214, 0.43955323100090027, 0.341927170753479], [-0.07342395186424255, 0.10165563970804214, -0.3153064250946045, -0.081199049949646, 0.4075206518173218, -0.002232210710644722, 0.30257904529571533, 0.03983330354094505, -0.01810571178793907, 0.10894335061311722, -0.35942262411117554, -0.1453210562467575, -0.13585376739501953, -0.15831522643566132, -0.062482111155986786, 0.1993386447429657, -0.04834719002246857, -0.1899871528148651, -0.007107924669981003, 0.03507913276553154, -0.12376774102449417, -0.02576874941587448, 0.019946768879890442, -0.393079549074173, -0.42630475759506226, 0.1310926377773285, 0.06742223352193832, 0.23434089124202728, -0.058267366141080856, -0.03881044685840607, 0.375935435295105, 0.3022998869419098], [-0.12178437411785126, 0.08408797532320023, 0.10046005249023438, 0.0872727483510971, 0.04484367370605469, -0.009006757289171219, -0.013791917823255062, 0.19647955894470215, -0.3772783875465393, 0.2142660766839981, -0.024723555892705917, -0.23483523726463318, 0.0098453089594841, -0.03223293647170067, -0.006782570853829384, -0.2220703661441803, -0.23558399081230164, 0.17517517507076263, 0.030339336022734642, 0.08435826748609543, -0.003128043143078685, 0.0638812854886055, -0.12167733162641525, 0.03887872397899628, -0.018365880474448204, 0.06124044582247734, -0.3855535089969635, 0.11563628166913986, -0.08684306591749191, -0.021230380982160568, 0.1174764409661293, -0.019164282828569412], [0.01312272995710373, -0.10198669135570526, 0.0036020914558321238, -0.18689902126789093, 0.2592740058898926, -0.05622001737356186, 0.04715719074010849, 0.5166760683059692, -0.018776413053274155, 0.2835013270378113, -0.0008081198902800679, 0.1875656247138977, -0.23129576444625854, -0.16391253471374512, -0.06609668582677841, 0.1759122759103775, 0.01325987372547388, 0.21712759137153625, 0.13556772470474243, 0.023979568853974342, 0.20681717991828918, -0.06447990238666534, -0.047174178063869476, 0.018984362483024597, -0.12921138107776642, -0.013558527454733849, 0.1998504400253296, -0.36426305770874023, -0.029635794460773468, 0.19547656178474426, 0.2618524730205536, -0.35146117210388184], [0.20193606615066528, -0.06369956582784653, -0.012485114857554436, 0.08235239237546921, 0.27180227637290955, -0.023858753964304924, -0.12976008653640747, -0.10103154182434082, -0.06108180806040764, -0.08767770230770111, 0.03991759195923805, 0.07797215133905411, -0.12291339039802551, -0.33856651186943054, -0.05907878652215004, -0.07933394610881805, 0.2388508915901184, -0.037482839077711105, 0.15965332090854645, 0.07177682965993881, 0.026142649352550507, -0.06804423034191132, 0.28573206067085266, -0.17571566998958588, 0.24538569152355194, -0.08228465914726257, 0.1441226601600647, -0.11246412992477417, -0.051993291825056076, 0.008934969082474709, 0.4167443811893463, 0.06390497833490372], [-0.2554779350757599, 0.26707449555397034, -0.07134938985109329, -0.1878909319639206, 0.04539804905653, -0.06319401413202286, -0.09125208109617233, 0.2240176647901535, -0.024590404704213142, 0.33574095368385315, 0.06964413821697235, 0.05799626559019089, -0.007948118261992931, -0.0809730514883995, -0.25415661931037903, 0.00076816335786134, -0.4026022255420685, 0.19445015490055084, 0.0009024122846312821, 0.11373220384120941, 0.08165540546178818, 0.1487351655960083, -0.3113616108894348, -0.42292872071266174, -0.12515392899513245, 0.359953373670578, 0.2682599127292633, 0.06622305512428284, 0.018211401998996735, 0.027186783030629158, 0.22203968465328217, -0.2559478282928467], [0.07694864273071289, -0.36796894669532776, -0.13955263793468475, -0.007846788503229618, 0.0631147027015686, -0.021923597902059555, 0.058319032192230225, -0.13247272372245789, -0.11799491941928864, -0.08636044710874557, 0.04947095364332199, 0.07427942007780075, -0.342242956161499, -0.2865895628929138, 0.20871788263320923, -0.1289123296737671, 0.11442136019468307, -0.14498619735240936, 0.14462289214134216, 0.07653427124023438, 0.016664570197463036, -0.11669120192527771, 0.14068758487701416, -0.025491897016763687, 0.18983051180839539, -0.1715414673089981, -0.12387857586145401, -0.2513374090194702, -0.0942150130867958, 0.0028402607422322035, 0.31860825419425964, 0.04868725687265396], [0.23879244923591614, 0.11334912478923798, 0.16063861548900604, -0.1381049007177353, 0.13027191162109375, -0.12220101803541183, -0.11186209321022034, -0.09286664426326752, 0.27979350090026855, -0.13780516386032104, 0.02615596354007721, -0.13982683420181274, -0.01956784352660179, -0.2674458622932434, -0.2100483477115631, -0.11669956892728806, 0.15194089710712433, 0.04861803352832794, 0.18010804057121277, 0.04936792328953743, 0.16200019419193268, 0.03343890979886055, 0.08035638928413391, -0.5104392766952515, -0.11441696435213089, 0.26615408062934875, -0.25504186749458313, -0.2542282044887543, -0.043285071849823, 0.011739848181605339, 0.42911258339881897, 0.1677125096321106], [0.04597598686814308, -0.04292408376932144, -0.3447192907333374, -0.06812603026628494, -0.16546934843063354, -0.014629875309765339, -0.08795864880084991, -0.11760922521352768, 0.2869641184806824, 0.007532738149166107, 0.15394917130470276, 0.04172598198056221, -0.2012454867362976, -0.3503241240978241, -0.03556419536471367, 0.11981000006198883, 0.33342257142066956, -0.13887424767017365, 0.09769949316978455, 0.1552067995071411, -0.04950211942195892, -0.07655854523181915, 0.4113231599330902, -0.13239999115467072, 0.3307044208049774, -0.08382770419120789, 0.08263376355171204, -0.4521721303462982, -0.2073727697134018, 0.1883753389120102, 0.42330363392829895, 0.250393807888031], [0.2433040738105774, 0.0943107083439827, -0.07920966297388077, -0.10901693254709244, 0.11075659841299057, -0.02349156327545643, -0.19012878835201263, -0.06131714954972267, 0.07763053476810455, -0.20152583718299866, -0.020398858934640884, -0.07361330091953278, -0.020777340978384018, -0.24990314245224, 0.032534223049879074, 0.313814640045166, 0.08170545846223831, -0.18335223197937012, 0.17091195285320282, 0.04436611384153366, 0.14871741831302643, -0.02723309025168419, 0.1598149687051773, 0.0422673337161541, -0.2055431306362152, 0.0471995510160923, 0.18887506425380707, -0.06726714968681335, 0.21143409609794617, 0.37243470549583435, 0.2608831524848938, 0.09829030930995941], [0.15915152430534363, 0.0034305835142731667, 0.10852845013141632, 0.11271656304597855, 0.037321653217077255, -0.01606224663555622, 0.03459637612104416, -0.13726603984832764, -0.036342017352581024, -0.10925980657339096, -0.020391812548041344, 0.011107876896858215, 0.02382609434425831, -0.020047498866915703, -0.00630367873236537, -0.09965040534734726, -0.05618869140744209, 0.08938737958669662, 0.04457195848226547, 0.00623661745339632, 0.044927503913640976, 0.02994856983423233, -0.016418766230344772, -0.15526147186756134, 0.23543311655521393, 0.02607898600399494, 0.031845249235630035, 0.05076420679688454, 0.12558285892009735, -0.0589074045419693, 0.022399315610527992, -0.051126495003700256], [-0.35762107372283936, -0.1071273609995842, 0.05816127359867096, -0.05130274221301079, 0.31522229313850403, 0.0358239971101284, 0.02845330722630024, 0.17691804468631744, -0.1814897358417511, 0.21874700486660004, 0.044404540210962296, -0.10233138501644135, -0.2921411693096161, -0.22023583948612213, 0.2588105797767639, -0.04185672476887703, 0.07856610417366028, 0.1481124758720398, 0.026389043778181076, 0.053684961050748825, -0.29611384868621826, -0.033745910972356796, 0.2998652458190918, 0.21006688475608826, -0.11842351406812668, -0.23414179682731628, 0.042374201118946075, -0.05648672953248024, -0.23088882863521576, 0.1767336130142212, 0.19701796770095825, -0.28847968578338623], [0.0019182296236976981, 0.05130581557750702, -0.023376798257231712, -0.030553409829735756, -0.07076489925384521, -0.012603112496435642, 0.129753977060318, 0.007383521646261215, 0.0692548155784607, -0.020374583080410957, 0.03347843885421753, 0.08311749994754791, 0.02880115434527397, 0.01340120192617178, -0.0762881338596344, 0.015045054256916046, -0.04607118293642998, -0.049397438764572144, -0.07084733247756958, 0.003394956234842539, 0.017899708822369576, 0.014933591708540916, -0.06109149008989334, -0.09325221925973892, -0.1176208108663559, 0.0911734402179718, -0.0952131524682045, 0.045495014637708664, 0.0022436792496591806, -0.06725496053695679, 0.01950376108288765, 0.034134842455387115], [0.1704585701227188, 0.2089562714099884, -0.06632722914218903, 0.013764220289885998, 0.0676208883523941, -0.08656293153762817, -0.2390361875295639, -0.16426189243793488, -0.27197134494781494, -0.15322282910346985, 0.07801977545022964, -0.027055755257606506, -0.036778759211301804, -0.30291104316711426, -0.35984882712364197, -0.02299707755446434, 0.02244679257273674, 0.027741719037294388, -0.054288867861032486, -0.12934257090091705, -0.0371287539601326, -0.011038425378501415, 0.186184361577034, -0.2972613573074341, 0.126115083694458, 0.07098285108804703, -0.018410751596093178, -0.2503010332584381, -0.14348773658275604, 0.10108110308647156, 0.4199945330619812, 0.11963903903961182], [0.336617112159729, 0.12436683475971222, 0.06810671091079712, -0.09324328601360321, 0.10082924365997314, 0.019258882850408554, -0.10427309572696686, 0.30122700333595276, 0.5784417390823364, 0.03096230886876583, -0.04783572256565094, 0.002763312077149749, -0.24269139766693115, -0.16810676455497742, -0.051540158689022064, -0.05282464250922203, -0.10591878741979599, 0.11939070373773575, 0.033949121832847595, 0.18555119633674622, -0.09431038051843643, 0.042347248643636703, -0.023391153663396835, -0.35178422927856445, -0.2159762680530548, 0.21184004843235016, 0.2515651285648346, 0.2171442061662674, 0.1282113790512085, 0.21302226185798645, 0.31087517738342285, -0.02803885005414486], [0.4650946855545044, -0.14022694528102875, -0.6210057735443115, -0.14833377301692963, 0.29270505905151367, -0.19511441886425018, 0.5440919995307922, 0.13769446313381195, 0.08757340162992477, 0.1059533879160881, -0.01526519376784563, -0.07331877201795578, -0.3278017044067383, -0.8291565775871277, -0.26364362239837646, 0.5213292241096497, 0.42109522223472595, -0.3493684232234955, 0.3364245295524597, 0.38641712069511414, -0.19801193475723267, -0.18725213408470154, 0.41006964445114136, -0.8610686659812927, 0.7854703068733215, 0.17128118872642517, 0.566617488861084, -0.7322721481323242, -0.1822454035282135, -0.17321425676345825, 0.9867253303527832, 0.07979999482631683], [0.31313398480415344, -0.006289894692599773, 0.06733918935060501, 0.04354275017976761, 0.08011526614427567, -0.02075386606156826, 0.09672703593969345, -0.18418608605861664, 0.33061933517456055, 0.19478096067905426, -0.11786197870969772, -0.049807358533144, -0.11882639676332474, -0.16917815804481506, -0.12734299898147583, -0.32703983783721924, -0.2276945412158966, 0.12567485868930817, -0.015890484675765038, -0.008503272198140621, -0.01632249727845192, 0.03245609998703003, -0.17883045971393585, -0.3786647915840149, 0.08475686609745026, 0.3507549464702606, 0.06666701287031174, 0.22733186185359955, 0.039976850152015686, 0.002839679131284356, 0.06359600275754929, 0.1194513589143753], [-0.018656572327017784, 0.3352837860584259, 0.11320635676383972, -0.21036028861999512, 0.031437695026397705, -0.11648273468017578, 0.08782992511987686, -0.0032862508669495583, 0.017955247312784195, 0.25498494505882263, 0.17374911904335022, 0.051505833864212036, 0.054267290979623795, -0.15344475209712982, -0.5916512608528137, -0.09543827921152115, -0.4092811644077301, 0.44902563095092773, -0.12154342234134674, -0.07220536470413208, 0.2210327684879303, 0.18567350506782532, -0.32835760712623596, -0.5836551189422607, -0.033107005059719086, 0.42629432678222656, -0.09889471530914307, -0.13542845845222473, 0.26852259039878845, -0.1261652559041977, 0.5156872272491455, -0.37213680148124695], [0.10020553320646286, 0.20014573633670807, 0.025872576981782913, -0.4260261058807373, 0.34359997510910034, -0.14813905954360962, -0.2502635717391968, -0.11366061121225357, 0.07233792543411255, 0.1750171184539795, -0.19220826029777527, 0.09374650567770004, -0.04830008000135422, -0.386442631483078, -0.6708586812019348, 0.10884406417608261, -0.25518712401390076, -0.013116736896336079, -0.08115239441394806, -0.0969276875257492, -0.22091534733772278, 0.026259424164891243, 0.0703316181898117, -0.6496636271476746, -0.06827513873577118, 0.40089282393455505, -0.1215871050953865, 0.11895322054624557, 0.014985010959208012, 0.0335552915930748, 0.5205907225608826, 0.24748621881008148], [0.16838809847831726, -0.02688555419445038, -0.030637066811323166, 0.10077197104692459, 0.092909075319767, -0.018787367269396782, -0.06731774657964706, -0.03276277333498001, -0.19292624294757843, -0.3360387682914734, 0.11690979450941086, -0.0551019124686718, -0.19409584999084473, -0.2278962880373001, 0.1845511794090271, 0.22965340316295624, 0.31141915917396545, -0.19634124636650085, 0.028197474777698517, 0.12612494826316833, 0.0726451501250267, -0.08006860315799713, 0.2424476593732834, 0.13666194677352905, -0.01379669550806284, -0.1608598381280899, -0.210649311542511, -0.17908771336078644, 0.0017037778161466122, 0.4031812250614166, 0.30882513523101807, 0.21112169325351715], [0.053810007870197296, -0.008440838195383549, 0.07882235944271088, 0.061807725578546524, 0.04434095695614815, 0.0451882965862751, -0.1537017524242401, -0.3887672424316406, -0.16832759976387024, -0.3023230731487274, 0.21516595780849457, 0.07065517455339432, -0.01935480907559395, -0.15006911754608154, -0.06651370972394943, -0.15645599365234375, 0.1153508722782135, 0.10271594673395157, 0.17217884957790375, 0.06733733415603638, -0.19725008308887482, -0.015601690858602524, -0.0897359699010849, -0.24554336071014404, -0.008168894797563553, 0.003076749388128519, 0.2857879400253296, -0.0029677739366889, 0.09297003597021103, -0.006713951472193003, 0.013288105838000774, -0.01044490933418274], [0.05360874906182289, 0.07053960859775543, -0.34346455335617065, -0.41531649231910706, 0.3238920271396637, 0.02278522029519081, -0.11888796836137772, 0.1794234663248062, 0.34558558464050293, -0.027625029906630516, -0.0143606998026371, -0.04809047654271126, -0.1620606929063797, -0.1847200095653534, 0.01890868879854679, -0.1410188525915146, 0.23461325466632843, -0.22156241536140442, 0.021040983498096466, 0.31710147857666016, -0.12437393516302109, -0.023270798847079277, 0.025762829929590225, -0.24049147963523865, -0.2383730709552765, 0.012509300373494625, -0.005675427615642548, 0.1779855638742447, 0.0009624755475670099, 0.031649451702833176, 0.3991667926311493, 0.08837378770112991], [0.7137030363082886, 0.06152821704745293, 0.026379559189081192, -0.004605522379279137, 0.13214313983917236, -0.11289089918136597, -0.10199251025915146, -0.004347287118434906, -0.10633383691310883, -0.09089074283838272, -0.2327989637851715, 0.22295452654361725, -0.21715468168258667, -0.5251114964485168, -0.21458949148654938, 0.3756709396839142, 0.5534197092056274, -0.21589381992816925, 0.2025422751903534, 0.0037991032004356384, 0.15826353430747986, -0.2568970322608948, 0.2950434684753418, -0.4164017140865326, -0.36085376143455505, 0.0704793930053711, -0.0196972768753767, -0.31551459431648254, 0.10012736916542053, 0.6992817521095276, 0.6578642129898071, 0.24223539233207703], [0.5040289163589478, -0.06516734510660172, -0.18936224281787872, 0.08080629259347916, 0.18957701325416565, 0.03683500364422798, -0.06624484807252884, 0.019749214872717857, 0.3577779531478882, -0.0863901674747467, 0.0404491201043129, 0.15478545427322388, 0.1772637963294983, -0.036366213113069534, 0.10864994674921036, -0.6821402311325073, 0.21297606825828552, 0.1500340700149536, 0.06327737867832184, 0.08589760214090347, -0.011320657096803188, -0.06053641438484192, -0.022262394428253174, 0.09134054183959961, 0.017428722232580185, 0.04410361871123314, 0.027191195636987686, 0.28202176094055176, 0.4312978982925415, -0.05822353810071945, -0.09011456370353699, 0.3483351767063141], [-0.2988165616989136, 0.1811111867427826, 0.15544743835926056, 0.10104398429393768, 0.09583773463964462, 0.005705844610929489, 0.1447272151708603, 0.07983649522066116, 0.14294491708278656, -0.1825624406337738, -0.1481848657131195, 0.20317108929157257, 0.1962018609046936, 0.2904154658317566, -0.24980439245700836, 0.39780640602111816, -0.302013099193573, 0.022510088980197906, -0.054494600743055344, -0.09522707015275955, 0.28265324234962463, 0.027997123077511787, -0.23297418653964996, 0.07073987275362015, -0.25070759654045105, 0.16825070977210999, -0.36674171686172485, -0.11112132668495178, 0.028346195816993713, 0.29133108258247375, -0.20793122053146362, 0.025179356336593628], [0.08198564499616623, -0.0394158698618412, 0.16392214596271515, 0.31753963232040405, -0.11625589430332184, 0.06101614981889725, -0.042075347155332565, 0.07250162214040756, 0.0020367801189422607, -0.02327307127416134, -0.06117909029126167, 0.003921822179108858, 0.19067509472370148, -0.16076938807964325, -0.1593146175146103, 0.1735360026359558, -0.16120631992816925, 0.26049208641052246, 0.18476440012454987, 0.027386993169784546, -0.4068562388420105, 0.029072053730487823, 0.026102013885974884, -0.057995181530714035, -0.21732425689697266, 0.10617830604314804, -0.38052159547805786, 0.0475585050880909, 0.14637324213981628, 0.09742249548435211, 0.10411462187767029, -0.38682305812835693], [-0.15432167053222656, 0.3390181064605713, -0.11045794934034348, 0.09997668117284775, -0.1704825460910797, -0.013215525075793266, 0.6687032580375671, -0.4244033694267273, -0.11600267142057419, -0.41499990224838257, 0.11825574934482574, -0.17636755108833313, -0.16404184699058533, -0.03844258189201355, 0.05202621966600418, 0.07364165782928467, 0.11909835785627365, -0.11136594414710999, -0.022975433617830276, 0.10567360371351242, -0.3989104926586151, 0.05243567004799843, 0.020909924060106277, 0.07897473126649857, 0.24743972718715668, -0.2487431913614273, 0.04996200278401375, -0.16981734335422516, -0.09542282670736313, -0.04447178542613983, -0.10732967406511307, -0.2322974056005478], [0.17609766125679016, -0.07216375321149826, 0.09868206828832626, -0.11406974494457245, 0.29180285334587097, -0.03721847012639046, -0.1785936802625656, -0.2721412777900696, -0.45469650626182556, -0.06779748201370239, -0.18382585048675537, 0.0537351593375206, -0.3713286817073822, -0.19652880728244781, -0.030784647911787033, 0.09180229902267456, -0.000996897229924798, -0.20173241198062897, 0.135906383395195, 0.005681672133505344, 0.011829965747892857, 0.020456412807106972, -0.09264286607503891, -0.0630151778459549, -0.6375006437301636, 0.12492071837186813, -0.3098966181278229, 0.12914422154426575, 0.005578399635851383, 0.4793443977832794, 0.21241849660873413, 0.32724618911743164], [-0.09383935481309891, -0.02207358181476593, 0.09421539306640625, -0.03612278029322624, 0.07049624621868134, -0.015481113456189632, -0.1375807225704193, 0.019745178520679474, -0.015298726037144661, -0.012701604515314102, 0.0022588877473026514, -0.07389084994792938, 0.06935214251279831, -0.1129872277379036, 0.08721096813678741, -0.13381148874759674, 0.03996255621314049, -0.005765178706496954, 0.06468190997838974, -0.0036991038359701633, -0.13487999141216278, 0.0016719342675060034, 0.06093766540288925, -0.10285970568656921, -0.1269390881061554, -0.0538986474275589, 0.015951475128531456, 0.008191097527742386, -0.01248918753117323, 0.00537806237116456, -0.11197266727685928, 0.05036746338009834], [0.15043483674526215, -0.20281177759170532, 0.019173692911863327, 0.05819925665855408, 0.14385482668876648, -0.010574404150247574, 0.519354522228241, 0.0812855213880539, 0.2634468376636505, 0.009699723683297634, 0.16233745217323303, 0.3672453463077545, 0.11443929374217987, 0.06310626864433289, 0.17795248329639435, -0.39211368560791016, 0.15951725840568542, -0.2929885983467102, -0.2250651717185974, 0.17538242042064667, -0.09845258295536041, -0.10851114243268967, 0.1339596062898636, -0.005840703845024109, -0.42723703384399414, -0.11179228127002716, 0.07816386967897415, 0.19058097898960114, 0.06891222298145294, -0.3122418522834778, -0.09751633554697037, -0.14441390335559845], [0.04761369898915291, -0.013720818795263767, -0.17837080359458923, 0.4356164038181305, 0.11615784466266632, 0.00014761241618543863, -0.354829341173172, 0.23446495831012726, 0.2493155598640442, 0.01652407832443714, -0.08709172159433365, -0.002852529287338257, -0.20527447760105133, 0.02039765752851963, 0.27561572194099426, -0.04385223239660263, -0.0765472948551178, -0.037225931882858276, -0.01725280098617077, 0.11256446689367294, 0.3833836317062378, 0.09499934315681458, 0.07333631068468094, 0.023422563448548317, -0.2094351351261139, -0.14477263391017914, 0.2737961709499359, 0.03811747208237648, -0.11512380093336105, -0.05623393878340721, 0.034802887588739395, -0.5102561712265015], [-0.14026083052158356, -0.01564427651464939, 0.2190626859664917, -0.07774003595113754, -0.41850656270980835, 0.07907672226428986, -0.2906036078929901, -0.3107740581035614, 0.6404505372047424, -0.062294889241456985, -0.23396499454975128, 0.06252968311309814, -0.05346878990530968, 0.023297129198908806, 0.30417150259017944, -0.5409654974937439, 0.22718247771263123, 0.24730844795703888, -0.06295935809612274, 0.029434679076075554, -0.18592746555805206, 0.15450778603553772, -0.09960458427667618, -0.1365610808134079, -0.6261937022209167, -0.041998282074928284, 0.2870216965675354, 0.1325378119945526, -0.034225936979055405, -0.10723172873258591, 0.12325099110603333, 0.15535248816013336], [0.015203039161860943, 0.10640858858823776, 0.4019773602485657, 0.017094686627388, 0.16321934759616852, 0.057634588330984116, -0.019504325464367867, -0.07476939260959625, 0.1616239994764328, 0.3238792419433594, -0.2064528614282608, -0.011421600356698036, 0.10194876790046692, -0.07291735708713531, -0.24162492156028748, -0.253008633852005, -0.0679887980222702, 0.1251954734325409, -0.005420726723968983, 0.013588175177574158, 0.06869706511497498, 0.19235509634017944, -0.36569127440452576, -0.255428284406662, 0.1551976054906845, 0.34109804034233093, -0.11695245653390884, 0.22085405886173248, 0.21392905712127686, 0.03920886665582657, 0.4363105893135071, -0.4448528289794922], [-0.018474280834197998, -0.050985805690288544, -0.1300346404314041, -0.11087819188833237, -0.4385608732700348, 0.11139226704835892, -0.29635927081108093, 0.23180626332759857, -0.02554236352443695, 0.2730835974216461, 0.34588849544525146, 0.1409769505262375, 0.16510680317878723, 0.17844028770923615, 0.030962400138378143, -0.13283812999725342, 0.06103977933526039, -0.25956007838249207, 0.057265058159828186, 0.12027696520090103, 0.36114391684532166, -0.0008152201189659536, -0.1146472692489624, 0.016584165394306183, 0.20959913730621338, 0.023358887061476707, 0.12731336057186127, -0.31177234649658203, 0.004607445560395718, -0.17714151740074158, -0.05439901351928711, 0.026506228372454643], [0.16573408246040344, -0.05812454968690872, -0.06371638923883438, -0.13094431161880493, -0.3267730474472046, -0.06914970278739929, 0.22281695902347565, -0.2587291896343231, 0.2868092954158783, 0.3472617268562317, 0.25231051445007324, 0.49924999475479126, 0.11467436701059341, 2.7848000172525644e-05, -0.12140953540802002, 0.10621144622564316, 0.10320364683866501, 0.025488732382655144, -0.048783134669065475, -0.08089704811573029, 0.3404776453971863, -0.08280645310878754, 0.03990202024579048, -0.0752287209033966, 0.006468994077295065, -0.04335857927799225, 0.4573189914226532, -0.17224238812923431, 0.09323859959840775, -0.1545749455690384, -0.04624487832188606, -0.17097511887550354], [0.18284188210964203, 0.1694078892469406, 0.006227424368262291, 0.15489397943019867, -0.11393868178129196, -0.03034350462257862, -0.03114279918372631, 0.34634721279144287, -0.08882686495780945, -0.4115648567676544, -0.009857723489403725, 0.0657014325261116, 0.4434492290019989, -0.03227602690458298, -0.1386195570230484, -0.3036249876022339, -0.10175978392362595, 0.130766823887825, -0.017929432913661003, 0.05617005005478859, -0.3065894544124603, 0.1731380820274353, 0.08649646490812302, -0.03537911921739578, 0.49024102091789246, -0.046461593359708786, -0.17957405745983124, -0.11247966438531876, -0.08494997024536133, -0.6720614433288574, 0.044376060366630554, -0.36512184143066406], [-0.13177013397216797, 0.10517533123493195, -0.028010031208395958, 0.008756371214985847, -0.189743310213089, 0.08557044714689255, 0.00326715549454093, 0.15463796257972717, 0.05021108314394951, -0.10614015907049179, -0.044144559651613235, -0.001285363221541047, 0.07601779699325562, 0.30391696095466614, -0.018025802448391914, 0.31112444400787354, -0.15977540612220764, 0.012318317778408527, -0.18532024323940277, -0.0898682102560997, 0.012852011248469353, 0.03454772010445595, -0.23859521746635437, 0.02450915426015854, -0.24926140904426575, 0.034843988716602325, -0.17228800058364868, -0.027670538052916527, -0.0007564008701592684, -0.03465855494141579, -0.22335967421531677, 0.045709192752838135], [0.14697854220867157, -0.015946045517921448, -0.04035729542374611, -0.018969517201185226, 0.38632652163505554, 0.10927410423755646, -0.14068503677845, -0.2656944692134857, -0.1201784685254097, 0.025053560733795166, -0.30790844559669495, -0.1261020004749298, -0.13863308727741241, 0.03672068938612938, 0.19710750877857208, 0.11207975447177887, 0.21662235260009766, -0.13168001174926758, 0.3691259026527405, 0.053812459111213684, -0.04157298803329468, -0.0673445388674736, 0.02510220557451248, 0.11736280471086502, -0.40515053272247314, -0.20099543035030365, 0.035688236355781555, 0.3294534683227539, -0.005793832242488861, 0.3775773048400879, 0.16581523418426514, 0.39297255873680115], [0.07393739372491837, 0.12570706009864807, -0.07372742891311646, 0.12889479100704193, -0.10186445713043213, -0.10927458107471466, 0.9071200489997864, 0.07210031896829605, -0.010467234067618847, 0.05417526885867119, 0.18830780684947968, 0.37522876262664795, -0.15757237374782562, -0.16526667773723602, -0.10075132548809052, 0.052946560084819794, 0.029254551976919174, -0.14735020697116852, 0.16076815128326416, 0.05380195006728172, 0.17430275678634644, -0.10604003071784973, 0.1334252953529358, -0.24069029092788696, -0.1556398570537567, 0.1895724982023239, 0.04297225922346115, -0.12432429939508438, 0.09301863610744476, 0.3222705125808716, -0.167035311460495, -0.2551053464412689], [0.1346878707408905, -0.25227025151252747, -0.12576532363891602, 0.07475157827138901, 0.1658364087343216, 0.035648420453071594, 0.10039269924163818, 0.46071621775627136, -0.011540099047124386, -0.15387727320194244, -0.04251595214009285, -0.007029523141682148, -0.03613771125674248, -0.2479984611272812, 0.36064302921295166, -0.2524799108505249, 0.34441980719566345, -0.03995625674724579, 0.009256592951714993, 0.22562575340270996, -0.17627407610416412, -0.0911121517419815, 0.04261258989572525, -0.033375661820173264, -0.0006558983586728573, -0.19281408190727234, 0.042810410261154175, 0.08236178010702133, -0.07163966447114944, 0.024541668593883514, 0.012502129189670086, 0.11833105236291885], [0.07980655878782272, 0.08157619088888168, -0.04598166048526764, -0.05931515246629715, -0.14284168183803558, -0.01762782409787178, -0.23818591237068176, 0.17808003723621368, -0.29865503311157227, -0.1802714467048645, -0.022426648065447807, -0.04317503049969673, -0.2597862780094147, 0.025460990145802498, -0.191935732960701, -0.11235816776752472, -0.16260869801044464, 0.14196215569972992, -0.06322963535785675, 0.040303874760866165, -0.09310418367385864, 0.09947007894515991, -0.14036139845848083, -0.015398668125271797, 0.53687983751297, -0.03033730387687683, -0.11516575515270233, -0.00041207007598131895, -0.006472929380834103, 0.1725710928440094, 0.010959399864077568, -0.5449196100234985], [-0.05705907568335533, -0.0857279896736145, 0.24834726750850677, 0.15429472923278809, 0.12344539165496826, -0.027141904458403587, -0.13664062321186066, -0.2026665359735489, -0.12395580112934113, 0.07674349844455719, -0.14579907059669495, -0.10506736487150192, -0.15984928607940674, -0.08144085109233856, 0.10841094702482224, 0.06234059855341911, -0.05120863392949104, 0.1870139092206955, 0.1302841603755951, -0.027201302349567413, 0.23063449561595917, 0.08138710260391235, -0.03600542992353439, -0.03913172706961632, -0.16766421496868134, -0.09775431454181671, -0.14976726472377777, -0.02029477432370186, 0.09073034673929214, 0.452873170375824, 0.2349555492401123, 0.2163810282945633], [-0.005526824854314327, -0.0460239015519619, -0.09762468934059143, 0.012019787915050983, 0.008045134134590626, 0.044327910989522934, 0.02181762084364891, 0.5809165835380554, 0.21621166169643402, -0.054510679095983505, -0.023719631135463715, -0.15226320922374725, -0.039507243782281876, 0.07285673171281815, 0.18671374022960663, -0.34410473704338074, 0.3039250373840332, -0.08113012462854385, -0.032165613025426865, 0.13899901509284973, -0.12254969030618668, 0.16587601602077484, 0.03520907461643219, 0.04655037075281143, -0.014839266426861286, -0.16380850970745087, 0.11418510973453522, 0.18959541618824005, 0.04684896767139435, -0.006382104009389877, 0.11684046685695648, 0.17429468035697937], [0.00900582317262888, 0.05677765980362892, 0.3590160608291626, 0.12321092188358307, 0.11009770631790161, 0.05124884471297264, 0.18502077460289001, -0.08885441720485687, 0.4269876182079315, 0.2063496708869934, -0.3842926025390625, -0.11579962074756622, -0.03231484070420265, 0.034738194197416306, 0.060394737869501114, -0.051949720829725266, -0.03144754469394684, -0.26992055773735046, 0.0826585441827774, 0.012259180657565594, 0.2785140573978424, 0.02758762054145336, -0.02335006557404995, 0.10820114612579346, -0.07463186979293823, -0.022730952128767967, -0.13760077953338623, -0.4199815094470978, 0.15360917150974274, 0.07872213423252106, -0.29480603337287903, -0.09028507769107819], [-0.19371865689754486, 0.15424804389476776, 0.06295377016067505, 0.10449862480163574, -0.13967962563037872, -0.017581917345523834, -0.08464828133583069, 0.048254452645778656, 0.046098046004772186, -0.1798974871635437, -0.1051841676235199, -0.12370216846466064, -0.014140740036964417, 0.0771484449505806, -0.05400368571281433, -0.11209560930728912, -0.1351233422756195, 0.09602703899145126, -0.06257496774196625, 0.04856692627072334, -0.06766176223754883, 0.017564866691827774, -0.17163334786891937, -0.16513927280902863, 0.09797713160514832, -0.05474686250090599, -0.07310768961906433, 0.1996472030878067, 0.12427384406328201, 0.00365246064029634, -0.0008928868919610977, -0.06568177789449692], [0.18805010616779327, -0.16799695789813995, -0.1825261116027832, 0.02234371192753315, -0.10742172598838806, -0.006594639737159014, -0.24952831864356995, 0.16452299058437347, 0.15272343158721924, -0.2279367744922638, 0.10076077282428741, 0.13963332772254944, -0.042538803070783615, -0.3082897663116455, 0.006565413903445005, -0.14093440771102905, 0.38923993706703186, -0.1374054253101349, -0.0011547913309186697, 0.18655529618263245, 0.02255938947200775, -0.04739813506603241, 0.3399166464805603, 0.2149895578622818, 0.22686219215393066, -0.21645915508270264, -0.13188572227954865, -0.1815306842327118, 0.07923299819231033, 0.20040684938430786, 0.04855690896511078, 0.22831833362579346], [0.222787007689476, 0.03351913392543793, 0.17923800647258759, -0.1284017115831375, -0.12696915864944458, -0.005621993448585272, -0.2594602704048157, -0.1844821721315384, -0.17738685011863708, 0.10129235684871674, 0.08803986012935638, 0.0362696573138237, -0.08236169070005417, 0.08505071699619293, -0.013900762423872948, 0.17093126475811005, 0.20721770823001862, -0.20923402905464172, 0.18103328347206116, -0.24230127036571503, -0.030588768422603607, -0.15997397899627686, -0.10295239835977554, 0.3098210394382477, -0.2513394057750702, 0.030651777982711792, -0.17345617711544037, -0.13519982993602753, -0.4104767143726349, 0.3480815887451172, -0.20172204077243805, 0.04422849789261818], [0.0920153260231018, 0.20360372960567474, 0.07433962821960449, 0.47402721643447876, -0.28374508023262024, 0.021364519372582436, -0.29807624220848083, -0.09750029444694519, -0.1430688351392746, -0.31080570816993713, -0.1348964422941208, -0.023120896890759468, 0.19929897785186768, -0.05155408754944801, -0.052785586565732956, 0.17680437862873077, 0.3251345753669739, -0.18797023594379425, 0.022369153797626495, 0.12770316004753113, 0.18526016175746918, -0.04260686784982681, -0.04644220694899559, 0.010025368072092533, 0.6182905435562134, 0.0555880106985569, 0.11717381328344345, -0.14966878294944763, 0.14396409690380096, 0.15999075770378113, 0.07438265532255173, 0.06352044641971588], [0.025657804682850838, 0.12659014761447906, -0.06848128885030746, -0.18866826593875885, 0.01722528785467148, -0.00199202005751431, 0.1526203453540802, -0.0750107616186142, 0.25326547026634216, 0.30125856399536133, 0.0642986074090004, 0.26913589239120483, 0.14882037043571472, 0.16223950684070587, -0.13168740272521973, -0.09135886281728745, -0.28790968656539917, 0.03965310379862785, 0.008991824463009834, -0.010522873140871525, -0.1257643699645996, 0.15663060545921326, -0.3971054255962372, -0.20511630177497864, -0.04674733430147171, 0.3691159188747406, 0.13858851790428162, 0.13714809715747833, 0.12185730785131454, -0.07686330378055573, 0.09026042371988297, -0.0894501581788063], [-0.0939905121922493, 0.22744175791740417, 0.2650759816169739, -0.15517692267894745, 0.23815017938613892, -0.034542717039585114, -0.17331534624099731, -0.4237075746059418, -0.020559336990118027, 0.15366214513778687, 0.024287255480885506, 0.06085149198770523, -0.13228200376033783, 0.11091640591621399, -0.08122680336236954, 0.6125468015670776, 0.1902918517589569, -0.002477377187460661, 0.24990978837013245, -0.1323513239622116, 0.3680899441242218, -0.15161830186843872, 0.027286764234304428, -0.0328950472176075, -0.084823839366436, 0.07493700087070465, 0.2693027853965759, -0.20745527744293213, 0.08379282057285309, 0.37120288610458374, 0.15604059398174286, 0.12630145251750946], [-0.21309663355350494, 0.28579163551330566, -0.022164013236761093, 0.2527567148208618, 0.1980627179145813, -0.1094505712389946, 0.05435952916741371, 0.28715476393699646, -0.19941149652004242, -0.0965295061469078, -0.20423205196857452, 0.005907381884753704, -0.3179820477962494, 0.08038530498743057, 0.14639633893966675, -0.04258337616920471, -0.16034266352653503, 0.1992374211549759, 0.06681221723556519, 0.015339638106524944, 0.1749328225851059, 0.24127471446990967, -0.36410775780677795, -0.07518045604228973, -0.1345505565404892, 0.18547222018241882, 0.17620283365249634, 0.4426802396774292, -0.27202025055885315, 0.06443890184164047, 0.06594143807888031, 0.16548147797584534], [-0.0333731546998024, 0.19733572006225586, 0.04593044891953468, 0.17128784954547882, 0.04225289821624756, -0.01837925799190998, -0.3961631655693054, -0.1708647608757019, -0.004947131499648094, -0.23126694560050964, -0.1995617002248764, -0.006842460948973894, 0.3851165175437927, 0.08180595934391022, -0.10316524654626846, -0.15131445229053497, -0.0773044303059578, 0.1079350933432579, -0.015439818613231182, -0.04000426083803177, -0.01851896569132805, 0.1388719379901886, -0.16339465975761414, -0.09576116502285004, -0.1691811978816986, -0.026860209181904793, 0.13797122240066528, 0.05631820857524872, 0.2532137334346771, 0.2777369022369385, 0.04620358720421791, 0.27859416604042053], [-0.1144191101193428, 0.1251848340034485, 0.34711524844169617, -0.04546782001852989, -0.051589641720056534, 0.04155280441045761, -0.2875315546989441, -0.18791823089122772, 0.1914880871772766, 0.10759192705154419, -0.11743948608636856, 0.13986514508724213, 0.24562951922416687, 0.022769784554839134, 0.07176149636507034, 0.15057194232940674, 0.1334346979856491, -0.10769873112440109, 0.16237115859985352, -0.19096343219280243, -0.12813818454742432, -0.028461497277021408, -0.02279401756823063, 0.18215703964233398, -0.35512539744377136, 0.10671700537204742, -0.023126043379306793, 0.17789341509342194, -0.17836658656597137, 0.10142127424478531, -0.10941360145807266, -0.2656085193157196], [-0.21171604096889496, 0.11296289414167404, -0.29413196444511414, -0.32617712020874023, 0.24988365173339844, -0.0072921630926430225, -0.3826557993888855, 0.18585404753684998, -0.2835536599159241, 0.01216356735676527, -0.12177807092666626, -0.05677787959575653, -0.15726961195468903, -0.349506676197052, -0.11196422576904297, -0.13889403641223907, 0.2596499025821686, -0.011446659453213215, 0.09257277101278305, 0.1503787636756897, -0.08370258659124374, -0.01947842165827751, 0.09569709002971649, -0.3774425983428955, 0.17531831562519073, -0.008615732192993164, 0.36225149035453796, 0.02907383441925049, 0.09088137000799179, -0.04516568034887314, 0.4650791585445404, 0.053491152822971344], [-0.0026786543894559145, 0.2564680278301239, 0.1351378858089447, -0.3256348669528961, -0.03747892379760742, 0.13325951993465424, -0.2899211049079895, 0.22254548966884613, 0.059045515954494476, 0.0830473005771637, -0.35197004675865173, -0.16757552325725555, -0.2259453535079956, -0.06280234456062317, 0.22011259198188782, -0.15661312639713287, 0.1683923900127411, 0.13174749910831451, 0.09064620733261108, 0.03192824497818947, -0.14393199980258942, 0.10828882455825806, -0.06772798299789429, -0.2000623494386673, -0.08517367392778397, 0.06483101844787598, -0.13335222005844116, 0.24368709325790405, 0.1604219675064087, 0.29045939445495605, -0.07214266061782837, 0.27615106105804443], [0.09774532914161682, -0.057572755962610245, -0.09435189515352249, -0.06238912418484688, -0.07609134167432785, -0.01904771849513054, -0.047631364315748215, -0.14567500352859497, 0.1925143301486969, 0.08838050812482834, 0.029898712411522865, 0.11730221658945084, 0.08782601356506348, -0.135027214884758, -0.006143256090581417, 0.026426494121551514, 0.018207238987088203, -0.07600445300340652, 0.08790873736143112, -0.04335900396108627, 0.13127392530441284, -0.009234771132469177, 0.2085934728384018, 0.1472059190273285, 0.09902958571910858, -0.08183877915143967, 0.10506890714168549, -0.12179113924503326, 0.04605961963534355, 0.09253465384244919, -0.08978745341300964, -0.15357810258865356], [-0.12155693024396896, 0.16028936207294464, 0.017073893919587135, 0.013249222189188004, 0.0077066365629434586, -0.02779165282845497, -0.1275341808795929, 0.027041738852858543, 0.09516309201717377, 0.11546465754508972, 0.06815708428621292, 0.03431205824017525, 0.11932503432035446, 0.16599935293197632, -0.2749391794204712, -0.12680818140506744, -0.3866351842880249, 0.04552391171455383, -0.167092427611351, -0.03193052485585213, 0.019244011491537094, 0.11766275018453598, -0.34221121668815613, -0.18845099210739136, -0.09055572003126144, 0.22307072579860687, -0.20789878070354462, 0.09608404338359833, 0.04379883408546448, -0.3018118441104889, -0.1170325055718422, 0.01351452898234129], [0.1020440012216568, -0.05140100046992302, 0.1097211018204689, -0.14453326165676117, 0.08987507224082947, -0.012390393763780594, -0.10522773116827011, 0.07538547366857529, -0.00023281056201085448, 0.051152635365724564, 0.11257000267505646, -0.05118836462497711, -0.03539491444826126, -0.13965490460395813, -0.003853278700262308, 0.11681029200553894, -0.012188420630991459, 0.03380487114191055, 0.025891706347465515, 0.05331472307443619, 0.09349532425403595, -0.021065883338451385, 0.12467071413993835, 0.0013801739551126957, 0.04095873981714249, -0.01161131914705038, -0.009953685104846954, -0.07126634567975998, 0.00541258230805397, 0.05922575667500496, 0.1829254925251007, 0.11878961324691772], [-0.15501753985881805, 0.053887274116277695, 0.1655268520116806, 0.2837952971458435, -0.21580229699611664, -0.011660579591989517, 0.1989225596189499, 0.1857919991016388, -0.10926347970962524, 0.15999062359333038, -0.008252035826444626, -0.2166023701429367, 0.3251275420188904, 0.0713605061173439, -0.07875721156597137, -0.05124106630682945, 0.13927596807479858, 0.28067705035209656, -0.23016400635242462, 0.17228248715400696, -0.05219418182969093, 0.004550248850136995, 0.16816824674606323, 0.04409734904766083, 0.12310927361249924, -0.1355355829000473, -0.41051092743873596, -0.07274076342582703, -0.17283430695533752, -0.05152719095349312, -0.1885237693786621, -0.34174755215644836], [0.037033289670944214, -0.05938933789730072, 0.07739634811878204, 0.1999681144952774, 0.11607597023248672, -0.0392775796353817, 0.25481876730918884, 0.033112358301877975, -0.23672206699848175, 0.239181786775589, -0.17701038718223572, -0.15725108981132507, 0.12951958179473877, 0.12535607814788818, -0.09676109254360199, -0.23463106155395508, -0.23790434002876282, 0.23691421747207642, -0.12728795409202576, -0.0546579509973526, 0.18627198040485382, 0.09657689929008484, -0.1263718456029892, 0.019449371844530106, -0.08853080123662949, 0.07763245701789856, 0.04784317687153816, 0.14661625027656555, 0.0835200622677803, -0.3436525762081146, -0.01820237748324871, -0.21611186861991882], [0.00040513399289920926, -0.004023716319352388, 0.012285538949072361, 0.02200872078537941, -0.013675919733941555, 0.008621910586953163, -0.016539668664336205, 0.015419799834489822, -0.0343950055539608, -0.0013685801532119513, 0.0010169737506657839, -0.0037587012629956007, 0.006187790539115667, 0.0497262179851532, 0.025759581476449966, -0.03213063254952431, 0.003274286398664117, 0.009536615572869778, -0.002269377699121833, 0.002265455201268196, -0.00835843849927187, -2.4220360501203686e-05, 0.011234216392040253, 0.07021618634462357, 0.014525114558637142, -0.038332726806402206, -0.02647319994866848, 0.035283029079437256, -0.00871996022760868, 0.006605456583201885, -0.08654193580150604, 0.036510780453681946], [-0.044174160808324814, 0.27186131477355957, 0.021580245345830917, -0.09162890911102295, -0.32070720195770264, -0.02330712601542473, 0.032447170466184616, 0.3772647976875305, 0.04295660927891731, 0.10407704859972, -0.06957226991653442, -0.0558156780898571, -0.3815321922302246, -0.06428159028291702, 0.0404154509305954, 0.3081655502319336, 0.016927340999245644, 0.21929240226745605, -0.04339975118637085, -0.04197176545858383, 0.2353968620300293, 0.04439403861761093, 0.32224172353744507, 0.23283402621746063, -0.2241816371679306, -0.21077725291252136, -0.5418766140937805, -0.14945825934410095, -0.17287510633468628, 0.2966022193431854, 0.04516743868589401, 0.15378837287425995], [0.11326485127210617, -0.11111412942409515, -0.13671475648880005, -0.02422085590660572, 0.02441653423011303, -0.026117859408259392, 0.16271188855171204, 0.0917883813381195, 0.08586174994707108, 0.12176097184419632, 0.11266054213047028, 0.08216200023889542, -0.025243934243917465, -0.13934677839279175, -0.14835713803768158, -0.07337220013141632, 0.10402674227952957, 0.1168137788772583, -0.01930033601820469, 0.07834716141223907, -0.02316158264875412, -0.011477358639240265, 0.12182039022445679, -0.23685799539089203, -0.2030266970396042, 0.04398804157972336, 0.05105925351381302, -0.12383037060499191, -0.23702625930309296, -0.21224908530712128, 0.2347569763660431, -0.3792751133441925], [0.0031377971172332764, 0.22542224824428558, 0.004212957341223955, 0.15499213337898254, 0.2296629250049591, -0.05806293711066246, 0.2854585647583008, 0.09153813123703003, -0.49246659874916077, -0.1703319251537323, 0.02660258114337921, 0.03601618483662605, -0.010630725882947445, 0.0889521986246109, -0.12584030628204346, 0.3504435420036316, 0.044878844171762466, -0.0987267717719078, 0.025378327816724777, -0.12238845229148865, 0.17921662330627441, 0.0005140014691278338, -0.21008123457431793, -0.06009655445814133, -0.027534671127796173, 0.08326362073421478, 0.05353965610265732, -0.032111529260873795, -0.09272592514753342, -0.08682681620121002, 0.033881668001413345, -0.3323567509651184], [0.10052033513784409, -0.15446467697620392, -0.11827077716588974, 0.023700697347521782, 0.047067634761333466, 0.015556426718831062, 0.05921059474349022, -0.28295910358428955, -0.029619870707392693, 0.013207283802330494, -0.03566359356045723, -0.18075011670589447, 0.21143099665641785, -0.22120295464992523, 0.5129626393318176, 0.046045444905757904, 0.5477510690689087, -0.5102842450141907, 0.027300583198666573, 0.2847611904144287, 0.11850712448358536, -0.289541631937027, 0.29313138127326965, -0.03604218363761902, 0.17870986461639404, -0.11130142211914062, -0.16619984805583954, 0.02866687998175621, -0.020874254405498505, 0.29873043298721313, 0.1819104105234146, 0.23255392909049988], [-0.06844595819711685, 0.021667830646038055, -0.10340205579996109, -0.0024274082388728857, 0.2148655205965042, 0.008797507733106613, 0.23469823598861694, 0.05022045969963074, -0.004282183479517698, 0.18769709765911102, -0.1724853664636612, -0.049178458750247955, 0.006094123236835003, 0.07767435908317566, 0.036299269646406174, -0.0033717055339366198, -0.17503975331783295, -0.047376684844493866, -0.08763410151004791, -0.026997078210115433, -0.1237337738275528, -0.0064823622815310955, -0.13001899421215057, -0.2678649425506592, -0.22161197662353516, 0.07140588760375977, -9.256524208467454e-05, 0.19809438288211823, -0.10152192413806915, -0.1832825243473053, 0.0014903025003150105, 0.12539824843406677], [-0.12903304398059845, 0.09768176823854446, 0.15815477073192596, 0.1270090639591217, 0.1805729866027832, 0.0029159034602344036, -0.018726173788309097, -0.01458829641342163, -0.4302608072757721, 0.14621858298778534, -0.045812636613845825, -0.24385325610637665, 0.08069300651550293, 0.13814906775951385, 0.012792177498340607, -0.23895208537578583, -0.2640007734298706, 0.14188989996910095, 0.0326809361577034, -0.013837708160281181, -0.011331676505506039, 0.07366950064897537, -0.17282962799072266, 0.16045257449150085, -0.0019778311252593994, 0.03150260075926781, -0.47960829734802246, 0.22125709056854248, -0.07368680089712143, -0.029441719874739647, -0.09703344851732254, 0.025761181488633156], [0.10689353942871094, -0.2280203402042389, -0.0708652064204216, -0.1052808091044426, 0.13999953866004944, -0.018084010109305382, 0.029134012758731842, 0.18237929046154022, -0.16759870946407318, 0.3802069127559662, -0.014361696317791939, 0.07005377858877182, -0.1857052594423294, -0.05368997901678085, 0.14632254838943481, -0.022028321400284767, 0.03951509669423103, 0.20000159740447998, 0.12432693690061569, 0.0176981370896101, 0.17853593826293945, -0.08400975912809372, -0.003259765449911356, 0.22534754872322083, 0.027584385126829147, -0.1562614142894745, 0.24641677737236023, -0.12108971178531647, -0.1650991290807724, 0.14465105533599854, 0.09170936048030853, -0.23594233393669128], [0.22811871767044067, -0.13158082962036133, -0.1442481130361557, 0.0016663898713886738, 0.1492849588394165, -0.0052154758013784885, -0.06515789031982422, 0.09502790868282318, 0.16259577870368958, -0.09218282997608185, -0.00855236779898405, 0.04312324523925781, -0.07701186090707779, -0.17066165804862976, 0.07063447684049606, -0.0714397206902504, 0.19591794908046722, -0.10239880532026291, 0.06767167896032333, 0.14274545013904572, -0.07826002687215805, -0.07103853672742844, 0.3306485414505005, -0.10393453389406204, 0.15262213349342346, -0.14109860360622406, 0.1383800208568573, -0.16566190123558044, -0.008603975176811218, -0.02100374363362789, 0.22236675024032593, -0.01274041272699833], [-0.10733342915773392, 0.2117866724729538, 0.038821883499622345, -0.04631804674863815, 0.03059491701424122, 0.01134100928902626, -0.1339271515607834, -0.022075828164815903, 0.04095950722694397, 0.11415865272283554, -0.11286936700344086, -0.02795766294002533, 0.024655619636178017, 0.27784019708633423, -0.006244972813874483, -0.048943810164928436, -0.31133899092674255, 0.14924602210521698, 0.012992015108466148, -0.02958577126264572, 0.21981358528137207, 0.13262511789798737, -0.10807862132787704, -0.00693124532699585, 0.01878630928695202, 0.0693935975432396, -0.2068430781364441, 0.15987180173397064, 0.12461752444505692, 0.14444302022457123, -0.2930808365345001, 0.0808771401643753], [0.13081581890583038, -0.22659805417060852, -0.03347158804535866, -0.031911708414554596, 0.06976748257875443, 0.004913207143545151, 0.0583069771528244, -0.2853270471096039, 0.10140610486268997, -0.1268540620803833, 0.005051412153989077, 0.05345018208026886, -0.1440160870552063, -0.27055078744888306, 0.09706662595272064, 0.13979081809520721, 0.1633928120136261, -0.1811259239912033, 0.1807999610900879, 0.029111096635460854, 0.004813262261450291, -0.11649428308010101, 0.20114105939865112, 0.054653216153383255, -0.04514629766345024, -0.14709055423736572, 0.12551261484622955, -0.03869618475437164, 0.017165230587124825, 0.22343884408473969, 0.2672731280326843, 0.1286342591047287], [0.29510200023651123, -0.024141281843185425, -0.007227207999676466, -0.11632254719734192, 0.03668828681111336, -0.018907606601715088, -0.054400306195020676, -0.11660230904817581, 0.43760591745376587, -0.19361653923988342, -0.08242577314376831, -0.07364902645349503, 0.11844725906848907, -0.18750281631946564, 0.017223086208105087, -0.13914048671722412, 0.16372564435005188, -0.17722450196743011, 0.0954260602593422, 0.178203746676445, 0.1674298644065857, 0.01890989951789379, 0.127250537276268, -0.26163074374198914, -0.06240392476320267, 0.07285251468420029, -0.2317432314157486, 0.016096219420433044, 0.1056007668375969, 0.013871117495000362, 0.16131538152694702, 0.1426314413547516], [-0.023986417800188065, -0.0002782655064947903, -0.003237989963963628, -0.03457094728946686, -0.10760167241096497, -0.010402746498584747, -0.06683802604675293, -0.11851570755243301, 0.1490575075149536, -0.045511066913604736, 0.0647251233458519, -0.03026617132127285, -0.08865509927272797, -0.11475377529859543, -0.0038374869618564844, -0.21407034993171692, 0.1676514893770218, -0.059429362416267395, 0.04908844083547592, 0.09805340319871902, -0.017028281465172768, 0.03983600065112114, 0.17981377243995667, -0.0866813212633133, 0.5572823286056519, -0.09377393126487732, -0.12470065802335739, -0.3209284842014313, -0.1802164763212204, 0.1624201238155365, 0.058713048696517944, -0.14645054936408997], [0.029450276866555214, 0.07141519337892532, -0.06169600784778595, -0.03394480422139168, -0.06353092193603516, -0.027621043846011162, 0.07008028775453568, 0.06522438675165176, 0.06331557780504227, 0.005290001630783081, 0.029154779389500618, -0.045117370784282684, 0.17604497075080872, 0.0772758275270462, -0.051337163895368576, -0.05579419806599617, -0.13985563814640045, 0.008545372635126114, -0.09235438704490662, -0.07708529382944107, 0.021739313378930092, 0.09913574904203415, -0.07638802379369736, -0.09087688475847244, -0.22462986409664154, 0.13179640471935272, 0.04332495853304863, 0.1131264790892601, 0.020314950495958328, -0.12831704318523407, -0.09660454094409943, -0.17555291950702667], [0.06953638046979904, 0.012082545086741447, 0.14442050457000732, 0.08542444556951523, 0.012588649988174438, -0.017658526077866554, -0.007606786210089922, -0.17821691930294037, -0.03381885215640068, -0.08025095611810684, 0.005106754135340452, 0.05047375708818436, 0.00913641694933176, 0.027207043021917343, -0.026371346786618233, -0.06463583558797836, -0.1688217967748642, 0.09196961671113968, 0.05503382161259651, -0.027475226670503616, 0.09911494702100754, 0.040698979049921036, -0.08247125893831253, -0.1320914924144745, 0.24220958352088928, 0.05792009085416794, 0.0736931785941124, 0.08140383660793304, 0.12841546535491943, -0.07122772932052612, 0.018937639892101288, -0.0394284725189209], [-0.0686703696846962, -0.07788172364234924, 0.10633605718612671, -0.013095161877572536, 0.24998457729816437, 0.023640461266040802, -0.0149392019957304, 0.10449810326099396, -0.14383180439472198, 0.06390046328306198, -0.028305545449256897, -0.11079531162977219, -0.1400156468153, -0.23911498486995697, 0.17275387048721313, -0.063038170337677, 0.24767400324344635, 0.02392253652215004, 0.09937519580125809, 0.06528054177761078, -0.07567200809717178, -0.038497477769851685, 0.24079476296901703, 0.07632964849472046, -0.05339733138680458, -0.18114958703517914, 0.07099851220846176, -0.02554820105433464, -0.08912428468465805, 0.15164227783679962, 0.23073817789554596, -0.1115560457110405], [0.028510240837931633, 0.023060493171215057, -0.022123752161860466, -0.01982484571635723, -0.099815234541893, -0.004542125854641199, 0.14955554902553558, -0.006862979847937822, 0.10104165971279144, -0.10311194509267807, 0.030559903010725975, 0.09739642590284348, 0.07037881761789322, 0.1217585876584053, -0.06408490985631943, -0.047124624252319336, -0.029022635892033577, -0.05543751269578934, -0.08361396938562393, 0.005826853681355715, 0.018887314945459366, 0.015202305279672146, -0.07771697640419006, -0.02271864004433155, -0.11044908314943314, 0.07796232402324677, -0.10369977355003357, 0.09217263758182526, 0.01230655051767826, -0.07811710983514786, -0.10239612311124802, 0.06696092337369919], [0.1486557573080063, 0.09912615269422531, -0.14851878583431244, 0.03205379843711853, -0.03333742916584015, -0.039940085262060165, 0.03149515762925148, -0.06945393234491348, -0.07415690273046494, 0.04076245054602623, 0.11275342106819153, -0.007077196147292852, 0.05572978034615517, -0.03794078901410103, -0.1597382128238678, -0.050991952419281006, -0.14656640589237213, 0.00871793832629919, -0.0905521810054779, -0.06887451559305191, -0.08064651489257812, 0.0757736787199974, 0.06856825947761536, -0.04044777899980545, -0.13762487471103668, 0.11691609025001526, -0.17109113931655884, -0.01635138690471649, -0.06267797946929932, -0.0580080971121788, 0.027229344472289085, 0.0498972162604332], [0.27098289132118225, 0.21695129573345184, 0.09214293956756592, -0.03274096921086311, 0.06055409461259842, -0.015321354381740093, -0.03319799154996872, 0.12010965496301651, 0.27313485741615295, -0.03292127698659897, -0.1617460399866104, 0.023675350472331047, -0.024080239236354828, -0.04146084189414978, -0.04657662659883499, -0.0807960256934166, -0.15503056347370148, 0.17733824253082275, 0.07473433762788773, 0.08456187695264816, 0.20793744921684265, 0.073283351957798, -0.14187204837799072, -0.22727546095848083, -0.13392795622348785, 0.2485872209072113, 0.06680841743946075, 0.2906947135925293, 0.15979018807411194, 0.09521865099668503, 0.09712005406618118, -0.005044338759034872], [0.3220681846141815, -0.06896288692951202, -0.1167227253317833, 0.05303390324115753, -0.14781586825847626, -0.08024047315120697, 0.16633418202400208, 0.0942910686135292, 0.23853422701358795, -0.1480003446340561, -0.06790786981582642, 0.15114495158195496, -0.13135378062725067, -0.3451366126537323, -0.1570115089416504, 0.06239756569266319, 0.29914456605911255, 0.05440858006477356, 0.010667462833225727, 0.10521481931209564, 0.01949460431933403, -0.10314197838306427, 0.34215229749679565, -0.16818653047084808, 0.5884884595870972, -0.1922464370727539, -0.09177984297275543, -0.40037375688552856, 0.03906204551458359, -0.009047307074069977, 0.28792569041252136, 0.047849591821432114], [0.07822871208190918, 0.23465263843536377, 0.21920429170131683, 0.057319384068250656, -0.1155058741569519, -0.00479542650282383, -0.1483091413974762, -0.0786479189991951, 0.10225840657949448, 0.0977763757109642, 0.028699753805994987, -0.1806519478559494, 0.0560021847486496, 0.14178848266601562, -0.18906967341899872, -0.37605929374694824, -0.2687450647354126, 0.30950427055358887, -0.03972156345844269, -0.10629788041114807, 0.21689017117023468, 0.10559993982315063, -0.17159678041934967, -0.09396880865097046, 0.22784943878650665, 0.14539550244808197, -0.40788698196411133, 0.05996467545628548, 0.06333707273006439, 0.1548035591840744, -0.20190775394439697, -0.04097067192196846], [-0.015839481726288795, 0.12600508332252502, -0.0319211445748806, -0.06202799454331398, -0.1851395070552826, -0.029390158131718636, 0.05695644021034241, 0.061648640781641006, -0.07950557768344879, 0.0664445012807846, 0.053911756724119186, -0.05928122252225876, 0.21849487721920013, 0.008417696692049503, -0.22532156109809875, -0.5013291239738464, -0.15484164655208588, 0.20127105712890625, -0.1611996591091156, 0.06865843385457993, 0.021146051585674286, 0.13817091286182404, -0.18483221530914307, -0.17756114900112152, 0.1443747878074646, 0.13603328168392181, -0.09653197973966599, 0.03658369556069374, 0.20748035609722137, -0.4369667172431946, 0.08415716141462326, -0.1985829621553421], [0.15280647575855255, 0.23249849677085876, -0.03336792439222336, -0.03243473172187805, -0.00069127680035308, -0.062253523617982864, 0.16804473102092743, -0.15557625889778137, -0.010919132269918919, 0.010930875316262245, -0.2002459615468979, 0.013196513056755066, -0.2466353476047516, 0.057368021458387375, -0.10500454902648926, 0.11971298605203629, -0.11263906210660934, -0.03417016193270683, 0.06733100861310959, -0.09307926148176193, 0.09506365656852722, 0.10368826240301132, -0.09431317448616028, -0.08151530474424362, 0.4174777567386627, 0.10698964446783066, -0.029551859945058823, 0.14792782068252563, -0.15469574928283691, 0.05373983085155487, 0.023665614426136017, 0.234784334897995], [0.1023242324590683, -0.08178999274969101, 0.08133693039417267, 0.20987123250961304, -0.005199369974434376, -0.03179095312952995, 0.18997299671173096, -0.35673320293426514, -0.35114631056785583, -0.26683634519577026, -0.019709236919879913, -0.08713804185390472, -0.12028221786022186, 0.004953040741384029, 0.11374294757843018, 0.25916561484336853, 0.1074535921216011, -0.26929396390914917, -0.06925337016582489, -0.08495792746543884, 0.07971808314323425, -0.05620517209172249, 0.031206609681248665, 0.2168532907962799, -0.07378526777029037, -0.05219360440969467, -0.2200872302055359, 0.051715198904275894, -0.04252441227436066, 0.227725088596344, 0.0016208899905905128, 0.05845809355378151], [0.25925543904304504, -0.022014716640114784, -0.034958574920892715, -0.037176597863435745, -0.10399677604436874, -0.033239807933568954, -0.3373917043209076, -0.3725169003009796, 0.12081507593393326, -0.09110462665557861, 0.2873041033744812, 0.21488234400749207, -0.14405983686447144, -0.1264428049325943, -0.09719610959291458, 0.009842480532824993, -0.10757599771022797, 0.07559003680944443, 0.15198975801467896, -0.09738106280565262, 0.06516134738922119, -0.04741509631276131, -0.08489144593477249, 0.007904884405434132, 0.009451961144804955, 0.0920981913805008, 0.3939432203769684, -0.18921692669391632, 0.1729261577129364, 0.20310120284557343, -0.032700005918741226, 0.13543054461479187], [0.12881167232990265, -0.049635205417871475, -0.05599294230341911, -0.12482079118490219, 0.34946444630622864, -0.019742362201213837, -0.07380915433168411, 0.045817337930202484, 0.09015579521656036, 0.16594074666500092, -0.10831494629383087, -0.07351148873567581, -0.03828151524066925, -0.26586049795150757, -0.014182765036821365, 0.010723098181188107, 0.230923593044281, -0.11328191310167313, 0.20720162987709045, 0.16563209891319275, 0.0014198527205735445, -0.058122310787439346, 0.14933495223522186, -0.25212302803993225, 0.04279293864965439, 0.08358738571405411, 0.1555599719285965, 0.017264720052480698, 0.019439391791820526, 0.16063836216926575, 0.546201765537262, -0.10541843622922897], [0.24776609241962433, -0.09596969932317734, -0.15239404141902924, 0.010346412658691406, -0.03716226667165756, 0.0027591646648943424, -0.1320946365594864, -0.06949125230312347, -0.05036238208413124, -0.09702667593955994, 0.09977602958679199, -0.12765538692474365, -0.043081339448690414, -0.3271965980529785, 0.06907414644956589, -0.17273925244808197, 0.3553653061389923, -0.0804808959364891, 0.07954583317041397, 0.18641649186611176, 0.07684706896543503, -0.07807320356369019, 0.22025029361248016, 0.09180336445569992, -0.020925449207425117, -0.24430972337722778, -0.11661026626825333, -0.24422383308410645, 0.03869849070906639, 0.22001688182353973, 0.31671610474586487, 0.314591646194458]], "lstm.bias_ih_l0": [-0.029575541615486145, -0.13181012868881226, 0.026866920292377472, -0.2794226109981537, -0.19591933488845825, -0.06303521990776062, -0.6286324262619019, 0.176927849650383, -0.29511764645576477, -0.07647762447595596, -0.44564494490623474, -0.12130895256996155, -0.2409707009792328, 0.014602055773139, 0.013337484560906887, 0.1822361946105957, -0.0020781955681741238, -0.12121982127428055, 0.02054484561085701, 0.010686210356652737, -0.10276002436876297, -0.09518652409315109, -0.031460240483284, -0.02529812604188919, -0.9737592935562134, -0.13477234542369843, -0.39090976119041443, -0.24531711637973785, -0.15085050463676453, 0.3719080090522766, 0.21341794729232788, -0.47868797183036804, 0.2972370684146881, 0.2534204125404358, 0.3552995026111603, 0.39635229110717773, 0.6690837740898132, -0.034969959408044815, 1.2379525899887085, 0.25333282351493835, 0.44490066170692444, 0.7042232155799866, 0.3316241502761841, 0.29231104254722595, 0.28487300872802734, 0.42014700174331665, 0.5333234071731567, 0.28896430134773254, 0.3504103124141693, 0.41820111870765686, 0.17638954520225525, 0.10533487051725388, 0.22156955301761627, 0.040050849318504333, 0.486742228269577, 0.31356096267700195, 1.0507054328918457, 0.23024040460586548, 0.7075826525688171, 0.6062836050987244, 0.17040349543094635, 0.26597774028778076, 0.4013116657733917, 0.7606078386306763, 0.17862212657928467, -0.016721399500966072, -0.16438670456409454, -0.12403948605060577, 0.08036062866449356, -0.027481619268655777, -0.0787300243973732, -0.18926727771759033, 0.15687334537506104, -0.091001957654953, 0.1023554801940918, -0.07535046339035034, -0.056685175746679306, -0.13673362135887146, -0.08544759452342987, -0.07877185195684433, -0.05382023751735687, -0.12825335562229156, -0.023157229647040367, 0.16196493804454803, 0.17371661961078644, 0.10006747394800186, 0.09383798390626907, -0.12508417665958405, -0.12910696864128113, -0.015640772879123688, 0.03175673633813858, 0.009966189973056316, 0.1209346279501915, 0.03967658802866936, 0.025325627997517586, -0.1185774877667427, 0.004153045359998941, 0.009934443049132824, 0.15851996839046478, 0.08221657574176788, 0.03884543478488922, -0.09345705062150955, 0.20151743292808533, 0.22857646644115448, 0.11558571457862854, -0.04960047826170921, -0.025231976062059402, -0.03390403836965561, -0.08633739501237869, 0.27941784262657166, 0.023920578882098198, 0.30747395753860474, 0.12422198802232742, -0.04944859817624092, -0.13469503819942474, -0.04318493977189064, 0.2115495800971985, -0.13262838125228882, 0.08391613513231277, 0.2504022419452667, 0.28499388694763184, -0.01515160221606493, 0.051310911774635315, 0.15182790160179138, -0.09938959032297134, 0.3621225357055664, 0.3789898157119751, 0.19800585508346558], "lstm.bias_hh_l0": [-0.0723465159535408, -0.18607604503631592, -0.06576886028051376, -0.31327587366104126, -0.12810759246349335, -0.06984073668718338, -0.5882980227470398, 0.19532014429569244, -0.2951936721801758, -0.18279415369033813, -0.4553259611129761, -0.12314227223396301, -0.24845045804977417, -0.027469759806990623, -0.029680632054805756, 0.10802488774061203, -0.09061019122600555, -0.18001660704612732, 0.10660692304372787, 0.06607871502637863, -0.10157322883605957, -0.0938929095864296, 0.060020316392183304, 0.09228051453828812, -0.8827982544898987, -0.02616901881992817, -0.40251168608665466, -0.2732134461402893, -0.208511084318161, 0.32003018260002136, 0.1989661157131195, -0.4405518174171448, 0.3086490035057068, 0.16764754056930542, 0.3072718381881714, 0.42904651165008545, 0.5430518388748169, -0.04925282672047615, 1.1373176574707031, 0.25289028882980347, 0.42858657240867615, 0.6721934080123901, 0.4310908317565918, 0.2771415710449219, 0.28641271591186523, 0.27381354570388794, 0.5078355669975281, 0.31782883405685425, 0.5359285473823547, 0.2691701650619507, 0.2515556216239929, -0.02174917794764042, 0.22250443696975708, -0.011232014745473862, 0.6938357353210449, 0.43147748708724976, 0.9559186697006226, 0.34159207344055176, 0.7145251631736755, 0.7222875952720642, 0.17559108138084412, 0.38453903794288635, 0.3960951864719391, 0.7610474824905396, 0.18932875990867615, 0.133060023188591, 0.017886918038129807, -0.05218181386590004, 0.154974102973938, -0.04761545732617378, 0.04680689424276352, -0.025626372545957565, 0.021912673488259315, -0.08794073760509491, 0.1204761192202568, 0.041935816407203674, 0.015643617138266563, -0.1677239090204239, -0.10315696150064468, -0.10230067372322083, 0.013238802552223206, 0.12637652456760406, 0.10516797006130219, 0.06285995990037918, 0.021415313705801964, -0.09659726917743683, -0.022097336128354073, -0.05733721703290939, -0.024464121088385582, 0.07459121197462082, 0.07387811690568924, -0.16584287583827972, -0.025934580713510513, 0.15429839491844177, 0.012970036827027798, -0.08753007650375366, -0.024312393739819527, -0.0318748913705349, 0.09356126189231873, 0.05997229740023613, -0.017952412366867065, -0.08980433642864227, 0.29760485887527466, 0.19087064266204834, 0.1309349238872528, 0.11440578103065491, -0.01100863516330719, -0.03656499832868576, -0.054046809673309326, 0.17998583614826202, 0.17696411907672882, 0.3236601650714874, 0.09861384332180023, 0.0049276286736130714, -0.026706213131546974, -0.11656343191862106, 0.20989874005317688, -0.09761836379766464, 0.08159057796001434, 0.18769483268260956, 0.11537553369998932, 0.1651858240365982, 0.07848954945802689, 0.07158935070037842, -0.08631090074777603, 0.3161958158016205, 0.5522826910018921, 0.2672834098339081], "dense.weight": [[0.007744118105620146, -0.029228832572698593, 0.17475266754627228, 0.4844342768192291, 0.0019060937920585275, 0.009923514910042286, 0.18288525938987732, 0.06704213470220566, -0.0007051072898320854, -0.6093767285346985, -0.24612081050872803, -0.009531157091259956, 0.2960495352745056, -0.07705524563789368, 0.11378562450408936, 0.046721745282411575, 0.2292875498533249, -0.12392614781856537, 0.17055371403694153, 0.10244830697774887, 0.2172216922044754, 0.008710240945219994, -0.006774951238185167, 0.003009738866239786, 0.10192151367664337, -0.37171998620033264, -0.07918984442949295, -0.013586858287453651, 0.4538823664188385, 0.017946608364582062, -0.053678881376981735, -0.18880552053451538]], "dense.bias": [-0.03762974217534065]}